{"learner":{"attributes":{"best_iteration":"299","best_ntree_limit":"300","scikit_learn":"{\"n_estimators\": 300, \"objective\": \"reg:squarederror\", \"max_depth\": 3, \"max_leaves\": null, \"max_bin\": null, \"grow_policy\": null, \"learning_rate\": 0.1, \"verbosity\": null, \"booster\": null, \"tree_method\": null, \"gamma\": 0.1, \"min_child_weight\": 7, \"max_delta_step\": null, \"subsample\": 0.8, \"sampling_method\": null, \"colsample_bytree\": 1.0, \"colsample_bylevel\": null, \"colsample_bynode\": null, \"reg_alpha\": 0.5, \"reg_lambda\": 1.0, \"scale_pos_weight\": 10, \"base_score\": null, \"missing\": NaN, \"num_parallel_tree\": null, \"random_state\": null, \"n_jobs\": null, \"monotone_constraints\": null, \"interaction_constraints\": null, \"importance_type\": null, \"gpu_id\": null, \"validate_parameters\": null, \"predictor\": null, \"enable_categorical\": false, \"feature_types\": null, \"max_cat_to_onehot\": null, \"max_cat_threshold\": null, \"eval_metric\": null, \"early_stopping_rounds\": null, \"callbacks\": null, \"kwargs\": {\"seed\": 42}, \"_estimator_type\": \"regressor\"}"},"feature_names":["day_of_month","month","quarter","day_of_week","week_of_month","year","Close_lag_1","Close_lag_2","Close_MA_3"],"feature_types":["int","int","int","int","int","int","float","float","float"],"gradient_booster":{"model":{"gbtree_model_param":{"num_parallel_tree":"1","num_trees":"300","size_leaf_vector":"0"},"tree_info":[0,0,0,0,0,0,0,0,0,0,0,0,0,0,0,0,0,0,0,0,0,0,0,0,0,0,0,0,0,0,0,0,0,0,0,0,0,0,0,0,0,0,0,0,0,0,0,0,0,0,0,0,0,0,0,0,0,0,0,0,0,0,0,0,0,0,0,0,0,0,0,0,0,0,0,0,0,0,0,0,0,0,0,0,0,0,0,0,0,0,0,0,0,0,0,0,0,0,0,0,0,0,0,0,0,0,0,0,0,0,0,0,0,0,0,0,0,0,0,0,0,0,0,0,0,0,0,0,0,0,0,0,0,0,0,0,0,0,0,0,0,0,0,0,0,0,0,0,0,0,0,0,0,0,0,0,0,0,0,0,0,0,0,0,0,0,0,0,0,0,0,0,0,0,0,0,0,0,0,0,0,0,0,0,0,0,0,0,0,0,0,0,0,0,0,0,0,0,0,0,0,0,0,0,0,0,0,0,0,0,0,0,0,0,0,0,0,0,0,0,0,0,0,0,0,0,0,0,0,0,0,0,0,0,0,0,0,0,0,0,0,0,0,0,0,0,0,0,0,0,0,0,0,0,0,0,0,0,0,0,0,0,0,0,0,0,0,0,0,0,0,0,0,0,0,0,0,0,0,0,0,0,0,0,0,0,0,0,0,0,0,0,0,0,0,0,0,0,0,0],"trees":[{"base_weights":[2.2200848E1,1.4305377E1,3.493059E1,9.032008E0,1.628725E1,3.2972195E1,3.9544086E1,7.075818E0,9.998796E0,1.4783921E1,1.8829117E1,3.103563E1,3.412569E1],"categories":[],"categories_nodes":[],"categories_segments":[],"categories_sizes":[],"default_left":[1,1,1,1,1,1,0,0,0,0,0,0,0],"id":0,"left_children":[1,3,5,7,9,11,-1,-1,-1,-1,-1,-1,-1],"loss_changes":[2.8873562E5,1.8422375E4,8.6075E3,8.436289E2,4.6380312E3,6.484375E2,0E0,0E0,0E0,0E0,0E0,0E0,0E0],"parents":[2147483647,0,0,1,1,2,2,3,3,4,4,5,5],"right_children":[2,4,6,8,10,12,-1,-1,-1,-1,-1,-1,-1],"split_conditions":[2.5240002E1,1.3165E1,3.683E1,9.008333E0,1.7305E1,3.3035E1,3.9544086E0,7.075818E-1,9.9987966E-1,1.4783921E0,1.8829117E0,3.103563E0,3.412569E0],"split_indices":[6,6,8,8,6,6,0,0,0,0,0,0,0],"split_type":[0,0,0,0,0,0,0,0,0,0,0,0,0],"sum_hessian":[2.877E3,1.777E3,1.1E3,4.87E2,1.29E3,7.78E2,3.22E2,1.64E2,3.23E2,8.15E2,4.75E2,3.01E2,4.77E2],"tree_param":{"num_deleted":"0","num_feature":"9","num_nodes":"13","size_leaf_vector":"0"}},{"base_weights":[1.9879011E1,1.2772723E1,3.137156E1,7.8042326E0,1.4504715E1,2.92924E1,3.5074314E1,6.2873416E0,8.580154E0,1.29904995E1,1.65617E1,2.2485464E1,2.9639496E1],"categories":[],"categories_nodes":[],"categories_segments":[],"categories_sizes":[],"default_left":[1,1,1,1,1,1,0,0,0,0,0,0,0],"id":1,"left_children":[1,3,5,7,9,11,-1,-1,-1,-1,-1,-1,-1],"loss_changes":[2.3698988E5,1.5348125E4,7.485875E3,4.8827344E2,3.918875E3,1.0015625E3,0E0,0E0,0E0,0E0,0E0,0E0,0E0],"parents":[2147483647,0,0,1,1,2,2,3,3,4,4,5,5],"right_children":[2,4,6,8,10,12,-1,-1,-1,-1,-1,-1,-1],"split_conditions":[2.4095001E1,1.255E1,3.6058334E1,8.645E0,1.6775002E1,2.916E1,3.5074315E0,6.287342E-1,8.580155E-1,1.29905E0,1.6561701E0,2.2485464E0,2.9639497E0],"split_indices":[6,6,8,6,6,6,0,0,0,0,0,0,0],"split_type":[0,0,0,0,0,0,0,0,0,0,0,0,0],"sum_hessian":[2.906E3,1.797E3,1.109E3,4.66E2,1.331E3,7.16E2,3.93E2,1.61E2,3.05E2,7.71E2,5.6E2,3.8E1,6.78E2],"tree_param":{"num_deleted":"0","num_feature":"9","num_nodes":"13","size_leaf_vector":"0"}},{"base_weights":[1.7882944E1,1.1520944E1,2.8219679E1,7.493477E0,1.3211768E1,2.6700232E1,3.2487366E1,6.6668105E0,9.559215E0,1.2205681E1,1.5611695E1,2.2549273E1,2.7221651E1],"categories":[],"categories_nodes":[],"categories_segments":[],"categories_sizes":[],"default_left":[1,1,1,1,1,1,0,0,0,0,0,0,0],"id":2,"left_children":[1,3,5,7,9,11,-1,-1,-1,-1,-1,-1,-1],"loss_changes":[1.9154944E5,1.2202656E4,6.3073125E3,8.4517773E2,2.8668125E3,1.1469375E3,0E0,0E0,0E0,0E0,0E0,0E0,0E0],"parents":[2147483647,0,0,1,1,2,2,3,3,4,4,5,5],"right_children":[2,4,6,8,10,12,-1,-1,-1,-1,-1,-1,-1],"split_conditions":[2.3775002E1,1.3565001E1,3.7620003E1,1.0401667E1,1.7935001E1,3.141E1,3.2487366E0,6.6668105E-1,9.559215E-1,1.2205681E0,1.5611695E0,2.2549274E0,2.722165E0],"split_indices":[8,6,6,8,6,6,0,0,0,0,0,0,0],"split_type":[0,0,0,0,0,0,0,0,0,0,0,0,0],"sum_hessian":[2.917E3,1.807E3,1.11E3,5.36E2,1.271E3,8.24E2,2.86E2,3.86E2,1.5E2,9E2,3.71E2,9.7E1,7.27E2],"tree_param":{"num_deleted":"0","num_feature":"9","num_nodes":"13","size_leaf_vector":"0"}},{"base_weights":[1.612476E1,1.045789E1,2.560855E1,7.0301657E0,1.2162635E1,2.4345152E1,2.9493055E1,5.9753904E0,8.893738E0,1.1169606E1,1.4398981E1,2.3038057E1,2.5616718E1],"categories":[],"categories_nodes":[],"categories_segments":[],"categories_sizes":[],"default_left":[1,1,1,1,1,1,0,0,0,0,0,0,0],"id":3,"left_children":[1,3,5,7,9,11,-1,-1,-1,-1,-1,-1,-1],"loss_changes":[1.5428019E5,1.0434703E4,4.5308125E3,1.1207793E3,2.4957344E3,7.4340625E2,0E0,0E0,0E0,0E0,0E0,0E0,0E0],"parents":[2147483647,0,0,1,1,2,2,3,3,4,4,5,5],"right_children":[2,4,6,8,10,12,-1,-1,-1,-1,-1,-1,-1],"split_conditions":[2.0185E3,1.41E1,3.828E1,1.0665E1,1.8404999E1,3.3895E1,2.9493055E0,5.9753907E-1,8.893738E-1,1.1169606E0,1.4398981E0,2.3038058E0,2.561672E0],"split_indices":[5,6,6,6,6,6,0,0,0,0,0,0,0],"split_type":[0,0,0,0,0,0,0,0,0,0,0,0,0],"sum_hessian":[2.875E3,1.801E3,1.074E3,6E2,1.201E3,8.16E2,2.58E2,3.86E2,2.14E2,8.36E2,3.65E2,4.12E2,4.04E2],"tree_param":{"num_deleted":"0","num_feature":"9","num_nodes":"13","size_leaf_vector":"0"}},{"base_weights":[1.457044E1,9.30598E0,2.2895514E1,6.221936E0,1.0723066E1,2.1001984E1,2.5348259E1,5.339559E0,7.7854295E0,9.427991E0,1.1964181E1,1.6664589E1,2.1349586E1,2.4115744E1,2.7492603E1],"categories":[],"categories_nodes":[],"categories_segments":[],"categories_sizes":[],"default_left":[1,1,1,1,1,1,1,0,0,0,0,0,0,0,0],"id":4,"left_children":[1,3,5,7,9,11,13,-1,-1,-1,-1,-1,-1,-1,-1],"loss_changes":[1.26562375E5,7.677828E3,4.6461875E3,7.2581836E2,1.8278125E3,5.87125E2,5.876875E2,0E0,0E0,0E0,0E0,0E0,0E0,0E0,0E0],"parents":[2147483647,0,0,1,1,2,2,3,3,4,4,5,5,6,6],"right_children":[2,4,6,8,10,12,14,-1,-1,-1,-1,-1,-1,-1,-1],"split_conditions":[2.2935001E1,1.3780001E1,3.5335E1,1.0255E1,1.6295E1,2.976E1,3.997E1,5.3395593E-1,7.7854294E-1,9.427991E-1,1.1964182E0,1.666459E0,2.1349587E0,2.4115744E0,2.7492604E0],"split_indices":[6,6,6,8,6,6,6,0,0,0,0,0,0,0,0],"split_type":[0,0,0,0,0,0,0,0,0,0,0,0,0,0,0],"sum_hessian":[2.892E3,1.773E3,1.119E3,5.6E2,1.213E3,6.37E2,4.82E2,3.61E2,1.99E2,5.98E2,6.15E2,5.1E1,5.86E2,3.14E2,1.68E2],"tree_param":{"num_deleted":"0","num_feature":"9","num_nodes":"15","size_leaf_vector":"0"}},{"base_weights":[1.3050309E1,8.353511E0,2.0513157E1,5.0776796E0,9.433837E0,1.8700117E1,2.252985E1,3.77682E0,5.621305E0,8.224821E0,1.061886E1,1.471859E1,1.89931E1,2.1282944E1,2.428107E1],"categories":[],"categories_nodes":[],"categories_segments":[],"categories_sizes":[],"default_left":[1,1,1,1,1,1,1,0,0,0,0,0,0,0,0],"id":5,"left_children":[1,3,5,7,9,11,13,-1,-1,-1,-1,-1,-1,-1,-1],"loss_changes":[1.00517125E5,6.191117E3,3.6129375E3,2.852295E2,1.8030156E3,3.9184375E2,5.9590625E2,0E0,0E0,0E0,0E0,0E0,0E0,0E0,0E0],"parents":[2147483647,0,0,1,1,2,2,3,3,4,4,5,5,6,6],"right_children":[2,4,6,8,10,12,14,-1,-1,-1,-1,-1,-1,-1,-1],"split_conditions":[2.2175E1,1.2200001E1,3.4864998E1,8.275E0,1.6064999E1,2.8855E1,3.9215E1,3.77682E-1,5.621305E-1,8.224821E-1,1.0618861E0,1.471859E0,1.89931E0,2.1282945E0,2.428107E0],"split_indices":[6,6,6,6,6,7,6,0,0,0,0,0,0,0,0],"split_type":[0,0,0,0,0,0,0,0,0,0,0,0,0,0,0],"sum_hessian":[2.872E3,1.764E3,1.108E3,4.39E2,1.325E3,5.89E2,5.19E2,1.32E2,3.07E2,6.6E2,6.65E2,4.4E1,5.45E2,3.11E2,2.08E2],"tree_param":{"num_deleted":"0","num_feature":"9","num_nodes":"15","size_leaf_vector":"0"}},{"base_weights":[1.1853226E1,7.5638037E0,1.8507837E1,5.357813E0,8.930418E0,1.690344E1,2.0348557E1,4.39899E0,6.664305E0,8.280661E0,1.0539869E1,1.3966146E1,1.726689E1,1.951509E1,2.2514263E1],"categories":[],"categories_nodes":[],"categories_segments":[],"categories_sizes":[],"default_left":[1,1,1,1,1,1,1,0,0,0,0,0,0,0,0],"id":6,"left_children":[1,3,5,7,9,11,13,-1,-1,-1,-1,-1,-1,-1,-1],"loss_changes":[8.1541125E4,5.1966875E3,2.948E3,8.032051E2,1.0264531E3,3.8909375E2,4.728125E2,0E0,0E0,0E0,0E0,0E0,0E0,0E0,0E0],"parents":[2147483647,0,0,1,1,2,2,3,3,4,4,5,5,6,6],"right_children":[2,4,6,8,10,12,14,-1,-1,-1,-1,-1,-1,-1,-1],"split_conditions":[2.219E1,1.4465E1,3.4988335E1,1.0965E1,1.8595001E1,3.0474998E1,4.0375E1,4.3989903E-1,6.6643053E-1,8.2806605E-1,1.0539869E0,1.3966147E0,1.726689E0,1.9515091E0,2.2514265E0],"split_indices":[7,6,8,6,6,6,6,0,0,0,0,0,0,0,0],"split_type":[0,0,0,0,0,0,0,0,0,0,0,0,0,0,0],"sum_hessian":[2.861E3,1.741E3,1.12E3,6.68E2,1.073E3,6.04E2,5.16E2,3.88E2,2.8E2,7.69E2,3.04E2,7.1E1,5.33E2,3.8E2,1.36E2],"tree_param":{"num_deleted":"0","num_feature":"9","num_nodes":"15","size_leaf_vector":"0"}},{"base_weights":[1.0549733E1,6.765824E0,1.6691505E1,5.141673E0,8.265832E0,1.5640281E1,1.909409E1,3.9564888E0,6.2212005E0,7.8095493E0,9.76397E0,1.4119129E1,1.6344627E1,1.8218206E1,2.0659765E1],"categories":[],"categories_nodes":[],"categories_segments":[],"categories_sizes":[],"default_left":[1,1,1,1,1,1,1,0,0,0,0,0,0,0,0],"id":7,"left_children":[1,3,5,7,9,11,13,-1,-1,-1,-1,-1,-1,-1,-1],"loss_changes":[6.6550625E4,4.28E3,2.4445312E3,1.0654941E3,5.4521875E2,5.747031E2,5.3992188E1,0E0,0E0,0E0,0E0,0E0,0E0,0E0,0E0],"parents":[2147483647,0,0,1,1,2,2,3,3,4,4,5,5,6,6],"right_children":[2,4,6,8,10,12,14,-1,-1,-1,-1,-1,-1,-1,-1],"split_conditions":[2.2175E1,1.4945E1,3.6809998E1,1.126E1,1.918E1,3.2575E1,4.1129997E1,3.956489E-1,6.221201E-1,7.8095496E-1,9.7639704E-1,1.4119129E0,1.6344627E0,1.8218206E0,2.0659766E0],"split_indices":[7,6,6,6,6,6,6,0,0,0,0,0,0,0,0],"split_type":[0,0,0,0,0,0,0,0,0,0,0,0,0,0,0],"sum_hessian":[2.868E3,1.776E3,1.092E3,8.55E2,9.21E2,7.65E2,3.27E2,4.1E2,4.45E2,7.11E2,2.1E2,2.49E2,5.16E2,2.18E2,1.09E2],"tree_param":{"num_deleted":"0","num_feature":"9","num_nodes":"15","size_leaf_vector":"0"}},{"base_weights":[9.494939E0,6.166439E0,1.5179807E1,4.6886125E0,7.65822E0,1.4383253E1,1.7604538E1,3.2598162E0,5.421717E0,7.167366E0,9.222392E0,1.3406084E1,1.5143744E1],"categories":[],"categories_nodes":[],"categories_segments":[],"categories_sizes":[],"default_left":[1,1,1,1,1,1,0,0,0,0,0,0,0],"id":8,"left_children":[1,3,5,7,9,11,-1,-1,-1,-1,-1,-1,-1],"loss_changes":[5.4145344E4,3.9482344E3,1.7742344E3,9.332676E2,6.159336E2,3.7870312E2,0E0,0E0,0E0,0E0,0E0,0E0,0E0],"parents":[2147483647,0,0,1,1,2,2,3,3,4,4,5,5],"right_children":[2,4,6,8,10,12,-1,-1,-1,-1,-1,-1,-1],"split_conditions":[2.669E1,1.5145E1,3.841E1,9.895E0,1.9485E1,3.3545E1,1.7604538E0,3.2598162E-1,5.421717E-1,7.167366E-1,9.2223924E-1,1.3406085E0,1.5143745E0],"split_indices":[6,6,6,6,6,6,0,0,0,0,0,0,0],"split_type":[0,0,0,0,0,0,0,0,0,0,0,0,0],"sum_hessian":[2.866E3,1.809E3,1.057E3,9.11E2,8.98E2,8.01E2,2.56E2,3.11E2,6E2,6.88E2,2.1E2,3.59E2,4.42E2],"tree_param":{"num_deleted":"0","num_feature":"9","num_nodes":"13","size_leaf_vector":"0"}},{"base_weights":[8.654858E0,5.5814276E0,1.3650639E1,4.326946E0,6.939941E0,1.2919761E1,1.58261795E1,3.210267E0,5.156461E0,6.555446E0,8.421579E0,1.2098651E1,1.3652374E1],"categories":[],"categories_nodes":[],"categories_segments":[],"categories_sizes":[],"default_left":[1,1,1,1,1,1,0,0,0,0,0,0,0],"id":9,"left_children":[1,3,5,7,9,11,-1,-1,-1,-1,-1,-1,-1],"loss_changes":[4.4287797E4,3.0166133E3,1.5302344E3,8.444297E2,4.2608984E2,3.2064062E2,0E0,0E0,0E0,0E0,0E0,0E0,0E0],"parents":[2147483647,0,0,1,1,2,2,3,3,4,4,5,5],"right_children":[2,4,6,8,10,12,-1,-1,-1,-1,-1,-1,-1],"split_conditions":[2.6105E1,1.535E1,3.8025E1,1.152E1,1.974E1,3.3725E1,1.582618E0,3.210267E-1,5.156461E-1,6.5554464E-1,8.4215796E-1,1.2098651E0,1.3652375E0],"split_indices":[6,6,6,6,6,6,0,0,0,0,0,0,0],"split_type":[0,0,0,0,0,0,0,0,0,0,0,0,0],"sum_hessian":[2.889E3,1.79E3,1.099E3,9.33E2,8.57E2,8.28E2,2.71E2,4E2,5.33E2,6.85E2,1.72E2,3.99E2,4.29E2],"tree_param":{"num_deleted":"0","num_feature":"9","num_nodes":"13","size_leaf_vector":"0"}},{"base_weights":[7.7377725E0,4.950819E0,1.2159515E1,3.4359949E0,5.8270135E0,1.1090711E1,1.3446253E1,2.1610973E0,3.9277756E0,5.284832E0,6.7284794E0,9.587243E0,1.1469024E1,1.2928644E1,1.543776E1],"categories":[],"categories_nodes":[],"categories_segments":[],"categories_sizes":[],"default_left":[1,1,1,1,1,1,1,0,0,0,0,0,0,0,0],"id":10,"left_children":[1,3,5,7,9,11,13,-1,-1,-1,-1,-1,-1,-1,-1],"loss_changes":[3.5495984E4,2.327293E3,1.3720312E3,3.9725146E2,5.0632812E2,2.293125E2,3.0266406E2,0E0,0E0,0E0,0E0,0E0,0E0,0E0,0E0],"parents":[2147483647,0,0,1,1,2,2,3,3,4,4,5,5,6,6],"right_children":[2,4,6,8,10,12,14,-1,-1,-1,-1,-1,-1,-1,-1],"split_conditions":[2.157E1,1.4315001E1,3.5155E1,9.195E0,1.7625E1,3.1775002E1,4.1300003E1,2.1610974E-1,3.9277756E-1,5.284832E-1,6.728479E-1,9.587243E-1,1.1469024E0,1.2928644E0,1.543776E0],"split_indices":[6,6,6,6,6,6,6,0,0,0,0,0,0,0,0],"split_type":[0,0,0,0,0,0,0,0,0,0,0,0,0,0,0],"sum_hessian":[2.885E3,1.771E3,1.114E3,6.51E2,1.12E3,6.14E2,5E2,1.83E2,4.68E2,7.04E2,4.16E2,1.29E2,4.85E2,4.03E2,9.7E1],"tree_param":{"num_deleted":"0","num_feature":"9","num_nodes":"15","size_leaf_vector":"0"}},{"base_weights":[6.936779E0,4.501737E0,1.1033418E1,3.5011451E0,5.7014594E0,1.0491084E1,1.2906526E1,2.5555756E0,4.179029E0,5.380185E0,7.0405154E0,9.700245E0,1.0999301E1],"categories":[],"categories_nodes":[],"categories_segments":[],"categories_sizes":[],"default_left":[1,1,1,1,1,1,0,0,0,0,0,0,0],"id":11,"left_children":[1,3,5,7,9,11,-1,-1,-1,-1,-1,-1,-1],"loss_changes":[2.8272953E4,2.1158086E3,9.276797E2,6.1091504E2,3.039453E2,2.1492969E2,0E0,0E0,0E0,0E0,0E0,0E0,0E0],"parents":[2147483647,0,0,1,1,2,2,3,3,4,4,5,5],"right_children":[2,4,6,8,10,12,-1,-1,-1,-1,-1,-1,-1],"split_conditions":[2.7035E1,1.5555E1,3.8735E1,1.143E1,1.9965E1,3.3285E1,1.2906526E0,2.5555757E-1,4.1790292E-1,5.380185E-1,7.0405155E-1,9.700245E-1,1.0999302E0],"split_indices":[7,6,6,6,6,6,0,0,0,0,0,0,0],"split_type":[0,0,0,0,0,0,0,0,0,0,0,0,0],"sum_hessian":[2.839E3,1.782E3,1.057E3,9.74E2,8.08E2,8.25E2,2.32E2,4.09E2,5.65E2,6.56E2,1.52E2,3.31E2,4.94E2],"tree_param":{"num_deleted":"0","num_feature":"9","num_nodes":"13","size_leaf_vector":"0"}},{"base_weights":[6.2729807E0,3.990122E0,9.81898E0,2.4690394E0,4.558496E0,8.737041E0,1.0728847E1,1.4222353E0,2.8372407E0,4.0571547E0,5.3408628E0,7.2372904E0,8.980255E0,1.0325613E1,1.24916935E1],"categories":[],"categories_nodes":[],"categories_segments":[],"categories_sizes":[],"default_left":[1,1,1,1,1,1,1,0,0,0,0,0,0,0,0],"id":12,"left_children":[1,3,5,7,9,11,13,-1,-1,-1,-1,-1,-1,-1,-1],"loss_changes":[2.3243273E4,1.4999141E3,1.0049844E3,1.7845825E2,4.7333398E2,1.1657031E2,2.9108594E2,0E0,0E0,0E0,0E0,0E0,0E0,0E0,0E0],"parents":[2147483647,0,0,1,1,2,2,3,3,4,4,5,5,6,6],"right_children":[2,4,6,8,10,12,14,-1,-1,-1,-1,-1,-1,-1,-1],"split_conditions":[2.148E1,1.2895E1,3.4205E1,8.13E0,1.696E1,3.0325E1,4.0945E1,1.4222352E-1,2.8372407E-1,4.0571547E-1,5.340863E-1,7.237291E-1,8.980255E-1,1.0325613E0,1.2491693E0],"split_indices":[6,6,6,6,8,6,6,0,0,0,0,0,0,0,0],"split_type":[0,0,0,0,0,0,0,0,0,0,0,0,0,0,0],"sum_hessian":[2.876E3,1.751E3,1.125E3,4.78E2,1.273E3,5.19E2,6.06E2,1.26E2,3.52E2,7.8E2,4.93E2,7.7E1,4.42E2,4.99E2,1.07E2],"tree_param":{"num_deleted":"0","num_feature":"9","num_nodes":"15","size_leaf_vector":"0"}},{"base_weights":[5.6667295E0,3.667313E0,9.008191E0,2.787929E0,4.5848017E0,8.403986E0,1.0308238E1,1.6775398E0,3.1754127E0,4.303261E0,5.7808194E0,7.6531706E0,8.694274E0,9.833607E0,1.1686592E1],"categories":[],"categories_nodes":[],"categories_segments":[],"categories_sizes":[],"default_left":[1,1,1,1,1,1,1,0,0,0,0,0,0,0,0],"id":13,"left_children":[1,3,5,7,9,11,13,-1,-1,-1,-1,-1,-1,-1,-1],"loss_changes":[1.9248602E4,1.4422695E3,7.5235156E2,3.9066504E2,2.674121E2,8.722656E1,9.544141E1,0E0,0E0,0E0,0E0,0E0,0E0,0E0,0E0],"parents":[2147483647,0,0,1,1,2,2,3,3,4,4,5,5,6,6],"right_children":[2,4,6,8,10,12,14,-1,-1,-1,-1,-1,-1,-1,-1],"split_conditions":[2.7913334E1,1.5165E1,3.6695E1,9.585E0,2.0033333E1,3.2575E1,4.1855E1,1.6775398E-1,3.1754127E-1,4.3032607E-1,5.7808197E-1,7.653171E-1,8.694274E-1,9.833607E-1,1.1686592E0],"split_indices":[8,8,6,6,8,6,8,0,0,0,0,0,0,0,0],"split_type":[0,0,0,0,0,0,0,0,0,0,0,0,0,0,0],"sum_hessian":[2.886E3,1.807E3,1.079E3,9.25E2,8.82E2,7.42E2,3.37E2,2.41E2,6.84E2,7.18E2,1.64E2,2.15E2,5.27E2,2.57E2,8E1],"tree_param":{"num_deleted":"0","num_feature":"9","num_nodes":"15","size_leaf_vector":"0"}},{"base_weights":[5.142647E0,3.2314122E0,7.982368E0,2.1505527E0,3.796735E0,7.236278E0,8.929918E0,1.0145786E0,2.4373424E0,3.490581E0,4.5702953E0,6.352536E0,7.559967E0,8.54613E0,1.0309467E1],"categories":[],"categories_nodes":[],"categories_segments":[],"categories_sizes":[],"default_left":[1,1,1,1,1,1,1,0,0,0,0,0,0,0,0],"id":14,"left_children":[1,3,5,7,9,11,13,-1,-1,-1,-1,-1,-1,-1,-1],"loss_changes":[1.5615711E4,1.0428965E3,7.4666406E2,1.8964331E2,2.4786914E2,1.3210156E2,1.7036719E2,0E0,0E0,0E0,0E0,0E0,0E0,0E0,0E0],"parents":[2147483647,0,0,1,1,2,2,3,3,4,4,5,5,6,6],"right_children":[2,4,6,8,10,12,14,-1,-1,-1,-1,-1,-1,-1,-1],"split_conditions":[2.1244999E1,2.0125E3,3.515E1,7.84E0,1.8205E1,3.199E1,4.132E1,1.0145786E-1,2.4373424E-1,3.4905812E-1,4.5702955E-1,6.352536E-1,7.559967E-1,8.54613E-1,1.0309467E0],"split_indices":[6,5,7,6,6,6,6,0,0,0,0,0,0,0,0],"split_type":[0,0,0,0,0,0,0,0,0,0,0,0,0,0,0],"sum_hessian":[2.882E3,1.724E3,1.158E3,5.94E2,1.13E3,6.53E2,5.05E2,1.21E2,4.73E2,8.14E2,3.16E2,1.81E2,4.72E2,4.01E2,1.04E2],"tree_param":{"num_deleted":"0","num_feature":"9","num_nodes":"15","size_leaf_vector":"0"}},{"base_weights":[4.5827904E0,2.9616902E0,7.2803392E0,2.3301995E0,3.8221753E0,6.9073935E0,8.662664E0,1.6570388E0,2.7794826E0,3.5209553E0,4.4804735E0,6.4850383E0,7.365528E0,8.232924E0,9.670253E0],"categories":[],"categories_nodes":[],"categories_segments":[],"categories_sizes":[],"default_left":[1,1,1,1,1,1,1,0,0,0,0,0,0,0,0],"id":15,"left_children":[1,3,5,7,9,11,13,-1,-1,-1,-1,-1,-1,-1,-1],"loss_changes":[1.2331406E4,9.481836E2,4.7884766E2,3.0226953E2,1.2815039E2,1.0784766E2,7.126953E0,0E0,0E0,0E0,0E0,0E0,0E0,0E0,0E0],"parents":[2147483647,0,0,1,1,2,2,3,3,4,4,5,5,6,6],"right_children":[2,4,6,8,10,12,14,-1,-1,-1,-1,-1,-1,-1,-1],"split_conditions":[2.7615E1,1.5765E1,3.9098335E1,1.1780001E1,1.9275002E1,3.4095E1,4.2315002E1,1.6570388E-1,2.7794826E-1,3.5209554E-1,4.4804737E-1,6.4850384E-1,7.3655283E-1,8.2329243E-1,9.670253E-1],"split_indices":[6,6,8,6,6,6,6,0,0,0,0,0,0,0,0],"split_type":[0,0,0,0,0,0,0,0,0,0,0,0,0,0,0],"sum_hessian":[2.825E3,1.766E3,1.059E3,1.021E3,7.45E2,8.39E2,2.2E2,4.11E2,6.1E2,5.16E2,2.29E2,4.45E2,3.94E2,1.61E2,5.9E1],"tree_param":{"num_deleted":"0","num_feature":"9","num_nodes":"15","size_leaf_vector":"0"}},{"base_weights":[4.129639E0,2.6719503E0,6.5450397E0,1.8701162E0,3.2353122E0,5.993751E0,7.275195E0,9.098682E-1,2.1331713E0,2.9434495E0,3.929382E0,5.4197865E0,6.168477E0,6.9099865E0,8.144197E0],"categories":[],"categories_nodes":[],"categories_segments":[],"categories_sizes":[],"default_left":[1,1,1,1,1,1,1,0,0,0,0,0,0,0,0],"id":16,"left_children":[1,3,5,7,9,11,13,-1,-1,-1,-1,-1,-1,-1,-1],"loss_changes":[1.0163871E4,8.07208E2,3.8771094E2,1.854812E2,1.9952148E2,2.3550781E1,8.313867E1,0E0,0E0,0E0,0E0,0E0,0E0,0E0,0E0],"parents":[2147483647,0,0,1,1,2,2,3,3,4,4,5,5,6,6],"right_children":[2,4,6,8,10,12,14,-1,-1,-1,-1,-1,-1,-1,-1],"split_conditions":[2.7913334E1,1.4715E1,3.5545E1,8.645E0,1.8884998E1,3.218E1,4.0550003E1,9.098682E-2,2.1331714E-1,2.9434496E-1,3.9293823E-1,5.4197866E-1,6.168477E-1,6.909987E-1,8.1441975E-1],"split_indices":[8,6,6,6,6,6,6,0,0,0,0,0,0,0,0],"split_type":[0,0,0,0,0,0,0,0,0,0,0,0,0,0,0],"sum_hessian":[2.892E3,1.805E3,1.087E3,7.47E2,1.058E3,6.25E2,4.62E2,1.62E2,5.85E2,7.49E2,3.09E2,1.54E2,4.71E2,3.32E2,1.3E2],"tree_param":{"num_deleted":"0","num_feature":"9","num_nodes":"15","size_leaf_vector":"0"}},{"base_weights":[3.6899526E0,2.3119347E0,5.7789974E0,1.3568729E0,2.6431553E0,5.0908065E0,6.408021E0,6.489634E-1,1.6023183E0,2.3022213E0,3.0428433E0,4.200459E0,5.31437E0,6.045657E0,7.2087955E0],"categories":[],"categories_nodes":[],"categories_segments":[],"categories_sizes":[],"default_left":[1,1,1,1,1,1,1,0,0,0,0,0,0,0,0],"id":17,"left_children":[1,3,5,7,9,11,13,-1,-1,-1,-1,-1,-1,-1,-1],"loss_changes":[8.1294336E3,5.343994E2,4.481914E2,7.463342E1,1.6283594E2,8.080469E1,1.1896094E2,0E0,0E0,0E0,0E0,0E0,0E0,0E0,0E0],"parents":[2147483647,0,0,1,1,2,2,3,3,4,4,5,5,6,6],"right_children":[2,4,6,8,10,12,14,-1,-1,-1,-1,-1,-1,-1,-1],"split_conditions":[2.0775002E1,1.2005E1,3.4215E1,7.7683334E0,1.6205E1,3.0448334E1,3.966E1,6.489634E-2,1.6023183E-1,2.3022214E-1,3.0428433E-1,4.200459E-1,5.3143704E-1,6.0456574E-1,7.2087955E-1],"split_indices":[6,6,7,8,7,8,6,0,0,0,0,0,0,0,0],"split_type":[0,0,0,0,0,0,0,0,0,0,0,0,0,0,0],"sum_hessian":[2.829E3,1.706E3,1.123E3,4.41E2,1.265E3,5.41E2,5.82E2,1.15E2,3.26E2,6.87E2,5.78E2,1.13E2,4.28E2,4.07E2,1.75E2],"tree_param":{"num_deleted":"0","num_feature":"9","num_nodes":"15","size_leaf_vector":"0"}},{"base_weights":[3.3252053E0,2.1160293E0,5.236863E0,1.3553429E0,2.469109E0,4.7742286E0,5.9288397E0,6.4942914E-1,1.565286E0,2.190804E0,2.875088E0,4.1762257E0,4.9842296E0,5.6850834E0,6.94788E0],"categories":[],"categories_nodes":[],"categories_segments":[],"categories_sizes":[],"default_left":[1,1,1,1,1,1,1,0,0,0,0,0,0,0,0],"id":18,"left_children":[1,3,5,7,9,11,13,-1,-1,-1,-1,-1,-1,-1,-1],"loss_changes":[6.6840605E3,4.720127E2,3.255293E2,8.17583E1,1.2810742E2,5.9748047E1,6.472168E1,0E0,0E0,0E0,0E0,0E0,0E0,0E0,0E0],"parents":[2147483647,0,0,1,1,2,2,3,3,4,4,5,5,6,6],"right_children":[2,4,6,8,10,12,14,-1,-1,-1,-1,-1,-1,-1,-1],"split_conditions":[2.1138332E1,1.3825E1,3.5625E1,8.106667E0,1.7055E1,3.2025E1,4.1675E1,6.494292E-2,1.565286E-1,2.190804E-1,2.8750882E-1,4.1762257E-1,4.9842295E-1,5.685083E-1,6.94788E-1],"split_indices":[8,7,6,8,6,6,6,0,0,0,0,0,0,0,0],"split_type":[0,0,0,0,0,0,0,0,0,0,0,0,0,0,0],"sum_hessian":[2.897E3,1.776E3,1.121E3,5.65E2,1.211E3,6.77E2,4.44E2,1.31E2,4.34E2,7.23E2,4.88E2,1.82E2,4.95E2,3.64E2,8E1],"tree_param":{"num_deleted":"0","num_feature":"9","num_nodes":"15","size_leaf_vector":"0"}},{"base_weights":[3.0183544E0,1.8844777E0,4.688503E0,1.101654E0,2.1505475E0,4.133817E0,5.1963243E0,5.618283E-1,1.2958431E0,1.8308018E0,2.4346268E0,3.476022E0,4.329687E0,5.0101757E0,6.311838E0],"categories":[],"categories_nodes":[],"categories_segments":[],"categories_sizes":[],"default_left":[1,1,1,1,1,1,1,0,0,0,0,0,0,0,0],"id":19,"left_children":[1,3,5,7,9,11,13,-1,-1,-1,-1,-1,-1,-1,-1],"loss_changes":[5.3774688E3,3.4946582E2,2.977871E2,4.3733704E1,1.08313965E2,5.255371E1,8.647754E1,0E0,0E0,0E0,0E0,0E0,0E0,0E0,0E0],"parents":[2147483647,0,0,1,1,2,2,3,3,4,4,5,5,6,6],"right_children":[2,4,6,8,10,12,14,-1,-1,-1,-1,-1,-1,-1,-1],"split_conditions":[2.08E1,1.2005E1,3.4215E1,7.785E0,1.5785E1,3.1095001E1,4.171E1,5.618283E-2,1.2958431E-1,1.8308018E-1,2.4346268E-1,3.4760222E-1,4.329687E-1,5.010176E-1,6.311838E-1],"split_indices":[6,6,7,7,6,6,7,0,0,0,0,0,0,0,0],"split_type":[0,0,0,0,0,0,0,0,0,0,0,0,0,0,0],"sum_hessian":[2.845E3,1.696E3,1.149E3,4.32E2,1.264E3,5.54E2,5.95E2,1.16E2,3.16E2,5.99E2,6.65E2,1.32E2,4.22E2,5.15E2,8E1],"tree_param":{"num_deleted":"0","num_feature":"9","num_nodes":"15","size_leaf_vector":"0"}},{"base_weights":[2.7147992E0,1.6864496E0,4.238562E0,9.867295E-1,1.9334058E0,3.9079769E0,4.962044E0,3.8632116E-1,1.123747E0,1.6349432E0,2.1912415E0,3.3954313E0,4.1338696E0,4.758214E0,5.871603E0],"categories":[],"categories_nodes":[],"categories_segments":[],"categories_sizes":[],"default_left":[1,1,1,1,1,1,1,0,0,0,0,0,0,0,0],"id":20,"left_children":[1,3,5,7,9,11,13,-1,-1,-1,-1,-1,-1,-1,-1],"loss_changes":[4.4964707E3,2.936753E2,2.5313477E2,3.5912994E1,9.215918E1,7.482422E1,3.3304688E1,0E0,0E0,0E0,0E0,0E0,0E0,0E0,0E0],"parents":[2147483647,0,0,1,1,2,2,3,3,4,4,5,5,6,6],"right_children":[2,4,6,8,10,12,14,-1,-1,-1,-1,-1,-1,-1,-1],"split_conditions":[2.085E1,1.2005E1,3.6504997E1,7.535E0,1.5825E1,3.2364998E1,4.2254997E1,3.8632117E-2,1.123747E-1,1.6349433E-1,2.1912415E-1,3.3954313E-1,4.1338697E-1,4.758214E-1,5.871603E-1],"split_indices":[6,6,6,6,6,6,6,0,0,0,0,0,0,0,0],"split_type":[0,0,0,0,0,0,0,0,0,0,0,0,0,0,0],"sum_hessian":[2.875E3,1.718E3,1.157E3,4.5E2,1.268E3,7.99E2,3.58E2,8.5E1,3.65E2,5.92E2,6.76E2,2.5E2,5.49E2,2.98E2,6E1],"tree_param":{"num_deleted":"0","num_feature":"9","num_nodes":"15","size_leaf_vector":"0"}},{"base_weights":[2.4230223E0,1.5130882E0,3.7798707E0,1.082161E0,1.8279723E0,3.3138146E0,4.1935754E0,6.176636E-1,1.2773709E0,1.69242E0,2.1744075E0,2.7513583E0,3.460602E0,3.9508328E0,4.76273E0],"categories":[],"categories_nodes":[],"categories_segments":[],"categories_sizes":[],"default_left":[1,1,1,1,1,1,1,0,0,0,0,0,0,0,0],"id":21,"left_children":[1,3,5,7,9,11,13,-1,-1,-1,-1,-1,-1,-1,-1],"loss_changes":[3.5437012E3,2.3050024E2,2.0485156E2,6.454657E1,4.1064697E1,3.26167E1,6.0688477E1,0E0,0E0,0E0,0E0,0E0,0E0,0E0,0E0],"parents":[2147483647,0,0,1,1,2,2,3,3,4,4,5,5,6,6],"right_children":[2,4,6,8,10,12,14,-1,-1,-1,-1,-1,-1,-1,-1],"split_conditions":[2.071E1,1.4585E1,3.4184998E1,9.38E0,1.823E1,3.0448334E1,3.9595E1,6.1766364E-2,1.2773709E-1,1.6924201E-1,2.1744075E-1,2.7513584E-1,3.4606022E-1,3.9508328E-1,4.7627303E-1],"split_indices":[8,6,6,6,6,8,8,0,0,0,0,0,0,0,0],"split_type":[0,0,0,0,0,0,0,0,0,0,0,0,0,0,0],"sum_hessian":[2.876E3,1.723E3,1.153E3,7.3E2,9.93E2,5.47E2,6.06E2,2.18E2,5.12E2,7.19E2,2.74E2,1.18E2,4.29E2,4.31E2,1.75E2],"tree_param":{"num_deleted":"0","num_feature":"9","num_nodes":"15","size_leaf_vector":"0"}},{"base_weights":[2.190184E0,1.3313035E0,3.3878868E0,7.828143E-1,1.5285529E0,2.82348E0,3.7199306E0,2.5075436E-1,9.022521E-1,1.3237948E0,1.7170646E0,2.4510715E0,3.0416107E0,3.5983906E0,4.7792935E0],"categories":[],"categories_nodes":[],"categories_segments":[],"categories_sizes":[],"default_left":[1,1,1,1,1,1,1,0,0,0,0,0,0,0,0],"id":22,"left_children":[1,3,5,7,9,11,13,-1,-1,-1,-1,-1,-1,-1,-1],"loss_changes":[2.9166494E3,1.7691724E2,2.0849023E2,2.7221924E1,4.318164E1,2.5866455E1,7.427832E1,0E0,0E0,0E0,0E0,0E0,0E0,0E0,0E0],"parents":[2147483647,0,0,1,1,2,2,3,3,4,4,5,5,6,6],"right_children":[2,4,6,8,10,12,14,-1,-1,-1,-1,-1,-1,-1,-1],"split_conditions":[2.036E1,1.1825E1,3.3175E1,7.45E0,1.5743334E1,3.0835E1,4.2059998E1,2.5075436E-2,9.022521E-2,1.3237949E-1,1.7170647E-1,2.4510716E-1,3.0416107E-1,3.5983905E-1,4.7792935E-1],"split_indices":[6,7,7,6,8,6,7,0,0,0,0,0,0,0,0],"split_type":[0,0,0,0,0,0,0,0,0,0,0,0,0,0,0],"sum_hessian":[2.841E3,1.656E3,1.185E3,4.4E2,1.216E3,4.43E2,7.42E2,8.2E1,3.58E2,5.88E2,6.28E2,1.69E2,2.74E2,6.7E2,7.2E1],"tree_param":{"num_deleted":"0","num_feature":"9","num_nodes":"15","size_leaf_vector":"0"}},{"base_weights":[1.9828014E0,1.2872186E0,3.1571968E0,9.824205E-1,1.6588928E0,2.9665117E0,3.8506753E0,5.2234656E-1,1.1282078E0,1.5301797E0,2.0904133E0,2.728076E0,3.1103303E0,3.6519356E0,4.591924E0],"categories":[],"categories_nodes":[],"categories_segments":[],"categories_sizes":[],"default_left":[1,1,1,1,1,1,1,0,0,0,0,0,0,0,0],"id":23,"left_children":[1,3,5,7,9,11,13,-1,-1,-1,-1,-1,-1,-1,-1],"loss_changes":[2.3675938E3,2.0402197E2,1.279834E2,6.612793E1,4.059131E1,1.7812012E1,1.2843994E1,0E0,0E0,0E0,0E0,0E0,0E0,0E0,0E0],"parents":[2147483647,0,0,1,1,2,2,3,3,4,4,5,5,6,6],"right_children":[2,4,6,8,10,12,14,-1,-1,-1,-1,-1,-1,-1,-1],"split_conditions":[2.8145E1,1.5655E1,3.9095E1,9.578333E0,1.9825E1,3.3285E1,4.268E1,5.2234657E-2,1.1282078E-1,1.5301798E-1,2.0904134E-1,2.728076E-1,3.1103304E-1,3.6519358E-1,4.5919243E-1],"split_indices":[6,8,7,8,6,6,6,0,0,0,0,0,0,0,0],"split_type":[0,0,0,0,0,0,0,0,0,0,0,0,0,0,0],"sum_hessian":[2.905E3,1.826E3,1.079E3,1.006E3,8.2E2,8.51E2,2.28E2,2.44E2,7.62E2,6.36E2,1.84E2,3.29E2,5.22E2,1.85E2,4.3E1],"tree_param":{"num_deleted":"0","num_feature":"9","num_nodes":"15","size_leaf_vector":"0"}},{"base_weights":[1.7752697E0,1.1110368E0,2.7610686E0,7.1099675E-1,1.3038179E0,2.4425466E0,3.1065736E0,3.2687357E-1,8.395068E-1,1.1840023E0,1.5714438E0,2.090598E0,2.5707479E0,2.9054308E0,3.5239677E0],"categories":[],"categories_nodes":[],"categories_segments":[],"categories_sizes":[],"default_left":[1,1,1,1,1,1,1,0,0,0,0,0,0,0,0],"id":24,"left_children":[1,3,5,7,9,11,13,-1,-1,-1,-1,-1,-1,-1,-1],"loss_changes":[1.8834395E3,1.3109814E2,1.17296875E2,2.698352E1,3.4021973E1,1.977295E1,3.2890625E1,0E0,0E0,0E0,0E0,0E0,0E0,0E0,0E0],"parents":[2147483647,0,0,1,1,2,2,3,3,4,4,5,5,6,6],"right_children":[2,4,6,8,10,12,14,-1,-1,-1,-1,-1,-1,-1,-1],"split_conditions":[2.0685E1,1.391E1,3.4510002E1,8.309999E0,1.7654999E1,3.1555E1,3.9665E1,3.268736E-2,8.395068E-2,1.1840023E-1,1.5714438E-1,2.0905982E-1,2.570748E-1,2.9054308E-1,3.523968E-1],"split_indices":[6,6,6,7,7,6,6,0,0,0,0,0,0,0,0],"split_type":[0,0,0,0,0,0,0,0,0,0,0,0,0,0,0],"sum_hessian":[2.883E3,1.724E3,1.159E3,5.63E2,1.161E3,6.08E2,5.51E2,1.43E2,4.2E2,8.07E2,3.54E2,1.68E2,4.4E2,3.78E2,1.73E2],"tree_param":{"num_deleted":"0","num_feature":"9","num_nodes":"15","size_leaf_vector":"0"}},{"base_weights":[1.610071E0,1.0360644E0,2.5483894E0,7.1816087E-1,1.2772526E0,2.4005878E0,3.0746222E0,3.8602856E-1,8.486056E-1,1.1387529E0,1.5687234E0,2.0541928E0,2.4711392E0,2.9521902E0,3.9401367E0],"categories":[],"categories_nodes":[],"categories_segments":[],"categories_sizes":[],"default_left":[1,1,1,1,1,1,1,0,0,0,0,0,0,0,0],"id":25,"left_children":[1,3,5,7,9,11,13,-1,-1,-1,-1,-1,-1,-1,-1],"loss_changes":[1.5650503E3,1.3686584E2,7.582568E1,3.302182E1,3.831836E1,1.3874023E1,1.0141846E1,0E0,0E0,0E0,0E0,0E0,0E0,0E0,0E0],"parents":[2147483647,0,0,1,1,2,2,3,3,4,4,5,5,6,6],"right_children":[2,4,6,8,10,12,14,-1,-1,-1,-1,-1,-1,-1,-1],"split_conditions":[2.8145E1,1.4755E1,3.9098335E1,9.42E0,1.8828333E1,3.2254997E1,4.315E1,3.8602855E-2,8.4860556E-2,1.1387529E-1,1.5687235E-1,2.0541929E-1,2.4711393E-1,2.9521903E-1,3.9401367E-1],"split_indices":[6,8,8,6,8,7,6,0,0,0,0,0,0,0,0],"split_type":[0,0,0,0,0,0,0,0,0,0,0,0,0,0,0],"sum_hessian":[2.913E3,1.809E3,1.104E3,7.83E2,1.026E3,8.67E2,2.37E2,2.23E2,5.6E2,7E2,3.26E2,1.53E2,7.14E2,2.12E2,2.5E1],"tree_param":{"num_deleted":"0","num_feature":"9","num_nodes":"15","size_leaf_vector":"0"}},{"base_weights":[1.4306298E0,8.692486E-1,2.2259095E0,4.9273032E-1,1.0025642E0,1.9260534E0,2.524213E0,8.362132E-2,5.814339E-1,8.96356E-1,1.1746151E0,1.5750637E0,2.0306544E0,2.4355693E0,3.4769177E0],"categories":[],"categories_nodes":[],"categories_segments":[],"categories_sizes":[],"default_left":[1,1,1,1,1,1,1,0,0,0,0,0,0,0,0],"id":26,"left_children":[1,3,5,7,9,11,13,-1,-1,-1,-1,-1,-1,-1,-1],"loss_changes":[1.2912373E3,8.419153E1,1.00160645E2,1.5876518E1,2.0844482E1,1.7137207E1,3.8993164E1,0E0,0E0,0E0,0E0,0E0,0E0,0E0,0E0],"parents":[2147483647,0,0,1,1,2,2,3,3,4,4,5,5,6,6],"right_children":[2,4,6,8,10,12,14,-1,-1,-1,-1,-1,-1,-1,-1],"split_conditions":[2.036E1,1.1805E1,3.4235E1,7.39E0,1.6575E1,2.8145E1,4.26E1,8.362132E-3,5.814339E-2,8.96356E-2,1.1746152E-1,1.5750638E-1,2.0306544E-1,2.4355693E-1,3.4769177E-1],"split_indices":[6,7,7,6,6,6,6,0,0,0,0,0,0,0,0],"split_type":[0,0,0,0,0,0,0,0,0,0,0,0,0,0,0],"sum_hessian":[2.899E3,1.701E3,1.198E3,4.47E2,1.254E3,6.02E2,5.96E2,8.1E1,3.66E2,7.81E2,4.73E2,1.43E2,4.59E2,5.49E2,4.7E1],"tree_param":{"num_deleted":"0","num_feature":"9","num_nodes":"15","size_leaf_vector":"0"}},{"base_weights":[1.3126148E0,7.889463E-1,2.0114915E0,4.077688E-1,8.9474916E-1,1.8427068E0,2.4754524E0,7.989313E-2,4.94318E-1,7.662604E-1,1.0228667E0,1.5731738E0,1.97428E0,2.403526E0,3.4307494E0],"categories":[],"categories_nodes":[],"categories_segments":[],"categories_sizes":[],"default_left":[1,1,1,1,1,1,1,0,0,0,0,0,0,0,0],"id":27,"left_children":[1,3,5,7,9,11,13,-1,-1,-1,-1,-1,-1,-1,-1],"loss_changes":[1.0539624E3,6.5648926E1,9.0069824E1,9.946014E0,1.9590088E1,2.7427734E1,1.1236816E1,0E0,0E0,0E0,0E0,0E0,0E0,0E0,0E0],"parents":[2147483647,0,0,1,1,2,2,3,3,4,4,5,5,6,6],"right_children":[2,4,6,8,10,12,14,-1,-1,-1,-1,-1,-1,-1,-1],"split_conditions":[2.026E1,1.0155E1,3.6995003E1,7.435E0,1.5668333E1,3.2205E1,4.3278336E1,7.9893125E-3,4.94318E-2,7.662604E-2,1.02286674E-1,1.5731739E-1,1.97428E-1,2.4035262E-1,3.4307495E-1],"split_indices":[6,6,7,6,8,6,8,0,0,0,0,0,0,0,0],"split_type":[0,0,0,0,0,0,0,0,0,0,0,0,0,0,0],"sum_hessian":[2.887E3,1.652E3,1.235E3,3.61E2,1.291E3,9.1E2,3.25E2,7.7E1,2.84E2,6.5E2,6.41E2,3.04E2,6.06E2,3.06E2,1.9E1],"tree_param":{"num_deleted":"0","num_feature":"9","num_nodes":"15","size_leaf_vector":"0"}},{"base_weights":[1.1715255E0,7.559628E-1,1.8748965E0,5.237752E-1,9.3600315E-1,1.7598381E0,2.3419998E0,2.8356782E-1,6.264218E-1,8.346424E-1,1.1628656E0,1.5760235E0,1.8519747E0,2.2394156E0,3.0801203E0],"categories":[],"categories_nodes":[],"categories_segments":[],"categories_sizes":[],"default_left":[1,1,1,1,1,1,1,0,0,0,0,0,0,0,0],"id":28,"left_children":[1,3,5,7,9,11,13,-1,-1,-1,-1,-1,-1,-1,-1],"loss_changes":[8.379072E2,7.444348E1,5.117212E1,1.894461E1,2.1416504E1,9.949219E0,6.116577E0,0E0,0E0,0E0,0E0,0E0,0E0,0E0,0E0],"parents":[2147483647,0,0,1,1,2,2,3,3,4,4,5,5,6,6],"right_children":[2,4,6,8,10,12,14,-1,-1,-1,-1,-1,-1,-1,-1],"split_conditions":[2.809E1,1.4835E1,3.9515E1,9.535E0,1.8985E1,3.3165E1,4.3278336E1,2.8356781E-2,6.264218E-2,8.346424E-2,1.1628657E-1,1.5760235E-1,1.8519747E-1,2.2394156E-1,3.0801204E-1],"split_indices":[6,6,6,7,7,6,8,0,0,0,0,0,0,0,0],"split_type":[0,0,0,0,0,0,0,0,0,0,0,0,0,0,0],"sum_hessian":[2.875E3,1.809E3,1.066E3,7.93E2,1.016E3,8.6E2,2.06E2,2.4E2,5.53E2,7.07E2,3.09E2,2.95E2,5.65E2,1.85E2,2.1E1],"tree_param":{"num_deleted":"0","num_feature":"9","num_nodes":"15","size_leaf_vector":"0"}},{"base_weights":[1.0427923E0,6.396469E-1,1.6056309E0,3.843652E-1,7.4084634E-1,1.4990137E0,2.0675988E0,8.666494E-2,4.49271E-1,6.651658E-1,8.8288236E-1,1.2662504E0,1.6087998E0,1.9548383E0,2.782709E0],"categories":[],"categories_nodes":[],"categories_segments":[],"categories_sizes":[],"default_left":[1,1,1,1,1,1,1,0,0,0,0,0,0,0,0],"id":29,"left_children":[1,3,5,7,9,11,13,-1,-1,-1,-1,-1,-1,-1,-1],"loss_changes":[6.46574E2,4.2244324E1,5.382788E1,8.909912E0,1.1451904E1,2.1389404E1,9.9314575E0,0E0,0E0,0E0,0E0,0E0,0E0,0E0,0E0],"parents":[2147483647,0,0,1,1,2,2,3,3,4,4,5,5,6,6],"right_children":[2,4,6,8,10,12,14,-1,-1,-1,-1,-1,-1,-1,-1],"split_conditions":[2.0331667E1,1.2780001E1,3.9059998E1,7.5950003E0,1.7025002E1,3.2405E1,4.315E1,8.666494E-3,4.49271E-2,6.651658E-2,8.828824E-2,1.2662505E-1,1.6087998E-1,1.9548383E-1,2.782709E-1],"split_indices":[8,6,7,6,6,6,6,0,0,0,0,0,0,0,0],"split_type":[0,0,0,0,0,0,0,0,0,0,0,0,0,0,0],"sum_hessian":[2.858E3,1.667E3,1.191E3,4.76E2,1.191E3,9.72E2,2.19E2,8.7E1,3.89E2,7.83E2,4.08E2,3.17E2,6.55E2,1.93E2,2.6E1],"tree_param":{"num_deleted":"0","num_feature":"9","num_nodes":"15","size_leaf_vector":"0"}},{"base_weights":[9.4940853E-1,6.13966E-1,1.5154063E0,4.22471E-1,7.6205975E-1,1.4092873E0,1.9241644E0,2.2956848E-1,5.1680976E-1,6.749896E-1,9.297094E-1,1.2744054E0,1.4832965E0,1.8390567E0,2.5683389E0],"categories":[],"categories_nodes":[],"categories_segments":[],"categories_sizes":[],"default_left":[1,1,1,1,1,1,1,0,0,0,0,0,0,0,0],"id":30,"left_children":[1,3,5,7,9,11,13,-1,-1,-1,-1,-1,-1,-1,-1],"loss_changes":[5.4252246E2,5.0217407E1,4.1861572E1,1.3884735E1,1.3371765E1,5.225952E0,4.914978E0,0E0,0E0,0E0,0E0,0E0,0E0,0E0,0E0],"parents":[2147483647,0,0,1,1,2,2,3,3,4,4,5,5,6,6],"right_children":[2,4,6,8,10,12,14,-1,-1,-1,-1,-1,-1,-1,-1],"split_conditions":[2.809E1,1.4835E1,3.9275E1,9.708333E0,1.8715E1,3.3208332E1,4.3336666E1,2.2956848E-2,5.168098E-2,6.749896E-2,9.297094E-2,1.2744054E-1,1.4832966E-1,1.8390568E-1,2.5683388E-1],"split_indices":[6,6,6,8,8,8,8,0,0,0,0,0,0,0,0],"split_type":[0,0,0,0,0,0,0,0,0,0,0,0,0,0,0],"sum_hessian":[2.867E3,1.802E3,1.065E3,7.89E2,1.013E3,8.5E2,2.15E2,2.62E2,5.27E2,6.72E2,3.41E2,3.1E2,5.4E2,1.94E2,2.1E1],"tree_param":{"num_deleted":"0","num_feature":"9","num_nodes":"15","size_leaf_vector":"0"}},{"base_weights":[8.562241E-1,5.164882E-1,1.3210686E0,2.5351426E-1,5.8645314E-1,1.1430998E0,1.5050308E0,-8.436119E-3,3.1732735E-1,4.913805E-1,6.707638E-1,1.0204345E0,1.2566257E0,1.4544715E0,2.0845575E0],"categories":[],"categories_nodes":[],"categories_segments":[],"categories_sizes":[],"default_left":[1,1,1,1,1,1,1,0,0,0,0,0,0,0,0],"id":31,"left_children":[1,3,5,7,9,11,13,-1,-1,-1,-1,-1,-1,-1,-1],"loss_changes":[4.4879907E2,2.9789612E1,3.634131E1,6.007675E0,9.5177E0,6.1713257E0,1.2398071E1,0E0,0E0,0E0,0E0,0E0,0E0,0E0,0E0],"parents":[2147483647,0,0,1,1,2,2,3,3,4,4,5,5,6,6],"right_children":[2,4,6,8,10,12,14,-1,-1,-1,-1,-1,-1,-1,-1],"split_conditions":[2.0154999E1,1.0036667E1,3.4309998E1,7.295E0,1.5535E1,3.2254997E1,4.2485E1,-8.4361195E-4,3.1732734E-2,4.913805E-2,6.707638E-2,1.0204345E-1,1.2566257E-1,1.4544715E-1,2.0845576E-1],"split_indices":[6,8,7,6,6,7,6,0,0,0,0,0,0,0,0],"split_type":[0,0,0,0,0,0,0,0,0,0,0,0,0,0,0],"sum_hessian":[2.851E3,1.649E3,1.202E3,3.49E2,1.3E3,6.16E2,5.86E2,6.7E1,2.82E2,6.17E2,6.83E2,3.03E2,3.13E2,5.43E2,4.3E1],"tree_param":{"num_deleted":"0","num_feature":"9","num_nodes":"15","size_leaf_vector":"0"}},{"base_weights":[7.694311E-1,4.967344E-1,1.2251157E0,3.6881745E-1,6.43242E-1,1.081182E0,1.427476E0,6.758336E-2,4.069982E-1,5.734405E-1,7.554182E-1,1.0908129E0,6.3919246E-1,1.3612235E0,1.9432691E0],"categories":[],"categories_nodes":[],"categories_segments":[],"categories_sizes":[],"default_left":[1,1,1,1,1,1,1,0,0,0,0,0,0,0,0],"id":32,"left_children":[1,3,5,7,9,11,13,-1,-1,-1,-1,-1,-1,-1,-1],"loss_changes":[3.5479443E2,3.291519E1,2.8425903E1,1.0810989E1,5.4326477E0,1.1280518E0,1.0772644E1,0E0,0E0,0E0,0E0,0E0,0E0,0E0,0E0],"parents":[2147483647,0,0,1,1,2,2,3,3,4,4,5,5,6,6],"right_children":[2,4,6,8,10,12,14,-1,-1,-1,-1,-1,-1,-1,-1],"split_conditions":[2.809E1,1.5535E1,3.5785E1,7.6800003E0,1.8935001E1,3.5915E1,4.26E1,6.758336E-3,4.069982E-2,5.734405E-2,7.554182E-2,1.0908129E-1,6.3919246E-2,1.3612235E-1,1.9432692E-1],"split_indices":[6,6,6,6,6,7,6,0,0,0,0,0,0,0,0],"split_type":[0,0,0,0,0,0,0,0,0,0,0,0,0,0,0],"sum_hessian":[2.866E3,1.795E3,1.071E3,9.62E2,8.33E2,6.31E2,4.4E2,1.1E2,8.52E2,5.2E2,3.13E2,6.15E2,1.6E1,3.94E2,4.6E1],"tree_param":{"num_deleted":"0","num_feature":"9","num_nodes":"15","size_leaf_vector":"0"}},{"base_weights":[6.8825305E-1,4.1742507E-1,1.0614872E0,2.2044937E-1,4.8756304E-1,9.750885E-1,1.3278364E0,-0E0,2.590503E-1,4.316502E-1,5.71181E-1,8.238528E-1,1.0459563E0,1.2820472E0,1.9556379E0],"categories":[],"categories_nodes":[],"categories_segments":[],"categories_sizes":[],"default_left":[1,1,1,1,1,1,1,0,0,0,0,0,0,0,0],"id":33,"left_children":[1,3,5,7,9,11,13,-1,-1,-1,-1,-1,-1,-1,-1],"loss_changes":[2.8690198E2,2.2389313E1,2.5099365E1,3.745041E0,4.9418945E0,7.945801E0,4.1816406E0,0E0,0E0,0E0,0E0,0E0,0E0,0E0,0E0],"parents":[2147483647,0,0,1,1,2,2,3,3,4,4,5,5,6,6],"right_children":[2,4,6,8,10,12,14,-1,-1,-1,-1,-1,-1,-1,-1],"split_conditions":[2.0336666E1,1.2014999E1,3.7385002E1,7.3050003E0,1.6575E1,3.2254997E1,4.3278336E1,-0E0,2.5905032E-2,4.316502E-2,5.71181E-2,8.238528E-2,1.04595624E-1,1.2820472E-1,1.955638E-1],"split_indices":[8,6,6,6,6,7,8,0,0,0,0,0,0,0,0],"split_type":[0,0,0,0,0,0,0,0,0,0,0,0,0,0,0],"sum_hessian":[2.849E3,1.653E3,1.196E3,4.37E2,1.216E3,9.08E2,2.88E2,6.5E1,3.72E2,7.36E2,4.8E2,2.96E2,6.12E2,2.72E2,1.6E1],"tree_param":{"num_deleted":"0","num_feature":"9","num_nodes":"15","size_leaf_vector":"0"}},{"base_weights":[6.175166E-1,3.751537E-1,9.5976496E-1,1.735277E-1,4.2576656E-1,8.318414E-1,1.0993276E0,-1.6605943E-2,2.1706438E-1,3.7509495E-1,5.1833767E-1,6.8656063E-1,8.8501686E-1,1.0428914E0,1.4128586E0],"categories":[],"categories_nodes":[],"categories_segments":[],"categories_sizes":[],"default_left":[1,1,1,1,1,1,1,0,0,0,0,0,0,0,0],"id":34,"left_children":[1,3,5,7,9,11,13,-1,-1,-1,-1,-1,-1,-1,-1],"loss_changes":[2.4317236E2,1.7240082E1,1.9883057E1,3.0010595E0,5.817978E0,3.5663147E0,7.526123E0,0E0,0E0,0E0,0E0,0E0,0E0,0E0,0E0],"parents":[2147483647,0,0,1,1,2,2,3,3,4,4,5,5,6,6],"right_children":[2,4,6,8,10,12,14,-1,-1,-1,-1,-1,-1,-1,-1],"split_conditions":[2.0215E1,1.004E1,3.4309998E1,7.2650003E0,2.0155E3,3.0474998E1,4.1699997E1,-1.6605944E-3,2.1706438E-2,3.7509497E-2,5.1833767E-2,6.8656065E-2,8.8501684E-2,1.0428914E-1,1.4128587E-1],"split_indices":[7,6,7,6,5,7,6,0,0,0,0,0,0,0,0],"split_type":[0,0,0,0,0,0,0,0,0,0,0,0,0,0,0],"sum_hessian":[2.943E3,1.725E3,1.218E3,3.49E2,1.376E3,6.41E2,5.77E2,6.3E1,2.86E2,8.96E2,4.8E2,1.78E2,4.63E2,4.94E2,8.3E1],"tree_param":{"num_deleted":"0","num_feature":"9","num_nodes":"15","size_leaf_vector":"0"}},{"base_weights":[5.5894464E-1,3.5926175E-1,8.977093E-1,2.438637E-1,4.528983E-1,8.176063E-1,1.0877734E0,6.8075955E-2,2.8143397E-1,4.02298E-1,5.5665547E-1,6.56648E-1,8.3881027E-1,1.0423778E0,1.6688904E0],"categories":[],"categories_nodes":[],"categories_segments":[],"categories_sizes":[],"default_left":[1,1,1,1,1,1,1,0,0,0,0,0,0,0,0],"id":35,"left_children":[1,3,5,7,9,11,13,-1,-1,-1,-1,-1,-1,-1,-1],"loss_changes":[1.9305627E2,1.9066666E1,1.4326599E1,5.1820602E0,4.5152283E0,1.2713928E0,5.0825806E0,0E0,0E0,0E0,0E0,0E0,0E0,0E0,0E0],"parents":[2147483647,0,0,1,1,2,2,3,3,4,4,5,5,6,6],"right_children":[2,4,6,8,10,12,14,-1,-1,-1,-1,-1,-1,-1,-1],"split_conditions":[2.8325E1,1.4835E1,3.7129997E1,8.434999E0,1.8884998E1,3.184E1,4.3504997E1,6.8075955E-3,2.8143397E-2,4.02298E-2,5.566555E-2,6.56648E-2,8.388103E-2,1.0423779E-1,1.6688904E-1],"split_indices":[6,6,7,7,6,6,6,0,0,0,0,0,0,0,0],"split_type":[0,0,0,0,0,0,0,0,0,0,0,0,0,0,0],"sum_hessian":[2.867E3,1.806E3,1.061E3,8.13E2,9.93E2,7.52E2,3.09E2,1.46E2,6.67E2,6.74E2,3.19E2,9.4E1,6.58E2,2.9E2,1.9E1],"tree_param":{"num_deleted":"0","num_feature":"9","num_nodes":"15","size_leaf_vector":"0"}},{"base_weights":[5.0826985E-1,3.0211604E-1,7.9326606E-1,1.8756887E-1,3.6145183E-1,7.353137E-1,1.0773741E0,-1.7886305E-2,2.1376672E-1,3.3285978E-1,4.367644E-1,5.881946E-1,7.7481115E-1,1.0045563E0,1.5012244E0],"categories":[],"categories_nodes":[],"categories_segments":[],"categories_sizes":[],"default_left":[1,1,1,1,1,1,1,0,0,0,0,0,0,0,0],"id":36,"left_children":[1,3,5,7,9,11,13,-1,-1,-1,-1,-1,-1,-1,-1],"loss_changes":[1.6601263E2,1.0872314E1,1.789441E1,3.1590137E0,1.8018799E0,4.6329346E0,3.3500824E0,0E0,0E0,0E0,0E0,0E0,0E0,0E0,0E0],"parents":[2147483647,0,0,1,1,2,2,3,3,4,4,5,5,6,6],"right_children":[2,4,6,8,10,12,14,-1,-1,-1,-1,-1,-1,-1,-1],"split_conditions":[2.026E1,1.4005E1,3.9515E1,7.285E0,1.7654999E1,3.1638332E1,4.3260002E1,-1.7886305E-3,2.1376673E-2,3.328598E-2,4.367644E-2,5.881946E-2,7.748111E-2,1.00455634E-1,1.5012245E-1],"split_indices":[6,7,6,6,7,8,6,0,0,0,0,0,0,0,0],"split_type":[0,0,0,0,0,0,0,0,0,0,0,0,0,0,0],"sum_hessian":[2.838E3,1.649E3,1.189E3,5.67E2,1.082E3,9.92E2,1.97E2,6.2E1,5.05E2,7.93E2,2.89E2,2.16E2,7.76E2,1.72E2,2.5E1],"tree_param":{"num_deleted":"0","num_feature":"9","num_nodes":"15","size_leaf_vector":"0"}},{"base_weights":[4.605028E-1,2.9485503E-1,7.4221414E-1,1.8568395E-1,3.6683312E-1,6.917887E-1,9.88972E-1,2.0290207E-2,2.1756676E-1,3.267122E-1,4.5842746E-1,6.1304885E-1,7.311401E-1,9.2453504E-1,1.3528804E0],"categories":[],"categories_nodes":[],"categories_segments":[],"categories_sizes":[],"default_left":[1,1,1,1,1,1,1,0,0,0,0,0,0,0,0],"id":37,"left_children":[1,3,5,7,9,11,13,-1,-1,-1,-1,-1,-1,-1,-1],"loss_changes":[1.3244415E2,1.3799896E1,1.1602661E1,3.6733723E0,3.4301758E0,1.6094971E0,1.7140961E0,0E0,0E0,0E0,0E0,0E0,0E0,0E0,0E0],"parents":[2147483647,0,0,1,1,2,2,3,3,4,4,5,5,6,6],"right_children":[2,4,6,8,10,12,14,-1,-1,-1,-1,-1,-1,-1,-1],"split_conditions":[2.8145E1,1.4595E1,3.9730003E1,7.76E0,1.8895E1,3.3285E1,4.325E1,2.0290208E-3,2.1756677E-2,3.267122E-2,4.5842748E-2,6.1304886E-2,7.311401E-2,9.24535E-2,1.3528804E-1],"split_indices":[6,6,6,7,6,6,6,0,0,0,0,0,0,0,0],"split_type":[0,0,0,0,0,0,0,0,0,0,0,0,0,0,0],"sum_hessian":[2.853E3,1.799E3,1.054E3,7.19E2,1.08E3,8.8E2,1.74E2,1.19E2,6E2,7.58E2,3.22E2,3.03E2,5.77E2,1.52E2,2.2E1],"tree_param":{"num_deleted":"0","num_feature":"9","num_nodes":"15","size_leaf_vector":"0"}},{"base_weights":[4.1303635E-1,2.60474E-1,6.6514105E-1,1.7171216E-1,3.299937E-1,6.254309E-1,8.963522E-1,6.4883746E-2,2.1188268E-1,3.0582222E-1,4.376949E-1,5.767428E-1,6.812758E-1,8.259702E-1,1.2395726E0],"categories":[],"categories_nodes":[],"categories_segments":[],"categories_sizes":[],"default_left":[1,1,1,1,1,1,1,0,0,0,0,0,0,0,0],"id":38,"left_children":[1,3,5,7,9,11,13,-1,-1,-1,-1,-1,-1,-1,-1],"loss_changes":[1.09633606E2,1.0731857E1,8.585266E0,3.2423286E0,2.0950851E0,1.4958496E0,1.6634827E0,0E0,0E0,0E0,0E0,0E0,0E0,0E0,0E0],"parents":[2147483647,0,0,1,1,2,2,3,3,4,4,5,5,6,6],"right_children":[2,4,6,8,10,12,14,-1,-1,-1,-1,-1,-1,-1,-1],"split_conditions":[2.809E1,1.4795E1,4.012E1,9.345E0,1.979E1,3.4504997E1,4.3278336E1,6.488375E-3,2.1188268E-2,3.0582223E-2,4.376949E-2,5.7674285E-2,6.812758E-2,8.259702E-2,1.2395727E-1],"split_indices":[6,7,6,7,7,6,8,0,0,0,0,0,0,0,0],"split_type":[0,0,0,0,0,0,0,0,0,0,0,0,0,0,0],"sum_hessian":[2.866E3,1.788E3,1.078E3,7.9E2,9.98E2,9.25E2,1.53E2,2.2E2,5.7E2,8.22E2,1.76E2,5.05E2,4.2E2,1.31E2,2.2E1],"tree_param":{"num_deleted":"0","num_feature":"9","num_nodes":"15","size_leaf_vector":"0"}},{"base_weights":[3.6903116E-1,2.22323E-1,5.689982E-1,7.371999E-2,2.5240344E-1,5.4914504E-1,9.5392436E-1,-7.0542626E-2,1.0326962E-1,2.2320977E-1,3.06793E-1,4.8920092E-1,6.169734E-1],"categories":[],"categories_nodes":[],"categories_segments":[],"categories_sizes":[],"default_left":[1,1,1,1,1,1,0,0,0,0,0,0,0],"id":39,"left_children":[1,3,5,7,9,11,-1,-1,-1,-1,-1,-1,-1],"loss_changes":[8.3850464E1,7.2475433E0,8.009644E0,1.2343137E0,1.8561478E0,3.8575134E0,0E0,0E0,0E0,0E0,0E0,0E0,0E0],"parents":[2147483647,0,0,1,1,2,2,3,3,4,4,5,5],"right_children":[2,4,6,8,10,12,-1,-1,-1,-1,-1,-1,-1],"split_conditions":[2.026E1,9.785E0,4.236E1,7.185E0,2.0155E3,3.4309998E1,9.5392436E-2,-7.054263E-3,1.0326962E-2,2.2320976E-2,3.06793E-2,4.892009E-2,6.169734E-2],"split_indices":[6,8,6,6,5,7,0,0,0,0,0,0,0],"split_type":[0,0,0,0,0,0,0,0,0,0,0,0,0],"sum_hessian":[2.875E3,1.661E3,1.214E3,2.83E2,1.378E3,1.158E3,5.6E1,4.5E1,2.38E2,9.06E2,4.72E2,6.23E2,5.35E2],"tree_param":{"num_deleted":"0","num_feature":"9","num_nodes":"13","size_leaf_vector":"0"}},{"base_weights":[3.3590806E-1,2.0108707E-1,5.1557404E-1,1.0329627E-1,2.4091351E-1,4.835177E-1,7.4961185E-1,-4.430439E-2,1.225008E-1,2.0947026E-1,2.7076504E-1,3.9837137E-1,5.1280135E-1,4.9187168E-1,8.1439584E-1],"categories":[],"categories_nodes":[],"categories_segments":[],"categories_sizes":[],"default_left":[1,1,1,1,1,1,1,0,0,0,0,0,0,0,0],"id":40,"left_children":[1,3,5,7,9,11,13,-1,-1,-1,-1,-1,-1,-1,-1],"loss_changes":[6.893619E1,6.190254E0,8.218903E0,1.4051337E0,7.929077E-1,2.0404663E0,1.3507233E0,0E0,0E0,0E0,0E0,0E0,0E0,0E0,0E0],"parents":[2147483647,0,0,1,1,2,2,3,3,4,4,5,5,6,6],"right_children":[2,4,6,8,10,12,14,-1,-1,-1,-1,-1,-1,-1,-1],"split_conditions":[2.0130001E1,1.2883333E1,4.0239998E1,7.2316666E0,1.5906667E1,3.2025E1,4.5E0,-4.430439E-3,1.225008E-2,2.0947026E-2,2.7076503E-2,3.9837137E-2,5.1280137E-2,4.918717E-2,8.1439584E-2],"split_indices":[6,8,6,8,8,6,1,0,0,0,0,0,0,0,0],"split_type":[0,0,0,0,0,0,0,0,0,0,0,0,0,0,0],"sum_hessian":[2.864E3,1.639E3,1.225E3,4.79E2,1.16E3,1.082E3,1.43E2,5.2E1,4.27E2,5.77E2,5.83E2,2.85E2,7.97E2,3.2E1,1.11E2],"tree_param":{"num_deleted":"0","num_feature":"9","num_nodes":"15","size_leaf_vector":"0"}},{"base_weights":[2.9537717E-1,1.9191046E-1,4.758737E-1,1.272563E-1,2.4493591E-1,4.640768E-1,9.73638E-1,-0E0,1.439926E-1,2.1647364E-1,2.9660302E-1,4.061836E-1,5.280099E-1],"categories":[],"categories_nodes":[],"categories_segments":[],"categories_sizes":[],"default_left":[1,1,1,1,1,1,0,0,0,0,0,0,0],"id":41,"left_children":[1,3,5,7,9,11,-1,-1,-1,-1,-1,-1,-1],"loss_changes":[5.2594177E1,5.9811325E0,4.8892975E0,1.7781115E0,1.1321754E0,3.06044E0,0E0,0E0,0E0,0E0,0E0,0E0,0E0],"parents":[2147483647,0,0,1,1,2,2,3,3,4,4,5,5],"right_children":[2,4,6,8,10,12,-1,-1,-1,-1,-1,-1,-1],"split_conditions":[3.0474998E1,1.4895E1,4.3336666E1,7.615E0,1.8955E1,2.0215E3,9.73638E-2,-0E0,1.439926E-2,2.1647364E-2,2.9660303E-2,4.061836E-2,5.280099E-2],"split_indices":[7,6,8,6,6,5,0,0,0,0,0,0,0],"split_type":[0,0,0,0,0,0,0,0,0,0,0,0,0],"sum_hessian":[2.838E3,1.807E3,1.031E3,8.2E2,9.87E2,1.01E3,2.1E1,9.4E1,7.26E2,6.46E2,3.41E2,5.38E2,4.72E2],"tree_param":{"num_deleted":"0","num_feature":"9","num_nodes":"13","size_leaf_vector":"0"}},{"base_weights":[2.67034E-1,1.769912E-1,4.3096656E-1,9.006262E-2,2.1108824E-1,3.9679012E-1,5.171637E-1,-4.9417496E-2,1.04681924E-1,1.7889622E-1,2.627425E-1,5.128741E-1,3.7815103E-1,4.1242817E-1,6.02678E-1],"categories":[],"categories_nodes":[],"categories_segments":[],"categories_sizes":[],"default_left":[1,1,1,1,1,1,1,0,0,0,0,0,0,0,0],"id":42,"left_children":[1,3,5,7,9,11,13,-1,-1,-1,-1,-1,-1,-1,-1],"loss_changes":[4.232318E1,5.376072E0,2.351471E0,1.1196475E0,1.9587402E0,9.638519E-1,1.7785416E0,0E0,0E0,0E0,0E0,0E0,0E0,0E0,0E0],"parents":[2147483647,0,0,1,1,2,2,3,3,4,4,5,5,6,6],"right_children":[2,4,6,8,10,12,14,-1,-1,-1,-1,-1,-1,-1,-1],"split_conditions":[3.129E1,1.3445E1,2.0225E3,7.1949997E0,1.7625E1,4.5E0,4.5E0,-4.94175E-3,1.0468192E-2,1.7889623E-2,2.6274249E-2,5.1287413E-2,3.7815105E-2,4.124282E-2,6.0267802E-2],"split_indices":[7,6,5,6,8,0,1,0,0,0,0,0,0,0,0],"split_type":[0,0,0,0,0,0,0,0,0,0,0,0,0,0,0],"sum_hessian":[2.892E3,1.87E3,1.022E3,5.32E2,1.338E3,7.4E2,2.82E2,4.7E1,4.85E2,8.33E2,5.05E2,9.5E1,6.45E2,1.32E2,1.5E2],"tree_param":{"num_deleted":"0","num_feature":"9","num_nodes":"15","size_leaf_vector":"0"}},{"base_weights":[2.3627286E-1,1.3359614E-1,3.6665237E-1,3.5558052E-2,1.5416138E-1,3.0483845E-1,4.4725165E-1,-1.00693144E-1,4.9504638E-2,1.3290742E-1,1.7850043E-1,2.7398768E-1,3.4724885E-1,3.2860038E-1,4.9241278E-1],"categories":[],"categories_nodes":[],"categories_segments":[],"categories_sizes":[],"default_left":[1,1,1,1,1,1,1,0,0,0,0,0,0,0,0],"id":43,"left_children":[1,3,5,7,9,11,13,-1,-1,-1,-1,-1,-1,-1,-1],"loss_changes":[3.7492233E1,3.0912647E0,5.670471E0,5.1145744E-1,4.9513245E-1,5.2188873E-1,2.2837296E0,0E0,0E0,0E0,0E0,0E0,0E0,0E0,0E0],"parents":[2147483647,0,0,1,1,2,2,3,3,4,4,5,5,6,6],"right_children":[2,4,6,8,10,12,14,-1,-1,-1,-1,-1,-1,-1,-1],"split_conditions":[1.96E1,9.715E0,3.4585E1,7.105E0,1.5605E1,3.2730003E1,3.5E0,-1.0069314E-2,4.950464E-3,1.3290742E-2,1.7850043E-2,2.7398769E-2,3.4724887E-2,3.2860037E-2,4.924128E-2],"split_indices":[6,6,6,6,7,6,1,0,0,0,0,0,0,0,0],"split_type":[0,0,0,0,0,0,0,0,0,0,0,0,0,0,0],"sum_hessian":[2.822E3,1.582E3,1.24E3,2.79E2,1.303E3,7.08E2,5.32E2,2.2E1,2.57E2,7.1E2,5.93E2,4.21E2,2.87E2,1.52E2,3.8E2],"tree_param":{"num_deleted":"0","num_feature":"9","num_nodes":"15","size_leaf_vector":"0"}},{"base_weights":[2.19314E-1,1.2882082E-1,3.4049284E-1,3.6794998E-2,1.4679481E-1,2.8486106E-1,4.2138934E-1,-9.487484E-2,5.0023112E-2,1.263664E-1,1.8458685E-1,2.301048E-1,3.1893432E-1,4.0637025E-1,7.886079E-1],"categories":[],"categories_nodes":[],"categories_segments":[],"categories_sizes":[],"default_left":[1,1,1,1,1,1,1,0,0,0,0,0,0,0,0],"id":44,"left_children":[1,3,5,7,9,11,13,-1,-1,-1,-1,-1,-1,-1,-1],"loss_changes":[3.1193481E1,2.627058E0,5.0353546E0,4.612996E-1,8.81197E-1,1.0177994E0,1.8010712E0,0E0,0E0,0E0,0E0,0E0,0E0,0E0,0E0],"parents":[2147483647,0,0,1,1,2,2,3,3,4,4,5,5,6,6],"right_children":[2,4,6,8,10,12,14,-1,-1,-1,-1,-1,-1,-1,-1],"split_conditions":[2.026E1,9.715E0,2.0215E3,7.105E0,1.6575E1,5.5E0,4.3504997E1,-9.487484E-3,5.0023114E-3,1.2636641E-2,1.8458685E-2,2.3010481E-2,3.1893432E-2,4.0637027E-2,7.886079E-2],"split_indices":[6,6,5,6,6,1,6,0,0,0,0,0,0,0,0],"split_type":[0,0,0,0,0,0,0,0,0,0,0,0,0,0,0],"sum_hessian":[2.869E3,1.646E3,1.223E3,2.74E2,1.372E3,7.31E2,4.92E2,2.1E1,2.53E2,9.02E2,4.7E2,2.89E2,4.42E2,4.76E2,1.6E1],"tree_param":{"num_deleted":"0","num_feature":"9","num_nodes":"15","size_leaf_vector":"0"}},{"base_weights":[1.9529472E-1,1.1905042E-1,3.086894E-1,3.58877E-2,1.3914946E-1,2.7298498E-1,4.1856462E-1,-1.1529811E-1,4.675321E-2,1.15852654E-1,1.6026022E-1,2.378227E-1,3.030159E-1,3.376032E-1,4.772639E-1],"categories":[],"categories_nodes":[],"categories_segments":[],"categories_sizes":[],"default_left":[1,1,1,1,1,1,1,0,0,0,0,0,0,0,0],"id":45,"left_children":[1,3,5,7,9,11,13,-1,-1,-1,-1,-1,-1,-1,-1],"loss_changes":[2.4484726E1,2.7740955E0,4.039673E0,5.2963984E-1,5.201111E-1,5.783081E-1,7.430992E-1,0E0,0E0,0E0,0E0,0E0,0E0,0E0,0E0],"parents":[2147483647,0,0,1,1,2,2,3,3,4,4,5,5,6,6],"right_children":[2,4,6,8,10,12,14,-1,-1,-1,-1,-1,-1,-1,-1],"split_conditions":[2.0628334E1,1.0036667E1,2.0225E3,7.065E0,2.0145E3,6.5E0,4.5E0,-1.1529811E-2,4.675321E-3,1.1585265E-2,1.6026022E-2,2.378227E-2,3.030159E-2,3.376032E-2,4.772639E-2],"split_indices":[8,8,5,6,5,1,1,0,0,0,0,0,0,0,0],"split_type":[0,0,0,0,0,0,0,0,0,0,0,0,0,0,0],"sum_hessian":[2.86E3,1.714E3,1.146E3,3.39E2,1.375E3,8.71E2,2.75E2,1.9E1,3.2E2,6.68E2,7.07E2,4.13E2,4.58E2,1.22E2,1.53E2],"tree_param":{"num_deleted":"0","num_feature":"9","num_nodes":"15","size_leaf_vector":"0"}},{"base_weights":[1.7795022E-1,1.14123404E-1,2.8356826E-1,5.1979464E-2,1.3330895E-1,2.6220366E-1,4.312447E-1,-1.0180379E-2,6.63466E-2,1.3668205E-1,-4.9468163E-2,2.4778192E-1,3.2186955E-1,3.9681974E-1,6.4226633E-1],"categories":[],"categories_nodes":[],"categories_segments":[],"categories_sizes":[],"default_left":[1,1,1,1,1,1,1,0,0,0,0,0,0,0,0],"id":46,"left_children":[1,3,5,7,9,11,13,-1,-1,-1,-1,-1,-1,-1,-1],"loss_changes":[1.9304977E1,2.059618E0,2.9728851E0,4.172392E-1,8.9932823E-1,4.5804596E-1,1.9175911E-1,0E0,0E0,0E0,0E0,0E0,0E0,0E0,0E0],"parents":[2147483647,0,0,1,1,2,2,3,3,4,4,5,5,6,6],"right_children":[2,4,6,8,10,12,14,-1,-1,-1,-1,-1,-1,-1,-1],"split_conditions":[2.8145E1,1.1809999E1,4.0379997E1,7.365E0,2.5365E1,2.0225E3,4.3775E1,-1.0180379E-3,6.63466E-3,1.3668205E-2,-4.9468162E-3,2.4778193E-2,3.2186955E-2,3.9681975E-2,6.4226635E-2],"split_indices":[6,6,6,6,8,5,6,0,0,0,0,0,0,0,0],"split_type":[0,0,0,0,0,0,0,0,0,0,0,0,0,0,0],"sum_hessian":[2.897E3,1.81E3,1.087E3,4.34E2,1.376E3,9.55E2,1.32E2,7.5E1,3.59E2,1.354E3,2.2E1,7.8E2,1.75E2,1.18E2,1.4E1],"tree_param":{"num_deleted":"0","num_feature":"9","num_nodes":"15","size_leaf_vector":"0"}},{"base_weights":[1.5707973E-1,8.433692E-2,2.4632725E-1,-6.4719142E-3,9.056523E-2,2.230142E-1,3.4215784E-1,-7.960086E-2,4.8688697E-3,7.053718E-2,1.08814806E-1,2.266645E-1,-2.3672376E-2,3.2167467E-1,5.8268833E-1],"categories":[],"categories_nodes":[],"categories_segments":[],"categories_sizes":[],"default_left":[1,1,1,1,1,1,1,0,0,0,0,0,0,0,0],"id":47,"left_children":[1,3,5,7,9,11,13,-1,-1,-1,-1,-1,-1,-1,-1],"loss_changes":[1.8342384E1,9.3455887E-1,2.496292E0,1.181995E-1,4.4395924E-1,1.0388603E0,5.625286E-1,0E0,0E0,0E0,0E0,0E0,0E0,0E0,0E0],"parents":[2147483647,0,0,1,1,2,2,3,3,4,4,5,5,6,6],"right_children":[2,4,6,8,10,12,14,-1,-1,-1,-1,-1,-1,-1,-1],"split_conditions":[2.0175E3,7.6516666E0,3.8625E1,7.065E0,1.4895E1,3.828E1,4.318E1,-7.960087E-3,4.8688697E-4,7.053718E-3,1.0881481E-2,2.266645E-2,-2.3672376E-3,3.216747E-2,5.8268834E-2],"split_indices":[5,8,6,6,6,8,8,0,0,0,0,0,0,0,0],"split_type":[0,0,0,0,0,0,0,0,0,0,0,0,0,0,0],"sum_hessian":[2.853E3,1.576E3,1.277E3,9.6E1,1.48E3,1.034E3,2.43E2,1.8E1,7.8E1,7.21E2,7.59E2,1.021E3,1.3E1,2.28E2,1.5E1],"tree_param":{"num_deleted":"0","num_feature":"9","num_nodes":"15","size_leaf_vector":"0"}},{"base_weights":[1.4210501E-1,9.015899E-2,2.386752E-1,6.7314126E-2,1.302528E-1,2.1826948E-1,3.8542512E-1,1.8898789E-2,8.0940664E-2,8.808385E-2,1.715474E-1,2.227031E-1,-1.1161458E-1,4.2184293E-1,2.1970588E-1],"categories":[],"categories_nodes":[],"categories_segments":[],"categories_sizes":[],"default_left":[1,1,1,1,1,1,1,0,0,0,0,0,0,0,0],"id":48,"left_children":[1,3,5,7,9,11,13,-1,-1,-1,-1,-1,-1,-1,-1],"loss_changes":[1.435672E1,1.6235704E0,2.6385117E0,7.494669E-1,1.033968E0,1.3850288E0,3.0472374E-1,0E0,0E0,0E0,0E0,0E0,0E0,0E0,0E0],"parents":[2147483647,0,0,1,1,2,2,3,3,4,4,5,5,6,6],"right_children":[2,4,6,8,10,12,14,-1,-1,-1,-1,-1,-1,-1,-1],"split_conditions":[3.1555E1,2.0155E3,4.071E1,9.684999E0,1.55E1,4.0705E1,2.45E1,1.8898789E-3,8.094067E-3,8.808385E-3,1.715474E-2,2.227031E-2,-1.1161458E-2,4.2184293E-2,2.1970589E-2],"split_indices":[6,5,6,6,0,7,0,0,0,0,0,0,0,0,0],"split_type":[0,0,0,0,0,0,0,0,0,0,0,0,0,0,0],"sum_hessian":[2.898E3,1.889E3,1.009E3,1.213E3,6.76E2,8.91E2,1.18E2,2.75E2,9.38E2,3.42E2,3.34E2,8.81E2,1E1,9.3E1,2.5E1],"tree_param":{"num_deleted":"0","num_feature":"9","num_nodes":"15","size_leaf_vector":"0"}},{"base_weights":[1.3217334E-1,1.0103841E-1,2.595719E-1,5.832266E-2,1.3316199E-1,2.4841803E-1,5.395349E-1,1.8851086E-2,7.420356E-2,1.3598819E-1,-8.826065E-2,2.2539732E-1,3.661222E-1],"categories":[],"categories_nodes":[],"categories_segments":[],"categories_sizes":[],"default_left":[1,1,1,1,1,1,0,0,0,0,0,0,0],"id":49,"left_children":[1,3,5,7,9,11,-1,-1,-1,-1,-1,-1,-1],"loss_changes":[1.1240917E1,3.0854435E0,1.2300644E0,5.8267903E-1,8.612747E-1,1.0984688E0,0E0,0E0,0E0,0E0,0E0,0E0,0E0],"parents":[2147483647,0,0,1,1,2,2,3,3,4,4,5,5],"right_children":[2,4,6,8,10,12,-1,-1,-1,-1,-1,-1,-1],"split_conditions":[3.4545E1,1.566E1,4.3504997E1,9.85E0,3.4395E1,1.05E1,5.3953495E-2,1.8851086E-3,7.420356E-3,1.3598819E-2,-8.826065E-3,2.2539733E-2,3.661222E-2],"split_indices":[6,6,6,8,6,1,0,0,0,0,0,0,0],"split_type":[0,0,0,0,0,0,0,0,0,0,0,0,0],"sum_hessian":[2.885E3,2.323E3,5.62E2,1.005E3,1.318E3,5.44E2,1.8E1,2.98E2,7.07E2,1.304E3,1.4E1,4.61E2,8.3E1],"tree_param":{"num_deleted":"0","num_feature":"9","num_nodes":"13","size_leaf_vector":"0"}},{"base_weights":[1.2439572E-1,7.650144E-2,2.0620386E-1,1.2711019E-2,8.4841445E-2,1.7801464E-1,2.5954363E-1,-7.1962796E-2,2.576522E-2,8.7384745E-2,-9.328699E-2,1.929671E-1,-0E0,3.37162E-1,1.877628E-1],"categories":[],"categories_nodes":[],"categories_segments":[],"categories_sizes":[],"default_left":[1,1,1,1,1,1,1,0,0,0,0,0,0,0,0],"id":50,"left_children":[1,3,5,7,9,11,13,-1,-1,-1,-1,-1,-1,-1,-1],"loss_changes":[1.0978233E1,9.0670395E-1,1.3062859E0,2.175107E-1,7.2235394E-1,1.9078484E0,1.640974E0,0E0,0E0,0E0,0E0,0E0,0E0,0E0,0E0],"parents":[2147483647,0,0,1,1,2,2,3,3,4,4,5,5,6,6],"right_children":[2,4,6,8,10,12,14,-1,-1,-1,-1,-1,-1,-1,-1],"split_conditions":[2.8880001E1,9.345E0,3.6504997E1,7.105E0,2.5654999E1,3.6004997E1,1.55E1,-7.1962797E-3,2.576522E-3,8.738475E-3,-9.3287E-3,1.9296711E-2,-0E0,3.3716198E-2,1.877628E-2],"split_indices":[7,7,6,6,8,7,0,0,0,0,0,0,0,0,0],"split_type":[0,0,0,0,0,0,0,0,0,0,0,0,0,0,0],"sum_hessian":[2.841E3,1.797E3,1.044E3,2.15E2,1.582E3,6.92E2,3.52E2,2.3E1,1.92E2,1.563E3,1.9E1,6.4E2,5.2E1,1.64E2,1.88E2],"tree_param":{"num_deleted":"0","num_feature":"9","num_nodes":"15","size_leaf_vector":"0"}},{"base_weights":[1.0762799E-1,7.073795E-2,1.8888195E-1,5.1985692E-2,1.132607E-1,1.7885657E-1,3.4167773E-1,5.228047E-4,6.1278664E-2,1.2588732E-1,-7.4164234E-2,1.7349708E-1,4.1478634E-1,1.8781522E-1,4.0475985E-1],"categories":[],"categories_nodes":[],"categories_segments":[],"categories_sizes":[],"default_left":[1,1,1,1,1,1,1,0,0,0,0,0,0,0,0],"id":51,"left_children":[1,3,5,7,9,11,13,-1,-1,-1,-1,-1,-1,-1,-1],"loss_changes":[8.504505E0,1.4983101E0,1.0511456E0,6.343031E-1,1.4551234E0,7.0363045E-1,1.2269688E-1,0E0,0E0,0E0,0E0,0E0,0E0,0E0,0E0],"parents":[2147483647,0,0,1,1,2,2,3,3,4,4,5,5,6,6],"right_children":[2,4,6,8,10,12,14,-1,-1,-1,-1,-1,-1,-1,-1],"split_conditions":[3.2405E1,1.7654999E1,4.236E1,9.371666E0,3.2218334E1,3.05E1,1.25E1,5.228047E-5,6.1278665E-3,1.2588732E-2,-7.4164234E-3,1.7349709E-2,4.1478634E-2,1.8781522E-2,4.0475987E-2],"split_indices":[6,7,6,8,8,0,0,0,0,0,0,0,0,0,0],"split_type":[0,0,0,0,0,0,0,0,0,0,0,0,0,0,0],"sum_hessian":[2.884E3,1.989E3,8.95E2,1.39E3,5.99E2,8.45E2,5E1,2.21E2,1.169E3,5.64E2,3.5E1,8.3E2,1.5E1,1.8E1,3.2E1],"tree_param":{"num_deleted":"0","num_feature":"9","num_nodes":"15","size_leaf_vector":"0"}},{"base_weights":[8.925447E-2,5.251282E-2,1.340083E-1,2.6889022E-2,6.854593E-2,1.2389341E-1,2.6227844E-1,-4.251768E-2,3.385578E-2,7.800165E-2,2.6614225E-2,1.2849654E-1,-5.6170054E-2,1.08446395E-2,2.9809397E-1],"categories":[],"categories_nodes":[],"categories_segments":[],"categories_sizes":[],"default_left":[1,1,1,1,1,1,1,0,0,0,0,0,0,0,0],"id":52,"left_children":[1,3,5,7,9,11,13,-1,-1,-1,-1,-1,-1,-1,-1],"loss_changes":[4.6403027E0,6.0406876E-1,1.4520073E0,2.9980433E-1,3.286295E-1,1.0413227E0,6.5276814E-1,0E0,0E0,0E0,0E0,0E0,0E0,0E0,0E0],"parents":[2147483647,0,0,1,1,2,2,3,3,4,4,5,5,6,6],"right_children":[2,4,6,8,10,12,14,-1,-1,-1,-1,-1,-1,-1,-1],"split_conditions":[1.96E1,1.424E1,4.1620003E1,7.213333E0,3.5E0,4.091E1,3E0,-4.2517683E-3,3.385578E-3,7.800165E-3,2.6614226E-3,1.2849654E-2,-5.6170053E-3,1.084464E-3,2.9809399E-2],"split_indices":[6,6,6,8,3,7,1,0,0,0,0,0,0,0,0],"split_type":[0,0,0,0,0,0,0,0,0,0,0,0,0,0,0],"sum_hessian":[2.882E3,1.59E3,1.292E3,6.25E2,9.65E2,1.203E3,8.9E1,5E1,5.75E2,7.77E2,1.88E2,1.176E3,2.7E1,1.3E1,7.6E1],"tree_param":{"num_deleted":"0","num_feature":"9","num_nodes":"15","size_leaf_vector":"0"}},{"base_weights":[8.451877E-2,4.3510087E-2,1.3276732E-1,5.5249035E-3,4.9105488E-2,1.24075845E-1,2.711585E-1,-7.604952E-2,1.4884308E-2,5.9126344E-2,3.3686943E-2,1.0975109E-1,1.6860917E-1,1.9273165E-1,3.716724E-1],"categories":[],"categories_nodes":[],"categories_segments":[],"categories_sizes":[],"default_left":[1,1,1,1,1,1,1,0,0,0,0,0,0,0,0],"id":53,"left_children":[1,3,5,7,9,11,13,-1,-1,-1,-1,-1,-1,-1,-1],"loss_changes":[5.707367E0,3.10781E-1,1.3817253E0,1.3622625E-1,1.642034E-1,6.505699E-1,2.3738956E-1,0E0,0E0,0E0,0E0,0E0,0E0,0E0,0E0],"parents":[2147483647,0,0,1,1,2,2,3,3,4,4,5,5,6,6],"right_children":[2,4,6,8,10,12,14,-1,-1,-1,-1,-1,-1,-1,-1],"split_conditions":[1.924E1,2.0105E3,4.1945E1,7.065E0,2.5E0,9.5E0,2.0235E3,-7.6049524E-3,1.4884308E-3,5.9126345E-3,3.3686943E-3,1.0975109E-2,1.6860917E-2,1.9273166E-2,3.716724E-2],"split_indices":[6,5,7,6,3,1,5,0,0,0,0,0,0,0,0],"split_type":[0,0,0,0,0,0,0,0,0,0,0,0,0,0,0],"sum_hessian":[2.931E3,1.591E3,1.34E3,2.16E2,1.375E3,1.266E3,7.4E1,1.6E1,2E2,8.12E2,5.63E2,9.69E2,2.97E2,4.6E1,2.8E1],"tree_param":{"num_deleted":"0","num_feature":"9","num_nodes":"15","size_leaf_vector":"0"}},{"base_weights":[7.718396E-2,4.8465107E-2,1.2868689E-1,5.1514164E-2,-8.3198845E-2,6.8132736E-2,1.5010004E-1,4.8784807E-2,4.4278803E-1,-2.2786132E-1,7.9493694E-2,-1.363128E-2,1.0087216E-1,1.3803573E-1,3.2144377E-1],"categories":[],"categories_nodes":[],"categories_segments":[],"categories_sizes":[],"default_left":[1,1,1,1,1,1,1,0,0,0,0,0,0,0,0],"id":54,"left_children":[1,3,5,7,9,11,13,-1,-1,-1,-1,-1,-1,-1,-1],"loss_changes":[4.094013E0,7.2149324E-1,1.1863899E0,1.6431317E0,9.8664665E-1,7.704369E-1,1.2493725E0,0E0,0E0,0E0,0E0,0E0,0E0,0E0,0E0],"parents":[2147483647,0,0,1,1,2,2,3,3,4,4,5,5,6,6],"right_children":[2,4,6,8,10,12,14,-1,-1,-1,-1,-1,-1,-1,-1],"split_conditions":[3.1279999E1,3.0226665E1,3.5E0,2.9403332E1,3.1095001E1,2.0205E3,2.0235E3,4.878481E-3,4.4278804E-2,-2.2786131E-2,7.94937E-3,-1.363128E-3,1.0087216E-2,1.3803573E-2,3.214438E-2],"split_indices":[7,8,1,8,6,5,5,0,0,0,0,0,0,0,0],"split_type":[0,0,0,0,0,0,0,0,0,0,0,0,0,0,0],"sum_hessian":[2.831E3,1.825E3,1.006E3,1.788E3,3.7E1,2.7E2,7.36E2,1.778E3,1E1,2.1E1,1.6E1,7.3E1,1.97E2,6.92E2,4.4E1],"tree_param":{"num_deleted":"0","num_feature":"9","num_nodes":"15","size_leaf_vector":"0"}},{"base_weights":[7.476987E-2,3.5623007E-2,1.2335892E-1,1.9330326E-2,4.9099926E-2,1.0740174E-1,1.7800164E-1,2.4112279E-2,-3.9856814E-2,-2.4999512E-4,5.4092564E-2,1.0195923E-1,2.5111666E-1,1.155224E-1,2.2643249E-1],"categories":[],"categories_nodes":[],"categories_segments":[],"categories_sizes":[],"default_left":[1,1,1,1,1,1,1,0,0,0,0,0,0,0,0],"id":55,"left_children":[1,3,5,7,9,11,13,-1,-1,-1,-1,-1,-1,-1,-1],"loss_changes":[5.479782E0,3.2208467E-1,9.7083664E-1,2.0677641E-1,2.420299E-1,5.9176254E-1,6.6525173E-1,0E0,0E0,0E0,0E0,0E0,0E0,0E0,0E0],"parents":[2147483647,0,0,1,1,2,2,3,3,4,4,5,5,6,6],"right_children":[2,4,6,8,10,12,14,-1,-1,-1,-1,-1,-1,-1,-1],"split_conditions":[1.96E1,1.4595E1,2.0225E3,1.4440001E1,1.5E0,3.915667E1,4.5E0,2.411228E-3,-3.9856816E-3,-2.4999512E-5,5.4092566E-3,1.0195923E-2,2.5111666E-2,1.155224E-2,2.264325E-2],"split_indices":[6,6,5,8,1,8,1,0,0,0,0,0,0,0,0],"split_type":[0,0,0,0,0,0,0,0,0,0,0,0,0,0,0],"sum_hessian":[2.924E3,1.626E3,1.298E3,7.54E2,8.72E2,1.014E3,2.84E2,7.06E2,4.8E1,7.1E1,8.01E2,9.82E2,3.2E1,1.3E2,1.54E2],"tree_param":{"num_deleted":"0","num_feature":"9","num_nodes":"15","size_leaf_vector":"0"}},{"base_weights":[6.056209E-2,4.519476E-2,1.21830866E-1,7.2773583E-3,5.6823798E-2,3.109176E-1,1.1494342E-1,1.045914E-2,-1.0586175E-1,5.901981E-2,-1.12839125E-1,6.6874695E-1,-0E0,1.0179937E-2,1.2727119E-1],"categories":[],"categories_nodes":[],"categories_segments":[],"categories_sizes":[],"default_left":[1,1,1,1,1,1,1,0,0,0,0,0,0,0,0],"id":56,"left_children":[1,3,5,7,9,11,13,-1,-1,-1,-1,-1,-1,-1,-1],"loss_changes":[2.6348505E0,9.9096394E-1,4.975624E-1,1.53557E-1,6.377301E-1,1.9343942E0,6.493449E-1,0E0,0E0,0E0,0E0,0E0,0E0,0E0,0E0],"parents":[2147483647,0,0,1,1,2,2,3,3,4,4,5,5,6,6],"right_children":[2,4,6,8,10,12,14,-1,-1,-1,-1,-1,-1,-1,-1],"split_conditions":[3.4335E1,1.387E1,3.4155E1,1.375E1,3.4348335E1,4.5E0,3.5085E1,1.045914E-3,-1.0586175E-2,5.901981E-3,-1.1283913E-2,6.68747E-2,-0E0,1.0179937E-3,1.2727119E-2],"split_indices":[7,7,6,7,8,1,6,0,0,0,0,0,0,0,0],"split_type":[0,0,0,0,0,0,0,0,0,0,0,0,0,0,0],"sum_hessian":[2.892E3,2.32E3,5.72E2,5.55E2,1.765E3,1.6E1,5.56E2,5.45E2,1E1,1.746E3,1.9E1,7E0,9E0,6.3E1,4.93E2],"tree_param":{"num_deleted":"0","num_feature":"9","num_nodes":"15","size_leaf_vector":"0"}},{"base_weights":[5.6664713E-2,3.6882598E-2,1.0936168E-1,3.976866E-2,-2.2224899E-1,3.0134028E-1,1.00435555E-1,-2.6088136E-3,4.468344E-2,-3.302288E-1,-0E0,7.2005875E-2,3.8330877E-1,-2.5794405E-2,1.0884458E-1],"categories":[],"categories_nodes":[],"categories_segments":[],"categories_sizes":[],"default_left":[1,1,1,1,1,1,1,0,0,0,0,0,0,0,0],"id":57,"left_children":[1,3,5,7,9,11,13,-1,-1,-1,-1,-1,-1,-1,-1],"loss_changes":[2.8729982E0,1.4626968E0,1.0797682E0,4.472866E-1,4.8942804E-1,3.2748628E-1,8.2451487E-1,0E0,0E0,0E0,0E0,0E0,0E0,0E0,0E0],"parents":[2147483647,0,0,1,1,2,2,3,3,4,4,5,5,6,6],"right_children":[2,4,6,8,10,12,14,-1,-1,-1,-1,-1,-1,-1,-1],"split_conditions":[3.3175E1,3.3239998E1,3.3375E1,2.0105E3,9.5E0,3.3245003E1,3.359E1,-2.6088135E-4,4.468344E-3,-3.302288E-2,-0E0,7.2005875E-3,3.833088E-2,-2.5794406E-3,1.0884458E-2],"split_indices":[7,6,7,5,1,7,7,0,0,0,0,0,0,0,0],"split_type":[0,0,0,0,0,0,0,0,0,0,0,0,0,0,0],"sum_hessian":[2.829E3,2.065E3,7.64E2,2.045E3,2E1,3E1,7.34E2,2.02E2,1.843E3,1.3E1,7E0,1E1,2E1,4.2E1,6.92E2],"tree_param":{"num_deleted":"0","num_feature":"9","num_nodes":"15","size_leaf_vector":"0"}},{"base_weights":[5.008889E-2,3.395437E-2,8.707299E-2,3.6665488E-2,-1.2417363E-1,8.074527E-2,3.372582E-1,2.6408996E-2,6.565789E-2,-4.011413E-1,-0E0,7.457406E-2,3.18465E-1],"categories":[],"categories_nodes":[],"categories_segments":[],"categories_sizes":[],"default_left":[1,1,1,1,1,1,0,0,0,0,0,0,0],"id":58,"left_children":[1,3,5,7,9,11,-1,-1,-1,-1,-1,-1,-1],"loss_changes":[1.6497159E0,8.224931E-1,1.1283984E0,5.410063E-1,9.70237E-1,1.0178947E0,0E0,0E0,0E0,0E0,0E0,0E0,0E0],"parents":[2147483647,0,0,1,1,2,2,3,3,4,4,5,5],"right_children":[2,4,6,8,10,12,-1,-1,-1,-1,-1,-1,-1],"split_conditions":[3.2504997E1,3.246E1,4.318E1,1.8869999E1,4.5E0,3.05E1,3.372582E-2,2.6408997E-3,6.565789E-3,-4.011413E-2,-0E0,7.4574063E-3,3.18465E-2],"split_indices":[6,8,8,6,1,0,0,0,0,0,0,0,0],"split_type":[0,0,0,0,0,0,0,0,0,0,0,0,0],"sum_hessian":[2.87E3,2.009E3,8.61E2,1.979E3,3E1,8.43E2,1.8E1,1.476E3,5.03E2,8E0,2.2E1,8.25E2,1.8E1],"tree_param":{"num_deleted":"0","num_feature":"9","num_nodes":"13","size_leaf_vector":"0"}},{"base_weights":[4.8862264E-2,2.0449921E-2,8.3368495E-2,-4.359268E-2,2.2819085E-2,1.00383885E-1,5.8416195E-2,-7.00299E-2,-9.001163E-3,3.0788917E-2,9.649951E-3,6.774435E-2,1.4184064E-1,1.602878E-1,4.244239E-2],"categories":[],"categories_nodes":[],"categories_segments":[],"categories_sizes":[],"default_left":[1,1,1,1,1,1,1,1,1,0,0,0,0,0,0],"id":59,"left_children":[1,3,5,-1,9,11,13,-1,-1,-1,-1,-1,-1,-1,-1],"loss_changes":[2.7954364E0,2.3382705E-1,4.6837902E-1,5.5793E-3,1.4258474E-1,9.166832E-1,7.754432E-1,0E0,0E0,0E0,0E0,0E0,0E0,0E0,0E0],"parents":[2147483647,0,0,1,1,2,2,3,3,4,4,5,5,6,6],"right_children":[2,4,6,-1,10,12,14,-1,-1,-1,-1,-1,-1,-1,-1],"split_conditions":[1.9585E1,7.205E0,7.5E0,-4.359268E-3,2.5E0,4.5E0,4.5E0,-7.00299E-3,-9.001163E-4,3.0788917E-3,9.649951E-4,6.7744353E-3,1.4184064E-2,1.602878E-2,4.244239E-3],"split_indices":[6,7,1,6,3,1,0,2147483647,2147483647,0,0,0,0,0,0],"split_type":[0,0,0,0,0,0,0,0,0,0,0,0,0,0,0],"sum_hessian":[2.905E3,1.602E3,1.303E3,4.9E1,1.553E3,7.61E2,5.42E2,1.9E1,3E1,9.43E2,6.1E2,4.34E2,3.27E2,6.8E1,4.74E2],"tree_param":{"num_deleted":"2","num_feature":"9","num_nodes":"15","size_leaf_vector":"0"}},{"base_weights":[4.0527996E-2,2.000169E-2,6.5805756E-2,3.1885869E-4,3.342741E-2,5.271398E-2,1.0568051E-1,9.863416E-3,-3.4529604E-2,3.5521347E-2,-8.683077E-2,7.437871E-2,-1.8223658E-2,2.3756588E-1,8.724967E-2],"categories":[],"categories_nodes":[],"categories_segments":[],"categories_sizes":[],"default_left":[1,1,1,1,1,1,1,0,0,0,0,0,0,0,0],"id":60,"left_children":[1,3,5,7,9,11,13,-1,-1,-1,-1,-1,-1,-1,-1],"loss_changes":[1.4277825E0,4.001124E-1,5.729914E-1,2.0620172E-1,2.0985305E-1,1.5048041E0,5.485232E-1,0E0,0E0,0E0,0E0,0E0,0E0,0E0,0E0],"parents":[2147483647,0,0,1,1,2,2,3,3,4,4,5,5,6,6],"right_children":[2,4,6,8,10,12,14,-1,-1,-1,-1,-1,-1,-1,-1],"split_conditions":[1.9625E1,5.5E0,9.5E0,3.5E0,1.957E1,7.5E0,4.5E0,9.863416E-4,-3.4529604E-3,3.5521348E-3,-8.683077E-3,7.437871E-3,-1.8223658E-3,2.3756588E-2,8.724967E-3],"split_indices":[6,1,1,3,7,1,0,0,0,0,0,0,0,0,0],"split_type":[0,0,0,0,0,0,0,0,0,0,0,0,0,0,0],"sum_hessian":[2.836E3,1.577E3,1.259E3,6.55E2,9.22E2,9.59E2,3E2,5.26E2,1.29E2,9.11E2,1.1E1,7.4E2,2.19E2,3.2E1,2.68E2],"tree_param":{"num_deleted":"0","num_feature":"9","num_nodes":"15","size_leaf_vector":"0"}},{"base_weights":[3.843986E-2,2.5870332E-2,8.2695834E-2,2.7698023E-2,-1.6493928E-1,2.0281965E-1,7.292029E-2,1.7515324E-2,5.212351E-2,-2.4950886E-1,-5.3147953E-2,-0E0,4.3856543E-1,1.00366265E-1,2.251232E-2],"categories":[],"categories_nodes":[],"categories_segments":[],"categories_sizes":[],"default_left":[1,1,1,1,1,1,1,0,0,1,1,0,0,0,0],"id":61,"left_children":[1,3,5,7,-1,11,13,-1,-1,-1,-1,-1,-1,-1,-1],"loss_changes":[1.5512176E0,7.2445154E-1,5.871339E-1,5.2214074E-1,1.5039504E-2,2.077953E0,7.4979687E-1,0E0,0E0,0E0,0E0,0E0,0E0,0E0,0E0],"parents":[2147483647,0,0,1,1,2,2,3,3,4,4,5,5,6,6],"right_children":[2,4,6,8,-1,12,14,-1,-1,-1,-1,-1,-1,-1,-1],"split_conditions":[3.4261665E1,3.4158333E1,3.453E1,2.0175E3,-1.649393E-2,3.43E1,7.5E0,1.7515324E-3,5.212351E-3,-2.4950886E-2,-5.3147953E-3,-0E0,4.3856543E-2,1.0036627E-2,2.251232E-3],"split_indices":[8,8,7,5,0,7,1,0,0,2147483647,2147483647,0,0,0,0],"split_type":[0,0,0,0,0,0,0,0,0,0,0,0,0,0,0],"sum_hessian":[2.889E3,2.26E3,6.29E2,2.242E3,1.8E1,4.2E1,5.87E2,1.598E3,6.44E2,7E0,1.1E1,2.3E1,1.9E1,3.73E2,2.14E2],"tree_param":{"num_deleted":"2","num_feature":"9","num_nodes":"15","size_leaf_vector":"0"}},{"base_weights":[2.914756E-2,1.5443266E-2,6.701314E-2,-4.0735053E-3,2.8187864E-2,4.4359703E-2,1.6752227E-1,-3.1923212E-2,1.573814E-2,3.3963922E-2,-6.433466E-2,7.264771E-2,4.646344E-3,4.8785802E-2,2.3529948E-1],"categories":[],"categories_nodes":[],"categories_segments":[],"categories_sizes":[],"default_left":[1,1,1,1,1,1,1,0,0,0,0,0,0,0,0],"id":62,"left_children":[1,3,5,7,9,11,13,-1,-1,-1,-1,-1,-1,-1,-1],"loss_changes":[1.4574187E0,5.427203E-1,1.6125009E0,4.6544275E-1,6.849464E-1,6.620245E-1,9.329078E-1,0E0,0E0,0E0,0E0,0E0,0E0,0E0,0E0],"parents":[2147483647,0,0,1,1,2,2,3,3,4,4,5,5,6,6],"right_children":[2,4,6,8,10,12,14,-1,-1,-1,-1,-1,-1,-1,-1],"split_conditions":[3.3265E1,1.25E1,1.05E1,5.5E0,3.2608334E1,1.75E1,1.5E0,-3.1923212E-3,1.5738141E-3,3.3963923E-3,-6.433466E-3,7.2647715E-3,4.6463442E-4,4.87858E-3,2.3529949E-2],"split_indices":[7,0,1,1,8,0,3,0,0,0,0,0,0,0,0],"split_type":[0,0,0,0,0,0,0,0,0,0,0,0,0,0,0],"sum_hessian":[2.889E3,2.132E3,7.57E2,8.27E2,1.305E3,6.23E2,1.34E2,3.54E2,4.73E2,1.234E3,7.1E1,3.56E2,2.67E2,5.2E1,8.2E1],"tree_param":{"num_deleted":"0","num_feature":"9","num_nodes":"15","size_leaf_vector":"0"}},{"base_weights":[2.89311E-2,2.0499976E-2,6.810163E-2,2.4183398E-2,-6.275388E-2,9.645493E-2,1.0235099E-2,2.1650907E-2,6.108822E-1,-4.7663262E-1,-0E0,-2.4997787E-1,1.0846696E-1,2.2234435E-1,-1.584733E-2],"categories":[],"categories_nodes":[],"categories_segments":[],"categories_sizes":[],"default_left":[1,1,1,1,1,1,1,0,0,0,0,0,0,0,0],"id":63,"left_children":[1,3,5,7,9,11,13,-1,-1,-1,-1,-1,-1,-1,-1],"loss_changes":[9.107115E-1,7.1668077E-1,7.6930285E-1,3.0878713E0,2.5752702E0,1.3337693E0,1.058332E0,0E0,0E0,0E0,0E0,0E0,0E0,0E0,0E0],"parents":[2147483647,0,0,1,1,2,2,3,3,4,4,5,5,6,6],"right_children":[2,4,6,8,10,12,14,-1,-1,-1,-1,-1,-1,-1,-1],"split_conditions":[2.0215E3,3.5346664E1,7.5E0,3.5193333E1,3.5625E1,1.5E0,3.443E1,2.1650908E-3,6.1088223E-2,-4.7663264E-2,-0E0,-2.4997788E-2,1.0846696E-2,2.2234436E-2,-1.5847331E-3],"split_indices":[5,8,1,8,7,0,7,0,0,0,0,0,0,0,0],"split_type":[0,0,0,0,0,0,0,0,0,0,0,0,0,0,0],"sum_hessian":[2.895E3,2.394E3,5.01E2,2.299E3,9.5E1,3.3E2,1.71E2,2.291E3,8E0,1.2E1,8.3E1,9E0,3.21E2,2E1,1.51E2],"tree_param":{"num_deleted":"0","num_feature":"9","num_nodes":"15","size_leaf_vector":"0"}},{"base_weights":[2.604661E-2,1.5167897E-2,6.3934356E-2,1.7050361E-2,-8.957509E-2,4.625832E-2,1.4694373E-1,1.5428054E-2,2.0678806E-1,5.6129076E-2,-1.6140072E-1,7.402086E-2,-3.3989478E-2,-0E0,1.7363219E-1],"categories":[],"categories_nodes":[],"categories_segments":[],"categories_sizes":[],"default_left":[1,1,1,1,1,1,1,0,0,0,0,0,0,0,0],"id":64,"left_children":[1,3,5,7,9,11,13,-1,-1,-1,-1,-1,-1,-1,-1],"loss_changes":[1.1411704E0,4.0673983E-1,8.195188E-1,5.644291E-1,4.2798036E-1,1.1921699E0,4.762721E-1,0E0,0E0,0E0,0E0,0E0,0E0,0E0,0E0],"parents":[2147483647,0,0,1,1,2,2,3,3,4,4,5,5,6,6],"right_children":[2,4,6,8,10,12,14,-1,-1,-1,-1,-1,-1,-1,-1],"split_conditions":[3.4135002E1,3.393E1,1.05E1,3.3946667E1,1.05E1,7.5E0,3.4585E1,1.5428055E-3,2.0678807E-2,5.6129075E-3,-1.6140072E-2,7.402086E-3,-3.3989479E-3,-0E0,1.7363219E-2],"split_indices":[6,6,1,8,0,1,6,0,0,0,0,0,0,0,0],"split_type":[0,0,0,0,0,0,0,0,0,0,0,0,0,0,0],"sum_hessian":[2.866E3,2.238E3,6.28E2,2.204E3,3.4E1,5.24E2,1.04E2,2.189E3,1.5E1,9E0,2.5E1,3.94E2,1.3E2,1.4E1,9E1],"tree_param":{"num_deleted":"0","num_feature":"9","num_nodes":"15","size_leaf_vector":"0"}},{"base_weights":[2.6178299E-2,1.5617978E-2,6.238327E-2,1.717791E-2,-1.4164653E-1,8.350268E-3,9.7081445E-2,1.2524397E-3,2.8365584E-2,-2.9257202E-1,-0E0,8.2514316E-2,-3.6228836E-2,8.064376E-2,3.4116313E-1],"categories":[],"categories_nodes":[],"categories_segments":[],"categories_sizes":[],"default_left":[1,1,1,1,1,1,1,0,0,0,0,0,0,0,0],"id":65,"left_children":[1,3,5,7,9,11,13,-1,-1,-1,-1,-1,-1,-1,-1],"loss_changes":[1.0623001E0,4.907012E-1,1.146375E0,3.8175964E-1,3.0357602E-1,8.75817E-1,1.3022444E0,0E0,0E0,0E0,0E0,0E0,0E0,0E0,0E0],"parents":[2147483647,0,0,1,1,2,2,3,3,4,4,5,5,6,6],"right_children":[2,4,6,8,10,12,14,-1,-1,-1,-1,-1,-1,-1,-1],"split_conditions":[3.4085E1,3.4146667E1,4.5E0,5.5E0,6.5E0,3.6455E1,2.0235E3,1.2524397E-4,2.8365585E-3,-2.9257203E-2,-0E0,8.251431E-3,-3.6228837E-3,8.064376E-3,3.4116313E-2],"split_indices":[6,8,1,1,1,7,5,0,0,0,0,0,0,0,0],"split_type":[0,0,0,0,0,0,0,0,0,0,0,0,0,0,0],"sum_hessian":[2.882E3,2.243E3,6.39E2,2.225E3,1.8E1,2.56E2,3.83E2,9.37E2,1.288E3,7E0,1.1E1,1E2,1.56E2,3.62E2,2.1E1],"tree_param":{"num_deleted":"0","num_feature":"9","num_nodes":"15","size_leaf_vector":"0"}},{"base_weights":[2.1378508E-2,6.0818596E-3,3.1933334E-2,8.395121E-3,-1.3639832E-1,5.763189E-2,2.5101071E-2,-2.5435526E-2,1.5407796E-2,-1.8276936E-1,-4.6811104E-3,8.124458E-2,-4.6178128E-4,1.1987583E-2,5.2896652E-2],"categories":[],"categories_nodes":[],"categories_segments":[],"categories_sizes":[],"default_left":[1,1,1,1,1,1,1,0,0,1,1,0,0,0,0],"id":66,"left_children":[1,3,5,7,-1,11,13,-1,-1,-1,-1,-1,-1,-1,-1],"loss_changes":[4.5272672E-1,3.3727056E-1,2.574277E-1,2.7983278E-1,3.1450093E-3,5.109384E-1,4.6555573E-1,0E0,0E0,0E0,0E0,0E0,0E0,0E0,0E0],"parents":[2147483647,0,0,1,1,2,2,3,3,4,4,5,5,6,6],"right_children":[2,4,6,8,-1,12,14,-1,-1,-1,-1,-1,-1,-1,-1],"split_conditions":[2.0155E3,1.6783333E1,5E-1,2.5E0,-1.3639832E-2,3.5588333E1,3.5155E1,-2.5435525E-3,1.5407796E-3,-1.8276935E-2,-4.6811104E-4,8.124459E-3,-4.6178127E-5,1.1987583E-3,5.2896654E-3],"split_indices":[5,8,3,1,6,8,8,0,0,2147483647,2147483647,0,0,0,0],"split_type":[0,0,0,0,0,0,0,0,0,0,0,0,0,0,0],"sum_hessian":[2.922E3,1.213E3,1.709E3,1.198E3,1.5E1,3.42E2,1.367E3,1.93E2,1.005E3,8E0,7E0,2.49E2,9.3E1,9.42E2,4.25E2],"tree_param":{"num_deleted":"2","num_feature":"9","num_nodes":"15","size_leaf_vector":"0"}},{"base_weights":[1.5590996E-2,-6.8892264E-3,2.7357081E-2,5.6080464E-3,-6.048804E-2,2.421597E-2,2.7223673E-1,-2.4129523E-2,2.1190599E-2,-3.1274308E-2,-1.0706181E-1,1.1755305E-2,5.2163187E-2,5.2382195E-1,5.5343628E-2],"categories":[],"categories_nodes":[],"categories_segments":[],"categories_sizes":[],"default_left":[1,1,1,1,1,1,1,0,0,0,0,0,0,0,0],"id":67,"left_children":[1,3,5,7,9,11,13,-1,-1,-1,-1,-1,-1,-1,-1],"loss_changes":[7.716655E-1,6.808723E-1,1.3097264E0,3.6233744E-1,1.8871766E-1,6.2316525E-1,8.8190305E-1,0E0,0E0,0E0,0E0,0E0,0E0,0E0,0E0],"parents":[2147483647,0,0,1,1,2,2,3,3,4,4,5,5,6,6],"right_children":[2,4,6,8,10,12,14,-1,-1,-1,-1,-1,-1,-1,-1],"split_conditions":[4.5E0,3.5E0,2.0235E3,1.05E1,2.0195E3,3.2385002E1,4.359E1,-2.4129522E-3,2.11906E-3,-3.1274308E-3,-1.0706182E-2,1.1755306E-3,5.2163186E-3,5.2382197E-2,5.534363E-3],"split_indices":[1,3,5,0,5,6,7,0,0,0,0,0,0,0,0],"split_type":[0,0,0,0,0,0,0,0,0,0,0,0,0,0,0],"sum_hessian":[2.877E3,9.74E2,1.903E3,7.83E2,1.91E2,1.882E3,2.1E1,2.58E2,5.25E2,1.25E2,6.6E1,1.315E3,5.67E2,8E0,1.3E1],"tree_param":{"num_deleted":"0","num_feature":"9","num_nodes":"15","size_leaf_vector":"0"}},{"base_weights":[1.41963195E-2,4.436067E-3,4.946996E-2,-7.5438633E-3,1.6845467E-2,1.1410848E-1,1.3568609E-2,-4.3318057E-3,-2.1161397E-1,5.046616E-2,9.909279E-3,7.157953E-2,2.4750781E-1,-1.8896458E-1,3.0804094E-2],"categories":[],"categories_nodes":[],"categories_segments":[],"categories_sizes":[],"default_left":[1,1,1,1,1,1,1,0,0,0,0,0,0,0,0],"id":68,"left_children":[1,3,5,7,9,11,13,-1,-1,-1,-1,-1,-1,-1,-1],"loss_changes":[9.5643467E-1,3.3927134E-1,1.3455442E0,6.2853086E-1,2.3189479E-1,1.0254865E0,1.3125715E0,0E0,0E0,0E0,0E0,0E0,0E0,0E0,0E0],"parents":[2147483647,0,0,1,1,2,2,3,3,4,4,5,5,6,6],"right_children":[2,4,6,8,10,12,14,-1,-1,-1,-1,-1,-1,-1,-1],"split_conditions":[3.4135002E1,6.5E0,3.6025E1,3.393E1,7.5E0,3.56E1,3.6235E1,-4.3318057E-4,-2.1161398E-2,5.0466163E-3,9.909279E-4,7.157953E-3,2.4750782E-2,-1.8896459E-2,3.0804095E-3],"split_indices":[6,1,7,6,1,7,8,0,0,0,0,0,0,0,0],"split_type":[0,0,0,0,0,0,0,0,0,0,0,0,0,0,0],"sum_hessian":[2.856E3,2.249E3,6.07E2,1.124E3,1.125E3,2.11E2,3.96E2,1.11E3,1.4E1,1.79E2,9.46E2,1.64E2,4.7E1,2.8E1,3.68E2],"tree_param":{"num_deleted":"0","num_feature":"9","num_nodes":"15","size_leaf_vector":"0"}},{"base_weights":[1.7987708E-2,1.4425383E-2,9.447654E-2,1.5541744E-2,-3.037429E-1,1.287678E-1,-2.0980988E-2,1.4336209E-2,1.9824906E-1,-0E0,1.8198462E-1,-7.895046E-2,4.9572945E-2],"categories":[],"categories_nodes":[],"categories_segments":[],"categories_sizes":[],"default_left":[1,1,1,1,0,1,1,0,0,0,0,0,0],"id":69,"left_children":[1,3,5,7,-1,9,11,-1,-1,-1,-1,-1,-1],"loss_changes":[7.182964E-1,8.274493E-1,5.3169715E-1,4.8887146E-1,0E0,6.933794E-1,1.2085192E-1,0E0,0E0,0E0,0E0,0E0,0E0],"parents":[2147483647,0,0,1,1,2,2,3,3,5,5,6,6],"right_children":[2,4,6,8,-1,10,12,-1,-1,-1,-1,-1,-1],"split_conditions":[4.0715E1,4.0705E1,2.45E1,4.0285E1,-3.0374289E-2,7.5E0,4.2995E1,1.4336209E-3,1.9824905E-2,-0E0,1.8198462E-2,-7.895046E-3,4.9572946E-3],"split_indices":[6,7,0,6,0,0,6,0,0,0,0,0,0],"split_type":[0,0,0,0,0,0,0,0,0,0,0,0,0],"sum_hessian":[2.84E3,2.721E3,1.19E2,2.714E3,7E0,9.5E1,2.4E1,2.7E3,1.4E1,2.7E1,6.8E1,1.7E1,7E0],"tree_param":{"num_deleted":"0","num_feature":"9","num_nodes":"13","size_leaf_vector":"0"}},{"base_weights":[1.5337106E-2,7.2438032E-3,5.957787E-2,1.04207415E-2,-3.7296817E-1,3.291186E-1,4.733556E-2,1.1722879E-2,-1.2904619E-1,-9.4602756E-2,-6.161961E-1,5.802634E-1,-0E0,8.658067E-2,2.9065188E-3],"categories":[],"categories_nodes":[],"categories_segments":[],"categories_sizes":[],"default_left":[1,1,1,1,1,1,1,0,0,0,0,0,0,0,0],"id":70,"left_children":[1,3,5,7,9,11,13,-1,-1,-1,-1,-1,-1,-1,-1],"loss_changes":[9.980689E-1,2.778369E0,1.2349074E0,3.8396966E-1,8.727255E-1,1.188926E0,6.873264E-1,0E0,0E0,0E0,0E0,0E0,0E0,0E0,0E0],"parents":[2147483647,0,0,1,1,2,2,3,3,4,4,5,5,6,6],"right_children":[2,4,6,8,10,12,14,-1,-1,-1,-1,-1,-1,-1,-1],"split_conditions":[3.586E1,3.5915E1,3.596167E1,3.554E1,2.5E0,7.5E0,1.55E1,1.1722879E-3,-1.2904619E-2,-9.460276E-3,-6.161961E-2,5.802634E-2,-0E0,8.658067E-3,2.906519E-4],"split_indices":[8,7,8,8,3,1,0,0,0,0,0,0,0,0,0],"split_type":[0,0,0,0,0,0,0,0,0,0,0,0,0,0,0],"sum_hessian":[2.881E3,2.446E3,4.35E2,2.428E3,1.8E1,1.6E1,4.19E2,2.41E3,1.8E1,1E1,8E0,8E0,8E0,2.16E2,2.03E2],"tree_param":{"num_deleted":"0","num_feature":"9","num_nodes":"15","size_leaf_vector":"0"}},{"base_weights":[1.899223E-2,6.5054875E-3,3.6154356E-2,-4.118223E-2,8.954469E-3,8.466478E-2,2.2879973E-2,-9.796667E-2,-1.7572928E-2,1.4653849E-2,-3.23339E-3,3.2539356E-2,1.600783E-1,-2.3096523E-1,2.7989235E-2],"categories":[],"categories_nodes":[],"categories_segments":[],"categories_sizes":[],"default_left":[1,1,1,1,1,1,1,1,1,0,0,0,0,0,0],"id":71,"left_children":[1,3,5,-1,9,11,13,-1,-1,-1,-1,-1,-1,-1,-1],"loss_changes":[5.9925914E-1,1.8220778E-1,7.1895754E-1,3.8375445E-2,1.1849643E-1,8.812227E-1,1.1422781E0,0E0,0E0,0E0,0E0,0E0,0E0,0E0,0E0],"parents":[2147483647,0,0,1,1,2,2,3,3,4,4,5,5,6,6],"right_children":[2,4,6,-1,10,12,14,-1,-1,-1,-1,-1,-1,-1,-1],"split_conditions":[2.026E1,7.365E0,3.1955E1,-4.118223E-3,2.15E1,1.75E1,3.2059998E1,-9.796667E-3,-1.7572929E-3,1.465385E-3,-3.23339E-4,3.2539356E-3,1.6007831E-2,-2.3096522E-2,2.7989235E-3],"split_indices":[6,6,7,6,0,0,7,2147483647,2147483647,0,0,0,0,0,0],"split_type":[0,0,0,0,0,0,0,0,0,0,0,0,0,0,0],"sum_hessian":[2.896E3,1.694E3,1.202E3,7.2E1,1.622E3,2.49E2,9.53E2,1.4E1,5.8E1,1.133E3,4.89E2,1.52E2,9.7E1,1.6E1,9.37E2],"tree_param":{"num_deleted":"2","num_feature":"9","num_nodes":"15","size_leaf_vector":"0"}},{"base_weights":[1.0929476E-2,4.8776106E-3,5.6560446E-2,6.782897E-3,-2.499973E-1,5.085807E-1,4.352069E-2,2.761746E-3,9.3292914E-2,-3.6618125E-1,-5.0480314E-2,7.2835915E-2,-4.4976033E-2],"categories":[],"categories_nodes":[],"categories_segments":[],"categories_sizes":[],"default_left":[1,1,1,1,1,0,1,0,0,0,0,0,0],"id":72,"left_children":[1,3,5,7,9,-1,11,-1,-1,-1,-1,-1,-1],"loss_changes":[7.6321965E-1,1.1183933E0,1.6292301E0,8.3321714E-1,1.6725564E-1,0E0,8.473823E-1,0E0,0E0,0E0,0E0,0E0,0E0],"parents":[2147483647,0,0,1,1,2,2,3,3,4,4,6,6],"right_children":[2,4,6,8,10,-1,12,-1,-1,-1,-1,-1,-1],"split_conditions":[3.6995003E1,3.6715E1,3.709E1,3.5775E1,3.6903336E1,5.085807E-2,2.45E1,2.761746E-4,9.329292E-3,-3.6618125E-2,-5.0480315E-3,7.2835917E-3,-4.4976035E-3],"split_indices":[7,7,8,6,8,0,0,0,0,0,0,0,0],"split_type":[0,0,0,0,0,0,0,0,0,0,0,0,0],"sum_hessian":[2.875E3,2.549E3,3.26E2,2.533E3,1.6E1,7E0,3.19E2,2.427E3,1.06E2,8E0,8E0,2.44E2,7.5E1],"tree_param":{"num_deleted":"0","num_feature":"9","num_nodes":"13","size_leaf_vector":"0"}},{"base_weights":[8.578611E-3,-1.5778834E-2,1.696875E-2,5.2413833E-4,-4.5710932E-2,1.3722417E-2,1.7087285E-1,-4.855686E-3,1.7968655E-1,-2.055181E-1,1.2682994E-2,-0E0,2.2270255E-2,3.4101167E-1,1.5315692E-2],"categories":[],"categories_nodes":[],"categories_segments":[],"categories_sizes":[],"default_left":[1,1,1,1,1,1,1,0,0,0,0,0,0,0,0],"id":73,"left_children":[1,3,5,7,9,11,13,-1,-1,-1,-1,-1,-1,-1,-1],"loss_changes":[5.8533895E-1,3.7298858E-1,9.7605157E-1,5.268453E-1,2.5626106E0,2.3833343E-1,9.017323E-1,0E0,0E0,0E0,0E0,0E0,0E0,0E0,0E0],"parents":[2147483647,0,0,1,1,2,2,3,3,4,4,5,5,6,6],"right_children":[2,4,6,8,10,12,14,-1,-1,-1,-1,-1,-1,-1,-1],"split_conditions":[3.5E0,3.1099998E1,2.0235E3,2.8145E1,2.0205E3,1.25E1,1.5E0,-4.855686E-4,1.7968655E-2,-2.055181E-2,1.2682994E-3,-0E0,2.2270256E-3,3.410117E-2,1.5315692E-3],"split_indices":[1,8,5,6,5,0,3,0,0,0,0,0,0,0,0],"split_type":[0,0,0,0,0,0,0,0,0,0,0,0,0,0,0],"sum_hessian":[2.859E3,7.17E2,2.142E3,4.54E2,2.63E2,2.102E3,4E1,4.39E2,1.5E1,7.2E1,1.91E2,8.24E2,1.278E3,1.7E1,2.3E1],"tree_param":{"num_deleted":"0","num_feature":"9","num_nodes":"15","size_leaf_vector":"0"}},{"base_weights":[1.1358647E-2,-1.960924E-3,2.3056468E-2,-0E0,-8.077882E-2,-7.966486E-4,3.0633958E-2,9.179944E-3,-1.4053768E-2,-1.4417064E-1,-0E0,-5.6790784E-2,5.144925E-2,4.8446056E-2,4.1263574E-3],"categories":[],"categories_nodes":[],"categories_segments":[],"categories_sizes":[],"default_left":[1,1,1,1,1,1,1,0,0,0,0,0,0,0,0],"id":74,"left_children":[1,3,5,7,9,11,13,-1,-1,-1,-1,-1,-1,-1,-1],"loss_changes":[4.5013285E-1,1.9075775E-1,2.9003966E-1,1.6471758E-1,1.3680623E-1,1.0353559E0,5.264087E-1,0E0,0E0,0E0,0E0,0E0,0E0,0E0,0E0],"parents":[2147483647,0,0,1,1,2,2,3,3,4,4,5,5,6,6],"right_children":[2,4,6,8,10,12,14,-1,-1,-1,-1,-1,-1,-1,-1],"split_conditions":[1.733E1,1.7158333E1,7.5E0,2.5E0,1.7255001E1,6.5E0,7.5E0,9.179944E-4,-1.4053768E-3,-1.4417064E-2,-0E0,-5.6790784E-3,5.1449253E-3,4.8446055E-3,4.1263574E-4],"split_indices":[7,8,0,3,8,1,1,0,0,0,0,0,0,0,0],"split_type":[0,0,0,0,0,0,0,0,0,0,0,0,0,0,0],"sum_hessian":[2.82E3,1.299E3,1.521E3,1.27E3,2.9E1,3.51E2,1.17E3,7.63E2,5.07E2,1.5E1,1.4E1,1.74E2,1.77E2,6.88E2,4.82E2],"tree_param":{"num_deleted":"0","num_feature":"9","num_nodes":"15","size_leaf_vector":"0"}},{"base_weights":[1.0539562E-2,4.175976E-3,4.757179E-2,7.416514E-3,-1.1582984E-1,4.1866452E-1,2.922854E-2,5.212669E-3,3.2591018E-1,-3.1400445E-1,-5.0684948E-2,1.6031435E-1,5.593132E-1,8.003701E-2,-1.4642098E-2],"categories":[],"categories_nodes":[],"categories_segments":[],"categories_sizes":[],"default_left":[1,1,1,1,1,1,1,0,0,0,0,0,0,0,0],"id":75,"left_children":[1,3,5,7,9,11,13,-1,-1,-1,-1,-1,-1,-1,-1],"loss_changes":[6.530931E-1,9.079724E-1,2.561513E0,1.5257487E0,5.8925384E-1,2.0457935E-1,9.120956E-1,0E0,0E0,0E0,0E0,0E0,0E0,0E0,0E0],"parents":[2147483647,0,0,1,1,2,2,3,3,4,4,5,5,6,6],"right_children":[2,4,6,8,10,12,14,-1,-1,-1,-1,-1,-1,-1,-1],"split_conditions":[3.586E1,3.5266666E1,3.5971664E1,3.5155E1,5E-1,3.5925003E1,1.55E1,5.212669E-4,3.259102E-2,-3.1400446E-2,-5.068495E-3,1.6031435E-2,5.593132E-2,8.003701E-3,-1.4642099E-3],"split_indices":[8,8,8,8,3,6,0,0,0,0,0,0,0,0,0],"split_type":[0,0,0,0,0,0,0,0,0,0,0,0,0,0,0],"sum_hessian":[2.881E3,2.471E3,4.1E2,2.411E3,6E1,1.7E1,3.93E2,2.397E3,1.4E1,1.2E1,4.8E1,8E0,9E0,1.87E2,2.06E2],"tree_param":{"num_deleted":"0","num_feature":"9","num_nodes":"15","size_leaf_vector":"0"}},{"base_weights":[6.02833E-3,-8.886891E-3,1.4196755E-2,-2.0804292E-2,-2.2055767E-3,1.2097356E-2,1.2589E-1,-2.3102527E-2,-0E0,4.1405734E-2,-5.349353E-3,1.0467908E-2,1.2900816E-1,-1.6490618E-2,2.827537E-1],"categories":[],"categories_nodes":[],"categories_segments":[],"categories_sizes":[],"default_left":[1,1,1,1,1,1,1,1,1,1,1,0,0,0,0],"id":76,"left_children":[1,-1,5,-1,-1,11,13,-1,-1,-1,-1,-1,-1,-1,-1],"loss_changes":[3.5122597E-1,6.7356475E-2,3.679773E-1,1.611954E-2,7.309339E-2,2.7962205E-1,8.0782485E-1,0E0,0E0,0E0,0E0,0E0,0E0,0E0,0E0],"parents":[2147483647,0,0,1,1,2,2,3,3,4,4,5,5,6,6],"right_children":[2,-1,6,-1,-1,12,14,-1,-1,-1,-1,-1,-1,-1,-1],"split_conditions":[2.0145E3,-8.8868913E-4,3.05E1,-2.080429E-3,-2.2055767E-4,4.3504997E1,3.2625E1,-2.3102527E-3,-0E0,4.1405736E-3,-5.3493533E-4,1.0467909E-3,1.2900816E-2,-1.6490618E-3,2.827537E-2],"split_indices":[5,8,0,2147483647,2147483647,6,6,2147483647,2147483647,2147483647,2147483647,0,0,0,0],"split_type":[0,0,0,0,0,0,0,0,0,0,0,0,0,0,0],"sum_hessian":[2.859E3,9.9E2,1.869E3,3.28E2,6.62E2,1.84E3,2.9E1,2.96E2,3.2E1,3.3E1,6.29E2,1.82E3,2E1,1.4E1,1.5E1],"tree_param":{"num_deleted":"6","num_feature":"9","num_nodes":"15","size_leaf_vector":"0"}},{"base_weights":[6.2546534E-3,-1.778724E-2,1.1062407E-2,-1.3157179E-3,-8.86077E-2,5.4371366E-3,3.6239758E-2,-1.1903104E-2,1.2569149E-1,-3.2390594E-1,-3.2335475E-2,8.111308E-3,-1.4382005E-1,4.2864737E-1,2.6531147E-2],"categories":[],"categories_nodes":[],"categories_segments":[],"categories_sizes":[],"default_left":[1,1,1,1,1,1,1,0,0,0,0,0,0,0,0],"id":77,"left_children":[1,3,5,7,9,11,13,-1,-1,-1,-1,-1,-1,-1,-1],"loss_changes":[3.3111337E-1,4.9735385E-1,3.2284072E-1,4.6095687E-1,8.971476E-1,7.323893E-1,1.387794E0,0E0,0E0,0E0,0E0,0E0,0E0,0E0,0E0],"parents":[2147483647,0,0,1,1,2,2,3,3,4,4,5,5,6,6],"right_children":[2,4,6,8,10,12,14,-1,-1,-1,-1,-1,-1,-1,-1],"split_conditions":[2.5E0,3.5235E1,3.4769997E1,3.4568333E1,3.5905E1,3.4385002E1,3.456333E1,-1.1903105E-3,1.2569149E-2,-3.2390594E-2,-3.2335476E-3,8.1113086E-4,-1.4382005E-2,4.2864736E-2,2.6531147E-3],"split_indices":[1,8,6,8,7,6,8,0,0,0,0,0,0,0,0],"split_type":[0,0,0,0,0,0,0,0,0,0,0,0,0,0,0],"sum_hessian":[2.891E3,4.64E2,2.427E3,3.83E2,8.1E1,2.001E3,4.26E2,3.58E2,2.5E1,1.3E1,6.8E1,1.97E3,3.1E1,8E0,4.18E2],"tree_param":{"num_deleted":"0","num_feature":"9","num_nodes":"15","size_leaf_vector":"0"}},{"base_weights":[3.3083493E-3,2.4641675E-3,2.4440575E-1,-5.3359964E-4,3.1982776E-2,1.1728891E-3,-2.8940067E-1,2.4155599E-1,1.2203569E-2],"categories":[],"categories_nodes":[],"categories_segments":[],"categories_sizes":[],"default_left":[1,1,0,1,1,0,0,0,0],"id":78,"left_children":[1,3,-1,5,7,-1,-1,-1,-1],"loss_changes":[4.637575E-1,2.706811E-1,0E0,1.4266123E0,1.0349714E0,0E0,0E0,0E0,0E0],"parents":[2147483647,0,0,1,1,3,3,4,4],"right_children":[2,4,-1,6,8,-1,-1,-1,-1],"split_conditions":[4.3918335E1,3.7765E1,2.4440575E-2,3.7504997E1,3.8355E1,1.1728892E-4,-2.8940067E-2,2.41556E-2,1.2203569E-3],"split_indices":[8,7,0,6,7,0,0,0,0],"split_type":[0,0,0,0,0,0,0,0,0],"sum_hessian":[2.887E3,2.88E3,7E0,2.6E3,2.8E2,2.584E3,1.6E1,2.1E1,2.59E2],"tree_param":{"num_deleted":"0","num_feature":"9","num_nodes":"9","size_leaf_vector":"0"}},{"base_weights":[2.8786836E-3,-1.7070925E-2,7.17857E-3,-5.581307E-2,-2.8605913E-3,-0E0,2.3700094E-2,-7.046159E-2,5.2954935E-2,1.1697258E-2,-6.093908E-2,5.161108E-3,-4.7009066E-2,1.3621387E-1,1.1462614E-2],"categories":[],"categories_nodes":[],"categories_segments":[],"categories_sizes":[],"default_left":[1,1,1,1,1,1,1,0,0,0,0,0,0,0,0],"id":79,"left_children":[1,3,5,7,9,11,13,-1,-1,-1,-1,-1,-1,-1,-1],"loss_changes":[2.4205421E-1,2.402675E-1,2.8973576E-1,2.0686612E-1,3.3732247E-1,4.1307434E-1,9.3661094E-1,0E0,0E0,0E0,0E0,0E0,0E0,0E0,0E0],"parents":[2147483647,0,0,1,1,2,2,3,3,4,4,5,5,6,6],"right_children":[2,4,6,8,10,12,14,-1,-1,-1,-1,-1,-1,-1,-1],"split_conditions":[2.5E0,7.5E0,3.2385002E1,4.037E1,3.5114998E1,2.4471666E1,3.2815002E1,-7.0461594E-3,5.2954936E-3,1.1697258E-3,-6.093908E-3,5.161108E-4,-4.7009066E-3,1.3621387E-2,1.1462615E-3],"split_indices":[1,0,6,6,7,8,7,0,0,0,0,0,0,0,0],"split_type":[0,0,0,0,0,0,0,0,0,0,0,0,0,0,0],"sum_hessian":[2.877E3,4.89E2,2.388E3,1.21E2,3.68E2,1.654E3,7.34E2,1.11E2,1E1,2.88E2,8E1,1.486E3,1.68E2,6.7E1,6.67E2],"tree_param":{"num_deleted":"0","num_feature":"9","num_nodes":"15","size_leaf_vector":"0"}},{"base_weights":[5.660765E-3,-2.1049118E-2,9.293265E-3,-8.57044E-2,-1.5289897E-2,6.837211E-3,4.960549E-2,-0E0,-1.948907E-2,7.6711006E-3,-1.867919E-1,2.3425539E-1,-0E0],"categories":[],"categories_nodes":[],"categories_segments":[],"categories_sizes":[],"default_left":[1,1,1,1,1,1,1,1,1,0,0,0,0],"id":80,"left_children":[1,-1,5,-1,-1,9,11,-1,-1,-1,-1,-1,-1],"loss_changes":[2.7811185E-1,7.256204E-2,2.2807078E-1,0E0,2.3214072E-2,3.084313E-1,1.3640267E0,0E0,0E0,0E0,0E0,0E0,0E0],"parents":[2147483647,0,0,1,1,2,2,4,4,5,5,6,6],"right_children":[2,-1,6,-1,-1,10,12,-1,-1,-1,-1,-1,-1],"split_conditions":[9.988333E0,-2.1049117E-3,4.0285E1,-8.57044E-3,-1.5289898E-3,4.0195E1,4.0963333E1,-0E0,-1.948907E-3,7.671101E-4,-1.867919E-2,2.342554E-2,-0E0],"split_indices":[8,6,6,2147483647,2147483647,6,8,2147483647,2147483647,0,0,0,0],"split_type":[0,0,0,0,0,0,0,0,0,0,0,0,0],"sum_hessian":[2.924E3,3.33E2,2.591E3,1.9E1,3.14E2,2.455E3,1.36E2,6E1,2.54E2,2.448E3,7E0,3E1,1.06E2],"tree_param":{"num_deleted":"4","num_feature":"9","num_nodes":"13","size_leaf_vector":"0"}},{"base_weights":[6.3356296E-3,-5.878977E-3,1.5454142E-2,-2.9203142E-3,-1.4986974E-1,-4.256497E-3,2.8812815E-2,-3.125068E-2,1.9459112E-3,-4.4617556E-2,2.2246303E-2,8.4795654E-2,1.6791677E-2],"categories":[],"categories_nodes":[],"categories_segments":[],"categories_sizes":[],"default_left":[1,1,1,1,0,1,1,0,0,0,0,0,0],"id":81,"left_children":[1,3,5,7,-1,9,11,-1,-1,-1,-1,-1,-1],"loss_changes":[3.2687527E-1,4.3992972E-1,4.5449483E-1,1.7918251E-1,0E0,7.224464E-1,6.315275E-1,0E0,0E0,0E0,0E0,0E0,0E0],"parents":[2147483647,0,0,1,1,2,2,3,3,5,5,6,6],"right_children":[2,4,6,8,-1,10,12,-1,-1,-1,-1,-1,-1],"split_conditions":[2.0155E3,1.679E1,1.25E1,2.5E0,-1.4986974E-2,3.1375E1,1.55E1,-3.1250683E-3,1.9459112E-4,-4.4617555E-3,2.2246304E-3,8.479565E-3,1.6791677E-3],"split_indices":[5,7,0,1,0,6,0,0,0,0,0,0,0],"split_type":[0,0,0,0,0,0,0,0,0,0,0,0,0],"sum_hessian":[2.89E3,1.212E3,1.678E3,1.192E3,2E1,6.63E2,1.015E3,1.89E2,1.003E3,2.7E2,3.93E2,1.71E2,8.44E2],"tree_param":{"num_deleted":"0","num_feature":"9","num_nodes":"13","size_leaf_vector":"0"}},{"base_weights":[5.1067364E-3,9.93346E-3,-3.700842E-2,8.203664E-3,4.51071E-1,-3.6985397E-1,-1.00649E-2,9.16643E-3,-2.411747E-1,-7.682008E-2,-7.373023E-1,5.030641E-2,-6.8761066E-2],"categories":[],"categories_nodes":[],"categories_segments":[],"categories_sizes":[],"default_left":[1,1,1,1,0,1,1,0,0,0,0,0,0],"id":82,"left_children":[1,3,5,7,-1,9,11,-1,-1,-1,-1,-1,-1],"loss_changes":[5.728812E-1,1.7491386E0,2.3711748E0,5.080471E-1,0E0,1.6897955E0,9.58818E-1,0E0,0E0,0E0,0E0,0E0,0E0],"parents":[2147483647,0,0,1,1,2,2,3,3,5,5,6,6],"right_children":[2,4,6,8,-1,10,12,-1,-1,-1,-1,-1,-1],"split_conditions":[3.7565002E1,3.74E1,3.8045E1,3.7504997E1,4.51071E-2,3.7875E1,1.55E1,9.16643E-4,-2.411747E-2,-7.682008E-3,-7.373023E-2,5.030641E-3,-6.876107E-3],"split_indices":[8,7,7,6,0,8,0,0,0,0,0,0,0],"split_type":[0,0,0,0,0,0,0,0,0,0,0,0,0],"sum_hessian":[2.882E3,2.597E3,2.85E2,2.589E3,8E0,1.9E1,2.66E2,2.582E3,7E0,1.2E1,7E0,1.27E2,1.39E2],"tree_param":{"num_deleted":"0","num_feature":"9","num_nodes":"13","size_leaf_vector":"0"}},{"base_weights":[4.5667402E-3,-3.925594E-3,1.6142718E-2,-2.1957248E-3,-7.575256E-2,6.4546674E-2,8.18687E-3,-9.206605E-2,-8.732908E-4,-1.20237E-1,-0E0,1.4962573E-2,1.712659E-1,-7.835414E-2,2.0033004E-2],"categories":[],"categories_nodes":[],"categories_segments":[],"categories_sizes":[],"default_left":[1,1,1,1,1,1,1,0,0,0,0,0,0,0,0],"id":83,"left_children":[1,3,5,7,9,11,13,-1,-1,-1,-1,-1,-1,-1,-1],"loss_changes":[2.916557E-1,1.6599835E-1,4.4601333E-1,1.4598298E-1,1.3442223E-1,7.9330826E-1,1.0867758E0,0E0,0E0,0E0,0E0,0E0,0E0,0E0,0E0],"parents":[2147483647,0,0,1,1,2,2,3,3,4,4,5,5,6,6],"right_children":[2,4,6,8,10,12,14,-1,-1,-1,-1,-1,-1,-1,-1],"split_conditions":[1.9869999E1,1.9591667E1,4.5E0,7.065E0,1.9825E1,8.5E0,7.5E0,-9.206605E-3,-8.7329085E-5,-1.20237E-2,-0E0,1.4962573E-3,1.712659E-2,-7.835414E-3,2.0033005E-3],"split_indices":[7,8,0,6,6,1,0,0,0,0,0,0,0,0,0],"split_type":[0,0,0,0,0,0,0,0,0,0,0,0,0,0,0],"sum_hessian":[2.903E3,1.65E3,1.253E3,1.619E3,3.1E1,1.67E2,1.086E3,1.7E1,1.602E3,2.1E1,1E1,1.18E2,4.9E1,1.25E2,9.61E2],"tree_param":{"num_deleted":"0","num_feature":"9","num_nodes":"15","size_leaf_vector":"0"}},{"base_weights":[4.3309596E-3,6.4319912E-3,-4.9057998E-2,4.514906E-3,1.7663029E-1,-4.1010538E-1,-7.770124E-3,7.817287E-3,-3.5563342E-2,2.8545913E-1,1.1697224E-2,1.6042785E-1,-3.396542E-2],"categories":[],"categories_nodes":[],"categories_segments":[],"categories_sizes":[],"default_left":[1,1,1,1,1,0,1,0,0,0,0,0,0],"id":84,"left_children":[1,3,5,7,9,-1,11,-1,-1,-1,-1,-1,-1],"loss_changes":[3.0160892E-1,8.147224E-1,1.2785635E0,3.503775E-1,3.50668E-1,0E0,3.475694E-1,0E0,0E0,0E0,0E0,0E0,0E0],"parents":[2147483647,0,0,1,1,2,2,3,3,4,4,6,6],"right_children":[2,4,6,8,10,-1,12,-1,-1,-1,-1,-1,-1],"split_conditions":[4.091E1,4.0285E1,4.1265E1,3.6605E1,4.0425E1,-4.101054E-2,2.0215E3,7.817287E-4,-3.5563342E-3,2.8545914E-2,1.1697224E-3,1.6042786E-2,-3.396542E-3],"split_indices":[7,6,8,7,8,0,5,0,0,0,0,0,0],"split_type":[0,0,0,0,0,0,0,0,0,0,0,0,0],"sum_hessian":[2.875E3,2.776E3,9.9E1,2.749E3,2.7E1,8E0,9.1E1,2.552E3,1.97E2,1.4E1,1.3E1,9E0,8.2E1],"tree_param":{"num_deleted":"0","num_feature":"9","num_nodes":"13","size_leaf_vector":"0"}},{"base_weights":[-1.6184241E-3,-2.7868326E-3,1.21595465E-1,3.497474E-3,-3.0944282E-2,1.7545938E-1,-0E0,1.3934121E-3,1.8371932E-1,-4.513111E-1,-2.1943118E-2],"categories":[],"categories_nodes":[],"categories_segments":[],"categories_sizes":[],"default_left":[1,1,1,1,1,0,0,0,0,0,0],"id":85,"left_children":[1,3,5,7,9,-1,-1,-1,-1,-1,-1],"loss_changes":[3.5468754E-1,5.184932E-1,1.5251043E-1,7.861684E-1,1.7777977E0,0E0,0E0,0E0,0E0,0E0,0E0],"parents":[2147483647,0,0,1,1,2,2,3,3,4,4],"right_children":[2,4,6,8,10,-1,-1,-1,-1,-1,-1],"split_conditions":[4.3056667E1,3.4645E1,2.5E0,3.4449997E1,3.4559998E1,1.7545938E-2,-0E0,1.3934121E-4,1.8371932E-2,-4.5131113E-2,-2.194312E-3],"split_indices":[8,8,3,8,7,0,0,0,0,0,0],"split_type":[0,0,0,0,0,0,0,0,0,0,0],"sum_hessian":[2.873E3,2.851E3,2.2E1,2.317E3,5.34E2,1.5E1,7E0,2.294E3,2.3E1,9E0,5.25E2],"tree_param":{"num_deleted":"0","num_feature":"9","num_nodes":"11","size_leaf_vector":"0"}},{"base_weights":[-3.0984741E-3,1.8485448E-3,-1.4906727E-2,-7.255013E-5,2.9094848E-1,2.1425039E-2,-5.1837377E-2,-1.4052107E-2,8.279225E-3,2.1667957E-2,4.6136045E-1,-1.8334992E-1,3.435831E-2,1.8944962E-1,-5.9523832E-2],"categories":[],"categories_nodes":[],"categories_segments":[],"categories_sizes":[],"default_left":[1,1,1,1,1,1,1,0,0,0,0,0,0,0,0],"id":86,"left_children":[1,3,5,7,9,11,13,-1,-1,-1,-1,-1,-1,-1,-1],"loss_changes":[1.7572838E-1,1.2629006E0,1.2037708E0,2.3627748E-1,4.3681848E-1,1.0971043E0,7.7348363E-1,0E0,0E0,0E0,0E0,0E0,0E0,0E0,0E0],"parents":[2147483647,0,0,1,1,2,2,3,3,4,4,5,5,6,6],"right_children":[2,4,6,8,10,12,14,-1,-1,-1,-1,-1,-1,-1,-1],"split_conditions":[2.0195E3,3.6545E1,1.55E1,1.4775E1,1.7E1,3.1261665E1,3.1154999E1,-1.4052107E-3,8.279225E-4,2.1667958E-3,4.6136048E-2,-1.8334992E-2,3.4358313E-3,1.8944962E-2,-5.9523834E-3],"split_indices":[5,6,0,7,0,8,6,0,0,0,0,0,0,0,0],"split_type":[0,0,0,0,0,0,0,0,0,0,0,0,0,0,0],"sum_hessian":[2.895E3,2.011E3,8.84E2,1.997E3,1.4E1,4.39E2,4.45E2,7.69E2,1.228E3,7E0,7E0,2.3E1,4.16E2,1.1E1,4.34E2],"tree_param":{"num_deleted":"0","num_feature":"9","num_nodes":"15","size_leaf_vector":"0"}},{"base_weights":[1.8535091E-3,3.5782457E-5,5.724898E-2,5.3815152E-3,-1.7146718E-2,2.8138962E-1,1.9933574E-2,2.847864E-3,3.6254174E-1,-1.4507349E-1,-7.71604E-3,-3.3607144E-2,1.938509E-1],"categories":[],"categories_nodes":[],"categories_segments":[],"categories_sizes":[],"default_left":[1,1,1,1,1,0,1,0,0,0,0,0,0],"id":87,"left_children":[1,3,5,7,9,-1,11,-1,-1,-1,-1,-1,-1],"loss_changes":[2.6528084E-1,2.5470495E-1,5.4629683E-1,1.7944268E0,7.0787585E-1,0E0,7.85011E-1,0E0,0E0,0E0,0E0,0E0,0E0],"parents":[2147483647,0,0,1,1,2,2,3,3,4,4,6,6],"right_children":[2,4,6,8,10,-1,12,-1,-1,-1,-1,-1,-1],"split_conditions":[2.0235E3,3.3415E1,3.8985E1,3.3305E1,3.3625E1,2.8138964E-2,4.5E0,2.8478642E-4,3.6254175E-2,-1.4507349E-2,-7.71604E-4,-3.3607145E-3,1.938509E-2],"split_indices":[5,7,6,7,7,0,1,0,0,0,0,0,0],"split_type":[0,0,0,0,0,0,0,0,0,0,0,0,0],"sum_hessian":[2.918E3,2.835E3,8.3E1,2.185E3,6.5E2,9E0,7.4E1,2.172E3,1.3E1,4E1,6.1E2,5.5E1,1.9E1],"tree_param":{"num_deleted":"0","num_feature":"9","num_nodes":"13","size_leaf_vector":"0"}},{"base_weights":[5.902857E-3,3.231178E-2,1.8367117E-3,-2.3129077E-3,9.804853E-2,-1.5956895E-2,9.98449E-3,5.508824E-3,-1.6412708E-1,1.9971389E-1,-3.6892816E-3,-1.00137675E-2,-1.1811367E-1,-9.537454E-3,1.4921195E-2],"categories":[],"categories_nodes":[],"categories_segments":[],"categories_sizes":[],"default_left":[1,1,1,1,1,1,1,0,0,0,0,0,0,0,