{"learner":{"attributes":{"best_iteration":"39","best_ntree_limit":"40","scikit_learn":"{\"n_estimators\": 40, \"objective\": \"reg:squarederror\", \"max_depth\": 9, \"max_leaves\": null, \"max_bin\": null, \"grow_policy\": null, \"learning_rate\": 1.0, \"verbosity\": null, \"booster\": null, \"tree_method\": null, \"gamma\": 1.0, \"min_child_weight\": 1, \"max_delta_step\": null, \"subsample\": 0.8, \"sampling_method\": null, \"colsample_bytree\": 1.0, \"colsample_bylevel\": null, \"colsample_bynode\": null, \"reg_alpha\": 0.5, \"reg_lambda\": 0.5, \"scale_pos_weight\": 10, \"base_score\": null, \"missing\": NaN, \"num_parallel_tree\": null, \"random_state\": null, \"n_jobs\": null, \"monotone_constraints\": null, \"interaction_constraints\": null, \"importance_type\": null, \"gpu_id\": null, \"validate_parameters\": null, \"predictor\": null, \"enable_categorical\": false, \"feature_types\": null, \"max_cat_to_onehot\": null, \"max_cat_threshold\": null, \"eval_metric\": null, \"early_stopping_rounds\": null, \"callbacks\": null, \"kwargs\": {\"seed\": 42}, \"_estimator_type\": \"regressor\"}"},"feature_names":["day_of_month","month","quarter","day_of_week","week_of_month","year","Close_lag_1","Close_lag_2","Close_MA_3"],"feature_types":["int","int","int","int","int","int","float","float","float"],"gradient_booster":{"model":{"gbtree_model_param":{"num_parallel_tree":"1","num_trees":"40","size_leaf_vector":"0"},"tree_info":[0,0,0,0,0,0,0,0,0,0,0,0,0,0,0,0,0,0,0,0,0,0,0,0,0,0,0,0,0,0,0,0,0,0,0,0,0,0,0,0],"trees":[{"base_weights":[1.8608225E1,1.5647846E1,2.7082998E1,1.0386777E1,1.66878E1,2.334121E1,3.0266232E1,8.246845E0,1.1475799E1,1.5600697E1,1.9249989E1,2.2175192E1,2.4618189E1,2.8745047E1,3.1784578E1,1.064712E1,1.2348863E1,1.4578405E1,1.6261139E1,1.8388641E1,2.0525679E1],"categories":[],"categories_nodes":[],"categories_segments":[],"categories_sizes":[],"default_left":[1,1,1,1,1,1,1,0,1,1,1,0,0,0,0,0,0,0,0,0,0],"id":0,"left_children":[1,3,5,7,9,11,13,-1,15,17,19,-1,-1,-1,-1,-1,-1,-1,-1,-1,-1],"loss_changes":[5.5124625E4,8.853531E3,6.4151562E3,5.755293E2,3.6358125E3,9.7484375E1,2.2084375E2,0E0,5.190625E1,5.1521875E2,2.3628125E2,0E0,0E0,0E0,0E0,0E0,0E0,0E0,0E0,0E0,0E0],"parents":[2147483647,0,0,1,1,2,2,3,3,4,4,5,5,6,6,8,8,9,9,10,10],"right_children":[2,4,6,8,10,12,14,-1,16,18,20,-1,-1,-1,-1,-1,-1,-1,-1,-1,-1],"split_conditions":[2.1865002E1,1.3879999E1,2.7103333E1,1.063E1,1.8085E1,2.3835E1,3.076E1,8.246845E0,1.1885E1,1.5835E1,2.0185001E1,2.2175192E1,2.4618189E1,2.8745047E1,3.1784578E1,1.064712E1,1.2348863E1,1.4578405E1,1.6261139E1,1.8388641E1,2.0525679E1],"split_indices":[6,6,8,7,6,6,6,0,8,6,6,0,0,0,0,0,0,0,0,0,0],"split_type":[0,0,0,0,0,0,0,0,0,0,0,0,0,0,0,0,0,0,0,0,0],"sum_hessian":[2.206E3,1.636E3,5.7E2,2.71E2,1.365E3,2.64E2,3.06E2,9.3E1,1.78E2,9.61E2,4.04E2,1.43E2,1.21E2,1.58E2,1.48E2,9.5E1,8.3E1,3.82E2,5.79E2,2.46E2,1.58E2],"tree_param":{"num_deleted":"0","num_feature":"9","num_nodes":"21","size_leaf_vector":"0"}},{"base_weights":[6.6764586E-2,-1.0186028E-1,2.0910312E-1,5.1292233E-2,-3.7031415E-1,6.482829E-1,1.0380957E-1,-1.0513871E-1,4.3145853E-1,-5.702531E-1,-1.0670819E-1,3.052456E-1,8.682602E-1,-3.7738118E-1,1.7082904E-1,7.5764135E-2,-3.503276E-1,2.0745155E-1,5.1627517E-1,-6.9628805E-1,-4.138791E-1,-2.4699509E-1,-3.2272139E-3,-0E0,3.1976128E-1,6.876803E-1,1.040596E0,-5.0444376E-1,-1.644623E-1,1.2924065E-1,9.17947E-1,-5.843524E-1,2.1598215E-1,-5.4631555E-1,-1.282535E-1,3.61531E-1,1.4792876E-1,4.2186323E-1,6.0917926E-1,-4.052378E-1,-7.3017836E-1,-0E0,-4.2071405E-1,-0E0,-2.880856E-1,-2.2296926E-2,8.65907E-1,3.225963E-1,-0E0,7.6321626E-1,1.1204256E0,-5.370683E-1,7.2593145E-2,3.2508698E-1,-2.0135313E-1,1.85642E-1,-2.537331E-1,7.58226E-1,1.4909874E0,-5.9306043E-1,-0E0,-7.513732E-2,4.5478845E-1,-5.5453265E-1,-0E0,-2.4501237E-1,-2.0945169E-2,4.434236E-1,-0E0,1.57238E-1,-0E0,5.879949E-1,3.6370444E-1,-0E0,6.1433804E-1,-0E0,-7.3514324E-1,-4.2605257E-1,-0E0,-2.10122E-2,4.2600807E-2,-0E0,-3.184095E-1,-0E0,-1.254324E-1,2.989875E-1,8.464867E-1,-5.67489E-1,-4.0582832E-2,4.2757288E-1,-0E0,-2.5746754E-1,-0E0,8.492116E-2,1.1370648E0,-9.58033E-1,1.0582185E-1,-6.005596E-1,-0E0,1.5145241E0,-1.2159371E-1,3.5359845E-1,8.436663E-1,-6.8509734E-1,-4.841722E-1,-3.2509738E-1,-0E0,1.0319472E-1,-1.4934352E-1,5.0045824E-1,-0E0,8.307385E-2,2.4670453E-1,-0E0,3.928413E-1,-0E0,-3.8118634E-2,-0E0,5.902372E-2,-0E0,-9.765625E-4,-3.2726634E-1,-0E0,-7.41358E-2,3.256504E-2,-1.7294848E-1,-0E0,-9.879218E-2,-5.893963E-1,-0E0,-1.7026356E-1,-0E0,-2.7833563E-1,-0E0,-4.4065095E-2,1.9850862E-1,-5.9594804E-1,9.085982E-1,1.2843696E0,-5.936899E-1,-1.329286E0,-1.3784353E-1,3.6244634E-1,3.262057E-2,-4.3641862E-1,7.222653E-1,1.3336688E-1,-7.1470356E-1,-0E0,-0E0,-4.9426898E-1,4.1500878E-2,-1.5006174E-1,-0E0,3.5482165E-1,-2.1454188E-1,-0E0,1.4567737E-1,-0E0,2.6567763E-1,-0E0,-0E0,2.1366937E-2,4.341676E-1,1.8674262E-1,-3.8170224E-1,-1.7322564E-1,7.4543E-2,-1.3882075E-1,8.186317E-2,-1.9335853E-2,-2.1441796E-1,-0E0,-1.9312122E-1,-0E0,-6.39086E-1,-3.7523994E-1,6.0905457E-2,-0E0,-0E0,-2.854439E-1,-0E0,-7.7207126E-2,1.2382363E-1,1.0594914E0,-9.944463E-1,2.4147958E-1,-0E0,9.2591906E-1,-0E0,-6.266149E-1,-1.4382116E0,-2.3166046E-1,-2.3958793E-1,-0E0,-0E0,3.9610925E-1,-3.2437372E-1,1.999257E-1,-6.5840256E-1,-1.4908219E-2,1.6941936E-1,1.3978918E0,-0E0,1.9109212E-1,-4.985677E-1,-0E0,2.1327591E-1,-0E0,-3.6391422E-2,1.1279542E-1,-0E0,4.0608728E-1,-2.4130811E-1,-0E0,5.0306108E-2,-0E0,2.1679474E-1,-0E0,3.082161E-2,-2.5823073E-2,4.250863E-1,1.0677378E-1,1.5652793E-2,4.5410672E-1,2.5940534E-1,-0E0,-7.3358975E-2,-4.2778575E-1,-1.9765143E-1,-0E0,-0E0,1.1508866E-1,-1.495893E-1,-0E0,-0E0,9.633952E-2,-9.239346E-2,1.1084183E-2,-0E0,-2.9335874E-1,-4.2429566E-1,-0E0,-3.6642703E-1,-1.5455009E-1,-0E0,-1.1512826E-1,2.1265605E-1,-3.2466665E-1,8.4762925E-1,1.568689E0,-1.4045556E0,-6.889794E-1,2.3955079E-2,3.6138338E-1,-3.071773E-1,-0E0,-6.7796536E-2,4.3179058E-3,4.7685853E-1,1.5659368E-1],"categories":[],"categories_nodes":[],"categories_segments":[],"categories_sizes":[],"default_left":[1,1,1,1,1,1,1,1,1,1,1,1,1,1,1,1,1,1,1,1,1,1,1,1,1,0,1,1,1,1,1,1,1,1,1,1,1,1,1,1,1,1,1,1,1,1,0,1,1,1,1,1,1,1,1,1,1,0,0,1,1,1,1,1,1,1,1,1,1,1,1,1,1,1,1,1,1,1,1,1,1,1,1,1,1,1,1,1,1,1,1,1,1,1,1,1,1,1,1,0,1,1,0,1,1,1,1,1,1,1,1,1,1,1,1,1,1,1,1,1,1,1,1,1,1,1,1,1,1,1,1,1,1,1,1,1,1,1,1,1,1,1,1,1,1,1,1,1,1,1,1,1,1,1,1,1,1,1,1,1,1,1,1,1,1,1,1,1,1,1,1,1,1,1,1,1,1,1,1,1,1,1,1,1,1,1,1,1,1,1,1,1,1,1,1,1,1,0,0,0,0,0,0,1,1,1,1,1,1,1,1,1,1,1,1,1,1,1,1,1,1,1,1,1,1,1,1,1,1,1,1,1,1,1,1,1,1,1,1,1,1,1,1,1,1,1,1,0,0,0,0,0,0,1,1,1,1,1,1,1,1],"id":1,"left_children":[1,3,5,7,9,11,13,15,17,19,21,-1,25,27,29,31,33,-1,-1,-1,-1,-1,45,-1,-1,-1,-1,51,-1,55,57,-1,61,-1,65,-1,-1,-1,-1,-1,-1,-1,-1,-1,-1,-1,-1,-1,-1,-1,-1,-1,-1,-1,-1,93,95,-1,-1,-1,-1,99,101,-1,-1,-1,-1,-1,-1,-1,-1,-1,-1,-1,-1,-1,-1,-1,-1,-1,-1,-1,-1,-1,-1,-1,-1,-1,-1,-1,-1,-1,-1,135,-1,139,141,-1,-1,-1,143,145,-1,-1,-1,-1,-1,-1,-1,-1,-1,-1,-1,-1,-1,-1,-1,-1,-1,-1,-1,-1,-1,-1,-1,-1,-1,-1,-1,-1,-1,-1,-1,-1,-1,183,185,-1,-1,-1,-1,-1,-1,197,199,201,-1,-1,-1,-1,-1,-1,-1,-1,-1,-1,-1,-1,-1,-1,-1,-1,-1,-1,-1,-1,-1,-1,-1,-1,-1,-1,-1,-1,-1,-1,-1,-1,-1,-1,-1,-1,-1,247,249,251,-1,-1,-1,-1,-1,-1,-1,-1,-1,-1,-1,-1,-1,-1,-1,-1,-1,-1,-1,-1,-1,-1,-1,-1,-1,-1,-1,-1,-1,-1,-1,-1,-1,-1,-1,-1,-1,-1,-1,-1,-1,-1,-1,-1,-1,-1,-1,-1,-1,-1,-1,-1,-1,-1,-1,-1,-1,-1,-1,-1,-1,-1,-1,-1,-1,-1,-1,-1,-1,-1,-1,-1,-1,-1,-1],"loss_changes":[5.3432304E1,4.196178E1,5.5428482E1,3.863305E1,1.915834E1,1.682528E1,3.1388004E1,2.0443134E1,3.1849937E0,3.4297714E0,2.2189903E0,5.324545E-1,3.1504745E0,2.8299675E0,2.6060848E1,2.4175982E1,8.136597E0,2.1836233E-1,5.444908E-1,4.038849E-1,3.7347794E-1,7.1517897E-1,1.1706789E0,0E0,5.8919907E-2,0E0,1.6955566E-1,1.6165848E0,8.1064606E-1,1.7561298E1,2.383072E0,1.14788055E-1,1.5327763E1,3.1218147E-1,1.0359354E0,4.3074882E-1,9.601343E-2,1.0805607E-1,2.9705048E-2,0E0,1.8344116E-1,0E0,6.866264E-2,1.1968363E-2,4.491911E-1,2.4408486E-1,0E0,0E0,0E0,1.5864372E-2,0E0,7.341385E-1,2.5578368E-1,0E0,4.1653204E-1,6.742659E1,2.668657E1,0E0,0E0,3.765583E-2,0E0,6.5959806E0,3.99395E0,1.7276573E-1,0E0,7.7786136E-1,8.516571E-1,3.147986E-1,0E0,1.00224614E-1,0E0,0E0,4.738288E-1,0E0,0E0,0E0,0E0,0E0,0E0,3.0987996E-3,2.211742E-3,3.33786E-6,1.8740654E-1,1.7702326E-1,1.1273509E-1,0E0,0E0,2.8906822E-1,9.2405565E-2,0E0,0E0,1.421578E-1,1.4562994E-2,4.9627563E1,5.9169006E-1,3.445774E0,4.420622E0,0E0,0E0,0E0,4.8455896E0,7.4402485E0,0E0,2.838478E-1,1.9799423E-1,0E0,9.345459E-2,6.833338E-1,3.302325E-1,0E0,0E0,1.24833986E-1,8.009815E-2,1.597911E-3,8.764744E-2,0E0,0E0,0E0,0E0,0E0,0E0,1.1293602E-1,0E0,2.4408449E-1,1.7405838E-1,7.893723E-2,0E0,8.66158E-2,1.6735077E-2,5.5642123E-3,0E0,0E0,4.0750504E-2,0E0,2.4183117E-2,3.486987E1,3.1031334E1,8.0049515E-2,0E0,3.908353E-1,9.7120667E-1,4.0641516E-1,5.671587E-1,3.7628648E0,2.6994143E0,1.2357794E1,5.133004E-1,0E0,0E0,0E0,3.951454E-2,9.9076785E-2,0E0,6.373269E-2,1.2765676E-1,7.543957E-2,1.13881705E-2,9.178215E-2,1.0792358E-2,7.867038E-2,0E0,0E0,0E0,9.95307E-2,2.3822847E-1,2.2396564E-1,7.13408E-2,8.10853E-3,3.197381E-2,6.785807E-2,9.117103E-2,7.664758E-2,0E0,0E0,0E0,0E0,2.0866251E-1,0E0,0E0,0E0,2.3901463E-2,0E0,3.4153722E-2,2.027724E1,2.8197746E0,6.2990494E0,5.7242167E-1,0E0,0E0,0E0,0E0,0E0,0E0,3.0624545E-1,2.5494443E-2,0E0,2.7451086E-1,0E0,0E0,0E0,0E0,0E0,0E0,0E0,0E0,0E0,0E0,0E0,0E0,0E0,0E0,0E0,0E0,0E0,0E0,0E0,0E0,0E0,0E0,0E0,0E0,0E0,0E0,0E0,0E0,0E0,0E0,0E0,0E0,0E0,0E0,0E0,0E0,0E0,0E0,0E0,0E0,0E0,0E0,0E0,0E0,0E0,0E0,0E0,0E0,0E0,0E0,0E0,0E0,0E0,0E0,0E0,0E0,0E0,0E0,0E0,0E0,0E0,0E0,0E0,0E0],"parents":[2147483647,0,0,1,1,2,2,3,3,4,4,5,5,6,6,7,7,8,8,9,9,10,10,11,11,12,12,13,13,14,14,15,15,16,16,17,17,18,18,19,19,20,20,21,21,22,22,24,24,26,26,27,27,28,28,29,29,30,30,31,31,32,32,33,33,34,34,35,35,36,36,37,37,38,38,40,40,42,42,43,43,44,44,45,45,49,49,51,51,52,52,54,54,55,55,56,56,59,59,61,61,62,62,63,63,65,65,66,66,67,67,69,69,72,72,79,79,80,80,81,81,82,82,83,83,84,84,87,87,88,88,91,91,92,92,93,93,94,94,95,95,96,96,100,100,101,101,103,103,104,104,106,106,107,107,108,108,111,111,112,112,113,113,114,114,121,121,123,123,124,124,125,125,127,127,128,128,129,129,132,132,134,134,135,135,136,136,137,137,139,139,140,140,141,141,142,142,143,143,144,144,145,145,146,146,150,150,151,151,153,153,154,154,155,155,156,156,157,157,158,158,159,159,163,163,164,164,165,165,166,166,167,167,168,168,169,169,170,170,171,171,176,176,180,180,182,182,183,183,184,184,185,185,186,186,193,193,194,194,196,196],"right_children":[2,4,6,8,10,12,14,16,18,20,22,-1,26,28,30,32,34,-1,-1,-1,-1,-1,46,-1,-1,-1,-1,52,-1,56,58,-1,62,-1,66,-1,-1,-1,-1,-1,-1,-1,-1,-1,-1,-1,-1,-1,-1,-1,-1,-1,-1,-1,-1,94,96,-1,-1,-1,-1,100,102,-1,-1,-1,-1,-1,-1,-1,-1,-1,-1,-1,-1,-1,-1,-1,-1,-1,-1,-1,-1,-1,-1,-1,-1,-1,-1,-1,-1,-1,-1,136,-1,140,142,-1,-1,-1,144,146,-1,-1,-1,-1,-1,-1,-1,-1,-1,-1,-1,-1,-1,-1,-1,-1,-1,-1,-1,-1,-1,-1,-1,-1,-1,-1,-1,-1,-1,-1,-1,-1,-1,184,186,-1,-1,-1,-1,-1,-1,198,200,202,-1,-1,-1,-1,-1,-1,-1,-1,-1,-1,-1,-1,-1,-1,-1,-1,-1,-1,-1,-1,-1,-1,-1,-1,-1,-1,-1,-1,-1,-1,-1,-1,-1,-1,-1,-1,-1,248,250,252,-1,-1,-1,-1,-1,-1,-1,-1,-1,-1,-1,-1,-1,-1,-1,-1,-1,-1,-1,-1,-1,-1,-1,-1,-1,-1,-1,-1,-1,-1,-1,-1,-1,-1,-1,-1,-1,-1,-1,-1,-1,-1,-1,-1,-1,-1,-1,-1,-1,-1,-1,-1,-1,-1,-1,-1,-1,-1,-1,-1,-1,-1,-1,-1,-1,-1,-1,-1,-1,-1,-1,-1,-1,-1,-1],"split_conditions":[1.6895E1,1.5835E1,1.808E1,1.5115E1,1.6465E1,1.7224998E1,1.8835E1,1.3879999E1,1.5375E1,1.6205E1,1.6625E1,3.052456E-1,1.7645E1,1.855E1,3.2870003E1,8.514999E0,1.4755E1,2.0745155E-1,5.1627517E-1,-6.9628805E-1,-4.138791E-1,-2.4699509E-1,1.7865E1,-0E0,3.1976128E-1,6.876803E-1,1.040596E0,1.9385E1,-1.644623E-1,3.0765E1,3.3574997E1,-5.843524E-1,4.5E0,-5.4631555E-1,1.4908333E1,3.61531E-1,1.4792876E-1,4.2186323E-1,6.0917926E-1,-4.052378E-1,-7.3017836E-1,-0E0,-4.2071405E-1,-0E0,-2.880856E-1,-2.2296926E-2,8.65907E-1,3.225963E-1,-0E0,7.6321626E-1,1.1204256E0,-5.370683E-1,7.2593145E-2,3.2508698E-1,-2.0135313E-1,2.9845001E1,3.189E1,7.58226E-1,1.4909874E0,-5.9306043E-1,-0E0,1.0545E1,1.343E1,-5.5453265E-1,-0E0,-2.4501237E-1,-2.0945169E-2,4.434236E-1,-0E0,1.57238E-1,-0E0,5.879949E-1,3.6370444E-1,-0E0,6.1433804E-1,-0E0,-7.3514324E-1,-4.2605257E-1,-0E0,-2.10122E-2,4.2600807E-2,-0E0,-3.184095E-1,-0E0,-1.254324E-1,2.989875E-1,8.464867E-1,-5.67489E-1,-4.0582832E-2,4.2757288E-1,-0E0,-2.5746754E-1,-0E0,2.7103333E1,1.1370648E0,4.5E0,3.24E1,-6.005596E-1,-0E0,1.5145241E0,1.188E1,1.0735001E1,8.436663E-1,-6.8509734E-1,-4.841722E-1,-3.2509738E-1,-0E0,1.0319472E-1,-1.4934352E-1,5.0045824E-1,-0E0,8.307385E-2,2.4670453E-1,-0E0,3.928413E-1,-0E0,-3.8118634E-2,-0E0,5.902372E-2,-0E0,-9.765625E-4,-3.2726634E-1,-0E0,-7.41358E-2,3.256504E-2,-1.7294848E-1,-0E0,-9.879218E-2,-5.893963E-1,-0E0,-1.7026356E-1,-0E0,-2.7833563E-1,-0E0,-4.4065095E-2,2.5735E1,2.9045E1,9.085982E-1,1.2843696E0,-5.936899E-1,-1.329286E0,-1.3784353E-1,3.6244634E-1,1.0995E1,1.2469999E1,9.25E0,1.3336688E-1,-7.1470356E-1,-0E0,-0E0,-4.9426898E-1,4.1500878E-2,-1.5006174E-1,-0E0,3.5482165E-1,-2.1454188E-1,-0E0,1.4567737E-1,-0E0,2.6567763E-1,-0E0,-0E0,2.1366937E-2,4.341676E-1,1.8674262E-1,-3.8170224E-1,-1.7322564E-1,7.4543E-2,-1.3882075E-1,8.186317E-2,-1.9335853E-2,-2.1441796E-1,-0E0,-1.9312122E-1,-0E0,-6.39086E-1,-3.7523994E-1,6.0905457E-2,-0E0,-0E0,-2.854439E-1,-0E0,-7.7207126E-2,2.383E1,2.6349998E1,2.81E1,2.4147958E-1,-0E0,9.2591906E-1,-0E0,-6.266149E-1,-1.4382116E0,-2.3166046E-1,-2.3958793E-1,-0E0,-0E0,3.9610925E-1,-3.2437372E-1,1.999257E-1,-6.5840256E-1,-1.4908219E-2,1.6941936E-1,1.3978918E0,-0E0,1.9109212E-1,-4.985677E-1,-0E0,2.1327591E-1,-0E0,-3.6391422E-2,1.1279542E-1,-0E0,4.0608728E-1,-2.4130811E-1,-0E0,5.0306108E-2,-0E0,2.1679474E-1,-0E0,3.082161E-2,-2.5823073E-2,4.250863E-1,1.0677378E-1,1.5652793E-2,4.5410672E-1,2.5940534E-1,-0E0,-7.3358975E-2,-4.2778575E-1,-1.9765143E-1,-0E0,-0E0,1.1508866E-1,-1.495893E-1,-0E0,-0E0,9.633952E-2,-9.239346E-2,1.1084183E-2,-0E0,-2.9335874E-1,-4.2429566E-1,-0E0,-3.6642703E-1,-1.5455009E-1,-0E0,-1.1512826E-1,2.1265605E-1,-3.2466665E-1,8.4762925E-1,1.568689E0,-1.4045556E0,-6.889794E-1,2.3955079E-2,3.6138338E-1,-3.071773E-1,-0E0,-6.7796536E-2,4.3179058E-3,4.7685853E-1,1.5659368E-1],"split_indices":[6,6,6,6,6,6,6,6,6,6,6,7,6,6,6,6,6,7,6,1,8,0,7,2147483647,2147483647,0,8,7,7,6,6,1,1,8,8,2147483647,2147483647,2147483647,2147483647,2147483647,2147483647,2147483647,2147483647,2147483647,2147483647,0,0,2147483647,2147483647,2147483647,2147483647,5,0,2147483647,2147483647,6,6,0,0,2147483647,2147483647,7,6,2147483647,2147483647,6,7,2147483647,2147483647,2147483647,2147483647,2147483647,2147483647,2147483647,2147483647,2147483647,2147483647,2147483647,2147483647,2147483647,2147483647,2147483647,2147483647,2147483647,2147483647,2147483647,2147483647,2147483647,2147483647,2147483647,2147483647,2147483647,2147483647,8,6,1,6,2147483647,2147483647,0,8,6,0,2147483647,2147483647,2147483647,2147483647,2147483647,2147483647,2147483647,2147483647,2147483647,2147483647,2147483647,2147483647,2147483647,2147483647,2147483647,2147483647,2147483647,2147483647,2147483647,2147483647,2147483647,2147483647,2147483647,2147483647,2147483647,2147483647,2147483647,2147483647,2147483647,2147483647,2147483647,2147483647,6,6,2147483647,2147483647,1,1,5,5,6,6,6,6,2147483647,2147483647,2147483647,2147483647,2147483647,2147483647,2147483647,2147483647,2147483647,2147483647,2147483647,2147483647,2147483647,2147483647,2147483647,2147483647,2147483647,2147483647,2147483647,2147483647,2147483647,2147483647,2147483647,2147483647,2147483647,2147483647,2147483647,2147483647,2147483647,2147483647,2147483647,2147483647,2147483647,2147483647,2147483647,2147483647,6,6,6,8,2147483647,2147483647,2147483647,2147483647,2147483647,2147483647,2147483647,2147483647,2147483647,2147483647,0,0,0,0,0,0,2147483647,2147483647,2147483647,2147483647,2147483647,2147483647,2147483647,2147483647,2147483647,2147483647,2147483647,2147483647,2147483647,2147483647,2147483647,2147483647,2147483647,2147483647,2147483647,2147483647,2147483647,2147483647,2147483647,2147483647,2147483647,2147483647,2147483647,2147483647,2147483647,2147483647,2147483647,2147483647,2147483647,2147483647,2147483647,2147483647,2147483647,2147483647,2147483647,2147483647,2147483647,2147483647,2147483647,2147483647,0,0,0,0,0,0,2147483647,2147483647,2147483647,2147483647,2147483647,2147483647,2147483647,2147483647],"split_type":[0,0,0,0,0,0,0,0,0,0,0,0,0,0,0,0,0,0,0,0,0,0,0,0,0,0,0,0,0,0,0,0,0,0,0,0,0,0,0,0,0,0,0,0,0,0,0,0,0,0,0,0,0,0,0,0,0,0,0,0,0,0,0,0,0,0,0,0,0,0,0,0,0,0,0,0,0,0,0,0,0,0,0,0,0,0,0,0,0,0,0,0,0,0,0,0,0,0,0,0,0,0,0,0,0,0,0,0,0,0,0,0,0,0,0,0,0,0,0,0,0,0,0,0,0,0,0,0,0,0,0,0,0,0,0,0,0,0,0,0,0,0,0,0,0,0,0,0,0,0,0,0,0,0,0,0,0,0,0,0,0,0,0,0,0,0,0,0,0,0,0,0,0,0,0,0,0,0,0,0,0,0,0,0,0,0,0,0,0,0,0,0,0,0,0,0,0,0,0,0,0,0,0,0,0,0,0,0,0,0,0,0,0,0,0,0,0,0,0,0,0,0,0,0,0,0,0,0,0,0,0,0,0,0,0,0,0,0,0,0,0,0,0,0,0,0,0,0,0,0,0,0,0,0,0,0,0,0,0,0,0],"sum_hessian":[2.223E3,1.016E3,1.207E3,6.46E2,3.7E2,2.32E2,9.75E2,4.57E2,1.89E2,2.09E2,1.61E2,9.2E1,1.4E2,1.18E2,8.57E2,2.62E2,1.95E2,5.4E1,1.35E2,1.13E2,9.6E1,6.6E1,9.5E1,3E0,8.9E1,7.1E1,6.9E1,7.2E1,4.6E1,8.13E2,4.4E1,4.5E1,2.17E2,1.02E2,9.3E1,1.2E1,4.2E1,7.1E1,6.4E1,1.4E1,9.9E1,1E0,9.5E1,9E0,5.7E1,9.4E1,1E0,8.8E1,1E0,1.8E1,5.1E1,6.9E1,3E0,2E0,4.4E1,7.1E2,1.03E2,3.6E1,8E0,4.4E1,1E0,9.7E1,1.2E2,1E2,2E0,4.2E1,5.1E1,1E1,2E0,4.1E1,1E0,1.5E1,5.6E1,1E0,6.3E1,1E0,9.8E1,9.3E1,2E0,4E0,5E0,6E0,5.1E1,7.6E1,1.8E1,4E0,1.4E1,6.4E1,5E0,1E0,2E0,3.3E1,1.1E1,6.43E2,6.7E1,3.5E1,6.8E1,4.3E1,1E0,2E0,9.5E1,9.7E1,2.3E1,3.1E1,6.9E1,3.1E1,1.1E1,2.4E1,2.7E1,9E0,1E0,2.6E1,1.5E1,5E0,5.1E1,1E0,3E0,2E0,3E0,3E0,3E0,5E1,1E0,2.1E1,5.5E1,1.3E1,5E0,4E0,6E1,2E0,3E0,3E0,3E1,4E0,7E0,5.52E2,9.1E1,2.9E1,3.8E1,1.9E1,1.6E1,3.4E1,3.4E1,6.3E1,3.2E1,3.5E1,6.2E1,2.9E1,2E0,2E0,6.7E1,8E0,3E0,1.7E1,7E0,2E1,7E0,1.4E1,1.2E1,1.4E1,1E0,2E0,3E0,4E1,1.1E1,3.4E1,1.6E1,4E0,1.7E1,3.3E1,2.2E1,1E1,3E0,3E0,1E0,4.6E1,1.4E1,1E0,1E0,1E0,2.9E1,1E0,6E0,5.09E2,4.3E1,6.2E1,2.9E1,1E0,2.8E1,1E0,1.8E1,1.4E1,2E0,1.8E1,1.6E1,2E0,3.2E1,1.9E1,4.4E1,2E1,1.2E1,2E1,1.5E1,1.8E1,4.4E1,6.6E1,1E0,2E0,6E0,1.4E1,3E0,1E0,6E0,1.7E1,3E0,4E0,3E0,8E0,6E0,7E0,5E0,5E0,9E0,3E0,3.7E1,9E0,2E0,6E0,2.8E1,1.4E1,2E0,2E0,2E0,1.6E1,1E0,2E0,3.1E1,1.1E1,1.1E1,4E0,6E0,1.2E1,2E0,1.5E1,1.4E1,1E0,5E0,4.26E2,8.3E1,3.2E1,1.1E1,2.5E1,3.7E1,1.2E1,1.7E1,1.4E1,4E0,5E0,1.1E1,2.2E1,1E1],"tree_param":{"num_deleted":"182","num_feature":"9","num_nodes":"261","size_leaf_vector":"0"}},{"base_weights":[8.962253E-3,-1.034382E-2,7.840747E-2,1.4070298E-2,-4.862815E-1,5.7902145E-1,1.3071177E-2,-0E0,4.222006E-1,-6.3351876E-1,-1.6314878E-1,3.0582312E-1,7.2639114E-1,-4.4617403E-1,4.7783658E-2,2.2949303E-2,-3.094838E-1,3.686585E-1,7.123067E-1,-0E0,-6.629123E-1,-2.5909424E-2,-3.214196E-1,-0E0,3.5748175E-1,7.4233854E-1,-0E0,-5.3493637E-1,-1.4019893E-2,2.6364174E-1,1.5555942E-2,2.104903E-3,5.221325E-1,-4.9624187E-1,-8.928584E-3,3.8917434E-1,-0E0,-8.5204667E-1,-5.302726E-1,-2.2531614E-1,2.2865906E-2,-4.7185928E-1,-2.3498189E-2,3.838051E-1,-0E0,3.7652332E-2,-1.17746875E-1,-0E0,5.5818284E-1,2.8506804E-3,1.385317E-1,1.1261678E-1,-7.621252E-3,6.0440046E-1,1.161504E-1,-6.561831E-1,-3.6595058E-1,1.7087236E-2,-3.474087E-1,4.0097252E-1,-0E0,-0E0,1.3286556E-1,-0E0,-5.3804326E-1,-0E0,-4.3869562E-2,4.0148106E-1,-0E0,6.272213E-2,-2.1128719E-1,3.398192E-1,7.142192E-1,1.4965988E-2,-1.3841248E-1,1.8681537E-1,-1.0397775E-1,2.9545245E-1,5.7393312E-2,-1.1575073E-2,1.5233561E-1,3.8105854E-1,7.5533074E-1,-1.7196713E-1,5.370029E-1,-6.8777907E-1,-2.6679994E-3,-0E0,-3.983574E-1,-1.1804675E-2,1.6157773E-1,-1.339839E-2,-0E0,2.2184427E-1,-0E0,-0E0,-6.2919784E-1,-0E0,4.28285E-1,-0E0,1.5080284E-1,9.718247E-2,-4.2320183E-1,4.029794E-1,-0E0,-0E0,1.09853685E-1,-1.7773001E-1,-0E0,2.4486578E-1,-0E0,-0E0,4.2297545E-1,-2.5070086E-3,1.4963703E-1,-4.9189017E-3,-9.056014E-2,5.0108875E-3,2.434786E-1,1.1114556E-1,5.674548E-1,4.2961884E-2,7.9219836E-1,-4.8396954E-1,2.1744864E-2,-7.187956E-1,-5.8667757E-2,-7.222366E-2,-0E0,-4.2552355E-1,-0E0,2.6237879E-2,-1.1927663E-1,3.3969602E-1,-0E0,-0E0,-2.5316758E-2,3.0131403E-1,-0E0,-5.430405E-2,4.0529285E-2,4.0120423E-2,2.11269E-1,-0E0,-2.17709E-1,3.520123E-1,6.823549E-2,-0E0,-1.3829912E-2,-0E0,4.5383382E-1,4.3097157E-2,-2.1837898E-1,-0E0,2.5476202E-1,2.2624541E-2,-1.6277587E-2,-3.239306E-1,-2.6154399E-2,-1.5238688E-2,8.889313E-2,3.6998528E-1,-0E0,2.2929744E-1,-3.408648E-1,1.0551368E-1,7.401225E-1,1.349617E-1,-0E0,-7.523269E-1,-8.6667635E-2,-0E0,2.0370272E-1,-0E0,-1.4317594E-1,1.8874737E-2,-1.0646214E-1,1.7918383E-1,3.3338817E-3,1.1703806E-1,-0E0,-0E0,2.6205903E-1,-0E0,-2.4823324E-1,-0E0,3.9302585E-1,1.1916151E-1,-0E0],"categories":[],"categories_nodes":[],"categories_segments":[],"categories_sizes":[],"default_left":[1,1,1,1,1,1,1,1,1,1,1,1,1,1,1,1,1,1,1,0,1,1,1,1,1,1,1,1,1,1,1,1,1,1,1,1,1,1,1,1,1,1,1,1,1,1,1,1,1,1,1,1,1,1,1,1,1,1,1,1,1,1,1,1,1,1,1,1,1,1,1,1,1,1,1,1,1,1,1,1,1,1,1,1,0,1,1,1,1,1,1,1,1,1,1,1,1,1,1,1,1,1,1,1,1,1,1,1,1,1,1,0,1,1,1,1,1,1,1,1,1,1,1,1,1,1,1,1,1,1,1,1,1,1,1,1,1,1,1,1,1,1,1,1,1,1,1,1,1,1,1,1,1,1,1,1,1,0,0,1,1,1,1,1,1,1,1,1,1,1,1,1,1,1,1,1,1,1,1,1,1,1,1,1,1,1,1,1,1],"id":2,"left_children":[1,3,5,7,9,11,13,15,-1,19,-1,-1,-1,-1,29,31,33,-1,-1,-1,-1,-1,-1,-1,-1,-1,-1,-1,-1,47,-1,51,53,-1,-1,-1,-1,-1,-1,-1,-1,-1,-1,-1,-1,-1,-1,-1,-1,-1,-1,77,79,-1,83,-1,-1,-1,-1,-1,-1,-1,-1,-1,-1,-1,-1,-1,-1,-1,-1,-1,-1,-1,-1,-1,-1,111,-1,115,-1,-1,-1,-1,-1,-1,-1,-1,-1,-1,-1,-1,-1,-1,-1,-1,-1,-1,-1,-1,-1,-1,-1,-1,-1,-1,-1,-1,-1,-1,-1,-1,-1,-1,-1,-1,157,-1,-1,-1,-1,-1,-1,-1,-1,-1,-1,-1,-1,-1,-1,-1,-1,-1,-1,-1,-1,-1,-1,-1,-1,-1,-1,-1,-1,-1,-1,-1,-1,-1,-1,-1,-1,-1,-1,-1,-1,-1,-1,-1,-1,-1,-1,-1,-1,-1,-1,-1,-1,-1,-1,-1,-1,-1,-1,-1,-1,-1,-1,-1,-1,-1,-1,-1,-1,-1,-1,-1,-1],"loss_changes":[3.010153E0,2.0358864E1,1.5678154E1,9.388844E0,3.617836E0,1.6073132E0,6.722122E0,1.1269252E1,1.7476082E-1,1.3122292E0,4.4121963E-1,4.8111987E-1,2.570076E-1,8.5336304E-1,2.6723E0,1.51734085E1,5.891554E0,4.5114326E-1,0E0,0E0,4.7524643E-1,2.7400836E-1,2.621981E-1,0E0,8.589387E-2,0E0,0E0,0E0,7.710271E-2,4.123317E0,4.8299608E-1,1.5851337E0,1.5584831E0,7.5465775E-1,5.5118287E-1,1.1192846E-1,0E0,0E0,0E0,0E0,9.055729E-2,1.4496553E-1,3.6989783E-3,8.172512E-2,0E0,0E0,0E0,4.1153133E-1,1.8640852E-1,4.9638832E-1,3.9655387E-1,1.0216686E0,7.5678533E-1,8.890724E-1,1.6231238E0,2.2169209E-1,5.023017E-1,2.4073717E-1,0E0,0E0,0E0,1.1668596E-3,7.515916E-2,0E0,1.8930662E-1,0E0,0E0,1.2040138E-4,0E0,1.16588436E-1,6.738429E-1,9.9264264E-2,0E0,4.8110816E-1,1.2173399E-1,3.6427426E-1,0E0,1.0838525E0,5.9590554E-1,6.24194E-1,2.578323E-1,7.108464E-1,2.613821E-1,6.292252E-1,0E0,8.7760925E-2,7.8065908E-3,0E0,2.7372074E-1,1.7278363E-1,3.866437E-1,2.3583008E-3,0E0,0E0,0E0,0E0,0E0,0E0,0E0,0E0,2.1525294E-1,0E0,0E0,0E0,0E0,5.763178E-1,1.918441E-1,8.707315E-2,0E0,1.8476057E-1,6.694327E-4,0E0,2.9458785E-1,6.288807E-1,6.832951E-1,3.6790296E-1,1.2260635E0,6.043535E-2,3.815782E-1,5.440577E-1,4.5540118E-1,0E0,0E0,0E0,4.3881714E-2,4.600811E-2,0E0,0E0,0E0,0E0,0E0,1.7330228E-1,5.163367E-2,0E0,0E0,0E0,0E0,0E0,0E0,4.856465E-1,6.4851665E-1,1.0843167E-1,1.6660047E-1,0E0,7.144928E-3,4.2462945E-2,8.6006045E-2,0E0,0E0,0E0,0E0,0E0,0E0,0E0,0E0,0E0,0E0,0E0,0E0,0E0,0E0,0E0,0E0,0E0,0E0,0E0,0E0,0E0,0E0,0E0,0E0,0E0,0E0,0E0,0E0,0E0,0E0,0E0,0E0,0E0,0E0,0E0,0E0,0E0,0E0,0E0,0E0,0E0,0E0],"parents":[2147483647,0,0,1,1,2,2,3,3,4,4,5,5,6,6,7,7,8,8,9,9,10,10,11,11,12,12,13,13,14,14,15,15,16,16,17,17,20,20,21,21,22,22,24,24,28,28,29,29,30,30,31,31,32,32,33,33,34,34,35,35,40,40,41,41,42,42,43,43,47,47,48,48,49,49,50,50,51,51,52,52,53,53,54,54,55,55,56,56,57,57,61,61,62,62,64,64,67,67,69,69,70,70,71,71,73,73,74,74,75,75,77,77,78,78,79,79,80,80,81,81,82,82,83,83,85,85,86,86,88,88,89,89,90,90,91,91,100,100,105,105,106,106,107,107,109,109,110,110,112,112,113,113,114,114,115,115,116,116,117,117,118,118,119,119,120,120,124,124,125,125,131,131,132,132,139,139,140,140,141,141,142,142,144,144,145,145,146,146],"right_children":[2,4,6,8,10,12,14,16,-1,20,-1,-1,-1,-1,30,32,34,-1,-1,-1,-1,-1,-1,-1,-1,-1,-1,-1,-1,48,-1,52,54,-1,-1,-1,-1,-1,-1,-1,-1,-1,-1,-1,-1,-1,-1,-1,-1,-1,-1,78,80,-1,84,-1,-1,-1,-1,-1,-1,-1,-1,-1,-1,-1,-1,-1,-1,-1,-1,-1,-1,-1,-1,-1,-1,112,-1,116,-1,-1,-1,-1,-1,-1,-1,-1,-1,-1,-1,-1,-1,-1,-1,-1,-1,-1,-1,-1,-1,-1,-1,-1,-1,-1,-1,-1,-1,-1,-1,-1,-1,-1,-1,-1,158,-1,-1,-1,-1,-1,-1,-1,-1,-1,-1,-1,-1,-1,-1,-1,-1,-1,-1,-1,-1,-1,-1,-1,-1,-1,-1,-1,-1,-1,-1,-1,-1,-1,-1,-1,-1,-1,-1,-1,-1,-1,-1,-1,-1,-1,-1,-1,-1,-1,-1,-1,-1,-1,-1,-1,-1,-1,-1,-1,-1,-1,-1,-1,-1,-1,-1,-1,-1,-1,-1,-1,-1],"split_conditions":[2.2965E1,2.1865002E1,2.3835E1,2.1365002E1,2.2525002E1,2.3314999E1,2.4545E1,2.0185001E1,4.222006E-1,2.1705E1,-1.6314878E-1,3.0582312E-1,7.2639114E-1,-4.4617403E-1,2.574E1,1.9395E1,2.098E1,3.686585E-1,7.123067E-1,-0E0,-6.629123E-1,-2.5909424E-2,-3.214196E-1,-0E0,3.5748175E-1,7.4233854E-1,-0E0,-5.3493637E-1,-1.4019893E-2,2.502E1,1.5555942E-2,3.5E0,1.9880001E1,-4.9624187E-1,-8.928584E-3,3.8917434E-1,-0E0,-8.5204667E-1,-5.302726E-1,-2.2531614E-1,2.2865906E-2,-4.7185928E-1,-2.3498189E-2,3.838051E-1,-0E0,3.7652332E-2,-1.17746875E-1,-0E0,5.5818284E-1,2.8506804E-3,1.385317E-1,1.3775E1,2.0215E3,6.0440046E-1,1.991E1,-6.561831E-1,-3.6595058E-1,1.7087236E-2,-3.474087E-1,4.0097252E-1,-0E0,-0E0,1.3286556E-1,-0E0,-5.3804326E-1,-0E0,-4.3869562E-2,4.0148106E-1,-0E0,6.272213E-2,-2.1128719E-1,3.398192E-1,7.142192E-1,1.4965988E-2,-1.3841248E-1,1.8681537E-1,-1.0397775E-1,1.0445E1,5.7393312E-2,1.8578335E1,1.5233561E-1,3.8105854E-1,7.5533074E-1,-1.7196713E-1,5.370029E-1,-6.8777907E-1,-2.6679994E-3,-0E0,-3.983574E-1,-1.1804675E-2,1.6157773E-1,-1.339839E-2,-0E0,2.2184427E-1,-0E0,-0E0,-6.2919784E-1,-0E0,4.28285E-1,-0E0,1.5080284E-1,9.718247E-2,-4.2320183E-1,4.029794E-1,-0E0,-0E0,1.09853685E-1,-1.7773001E-1,-0E0,2.4486578E-1,-0E0,-0E0,4.2297545E-1,-2.5070086E-3,1.4963703E-1,-4.9189017E-3,1.871E1,5.0108875E-3,2.434786E-1,1.1114556E-1,5.674548E-1,4.2961884E-2,7.9219836E-1,-4.8396954E-1,2.1744864E-2,-7.187956E-1,-5.8667757E-2,-7.222366E-2,-0E0,-4.2552355E-1,-0E0,2.6237879E-2,-1.1927663E-1,3.3969602E-1,-0E0,-0E0,-2.5316758E-2,3.0131403E-1,-0E0,-5.430405E-2,4.0529285E-2,4.0120423E-2,2.11269E-1,-0E0,-2.17709E-1,3.520123E-1,6.823549E-2,-0E0,-1.3829912E-2,-0E0,4.5383382E-1,4.3097157E-2,-2.1837898E-1,-0E0,2.5476202E-1,2.2624541E-2,-1.6277587E-2,-3.239306E-1,-2.6154399E-2,-1.5238688E-2,8.889313E-2,3.6998528E-1,-0E0,2.2929744E-1,-3.408648E-1,1.0551368E-1,7.401225E-1,1.349617E-1,-0E0,-7.523269E-1,-8.6667635E-2,-0E0,2.0370272E-1,-0E0,-1.4317594E-1,1.8874737E-2,-1.0646214E-1,1.7918383E-1,3.3338817E-3,1.1703806E-1,-0E0,-0E0,2.6205903E-1,-0E0,-2.4823324E-1,-0E0,3.9302585E-1,1.1916151E-1,-0E0],"split_indices":[6,6,6,6,6,6,6,6,8,7,8,1,7,8,6,6,6,2147483647,2147483647,0,6,2147483647,2147483647,2147483647,2147483647,2147483647,2147483647,2147483647,2147483647,6,6,0,7,6,0,2147483647,2147483647,2147483647,2147483647,2147483647,2147483647,2147483647,2147483647,2147483647,2147483647,2147483647,2147483647,0,6,2147483647,2147483647,6,5,1,8,2147483647,2147483647,2147483647,2147483647,2147483647,2147483647,2147483647,2147483647,2147483647,2147483647,2147483647,2147483647,2147483647,2147483647,2147483647,2147483647,2147483647,2147483647,2147483647,2147483647,2147483647,2147483647,6,5,8,6,2147483647,2147483647,1,0,2147483647,2147483647,2147483647,2147483647,2147483647,2147483647,2147483647,2147483647,2147483647,2147483647,2147483647,2147483647,2147483647,2147483647,2147483647,2147483647,2147483647,2147483647,2147483647,2147483647,2147483647,2147483647,2147483647,2147483647,2147483647,2147483647,0,1,2147483647,2147483647,1,7,2147483647,2147483647,2147483647,2147483647,2147483647,2147483647,2147483647,2147483647,2147483647,2147483647,2147483647,2147483647,2147483647,2147483647,2147483647,2147483647,2147483647,2147483647,2147483647,2147483647,2147483647,2147483647,2147483647,2147483647,2147483647,2147483647,2147483647,2147483647,2147483647,2147483647,2147483647,2147483647,2147483647,2147483647,2147483647,2147483647,2147483647,2147483647,2147483647,2147483647,0,0,2147483647,2147483647,2147483647,2147483647,2147483647,2147483647,2147483647,2147483647,2147483647,2147483647,2147483647,2147483647,2147483647,2147483647,2147483647,2147483647,2147483647,2147483647,2147483647,2147483647,2147483647,2147483647,2147483647,2147483647,2147483647,2147483647,2147483647,2147483647,2147483647,2147483647],"split_type":[0,0,0,0,0,0,0,0,0,0,0,0,0,0,0,0,0,0,0,0,0,0,0,0,0,0,0,0,0,0,0,0,0,0,0,0,0,0,0,0,0,0,0,0,0,0,0,0,0,0,0,0,0,0,0,0,0,0,0,0,0,0,0,0,0,0,0,0,0,0,0,0,0,0,0,0,0,0,0,0,0,0,0,0,0,0,0,0,0,0,0,0,0,0,0,0,0,0,0,0,0,0,0,0,0,0,0,0,0,0,0,0,0,0,0,0,0,0,0,0,0,0,0,0,0,0,0,0,0,0,0,0,0,0,0,0,0,0,0,0,0,0,0,0,0,0,0,0,0,0,0,0,0,0,0,0,0,0,0,0,0,0,0,0,0,0,0,0,0,0,0,0,0,0,0,0,0,0,0,0,0,0,0,0,0,0,0,0,0],"sum_hessian":[2.219E3,1.731E3,4.88E2,1.646E3,8.5E1,5.5E1,4.33E2,1.592E3,5.4E1,5.7E1,2.8E1,2.1E1,3.4E1,2.9E1,4.04E2,1.483E3,1.09E2,4.8E1,6E0,2E0,5.5E1,1.7E1,1.1E1,2E0,1.9E1,3.3E1,1E0,2.3E1,6E0,5E1,3.54E2,1.425E3,5.8E1,6.6E1,4.3E1,4.6E1,2E0,2E1,3.5E1,5E0,1.2E1,6E0,5E0,1.7E1,2E0,1E0,5E0,2.6E1,2.4E1,3.25E2,2.9E1,1.19E2,1.306E3,4.7E1,1.1E1,2.7E1,3.9E1,3.9E1,4E0,4.4E1,2E0,7E0,5E0,1E0,5E0,2E0,3E0,1.6E1,1E0,1.9E1,7E0,1.2E1,1.2E1,3.03E2,2.2E1,2.6E1,3E0,2.5E1,9.4E1,1.278E3,2.8E1,2.1E1,2.6E1,6E0,5E0,2.5E1,2E0,3E0,3.6E1,3E1,9E0,6E0,1E0,3E0,2E0,1E0,4E0,2E0,1.4E1,1.1E1,8E0,2E0,5E0,9E0,3E0,2.58E2,4.5E1,1.7E1,5E0,2.1E1,5E0,7E0,1.8E1,5.4E1,4E1,1.185E3,9.3E1,1.3E1,1.5E1,1E1,1.1E1,2E0,2.4E1,3E0,3E0,2.3E1,2E0,1E0,1E0,3.3E1,3E0,1.9E1,1.1E1,5E0,4E0,1E0,5E0,4E0,4E0,1.15E2,1.43E2,3E1,1.5E1,4E0,1.3E1,1.1E1,1E1,2E0,3E0,1E0,1.7E1,4.3E1,1.1E1,1.6E1,2.4E1,3.33E2,8.52E2,1.8E1,7.5E1,6E0,7E0,9E0,6E0,9E0,1E0,4E0,7E0,2E0,1E0,2.1E1,2E0,1.5E1,4E0,1E0,1E1,4.4E1,7.1E1,2.7E1,1.16E2,1.1E1,1.9E1,3E0,1.2E1,3E0,1E1,2E0,9E0,9E0,1E0],"tree_param":{"num_deleted":"146","num_feature":"9","num_nodes":"189","size_leaf_vector":"0"}},{"base_weights":[-1.4991413E-2,-4.4834044E-2,-7.0394645E-3,-2.2197392E-2,-1.0684899E-1,-4.5808632E-2,-2.6190372E-3,-2.6996749E-2,2.9954037E-1,-1.9644436E-1,-0E0,-1.7682979E-2,-1.07334696E-1,-9.415645E-3,1.7172521E-2,4.485992E-3,-5.6650016E-2,-0E0,4.2357102E-1,-0E0,-2.1058825E-1,-8.0163516E-2,9.145274E-2,-6.960618E-2,2.039985E-2,-3.1103742E-1,-1.1576611E-2,-8.9876185E-4,-7.549373E-2,1.983925E-1,1.5218853E-3,-1.487333E-1,2.0124601E-2,-1.6675169E-2,-1.0724023E-1,-3.4681037E-1,-1.3855977E-1,-2.3693903E-1,6.716894E-2,1.5478608E-1,-0E0,-1.0755648E-1,4.4384003E-3,-1.2780032E-2,1.17935695E-1,-3.8952917E-1,-0E0,-1.7046013E-1,7.669654E-2,-5.081439E-3,2.5412762E-1,-4.7851145E-1,-3.6239136E-2,3.008603E-1,-4.190801E-2,4.733099E-2,-2.388078E-2,-4.7263068E-1,-3.037503E-3,2.4889581E-1,-0E0,-5.6713745E-2,5.7689354E-2,-7.731196E-2,-3.0277863E-1,-2.8264787E-2,-4.0311036E-1,3.564126E-2,-1.6558377E-1,-7.071747E-2,-5.022663E-1,1.6867065E-1,-0E0,1.8160112E-1,-0E0,-0E0,-4.877811E-2,-4.42192E-3,-2.7207762E-1,1.2562813E-1,-2.8615898E-1,-4.7691293E-2,6.939376E-2,1.3338506E-1,-0E0,-4.4408748E-1,-0E0,-0E0,-9.144287E-2,-0E0,-2.0791382E-1,1.411872E-1,-0E0,-2.2543916E-3,-1.1891787E-1,-0E0,2.7799818E-1,-0E0,-5.502046E-1,4.346343E-2,-9.1709994E-2,-0E0,3.50743E-1,-1.67087E-1,-0E0,2.2355951E-2,3.632871E-1,-2.609869E-1,-6.4902743E-3,-0E0,-8.443312E-2,4.5860246E-1,-0E0,9.757766E-3,-2.1966726E-1,-2.902568E-2,-3.730808E-1,1.21960066E-1,-0E0,-1.175007E-1,-0E0,-3.8234946E-1,-0E0,-0E0,-1.03588104E-1,-0E0,7.683639E-2,-3.005635E-1,-7.992194E-2,-1.4891164E-1,-0E0,-9.1891557E-1,-0E0,-0E0,1.9040443E-1,-1.0623823E-1,-0E0,-9.421444E-2,8.8932864E-2,-4.0230385E-4,-4.0500125E-1,1.7491461E-1,-0E0,-0E0,-2.331555E-1,1.677848E-1,-0E0,1.429373E-1,-0E0,-3.3882418E-1,-3.1385295E-2,2.4108505E-1,-0E0,-2.770129E-2,-0E0,-4.4020633E-3,2.0069167E-1,-2.0799737E-1,-0E0,2.9269394E-1,-0E0,-0E0,-3.2887775E-2,-5.9395295E-1,-0E0,-2.817928E-1,8.062814E-2,-7.496735E-1,-6.190369E-2,1.5769413E-2,-0E0,-1.9561376E-3,1.13125816E-1,-4.0308633E-1,5.973816E-2,1.1369944E-1,-2.2494607E-2,1.6964722E-2,-0E0,-2.0509148E-1,-0E0,-1.2698582E-2,-0E0,-2.7714789E-2,6.6605225E-2,-8.501417E-2,5.183665E-2,-7.4379855E-1,-1.8047333E-2,-0E0,1.491027E-1,-0E0,-1.183644E-2,-1.304916E-1,-0E0,-5.296502E-2,2.8605895E-2,-0E0,-3.3062598E-1,-1.3147579E-1,-0E0,5.8670044E-3,-0E0,-0E0,-1.5493011E-2,2.1699324E-1,-0E0,1.19841255E-1,-1.9911395E-1,1.2745067E-1,-0E0,-0E0,-6.410387E-2,-0E0,-4.7664216E-1,-0E0,2.1693353E-1,-1.2474246E-2,9.7328946E-2,-0E0,2.3968658E-1,-0E0,1.7033234E-1,-0E0,-4.1860405E-2,-0E0,4.5584923E-1,1.2751643E-1,-2.0813836E-2,1.5152317E-2,-1.9938363E-2,4.592459E-1,-0E0,-0E0,-2.4922144E-1,-1.0726602E-1,2.8088888E-2,-0E0,-6.4346987E-1,-0E0,-3.376732E-1,1.5882602E-1,-0E0,8.224795E-2,-1.0811563E-1,1.9715503E-2,-2.0835777E-1,1.4326742E-1,-0E0,-0E0,-4.2841822E-1,-0E0,1.9405213E-1,1.7353116E-1,-0E0,1.7100003E-2,-6.715401E-2,-0E0,-1.6167718E-1,2.3028564E-1,3.4976996E-2,-3.0618094E-2,-4.661098E-1,-0E0,1.7262754E-1,1.609278E-1,-0E0,-3.3119746E-2,-0E0,-1.8095575E-1,-6.519524E-2,-0E0,-1.0291072E-1,1.524746E-1,-1.805918E-2,-0E0,-1.7642003E-1,1.15161896E-1,-0E0,-0E0,4.9243163E-2,1.8935667E-1,-0E0,-2.7535382E-1,-0E0,2.1891785E-1,-0E0,-1.018268E-1,-0E0,2.634908E-1,-0E0,-5.7306E-2,4.218377E-2,2.3482683E-1,-0E0,-0E0,5.666521E-3,-0E0,1.7482834E-1,-1.0039193E-1,-0E0,-3.1364036E-3,4.1011445E-2,-6.3804656E-2,-9.152819E-3,5.213231E-1,-0E0,-1.437051E-3,-0E0,-0E0,1.21724874E-1,-0E0,2.1253812E-1,-4.3639097E-2,1.1886978E-1,1.3392904E-1,-0E0,-0E0,-1.5043688E-1,-1.63483E-2,1.0662434E-1,-0E0,-2.6982778E-1,2.164713E-1,3.856532E-2,-0E0,7.699793E-3,-4.9038392E-1,-0E0,2.5594833E-1,-0E0,-7.40509E-3,-0E0,-1.3645427E-1,4.142104E-2,-2.594655E-1,-3.2391045E-2],"categories":[],"categories_nodes":[],"categories_segments":[],"categories_sizes":[],"default_left":[1,1,1,1,1,1,1,1,1,1,1,1,1,1,1,1,1,1,1,1,1,1,1,1,1,1,1,1,1,1,1,1,1,1,1,1,1,1,1,1,1,1,1,1,1,1,1,1,1,1,1,1,1,1,1,1,1,1,1,1,1,1,1,1,1,1,1,1,1,1,1,1,1,1,1,1,1,1,1,1,1,1,1,1,1,1,1,1,1,1,1,1,1,1,1,1,1,1,1,1,1,1,1,1,1,1,1,1,1,1,1,1,1,1,1,1,1,1,1,1,1,1,1,1,1,1,1,1,1,1,1,1,1,1,1,1,1,1,1,1,1,1,1,1,1,1,1,1,1,1,1,1,1,1,1,1,1,1,1,1,1,1,1,1,1,1,1,0,1,1,1,1,1,1,1,1,1,1,1,1,1,1,1,1,1,1,1,1,1,1,1,1,1,1,1,1,1,1,1,1,1,1,1,1,1,1,1,1,1,1,1,1,1,1,1,1,1,1,1,1,1,1,1,1,1,1,1,1,1,1,1,1,1,1,1,1,1,1,1,1,1,1,1,1,1,1,1,1,1,1,1,1,1,1,1,1,1,1,1,1,1,1,1,1,1,1,1,1,1,1,1,1,1,1,1,1,1,1,1,1,1,1,1,1,1,1,1,1,1,1,1,1,1,1,1,1,1,1,1,1,1,1,1,1,1,1,1,1,1,1,1,1,1,1,1,1,1,1,1,1,1,1,1,1,1,1,1,1,1,1,1,1,1,1,1,1,1],"id":3,"left_children":[1,3,5,-1,9,-1,13,-1,-1,-1,-1,-1,-1,27,29,-1,-1,-1,-1,-1,-1,-1,-1,-1,-1,-1,-1,49,51,-1,-1,-1,-1,-1,-1,-1,-1,-1,-1,-1,-1,-1,-1,-1,-1,-1,-1,-1,-1,-1,-1,-1,99,-1,-1,-1,-1,-1,-1,-1,-1,-1,-1,-1,-1,-1,-1,-1,-1,-1,-1,-1,-1,-1,-1,-1,-1,-1,-1,-1,-1,-1,-1,-1,-1,-1,-1,-1,-1,-1,-1,-1,-1,-1,-1,-1,-1,-1,-1,-1,167,-1,-1,-1,-1,-1,-1,-1,-1,-1,-1,-1,-1,-1,-1,-1,-1,-1,-1,-1,-1,-1,-1,-1,-1,-1,-1,-1,-1,-1,-1,-1,-1,-1,-1,-1,-1,-1,-1,-1,-1,-1,-1,-1,-1,-1,-1,-1,-1,-1,-1,-1,-1,-1,-1,-1,-1,-1,-1,-1,-1,-1,-1,-1,-1,-1,-1,-1,-1,-1,-1,-1,-1,-1,-1,-1,-1,-1,-1,-1,-1,-1,-1,-1,-1,-1,-1,-1,-1,-1,-1,-1,-1,-1,-1,-1,-1,-1,-1,-1,-1,-1,-1,-1,-1,-1,-1,-1,-1,-1,-1,-1,-1,-1,-1,-1,-1,-1,-1,-1,-1,-1,-1,-1,-1,-1,-1,-1,-1,-1,-1,-1,-1,-1,-1,-1,-1,-1,-1,-1,-1,-1,-1,-1,-1,-1,-1,-1,-1,-1,-1,-1,-1,-1,-1,-1,-1,-1,-1,-1,-1,-1,-1,-1,-1,-1,-1,-1,-1,-1,-1,-1,-1,-1,-1,-1,-1,-1,-1,-1,-1,-1,-1,-1,-1,-1,-1,-1,-1,-1,-1,-1,-1,-1,-1,-1,-1,-1,-1,-1,-1,-1,-1,-1,-1,-1,-1,-1,-1,-1,-1,-1,-1,-1,-1,-1,-1,-1,-1,-1,-1,-1,-1,-1,-1,-1,-1,-1,-1,-1,-1,-1,-1,-1,-1,-1,-1],"loss_changes":[5.015577E-1,5.7232285E-1,2.789765E-1,3.9200512E-1,1.0160886E0,2.2985527E-1,2.1149442E-1,3.4035406E-1,1.3449544E-1,2.5960517E-1,4.0539587E-1,2.6754245E-1,7.634363E-1,6.430142E-1,1.007431E0,3.0979148E-1,3.042022E-1,0E0,0E0,0E0,3.0728245E-1,8.435314E-1,1.9877438E-1,2.1337354E-1,2.653044E-1,1.3541555E-1,5.3728634E-1,1.0276176E0,1.8143232E0,8.3753777E-1,4.3412185E-1,3.0413872E-1,6.538925E-1,3.2122388E-1,2.3423392E-1,9.246254E-2,2.6328772E-1,4.6755308E-1,8.654301E-2,1.1585495E-1,1.0706868E-2,5.822809E-1,4.8357934E-1,1.2133348E-1,4.4013172E-2,3.763938E-2,2.0904496E-2,1.1903036E-1,1.6845216E-1,2.8185824E-1,4.2317152E-2,1.6894436E-1,5.6328845E-1,2.0674765E-1,8.454113E-2,8.8024116E-1,7.9936343E-1,0E0,3.9121583E-2,6.546405E-1,2.7763036E-1,4.4612184E-1,1.4880948E-1,2.2473499E-1,2.626804E-1,2.3231197E-2,0E0,1.0313531E-2,2.4290705E-1,1.2597278E-1,7.235218E-1,0E0,0E0,1.4506757E-2,0E0,0E0,2.87961E-2,2.4573316E-1,3.208419E-1,9.337331E-2,0E0,4.3341637E-1,8.093563E-2,2.8399646E-2,0E0,0E0,0E0,0E0,0E0,0E0,9.844589E-2,8.875251E-2,4.2204885E-3,3.571185E-1,1.9348204E-1,0E0,2.7551532E-2,1.6224087E-3,7.2687626E-2,4.7287238E-1,1.0516729E0,8.703604E-4,0E0,0E0,0E0,3.3926994E-1,0E0,7.989744E-1,3.6635566E-1,7.1950443E-4,6.594704E-2,0E0,5.64389E-4,2.941014E-1,0E0,3.3797106E-1,2.0464277E-1,6.2058896E-2,1.8913678E-3,1.2955666E-1,3.173631E-2,0E0,0E0,0E0,0E0,0E0,0E0,1.856196E-2,1.6780554E-1,0E0,8.605435E-5,0E0,6.000835E-4,0E0,1.5809E-2,0E0,0E0,4.4451827E-1,7.960445E-2,1.8490825E-2,8.249915E-2,1.09357685E-1,0E0,7.423687E-2,0E0,1.6941339E-2,0E0,5.120009E-3,0E0,0E0,2.2498406E-3,3.4950185E-1,7.5121455E-2,0E0,0E0,3.1713176E-1,6.0672486E-1,1.5464553E-1,4.6188384E-2,0E0,0E0,0E0,0E0,4.549694E-2,0E0,7.132858E-3,2.8478935E-1,0E0,5.0700223E-1,0E0,0E0,5.324986E-1,9.975636E-2,3.7625313E-2,8.16503E-2,2.1892291E-1,3.6599344E-1,0E0,0E0,0E0,0E0,0E0,0E0,2.9719546E-1,1.5583736E-1,6.877203E-1,9.538199E-2,0E0,0E0,0E0,2.7261317E-2,0E0,9.626267E-3,1.765889E-2,0E0,1.883275E-2,1.6396014E-1,0E0,0E0,1.4534768E-1,4.6417918E-2,0E0,0E0,0E0,0E0,0E0,6.062223E-3,6.0867146E-2,1.8506157E-1,4.510404E-2,0E0,0E0,1.7798563E-2,0E0,0E0,0E0,1.2069419E-1,5.9003312E-2,1.7709944E-1,0E0,0E0,1.4449256E-4,0E0,0E0,0E0,0E0,0E0,3.2403842E-3,3.332542E-2,2.2921936E-1,2.430808E-1,2.1414757E-3,7.227904E-6,0E0,0E0,0E0,6.075885E-2,0E0,0E0,0E0,0E0,2.6811206E-1,1.0913725E-1,1.0142214E-1,2.3275983E-1,3.1712335E-1,1.924178E-1,5.6090236E-2,3.2607748E-4,0E0,5.9922338E-2,0E0,0E0,3.2200387E-1,1.370884E-4,3.1569824E-1,4.950027E-1,0E0,0E0,0E0,0E0,0E0,0E0,0E0,0E0,0E0,0E0,0E0,0E0,0E0,0E0,0E0,0E0,0E0,0E0,0E0,0E0,0E0,0E0,0E0,0E0,0E0,0E0,0E0,0E0,0E0,0E0,0E0,0E0,0E0,0E0,0E0,0E0,0E0,0E0,0E0,0E0,0E0,0E0,0E0,0E0,0E0,0E0,0E0,0E0,0E0,0E0,0E0,0E0,0E0,0E0,0E0,0E0,0E0,0E0,0E0,0E0,0E0,0E0,0E0,0E0,0E0,0E0,0E0,0E0,0E0,0E0,0E0,0E0,0E0,0E0,0E0,0E0,0E0,0E0,0E0,0E0],"parents":[2147483647,0,0,1,1,2,2,3,3,4,4,5,5,6,6,7,7,8,8,9,9,10,10,11,11,12,12,13,13,14,14,15,15,16,16,20,20,21,21,22,22,23,23,24,24,25,25,26,26,27,27,28,28,29,29,30,30,31,31,32,32,33,33,34,34,35,35,36,36,37,37,38,38,39,39,40,40,41,41,42,42,43,43,44,44,45,45,46,46,47,47,48,48,49,49,50,50,51,51,52,52,53,53,54,54,55,55,56,56,58,58,59,59,60,60,61,61,62,62,63,63,64,64,65,65,67,67,68,68,69,69,70,70,73,73,76,76,77,77,78,78,79,79,81,81,82,82,83,83,90,90,91,91,92,92,93,93,94,94,96,96,97,97,98,98,99,99,100,100,101,101,105,105,107,107,108,108,109,109,110,110,112,112,113,113,115,115,116,116,117,117,118,118,119,119,120,120,127,127,128,128,130,130,132,132,134,134,137,137,138,138,139,139,140,140,141,141,143,143,145,145,147,147,150,150,151,151,152,152,155,155,156,156,157,157,158,158,163,163,165,165,166,166,168,168,171,171,172,172,173,173,174,174,175,175,176,176,183,183,184,184,185,185,186,186,190,190,192,192,193,193,195,195,196,196,199,199,200,200,206,206,207,207,208,208,209,209,212,212,216,216,217,217,218,218,221,221,227,227,228,228,229,229,230,230,231,231,232,232,236,236,241,241,242,242,243,243,244,244,245,245,246,246,247,247,248,248,250,250,253,253,254,254,255,255,256,256],"right_children":[2,4,6,-1,10,-1,14,-1,-1,-1,-1,-1,-1,28,30,-1,-1,-1,-1,-1,-1,-1,-1,-1,-1,-1,-1,50,52,-1,-1,-1,-1,-1,-1,-1,-1,-1,-1,-1,-1,-1,-1,-1,-1,-1,-1,-1,-1,-1,-1,-1,100,-1,-1,-1,-1,-1,-1,-1,-1,-1,-1,-1,-1,-1,-1,-1,-1,-1,-1,-1,-1,-1,-1,-1,-1,-1,-1,-1,-1,-1,-1,-1,-1,-1,-1,-1,-1,-1,-1,-1,-1,-1,-1,-1,-1,-1,-1,-1,168,-1,-1,-1,-1,-1,-1,-1,-1,-1,-1,-1,-1,-1,-1,-1,-1,-1,-1,-1,-1,-1,-1,-1,-1,-1,-1,-1,-1,-1,-1,-1,-1,-1,-1,-1,-1,-1,-1,-1,-1,-1,-1,-1,-1,-1,-1,-1,-1,-1,-1,-1,-1,-1,-1,-1,-1,-1,-1,-1,-1,-1,-1,-1,-1,-1,-1,-1,-1,-1,-1,-1,-1,-1,-1,-1,-1,-1,-1,-1,-1,-1,-1,-1,-1,-1,-1,-1,-1,-1,-1,-1,-1,-1,-1,-1,-1,-1,-1,-1,-1,-1,-1,-1,-1,-1,-1,-1,-1,-1,-1,-1,-1,-1,-1,-1,-1,-1,-1,-1,-1,-1,-1,-1,-1,-1,-1,-1,-1,-1,-1,-1,-1,-1,-1,-1,-1,-1,-1,-1,-1,-1,-1,-1,-1,-1,-1,-1,-1,-1,-1,-1,-1,-1,-1,-1,-1,-1,-1,-1,-1,-1,-1,-1,-1,-1,-1,-1,-1,-1,-1,-1,-1,-1,-1,-1,-1,-1,-1,-1,-1,-1,-1,-1,-1,-1,-1,-1,-1,-1,-1,-1,-1,-1,-1,-1,-1,-1,-1,-1,-1,-1,-1,-1,-1,-1,-1,-1,-1,-1,-1,-1,-1,-1,-1,-1,-1,-1,-1,-1,-1,-1,-1,-1,-1,-1,-1,-1,-1,-1,-1,-1,-1,-1,-1,-1,-1],"split_conditions":[5E-1,2.1775002E1,3.5E0,-2.2197392E-2,2.7965E1,-4.5808632E-2,2.2063334E1,-2.6996749E-2,2.9954037E-1,-1.9644436E-1,-0E0,-1.7682979E-2,-1.07334696E-1,2.0115E1,2.254E1,4.485992E-3,-5.6650016E-2,-0E0,4.2357102E-1,-0E0,-2.1058825E-1,-8.0163516E-2,9.145274E-2,-6.960618E-2,2.039985E-2,-3.1103742E-1,-1.1576611E-2,1.9646667E1,2.0455E1,1.983925E-1,1.5218853E-3,-1.487333E-1,2.0124601E-2,-1.6675169E-2,-1.0724023E-1,-3.4681037E-1,-1.3855977E-1,-2.3693903E-1,6.716894E-2,1.5478608E-1,-0E0,-1.0755648E-1,4.4384003E-3,-1.2780032E-2,1.17935695E-1,-3.8952917E-1,-0E0,-1.7046013E-1,7.669654E-2,-5.081439E-3,2.5412762E-1,-4.7851145E-1,2.1078333E1,3.008603E-1,-4.190801E-2,4.733099E-2,-2.388078E-2,-4.7263068E-1,-3.037503E-3,2.4889581E-1,-0E0,-5.6713745E-2,5.7689354E-2,-7.731196E-2,-3.0277863E-1,-2.8264787E-2,-4.0311036E-1,3.564126E-2,-1.6558377E-1,-7.071747E-2,-5.022663E-1,1.6867065E-1,-0E0,1.8160112E-1,-0E0,-0E0,-4.877811E-2,-4.42192E-3,-2.7207762E-1,1.2562813E-1,-2.8615898E-1,-4.7691293E-2,6.939376E-2,1.3338506E-1,-0E0,-4.4408748E-1,-0E0,-0E0,-9.144287E-2,-0E0,-2.0791382E-1,1.411872E-1,-0E0,-2.2543916E-3,-1.1891787E-1,-0E0,2.7799818E-1,-0E0,-5.502046E-1,4.346343E-2,2.0900002E1,-0E0,3.50743E-1,-1.67087E-1,-0E0,2.2355951E-2,3.632871E-1,-2.609869E-1,-6.4902743E-3,-0E0,-8.443312E-2,4.5860246E-1,-0E0,9.757766E-3,-2.1966726E-1,-2.902568E-2,-3.730808E-1,1.21960066E-1,-0E0,-1.175007E-1,-0E0,-3.8234946E-1,-0E0,-0E0,-1.03588104E-1,-0E0,7.683639E-2,-3.005635E-1,-7.992194E-2,-1.4891164E-1,-0E0,-9.1891557E-1,-0E0,-0E0,1.9040443E-1,-1.0623823E-1,-0E0,-9.421444E-2,8.8932864E-2,-4.0230385E-4,-4.0500125E-1,1.7491461E-1,-0E0,-0E0,-2.331555E-1,1.677848E-1,-0E0,1.429373E-1,-0E0,-3.3882418E-1,-3.1385295E-2,2.4108505E-1,-0E0,-2.770129E-2,-0E0,-4.4020633E-3,2.0069167E-1,-2.0799737E-1,-0E0,2.9269394E-1,-0E0,-0E0,-3.2887775E-2,-5.9395295E-1,-0E0,-2.817928E-1,8.062814E-2,-7.496735E-1,-6.190369E-2,1.5769413E-2,-0E0,-1.9561376E-3,1.13125816E-1,-4.0308633E-1,5.973816E-2,1.1369944E-1,-2.2494607E-2,1.6964722E-2,-0E0,-2.0509148E-1,-0E0,-1.2698582E-2,-0E0,-2.7714789E-2,6.6605225E-2,-8.501417E-2,5.183665E-2,-7.4379855E-1,-1.8047333E-2,-0E0,1.491027E-1,-0E0,-1.183644E-2,-1.304916E-1,-0E0,-5.296502E-2,2.8605895E-2,-0E0,-3.3062598E-1,-1.3147579E-1,-0E0,5.8670044E-3,-0E0,-0E0,-1.5493011E-2,2.1699324E-1,-0E0,1.19841255E-1,-1.9911395E-1,1.2745067E-1,-0E0,-0E0,-6.410387E-2,-0E0,-4.7664216E-1,-0E0,2.1693353E-1,-1.2474246E-2,9.7328946E-2,-0E0,2.3968658E-1,-0E0,1.7033234E-1,-0E0,-4.1860405E-2,-0E0,4.5584923E-1,1.2751643E-1,-2.0813836E-2,1.5152317E-2,-1.9938363E-2,4.592459E-1,-0E0,-0E0,-2.4922144E-1,-1.0726602E-1,2.8088888E-2,-0E0,-6.4346987E-1,-0E0,-3.376732E-1,1.5882602E-1,-0E0,8.224795E-2,-1.0811563E-1,1.9715503E-2,-2.0835777E-1,1.4326742E-1,-0E0,-0E0,-4.2841822E-1,-0E0,1.9405213E-1,1.7353116E-1,-0E0,1.7100003E-2,-6.715401E-2,-0E0,-1.6167718E-1,2.3028564E-1,3.4976996E-2,-3.0618094E-2,-4.661098E-1,-0E0,1.7262754E-1,1.609278E-1,-0E0,-3.3119746E-2,-0E0,-1.8095575E-1,-6.519524E-2,-0E0,-1.0291072E-1,1.524746E-1,-1.805918E-2,-0E0,-1.7642003E-1,1.15161896E-1,-0E0,-0E0,4.9243163E-2,1.8935667E-1,-0E0,-2.7535382E-1,-0E0,2.1891785E-1,-0E0,-1.018268E-1,-0E0,2.634908E-1,-0E0,-5.7306E-2,4.218377E-2,2.3482683E-1,-0E0,-0E0,5.666521E-3,-0E0,1.7482834E-1,-1.0039193E-1,-0E0,-3.1364036E-3,4.1011445E-2,-6.3804656E-2,-9.152819E-3,5.213231E-1,-0E0,-1.437051E-3,-0E0,-0E0,1.21724874E-1,-0E0,2.1253812E-1,-4.3639097E-2,1.1886978E-1,1.3392904E-1,-0E0,-0E0,-1.5043688E-1,-1.63483E-2,1.0662434E-1,-0E0,-2.6982778E-1,2.164713E-1,3.856532E-2,-0E0,7.699793E-3,-4.9038392E-1,-0E0,2.5594833E-1,-0E0,-7.40509E-3,-0E0,-1.3645427E-1,4.142104E-2,-2.594655E-1,-3.2391045E-2],"split_indices":[3,6,0,6,7,6,8,2147483647,2147483647,7,1,2147483647,2147483647,6,8,2147483647,2147483647,2147483647,2147483647,2147483647,2147483647,2147483647,2147483647,2147483647,2147483647,2147483647,2147483647,8,6,0,6,2147483647,2147483647,2147483647,2147483647,2147483647,2147483647,2147483647,2147483647,2147483647,2147483647,2147483647,2147483647,2147483647,2147483647,2147483647,2147483647,2147483647,2147483647,8,0,6,8,2147483647,2147483647,2147483647,2147483647,2147483647,2147483647,2147483647,2147483647,2147483647,2147483647,2147483647,2147483647,2147483647,2147483647,2147483647,2147483647,2147483647,2147483647,2147483647,2147483647,2147483647,2147483647,2147483647,2147483647,2147483647,2147483647,2147483647,2147483647,2147483647,2147483647,2147483647,2147483647,2147483647,2147483647,2147483647,2147483647,2147483647,2147483647,2147483647,2147483647,2147483647,2147483647,2147483647,2147483647,2147483647,2147483647,1,6,2147483647,2147483647,2147483647,2147483647,2147483647,2147483647,2147483647,2147483647,2147483647,2147483647,2147483647,2147483647,2147483647,2147483647,2147483647,2147483647,2147483647,2147483647,2147483647,2147483647,2147483647,2147483647,2147483647,2147483647,2147483647,2147483647,2147483647,2147483647,2147483647,2147483647,2147483647,2147483647,2147483647,2147483647,2147483647,2147483647,2147483647,2147483647,2147483647,2147483647,2147483647,2147483647,2147483647,2147483647,2147483647,2147483647,2147483647,2147483647,2147483647,2147483647,2147483647,2147483647,2147483647,2147483647,2147483647,2147483647,2147483647,2147483647,2147483647,2147483647,2147483647,2147483647,2147483647,2147483647,2147483647,2147483647,0,5,2147483647,2147483647,2147483647,2147483647,2147483647,2147483647,2147483647,2147483647,2147483647,2147483647,2147483647,2147483647,2147483647,2147483647,2147483647,2147483647,2147483647,2147483647,2147483647,2147483647,2147483647,2147483647,2147483647,2147483647,2147483647,2147483647,2147483647,2147483647,2147483647,2147483647,2147483647,2147483647,2147483647,2147483647,2147483647,2147483647,2147483647,2147483647,2147483647,2147483647,2147483647,2147483647,2147483647,2147483647,2147483647,2147483647,2147483647,2147483647,2147483647,2147483647,2147483647,2147483647,2147483647,2147483647,2147483647,2147483647,2147483647,2147483647,2147483647,2147483647,2147483647,2147483647,2147483647,2147483647,2147483647,2147483647,2147483647,2147483647,2147483647,2147483647,2147483647,2147483647,2147483647,2147483647,2147483647,2147483647,2147483647,2147483647,2147483647,2147483647,2147483647,2147483647,2147483647,2147483647,2147483647,2147483647,2147483647,2147483647,2147483647,2147483647,2147483647,2147483647,2147483647,2147483647,2147483647,2147483647,2147483647,2147483647,2147483647,2147483647,2147483647,2147483647,2147483647,2147483647,2147483647,2147483647,2147483647,2147483647,2147483647,2147483647,2147483647,2147483647,2147483647,2147483647,2147483647,2147483647,2147483647,2147483647,2147483647,2147483647,2147483647,2147483647,2147483647,2147483647,2147483647,2147483647,2147483647,2147483647,2147483647,2147483647,2147483647,2147483647,2147483647,2147483647,2147483647,2147483647,2147483647,2147483647,2147483647,2147483647,2147483647,2147483647,2147483647,2147483647,2147483647,2147483647,2147483647,2147483647,2147483647,2147483647,2147483647,2147483647,2147483647,2147483647,2147483647,2147483647,2147483647,2147483647,2147483647,2147483647,2147483647,2147483647,2147483647,2147483647,2147483647,2147483647,2147483647,2147483647],"split_type":[0,0,0,0,0,0,0,0,0,0,0,0,0,0,0,0,0,0,0,0,0,0,0,0,0,0,0,0,0,0,0,0,0,0,0,0,0,0,0,0,0,0,0,0,0,0,0,0,0,0,0,0,0,0,0,0,0,0,0,0,0,0,0,0,0,0,0,0,0,0,0,0,0,0,0,0,0,0,0,0,0,0,0,0,0,0,0,0,0,0,0,0,0,0,0,0,0,0,0,0,0,0,0,0,0,0,0,0,0,0,0,0,0,0,0,0,0,0,0,0,0,0,0,0,0,0,0,0,0,0,0,0,0,0,0,0,0,0,0,0,0,0,0,0,0,0,0,0,0,0,0,0,0,0,0,0,0,0,0,0,0,0,0,0,0,0,0,0,0,0,0,0,0,0,0,0,0,0,0,0,0,0,0,0,0,0,0,0,0,0,0,0,0,0,0,0,0,0,0,0,0,0,0,0,0,0,0,0,0,0,0,0,0,0,0,0,0,0,0,0,0,0,0,0,0,0,0,0,0,0,0,0,0,0,0,0,0,0,0,0,0,0,0,0,0,0,0,0,0,0,0,0,0,0,0,0,0,0,0,0,0,0,0,0,0,0,0,0,0,0,0,0,0,0,0,0,0,0,0,0,0,0,0,0,0,0,0,0,0,0,0,0,0,0,0,0,0,0,0,0,0,0,0,0,0,0,0,0,0,0,0,0,0,0,0,0,0,0,0,0,0,0,0,0,0,0,0,0,0,0,0,0,0,0,0,0,0],"sum_hessian":[2.223E3,4.54E2,1.769E3,3.39E2,1.15E2,1.69E2,1.6E3,3.36E2,3E0,6E1,5.5E1,1.22E2,4.7E1,1.21E3,3.9E2,1.55E2,1.81E2,1E0,2E0,2E0,5.8E1,3.2E1,2.3E1,5.7E1,6.5E1,1.3E1,3.4E1,1.079E3,1.31E2,2.8E1,3.62E2,1.1E1,1.44E2,1.07E2,7.4E1,1.7E1,4.1E1,1.7E1,1.5E1,1.6E1,7E0,4.2E1,1.5E1,4.5E1,2E1,9E0,4E0,1.4E1,2E1,1.064E3,1.5E1,1E1,1.21E2,2.1E1,7E0,1.36E2,2.26E2,2E0,9E0,1.1E1,1.33E2,7.4E1,3.3E1,6.7E1,7E0,4E0,1.3E1,3E0,3.8E1,1.2E1,5E0,5E0,1E1,1.5E1,1E0,3E0,4E0,2.8E1,1.4E1,1.2E1,3E0,3.6E1,9E0,1.8E1,2E0,7E0,2E0,2E0,2E0,2E0,1.2E1,1.4E1,6E0,1.043E3,2.1E1,2E0,1.3E1,2E0,8E0,4.6E1,7.5E1,4E0,1.7E1,3E0,4E0,1.28E2,8E0,1.3E1,2.13E2,4E0,5E0,6E0,5E0,1.28E2,5E0,7E1,4E0,1.7E1,1.6E1,4.5E1,2.2E1,6E0,1E0,2E0,2E0,1E0,2E0,1.2E1,2.6E1,8E0,4E0,2E0,3E0,1E0,1.4E1,3E0,1E0,1.7E1,1.1E1,6E0,8E0,9E0,3E0,2.7E1,9E0,4E0,5E0,1.7E1,1E0,5E0,7E0,6E0,8E0,5E0,1E0,1.035E3,8E0,1.1E1,1E1,1.2E1,1E0,1E0,1E0,7E0,1E0,3E0,4.3E1,2E0,7.3E1,3E0,1E0,9.7E1,3.1E1,1E1,3E0,2.1E1,1.92E2,2E0,2E0,2E0,3E0,3E0,2E0,7.2E1,5.6E1,4.5E1,2.5E1,1E0,3E0,3E0,1.4E1,3E0,1.3E1,4.4E1,1E0,6E0,1.6E1,2E0,1E1,1.9E1,7E0,2E0,2E0,1E0,2E0,1.1E1,3E0,4E0,1.3E1,1E1,1E0,2E0,4E0,2E0,6E0,1E0,8E0,2E1,7E0,2E0,2E0,5E0,1.2E1,2E0,5E0,3E0,3E0,4E0,4E0,4.44E2,5.91E2,4E0,4E0,1E0,1E1,3E0,7E0,1E0,6E0,1E0,2E0,2.2E1,2.1E1,1.5E1,5.8E1,8.6E1,1.1E1,2.4E1,7E0,1E0,9E0,1E0,2E0,1.6E1,5E0,9.6E1,9.6E1,5.9E1,1.3E1,6E0,5E1,4.1E1,4E0,2E1,5E0,1.3E1,1E0,1E1,3E0,2E1,2.4E1,3E0,3E0,7E0,9E0,4E0,1.5E1,3E0,4E0,1E0,2E0,3E0,1E0,9E0,4E0,4E0,6E0,3E0,1E0,7E0,1E0,1.6E1,4E0,4E0,3E0,1E0,4E0,2E0,2E0,3E0,1E0,2.49E2,1.95E2,1.07E2,4.84E2,3E0,1E0,3E0,1E0,3E0,4E0,4E0,1.8E1,1.6E1,5E0,1.1E1,4E0,1.8E1,4E1,5.7E1,2.9E1,2E0,9E0,1.1E1,1.3E1,2E0,5E0,7E0,2E0,1.2E1,4E0,2E0,3E0,1E1,8.6E1,1.2E1,8.4E1],"tree_param":{"num_deleted":"314","num_feature":"9","num_nodes":"337","size_leaf_vector":"0"}},{"base_weights":[-4.6871995E-5,-2.1174254E-3,1.4489414E-1,2.3005658E-3,-8.3424784E-2,2.5955123E-1,-0E0,-3.3712233E-4,2.2253497E-1,-2.280693E-1,-4.745632E-2,-0E0,2.9705992E-1,-1.0776605E-1,7.432034E-2,3.012541E-3,-1.723983E-1,2.627739E-1,-0E0,-1.9294076E-2,-4.1616198E-1,-6.2084803E-3,-1.8664746E-1,3.4028625E-1,-0E0,2.8937784E-1,-1.7483104E-2,-1.7517327E-1,4.3047704E-3,-2.3292717E-1,-0E0,-0E0,2.7821404E-1,-4.3375105E-2,-0E0,-1.1973601E-1,-7.643585E-1,-4.0249296E-2,1.5038797E-1,-0E0,-2.2261171E-1,5.064977E-1,1.2211785E-1,-1.210083E-1,-0E0,-2.6621817E-2,1.0096653E-2,-5.6073066E-2,-3.0206662E-1,1.8720753E-1,-1.0329999E-2,3.174271E-1,4.4373598E-2,-0E0,-9.9428006E-2,-1.3380294E-1,-0E0,-9.1891557E-1,-0E0,3.2530714E-2,-8.1762254E-2,-0E0,2.0396464E-1,-0E0,-2.532379E-1,1.7189449E-1,-0E0,-2.3285754E-3,-7.748025E-2,1.4474178E-2,-3.957643E-2,-2.1826427E-1,-0E0,-3.312185E-1,-0E0,-9.870946E-2,-0E0,3.288216E-1,-0E0,-0E0,2.0464858E-1,9.335561E-2,-5.0933145E-2,-1.6093458E-1,2.0484924E-3,2.3314892E-1,-0E0,-0E0,-2.710535E-1,-3.19636E-2,6.538486E-2,-1.0451555E-1,8.328611E-2,2.2760424E-4,3.1911228E-2,8.049166E-2,-6.8597056E-2,2.0764438E-2,-0E0,-0E0,-1.3930511E-1,-0E0,7.255881E-2,1.16553806E-1,-0E0,-0E0,-1.00223E-1,-3.8651437E-1,-1.3719713E-2,4.617578E-2,-1.08505245E-2,3.1090468E-1,-4.0995177E-2,-2.489957E-3,1.3947581E-1,-2.3972596E-1,-4.538254E-2,1.6834797E-1,-2.2581482E-2,5.160521E-3,-1.6314252E-1,7.8575626E-2,1.468955E-2,-0E0,1.236027E-1,-1.0781245E-1,5.6237794E-2,4.1397095E-2,-0E0,1.2379937E-1,-0E0,-1.6150716E-1,-7.842331E-1,7.5780004E-2,-8.671146E-2,-0E0,8.7124415E-2,-7.284982E-2,-0E0],"categories":[],"categories_nodes":[],"categories_segments":[],"categories_sizes":[],"default_left":[1,1,1,1,1,1,1,1,1,1,1,1,1,1,1,1,1,1,1,1,1,1,1,1,1,1,1,1,1,1,1,1,1,1,1,1,1,1,1,1,1,1,1,1,1,1,1,1,1,1,1,1,1,1,1,1,1,1,1,1,1,1,1,1,1,1,1,1,1,1,1,1,1,1,1,1,1,1,1,1,1,1,1,1,1,1,1,1,1,1,1,1,1,1,1,1,1,1,1,1,1,1,1,1,1,1,1,1,1,1,1,1,1,1,1,1,1,1,1,1,1,1,1,1,1,1,1,1,1,1,1,1,1,1,1,1,1,1,1],"id":4,"left_children":[1,3,-1,7,-1,-1,-1,15,-1,-1,-1,-1,-1,-1,-1,-1,-1,-1,-1,-1,-1,-1,-1,-1,-1,-1,-1,-1,-1,-1,-1,-1,-1,-1,-1,-1,-1,-1,-1,-1,-1,-1,-1,-1,-1,-1,-1,-1,-1,-1,-1,-1,-1,-1,-1,-1,-1,-1,-1,-1,-1,-1,-1,-1,-1,-1,-1,-1,-1,-1,-1,-1,-1,-1,-1,-1,-1,-1,-1,-1,-1,-1,-1,-1,-1,-1,-1,-1,-1,-1,-1,-1,-1,-1,-1,-1,-1,-1,-1,-1,-1,-1,-1,-1,-1,-1,-1,-1,-1,-1,-1,-1,-1,-1,-1,-1,-1,-1,-1,-1,-1,-1,-1,-1,-1,-1,-1,-1,-1,-1,-1,-1,-1,-1,-1,-1,-1,-1,-1],"loss_changes":[5.8705217E-1,8.1889784E-1,3.9947557E-1,1.3017108E0,4.6813577E-1,1.262384E-1,1.0473422E-1,1.2511908E0,2.4129963E-1,5.8327365E-1,4.6277273E-1,0E0,1.1278725E-1,0E0,3.2603568E-1,3.7142718E-1,4.7560596E-1,1.1053789E-1,0E0,1.5473694E-2,4.9272966E-1,3.6641482E-1,8.8790655E-2,3.551793E-2,0E0,0E0,3.49264E-2,0E0,3.4501314E-1,1.9763052E-1,5.358373E-2,0E0,9.203196E-3,3.461791E-2,0E0,5.2791014E-3,6.616092E-2,2.2988433E-1,1.3512471E-1,0E0,3.3500493E-2,0E0,3.603173E-2,0E0,0E0,3.2757145E-1,3.5184717E-1,1.7821863E-1,2.6875424E-1,0E0,5.2575827E-2,1.3377309E-2,9.3873024E-2,0E0,0E0,0E0,0E0,0E0,0E0,1.2766063E-1,3.9479375E-1,0E0,6.683159E-2,0E0,4.32868E-2,0E0,0E0,4.0272906E-1,4.0396696E-1,3.6860254E-1,4.375965E-1,0E0,2.3713904E-3,0E0,0E0,1.433114E-2,1.8426733E-2,0E0,0E0,0E0,0E0,3.4723192E-2,2.0888254E-2,7.104706E-1,2.9581716E-2,0E0,0E0,0E0,0E0,3.3746248E-1,3.6285776E-1,4.876402E-1,1.6933963E-1,6.213465E-1,4.996667E-1,8.222909E-2,5.452887E-1,5.340347E-3,0E0,0E0,0E0,0E0,0E0,6.442398E-3,0E0,0E0,0E0,3.1395137E-1,1.2960693E-1,5.091723E-2,1.7691832E-2,0E0,0E0,0E0,0E0,0E0,0E0,0E0,0E0,0E0,0E0,0E0,0E0,0E0,0E0,0E0,0E0,0E0,0E0,0E0,0E0,0E0,0E0,0E0,0E0,0E0,0E0,0E0,0E0],"parents":[2147483647,0,0,1,1,2,2,3,3,4,4,5,5,6,6,7,7,8,8,9,9,10,10,12,12,14,14,15,15,16,16,17,17,19,19,20,20,21,21,22,22,23,23,26,26,28,28,29,29,30,30,32,32,33,33,35,35,36,36,37,37,38,38,40,40,42,42,45,45,46,46,47,47,48,48,50,50,51,51,52,52,59,59,60,60,62,62,64,64,67,67,68,68,69,69,70,70,72,72,75,75,76,76,81,81,82,82,83,83,84,84,89,89,90,90,91,91,92,92,93,93,94,94,95,95,96,96,97,97,103,103,107,107,108,108,109,109,110,110],"right_children":[2,4,-1,8,-1,-1,-1,16,-1,-1,-1,-1,-1,-1,-1,-1,-1,-1,-1,-1,-1,-1,-1,-1,-1,-1,-1,-1,-1,-1,-1,-1,-1,-1,-1,-1,-1,-1,-1,-1,-1,-1,-1,-1,-1,-1,-1,-1,-1,-1,-1,-1,-1,-1,-1,-1,-1,-1,-1,-1,-1,-1,-1,-1,-1,-1,-1,-1,-1,-1,-1,-1,-1,-1,-1,-1,-1,-1,-1,-1,-1,-1,-1,-1,-1,-1,-1,-1,-1,-1,-1,-1,-1,-1,-1,-1,-1,-1,-1,-1,-1,-1,-1,-1,-1,-1,-1,-1,-1,-1,-1,-1,-1,-1,-1,-1,-1,-1,-1,-1,-1,-1,-1,-1,-1,-1,-1,-1,-1,-1,-1,-1,-1,-1,-1,-1,-1,-1,-1],"split_conditions":[3.3065002E1,3.076E1,1.4489414E-1,3.046E1,-8.3424784E-2,2.5955123E-1,-0E0,2.9795E1,2.2253497E-1,-2.280693E-1,-4.745632E-2,-0E0,2.9705992E-1,-1.0776605E-1,7.432034E-2,3.012541E-3,-1.723983E-1,2.627739E-1,-0E0,-1.9294076E-2,-4.1616198E-1,-6.2084803E-3,-1.8664746E-1,3.4028625E-1,-0E0,2.8937784E-1,-1.7483104E-2,-1.7517327E-1,4.3047704E-3,-2.3292717E-1,-0E0,-0E0,2.7821404E-1,-4.3375105E-2,-0E0,-1.1973601E-1,-7.643585E-1,-4.0249296E-2,1.5038797E-1,-0E0,-2.2261171E-1,5.064977E-1,1.2211785E-1,-1.210083E-1,-0E0,-2.6621817E-2,1.0096653E-2,-5.6073066E-2,-3.0206662E-1,1.8720753E-1,-1.0329999E-2,3.174271E-1,4.4373598E-2,-0E0,-9.9428006E-2,-1.3380294E-1,-0E0,-9.1891557E-1,-0E0,3.2530714E-2,-8.1762254E-2,-0E0,2.0396464E-1,-0E0,-2.532379E-1,1.7189449E-1,-0E0,-2.3285754E-3,-7.748025E-2,1.4474178E-2,-3.957643E-2,-2.1826427E-1,-0E0,-3.312185E-1,-0E0,-9.870946E-2,-0E0,3.288216E-1,-0E0,-0E0,2.0464858E-1,9.335561E-2,-5.0933145E-2,-1.6093458E-1,2.0484924E-3,2.3314892E-1,-0E0,-0E0,-2.710535E-1,-3.19636E-2,6.538486E-2,-1.0451555E-1,8.328611E-2,2.2760424E-4,3.1911228E-2,8.049166E-2,-6.8597056E-2,2.0764438E-2,-0E0,-0E0,-1.3930511E-1,-0E0,7.255881E-2,1.16553806E-1,-0E0,-0E0,-1.00223E-1,-3.8651437E-1,-1.3719713E-2,4.617578E-2,-1.08505245E-2,3.1090468E-1,-4.0995177E-2,-2.489957E-3,1.3947581E-1,-2.3972596E-1,-4.538254E-2,1.6834797E-1,-2.2581482E-2,5.160521E-3,-1.6314252E-1,7.8575626E-2,1.468955E-2,-0E0,1.236027E-1,-1.0781245E-1,5.6237794E-2,4.1397095E-2,-0E0,1.2379937E-1,-0E0,-1.6150716E-1,-7.842331E-1,7.5780004E-2,-8.671146E-2,-0E0,8.7124415E-2,-7.284982E-2,-0E0],"split_indices":[6,6,7,6,6,2147483647,2147483647,6,0,2147483647,2147483647,2147483647,2147483647,2147483647,2147483647,6,7,2147483647,2147483647,2147483647,2147483647,2147483647,2147483647,2147483647,2147483647,2147483647,2147483647,2147483647,2147483647,2147483647,2147483647,2147483647,2147483647,2147483647,2147483647,2147483647,2147483647,2147483647,2147483647,2147483647,2147483647,2147483647,2147483647,2147483647,2147483647,2147483647,2147483647,2147483647,2147483647,2147483647,2147483647,2147483647,2147483647,2147483647,2147483647,2147483647,2147483647,2147483647,2147483647,2147483647,2147483647,2147483647,2147483647,2147483647,2147483647,2147483647,2147483647,2147483647,2147483647,2147483647,2147483647,2147483647,2147483647,2147483647,2147483647,2147483647,2147483647,2147483647,2147483647,2147483647,2147483647,2147483647,2147483647,2147483647,2147483647,2147483647,2147483647,2147483647,2147483647,2147483647,2147483647,2147483647,2147483647,2147483647,2147483647,2147483647,2147483647,2147483647,2147483647,2147483647,2147483647,2147483647,2147483647,2147483647,2147483647,2147483647,2147483647,2147483647,2147483647,2147483647,2147483647,2147483647,2147483647,2147483647,2147483647,2147483647,2147483647,2147483647,2147483647,2147483647,2147483647,2147483647,2147483647,2147483647,2147483647,2147483647,2147483647,2147483647,2147483647,2147483647,2147483647,2147483647,2147483647,2147483647,2147483647,2147483647,2147483647,2147483647,2147483647],"split_type":[0,0,0,0,0,0,0,0,0,0,0,0,0,0,0,0,0,0,0,0,0,0,0,0,0,0,0,0,0,0,0,0,0,0,0,0,0,0,0,0,0,0,0,0,0,0,0,0,0,0,0,0,0,0,0,0,0,0,0,0,0,0,0,0,0,0,0,0,0,0,0,0,0,0,0,0,0,0,0,0,0,0,0,0,0,0,0,0,0,0,0,0,0,0,0,0,0,0,0,0,0,0,0,0,0,0,0,0,0,0,0,0,0,0,0,0,0,0,0,0,0,0,0,0,0,0,0,0,0,0,0,0,0,0,0,0,0,0,0],"sum_hessian":[2.193E3,2.166E3,2.7E1,2.049E3,1.17E2,1.4E1,1.3E1,2.023E3,2.6E1,2E1,9.7E1,2E0,1.2E1,4E0,9E0,1.982E3,4.1E1,2.2E1,4E0,1.1E1,9E0,7.8E1,1.9E1,1E1,2E0,4E0,5E0,1.1E1,1.971E3,3.1E1,1E1,1E0,2.1E1,1E1,1E0,6E0,3E0,6.7E1,1.1E1,4E0,1.5E1,4E0,6E0,2E0,3E0,2.97E2,1.674E3,1.1E1,2E1,1E0,9E0,1.6E1,5E0,5E0,5E0,5E0,1E0,2E0,1E0,2E1,4.7E1,2E0,9E0,3E0,1.2E1,4E0,2E0,2.08E2,8.9E1,1.548E3,1.26E2,4E0,7E0,1.9E1,1E0,5E0,4E0,1.5E1,1E0,3E0,2E0,1.5E1,5E0,2.7E1,2E1,8E0,1E0,1E0,1.1E1,1.5E2,5.8E1,7.9E1,1E1,8.68E2,6.8E2,2.1E1,1.05E2,5E0,2E0,2E0,3E0,1E0,3E0,1.2E1,3E0,2E0,3E0,9E0,1.8E1,1.3E1,7E0,2E0,1.48E2,2.7E1,3.1E1,2.1E1,5.8E1,8E0,2E0,8.46E2,2.2E1,1.75E2,5.05E2,7E0,1.4E1,8.3E1,2.2E1,4E0,1E0,1.1E1,1E0,7E0,2E0,5E0,1.3E1,3E0,1E1,3E0,4E0],"tree_param":{"num_deleted":"130","num_feature":"9","num_nodes":"139","size_leaf_vector":"0"}},{"base_weights":[1.1839843E-2,2.4075238E-3,6.0406577E-2,4.834154E-3,-2.7271363E-1,4.968546E-1,5.1948663E-2,2.1828553E-3,1.3764396E-1,-0E0,-3.4047866E-1,1.2923436E-1,2.5853977E-2,8.769921E-3,-5.8147732E-2,3.341428E-1,5.7543438E-2,-5.626959E-1,-8.815409E-2,7.6981924E-2,2.3095477E-1,1.3386285E-1,4.084326E-3,-5.590508E-3,4.089119E-2,-2.4254471E-1,-3.1099763E-2,3.9909655E-1,-0E0,-1.3911928E-1,1.0907889E-1,-0E0,-1.7761126E-1,-2.9457504E-2,1.369977E-1,4.4714636E-1,5.874203E-2,3.64369E-3,2.0670985E-1,1.6131894E-1,-4.380967E-3,-1.02766586E-4,-1.6495427E-1,3.52845E-2,2.8739327E-1,-0E0,-3.1906918E-1,-0E0,-1.1086906E-1,-0E0,1.550136E-1,-2.0862368E-1,-0E0,-1.0861715E-1,1.12372E-2,-0E0,1.53651E-1,3.4632927E-1,-0E0,6.575394E-2,-1.6886901E-2,-0E0,2.8280824E-1,-0E0,2.9837182E-1,-1.4421134E-1,6.4712525E-3,-2.1878842E-3,2.3530146E-1,-5.7299274E-1,-8.565427E-2,4.9407933E-2,-4.222086E-2,-0E0,3.3324304E-1,-5.7174683E-2,3.8797E-2,-3.5072953E-1,-0E0,-1.857378E-2,2.5127617E-1,-1.8642913E-1,-0E0,2.6387647E-1,6.091339E-2,-2.7666584E-1,-0E0,1.0050271E-1,-0E0,4.3472037E-1,1.00270204E-1,-6.0373433E-2,2.7481772E-2,-0E0,1.1771819E-1,-0E0,-3.9751228E-2,-0E0,-8.2883015E-2,3.5180718E-1,-0E0,-0E0,2.1874648E-2,-2.9860565E-1,8.687092E-2,-5.4608104E-3,1.3811111E-1,-1.7892447E-1,-0E0,3.8980588E-1,-0E0,-6.9249153E-1,-0E0,-2.6012442E-1,-0E0,3.9871015E-2,1.9529513E-1,-1.3425778E-1,4.4103973E-2,-0E0,3.586103E-1,-3.929934E-1,-0E0,-1.0132182E-1,2.3110046E-3,2.858304E-1,-0E0,-2.4226012E-2,-3.3847937E-1,4.4448853E-2,-9.261911E-2,1.6362254E-1,-0E0,-0E0,-3.0922784E-2,1.3726637E-1,-0E0,-3.2280654E-1,1.4665656E-1,-1.2752873E-1,-0E0,9.724596E-2,-0E0,-0E0,1.6151462E-1,-0E0,-7.07211E-2,3.8384303E-1,-0E0,4.0649958E-2,-0E0,-0E0,-3.897695E-1,-1.45957945E-2,2.4470012E-1,1.83674E-2,-3.931432E-2,-0E0,2.5086173E-1,-0E0,-1.9353585E-1,5.717309E-2,-5.0692344E-3,-0E0,4.4192845E-1,-0E0,-3.2448527E-1,2.0983124E-2,-1.1299515E-1,5.7031784E-2,-1.108776E-2,2.7707162E-1,-0E0,-1.8685988E-1,3.5649468E-3,-0E0,2.0752223E-1,-4.25715E-1,-0E0,-0E0,-2.4038878E-1,1.0032388E-1,-3.5499744E-2,-1.1844853E-1,-0E0,-4.033219E-1,-0E0,6.451434E-2,-0E0,-1.8161228E-1,-0E0,2.0805195E-1,-0E0,-5.198397E-2,-0E0,2.3428935E-1,3.6277335E-2,-1.0224479E-1,-0E0,-4.5536804E-1,-0E0,3.2517678E-1,-0E0,-3.0726882E-2,1.21681444E-1,2.9429534E-2,-9.79093E-2,2.5125295E-1,-1.9489288E-1,3.2374603E-1,-0E0],"categories":[],"categories_nodes":[],"categories_segments":[],"categories_sizes":[],"default_left":[1,1,1,1,1,0,1,1,1,1,1,1,1,1,1,1,1,1,1,1,1,1,1,1,1,1,1,1,1,1,1,1,1,1,1,1,1,1,1,1,1,1,1,1,1,1,1,1,1,1,1,1,1,1,1,1,1,1,1,1,1,1,1,1,1,1,1,1,1,1,1,1,1,1,1,1,1,1,1,1,1,1,1,1,1,1,1,1,1,1,1,1,1,1,1,1,1,1,1,1,1,1,1,1,1,1,1,1,1,1,1,1,1,1,1,1,1,1,1,1,1,1,1,1,1,1,1,1,1,1,1,1,1,1,1,1,1,1,1,1,1,1,1,1,1,1,1,1,1,1,1,1,1,1,1,1,1,1,1,1,1,1,1,1,1,1,1,1,1,1,1,1,1,1,1,1,1,1,1,1,1,1,1,1,1,1,1,1,1,1,1,1,1,1,1,1,1,1,1,1,1,1,1,1,1,1,1,1,1,1,1],"id":5,"left_children":[1,3,5,-1,-1,-1,-1,-1,-1,-1,-1,-1,-1,-1,-1,-1,-1,-1,-1,-1,-1,-1,-1,-1,-1,-1,-1,-1,-1,-1,-1,-1,-1,-1,-1,-1,-1,-1,-1,-1,-1,-1,-1,-1,-1,-1,-1,-1,-1,-1,-1,-1,-1,-1,-1,-1,-1,-1,-1,-1,-1,-1,-1,-1,-1,-1,-1,-1,-1,-1,-1,-1,-1,-1,-1,-1,-1,-1,-1,-1,-1,-1,-1,-1,-1,-1,-1,-1,-1,-1,-1,-1,-1,-1,-1,-1,-1,-1,-1,-1,-1,-1,-1,-1,-1,-1,-1,-1,-1,-1,-1,-1,-1,-1,-1,-1,-1,-1,-1,-1,-1,-1,-1,-1,-1,-1,-1,-1,-1,-1,-1,-1,-1,-1,-1,-1,-1,-1,-1,-1,-1,-1,-1,-1,-1,-1,-1,-1,-1,-1,-1,-1,-1,-1,-1,-1,-1,-1,-1,-1,-1,-1,-1,-1,-1,-1,-1,-1,-1,-1,-1,-1,-1,-1,-1,-1,-1,-1,-1,-1,-1,-1,-1,-1,-1,-1,-1,-1,-1,-1,-1,-1,-1,-1,-1,-1,-1,-1,-1,-1,-1,-1,-1,-1,-1,-1,-1,-1,-1,-1,-1],"loss_changes":[9.8297596E-1,1.1108242E0,1.0102344E0,5.811795E-1,3.706671E-1,0E0,6.195878E-1,6.978434E-1,3.0608195E-1,0E0,3.50659E-1,2.7564085E-1,5.52676E-1,7.772542E-1,7.147734E-1,1.9792181E-1,2.510124E-1,0E0,1.152181E-1,4.294885E-1,6.4608085E-1,2.7863258E-1,3.7764016E-1,9.03515E-1,5.515715E-1,3.2902968E-1,3.380347E-1,0E0,0E0,0E0,1.5280169E-1,0E0,2.2355586E-2,1.0889575E-1,1.488133E-1,0E0,3.6631918E-1,4.730401E-2,4.7550893E-1,2.0132223E-1,3.8876405E-1,4.2044017E-1,7.6246905E-1,5.634511E-1,4.823053E-2,1.52043225E-2,6.14655E-2,4.4749406E-1,3.3122978E-1,0E0,8.838594E-3,0E0,0E0,1.4402825E-1,5.4481033E-2,0E0,2.8835267E-1,0E0,3.1491E-2,7.239178E-2,6.5521235E-3,2.404358E-2,3.1500065E-1,3.1102514E-3,0E0,7.788765E-1,3.6906877E-1,3.6295974E-1,4.204666E-1,2.0096266E-1,4.190468E-1,4.8722374E-1,6.3200027E-1,0E0,3.0267835E-3,0E0,0E0,8.402002E-2,0E0,2.3540127E-1,3.8936496E-2,3.9412832E-1,6.9901206E-2,0E0,7.409498E-2,0E0,4.3029836E-3,2.9234886E-2,0E0,0E0,6.12658E-1,4.584895E-2,3.8401634E-2,0E0,2.5688998E-2,0E0,1.3815752E-2,0E0,0E0,1.9438887E-1,0E0,0E0,2.6732157E-3,3.2867587E-1,2.2093162E-1,1.507915E-1,2.25894E-1,2.5128663E-2,2.9520297E-1,4.313594E-2,0E0,0E0,0E0,1.4686543E-1,6.516067E-2,3.8576508E-1,3.7038898E-1,3.710965E-1,2.9700333E-1,0E0,0E0,1.0005605E-1,0E0,3.347091E-1,3.362269E-1,0E0,0E0,4.1182045E-2,1.7971563E-1,2.0981496E-2,6.825993E-2,3.1024143E-2,0E0,0E0,5.155183E-3,0E0,0E0,0E0,1.7483425E-1,0E0,0E0,0E0,0E0,0E0,0E0,0E0,1.4082357E-2,0E0,0E0,0E0,0E0,0E0,1.1195791E-1,0E0,1.0063815E-1,5.2159077E-1,3.5993826E-1,5.5611205E-1,8.342439E-2,0E0,0E0,0E0,0E0,0E0,0E0,0E0,0E0,0E0,0E0,0E0,0E0,0E0,0E0,0E0,0E0,0E0,0E0,0E0,0E0,0E0,0E0,0E0,0E0,0E0,0E0,0E0,0E0,0E0,0E0,0E0,0E0,0E0,0E0,0E0,0E0,0E0,0E0,0E0,0E0,0E0,0E0,0E0,0E0,0E0,0E0,0E0,0E0,0E0,0E0,0E0,0E0],"parents":[2147483647,0,0,1,1,2,2,3,3,4,4,6,6,7,7,8,8,10,10,11,11,12,12,13,13,14,14,15,15,16,16,18,18,19,19,20,20,21,21,22,22,23,23,24,24,25,25,26,26,30,30,32,32,33,33,34,34,36,36,37,37,38,38,39,39,40,40,41,41,42,42,43,43,44,44,45,45,46,46,47,47,48,48,50,50,53,53,54,54,56,56,58,58,59,59,60,60,61,61,62,62,63,63,65,65,66,66,67,67,68,68,69,69,70,70,71,71,72,72,74,74,77,77,79,79,80,80,81,81,82,82,84,84,86,86,87,87,90,90,91,91,92,92,94,94,96,96,99,99,102,102,103,103,104,104,105,105,106,106,107,107,108,108,109,109,113,113,114,114,115,115,116,116,117,117,118,118,121,121,123,123,124,124,127,127,128,128,129,129,130,130,131,131,134,134,138,138,146,146,152,152,154,154,155,155,156,156,157,157,158,158],"right_children":[2,4,6,-1,-1,-1,-1,-1,-1,-1,-1,-1,-1,-1,-1,-1,-1,-1,-1,-1,-1,-1,-1,-1,-1,-1,-1,-1,-1,-1,-1,-1,-1,-1,-1,-1,-1,-1,-1,-1,-1,-1,-1,-1,-1,-1,-1,-1,-1,-1,-1,-1,-1,-1,-1,-1,-1,-1,-1,-1,-1,-1,-1,-1,-1,-1,-1,-1,-1,-1,-1,-1,-1,-1,-1,-1,-1,-1,-1,-1,-1,-1,-1,-1,-1,-1,-1,-1,-1,-1,-1,-1,-1,-1,-1,-1,-1,-1,-1,-1,-1,-1,-1,-1,-1,-1,-1,-1,-1,-1,-1,-1,-1,-1,-1,-1,-1,-1,-1,-1,-1,-1,-1,-1,-1,-1,-1,-1,-1,-1,-1,-1,-1,-1,-1,-1,-1,-1,-1,-1,-1,-1,-1,-1,-1,-1,-1,-1,-1,-1,-1,-1,-1,-1,-1,-1,-1,-1,-1,-1,-1,-1,-1,-1,-1,-1,-1,-1,-1,-1,-1,-1,-1,-1,-1,-1,-1,-1,-1,-1,-1,-1,-1,-1,-1,-1,-1,-1,-1,-1,-1,-1,-1,-1,-1,-1,-1,-1,-1,-1,-1,-1,-1,-1,-1,-1,-1,-1,-1,-1,-1],"split_conditions":[2.539E1,2.5075E1,2.5276667E1,4.834154E-3,-2.7271363E-1,4.968546E-1,5.1948663E-2,2.1828553E-3,1.3764396E-1,-0E0,-3.4047866E-1,1.2923436E-1,2.5853977E-2,8.769921E-3,-5.8147732E-2,3.341428E-1,5.7543438E-2,-5.626959E-1,-8.815409E-2,7.6981924E-2,2.3095477E-1,1.3386285E-1,4.084326E-3,-5.590508E-3,4.089119E-2,-2.4254471E-1,-3.1099763E-2,3.9909655E-1,-0E0,-1.3911928E-1,1.0907889E-1,-0E0,-1.7761126E-1,-2.9457504E-2,1.369977E-1,4.4714636E-1,5.874203E-2,3.64369E-3,2.0670985E-1,1.6131894E-1,-4.380967E-3,-1.02766586E-4,-1.6495427E-1,3.52845E-2,2.8739327E-1,-0E0,-3.1906918E-1,-0E0,-1.1086906E-1,-0E0,1.550136E-1,-2.0862368E-1,-0E0,-1.0861715E-1,1.12372E-2,-0E0,1.53651E-1,3.4632927E-1,-0E0,6.575394E-2,-1.6886901E-2,-0E0,2.8280824E-1,-0E0,2.9837182E-1,-1.4421134E-1,6.4712525E-3,-2.1878842E-3,2.3530146E-1,-5.7299274E-1,-8.565427E-2,4.9407933E-2,-4.222086E-2,-0E0,3.3324304E-1,-5.7174683E-2,3.8797E-2,-3.5072953E-1,-0E0,-1.857378E-2,2.5127617E-1,-1.8642913E-1,-0E0,2.6387647E-1,6.091339E-2,-2.7666584E-1,-0E0,1.0050271E-1,-0E0,4.3472037E-1,1.00270204E-1,-6.0373433E-2,2.7481772E-2,-0E0,1.1771819E-1,-0E0,-3.9751228E-2,-0E0,-8.2883015E-2,3.5180718E-1,-0E0,-0E0,2.1874648E-2,-2.9860565E-1,8.687092E-2,-5.4608104E-3,1.3811111E-1,-1.7892447E-1,-0E0,3.8980588E-1,-0E0,-6.9249153E-1,-0E0,-2.6012442E-1,-0E0,3.9871015E-2,1.9529513E-1,-1.3425778E-1,4.4103973E-2,-0E0,3.586103E-1,-3.929934E-1,-0E0,-1.0132182E-1,2.3110046E-3,2.858304E-1,-0E0,-2.4226012E-2,-3.3847937E-1,4.4448853E-2,-9.261911E-2,1.6362254E-1,-0E0,-0E0,-3.0922784E-2,1.3726637E-1,-0E0,-3.2280654E-1,1.4665656E-1,-1.2752873E-1,-0E0,9.724596E-2,-0E0,-0E0,1.6151462E-1,-0E0,-7.07211E-2,3.8384303E-1,-0E0,4.0649958E-2,-0E0,-0E0,-3.897695E-1,-1.45957945E-2,2.4470012E-1,1.83674E-2,-3.931432E-2,-0E0,2.5086173E-1,-0E0,-1.9353585E-1,5.717309E-2,-5.0692344E-3,-0E0,4.4192845E-1,-0E0,-3.2448527E-1,2.0983124E-2,-1.1299515E-1,5.7031784E-2,-1.108776E-2,2.7707162E-1,-0E0,-1.8685988E-1,3.5649468E-3,-0E0,2.0752223E-1,-4.25715E-1,-0E0,-0E0,-2.4038878E-1,1.0032388E-1,-3.5499744E-2,-1.1844853E-1,-0E0,-4.033219E-1,-0E0,6.451434E-2,-0E0,-1.8161228E-1,-0E0,2.0805195E-1,-0E0,-5.198397E-2,-0E0,2.3428935E-1,3.6277335E-2,-1.0224479E-1,-0E0,-4.5536804E-1,-0E0,3.2517678E-1,-0E0,-3.0726882E-2,1.21681444E-1,2.9429534E-2,-9.79093E-2,2.5125295E-1,-1.9489288E-1,3.2374603E-1,-0E0],"split_indices":[6,7,8,8,0,0,0,2147483647,2147483647,2147483647,2147483647,2147483647,2147483647,2147483647,2147483647,2147483647,2147483647,2147483647,2147483647,2147483647,2147483647,2147483647,2147483647,2147483647,2147483647,2147483647,2147483647,2147483647,2147483647,2147483647,2147483647,2147483647,2147483647,2147483647,2147483647,2147483647,2147483647,2147483647,2147483647,2147483647,2147483647,2147483647,2147483647,2147483647,2147483647,2147483647,2147483647,2147483647,2147483647,2147483647,2147483647,2147483647,2147483647,2147483647,2147483647,2147483647,2147483647,2147483647,2147483647,2147483647,2147483647,2147483647,2147483647,2147483647,2147483647,2147483647,2147483647,2147483647,2147483647,2147483647,2147483647,2147483647,2147483647,2147483647,2147483647,2147483647,2147483647,2147483647,2147483647,2147483647,2147483647,2147483647,2147483647,2147483647,2147483647,2147483647,2147483647,2147483647,2147483647,2147483647,2147483647,2147483647,2147483647,2147483647,2147483647,2147483647,2147483647,2147483647,2147483647,2147483647,2147483647,2147483647,2147483647,2147483647,2147483647,2147483647,2147483647,2147483647,2147483647,2147483647,2147483647,2147483647,2147483647,2147483647,2147483647,2147483647,2147483647,2147483647,2147483647,2147483647,2147483647,2147483647,2147483647,2147483647,2147483647,2147483647,2147483647,2147483647,2147483647,2147483647,2147483647,2147483647,2147483647,2147483647,2147483647,2147483647,2147483647,2147483647,2147483647,2147483647,2147483647,2147483647,2147483647,2147483647,2147483647,2147483647,2147483647,2147483647,2147483647,2147483647,2147483647,2147483647,2147483647,2147483647,2147483647,2147483647,2147483647,2147483647,2147483647,2147483647,2147483647,2147483647,2147483647,2147483647,2147483647,2147483647,2147483647,2147483647,2147483647,2147483647,2147483647,2147483647,2147483647,2147483647,2147483647,2147483647,2147483647,2147483647,2147483647,2147483647,2147483647,2147483647,2147483647,2147483647,2147483647,2147483647,2147483647,2147483647,2147483647,2147483647,2147483647,2147483647,2147483647,2147483647,2147483647,2147483647,2147483647,2147483647,2147483647,2147483647,2147483647,2147483647,2147483647,2147483647,2147483647,2147483647,2147483647,2147483647,2147483647,2147483647,2147483647],"split_type":[0,0,0,0,0,0,0,0,0,0,0,0,0,0,0,0,0,0,0,0,0,0,0,0,0,0,0,0,0,0,0,0,0,0,0,0,0,0,0,0,0,0,0,0,0,0,0,0,0,0,0,0,0,0,0,0,0,0,0,0,0,0,0,0,0,0,0,0,0,0,0,0,0,0,0,0,0,0,0,0,0,0,0,0,0,0,0,0,0,0,0,0,0,0,0,0,0,0,0,0,0,0,0,0,0,0,0,0,0,0,0,0,0,0,0,0,0,0,0,0,0,0,0,0,0,0,0,0,0,0,0,0,0,0,0,0,0,0,0,0,0,0,0,0,0,0,0,0,0,0,0,0,0,0,0,0,0,0,0,0,0,0,0,0,0,0,0,0,0,0,0,0,0,0,0,0,0,0,0,0,0,0,0,0,0,0,0,0,0,0,0,0,0,0,0,0,0,0,0,0,0,0,0,0,0,0,0,0,0,0,0],"sum_hessian":[2.214E3,1.863E3,3.51E2,1.849E3,1.4E1,5E0,3.46E2,1.817E3,3.2E1,2E0,1.2E1,8.2E1,2.64E2,1.646E3,1.71E2,7E0,2.5E1,5E0,7E0,5.8E1,2.4E1,4E1,2.24E2,1.127E3,5.19E2,1.9E1,1.52E2,6E0,1E0,3E0,2.2E1,2E0,5E0,1.8E1,4E1,9E0,1.5E1,1.7E1,2.3E1,1.4E1,2.1E2,1.093E3,3.4E1,5.1E2,9E0,5E0,1.4E1,1.13E2,3.9E1,5E0,1.7E1,4E0,1E0,1E1,8E0,2E0,3.8E1,3E0,1.2E1,1E1,7E0,5E0,1.8E1,8E0,6E0,1.8E1,1.92E2,1.086E3,7E0,4E0,3E1,4.37E2,7.3E1,2E0,7E0,3E0,2E0,1.2E1,2E0,1.07E2,6E0,2.3E1,1.6E1,5E0,1.2E1,3E0,7E0,5E0,3E0,4E0,3.4E1,7E0,5E0,2E0,8E0,2E0,5E0,2E0,3E0,1.4E1,4E0,2E0,6E0,1.2E1,6E0,1.73E2,1.9E1,1.1E1,1.075E3,5E0,2E0,3E0,1E0,9E0,2.1E1,4.14E2,2.3E1,3.8E1,3.5E1,1E0,6E0,1E1,2E0,2.6E1,8.1E1,5E0,1E0,1.3E1,1E1,1.1E1,5E0,4E0,8E0,3E0,4E0,4E0,1E0,2E0,3.2E1,4E0,3E0,4E0,1E0,3E0,5E0,1E0,4E0,1.3E1,1E0,3E0,3E0,3E0,9E0,2E0,4E0,9.3E1,8E1,1E1,9E0,1E0,1E1,8.2E1,9.93E2,1E0,4E0,2E0,7E0,1.7E1,4E0,3.17E2,9.7E1,1.6E1,7E0,3E1,8E0,2.7E1,8E0,9E0,1E0,1.6E1,1E1,2.6E1,5.5E1,3E0,1E1,8E0,2E0,1E1,1E0,3E0,2E0,3E0,1E0,3E0,1E0,1.5E1,1.7E1,3E0,1E0,7E0,2E0,3E0,1E0,6E1,3.3E1,3.3E1,4.7E1,5E0,5E0,6E0,3E0],"tree_param":{"num_deleted":"204","num_feature":"9","num_nodes":"211","size_leaf_vector":"0"}},{"base_weights":[-7.2516664E-3,-2.2395547E-3,-3.6748532E-2,-3.720534E-3,2.6741052E-1,-4.4265157E-1,-2.7563754E-2,-2.9794015E-2,3.8857162E-3,3.161128E-1,-0E0,-0E0,-4.923706E-1,5.3445107E-1,-3.583785E-2,1.0792256E-2,-6.378644E-2,1.1586308E-1,-1.9238741E-3,-2.9612663E-1,-2.6373819E-2,-5.288033E-3,2.0215541E-1,-1.1687916E-1,-1.9756066E-2,-2.2073517E-2,1.4997765E-1,-8.41672E-2,3.0940354E-3,-0E0,-4.499418E-1,3.6597908E-2,-4.8919905E-2,-1.4091344E-1,4.5878924E-3,2.2059268E-1,-0E0,-8.198849E-2,-2.5360262E-1,4.0840763E-3,-1.6709734E-1,-1.4402269E-1,2.1607717E-3,7.9053275E-2,2.8234413E-1,-2.392914E-2,-1.9668958E-1,7.705632E-2,-0E0,-1.4633882E-1,7.268897E-2,-2.0932809E-1,-2.6017794E-2,-1.8111308E-1,-0E0,9.356938E-2,-1.628377E-2,2.473374E-1,-0E0,-2.1219705E-1,-5.1540677E-2,-0E0,-4.563426E-1,-5.9670443E-3,3.704866E-1,4.0504457E-3,-2.0828372E-1,-0E0,-1.6019672E-1,-0E0,1.2391172E-1,1.5786135E-1,-8.900986E-2,2.9987562E-1,-0E0,-5.6249864E-2,1.10678054E-1,-0E0,-2.3970164E-1,-0E0,1.1119906E-1,-8.4265515E-2,4.5612557E-3,-2.3643082E-1,-0E0,-8.619735E-2,1.0659904E-1,-1.8439721E-2,-4.1534877E-1,5.873089E-2,-5.1385514E-2,-0E0,1.6373889E-1,-4.0364236E-2,9.247892E-2,-0E0,2.623174E-1,-3.7517154E-1,-0E0,4.0016614E-2,-6.692704E-2,-1.418497E-1,2.5146347E-1,1.172345E-2,-9.599669E-2,-0E0,4.6357018E-1,-2.4298924E-1,-0E0,-0E0,-1.739938E-2,2.103826E-1,-2.8186798E-2,-1.481919E-1,-0E0,-0E0,3.286518E-1,-7.5907074E-2,5.730262E-3,2.8329113E-1,-0E0,1.3247354E-2,-4.202156E-2,-4.2361993E-1,-1.2258425E-1,-3.7919633E-2,3.4152985E-2,-0E0,1.4923015E-1,1.00660846E-1,-1.0991704E-1,9.043267E-3,-7.6797485E-2,-3.9292255E-1,-0E0,4.3196104E-2,-0E0,-1.6460952E-1,1.2626648E-3,-6.834118E-2,1.3994245E-1,-4.9664706E-2,-0E0,-6.710107E-1,-2.016833E-1,8.2174726E-2,-1.1405029E-1,-7.116782E-2,1.0758735E-1,-0E0,-7.499073E-2,-0E0,1.5483707E-1,-0E0,1.5287971E-1,-0E0,-8.800405E-2,-2.5151417E-1,-0E0,-0E0,4.408329E-1,3.5960373E-2,-5.7859007E-2,7.118225E-3,-1.8170498E-1,-2.9119152E-1,-0E0,2.448316E-1,-0E0,-1.9418819E-1,-0E0,3.8856736E-1,1.4591641E-2,-1.1139028E-1,-0E0,-0E0,1.10302605E-1,-2.6327032E-1,-0E0,-0E0,-7.565902E-2,9.161186E-2,-1.4323956E-1,1.8116826E-1,-0E0,3.1784287E-1,-0E0,-1.3477287E-1,-0E0,-1.7754413E-2,2.3409776E-2,-1.127213E-1,1.2576059E-1,-2.7200615E-1,-0E0,-0E0,-1.5800372E-1,2.8871155E-1,5.145346E-2,-5.975923E-2,-0E0,-2.3076893E-1,-0E0,-0E0,9.704443E-2,-1.92095E-2,-1.1834146E-1,-3.0992126E-2,1.7099975E-1],"categories":[],"categories_nodes":[],"categories_segments":[],"categories_sizes":[],"default_left":[1,1,1,1,1,1,1,1,1,1,1,1,1,0,1,1,1,1,1,1,1,1,1,1,1,1,1,1,1,1,1,1,1,1,1,1,1,1,1,1,1,1,1,1,1,1,1,1,1,1,1,1,1,1,1,1,1,1,1,1,1,1,1,1,1,1,1,1,1,1,1,1,1,1,1,1,1,1,1,1,1,1,1,1,1,1,1,1,1,1,1,1,1,1,1,1,1,1,1,1,1,1,1,1,1,1,1,1,1,1,1,1,1,1,1,1,1,1,1,1,1,1,1,1,1,1,1,1,1,1,1,1,1,1,1,1,1,1,1,1,1,1,1,1,1,1,1,1,1,1,1,1,1,1,1,1,1,1,1,1,1,1,1,1,1,1,1,1,1,1,1,1,1,1,1,1,1,1,1,1,1,1,1,1,1,1,1,1,1,1,1,1,1,1,1,1,1,1,1,1,1,1,1,1,1,1,1,1,1],"id":6,"left_children":[1,-1,5,-1,-1,-1,13,-1,-1,-1,-1,-1,-1,-1,-1,-1,-1,-1,-1,-1,-1,-1,-1,-1,-1,-1,-1,-1,-1,-1,-1,-1,-1,-1,-1,-1,-1,-1,-1,-1,-1,-1,-1,-1,-1,-1,-1,-1,-1,-1,-1,-1,-1,-1,-1,-1,-1,-1,-1,-1,-1,-1,-1,-1,-1,-1,-1,-1,-1,-1,-1,-1,-1,-1,-1,-1,-1,-1,-1,-1,-1,-1,-1,-1,-1,-1,-1,-1,-1,-1,-1,-1,-1,-1,-1,-1,-1,-1,-1,-1,-1,-1,-1,-1,-1,-1,-1,-1,-1,-1,-1,-1,-1,-1,-1,-1,-1,-1,-1,-1,-1,-1,-1,-1,-1,-1,-1,-1,-1,-1,-1,-1,-1,-1,-1,-1,-1,-1,-1,-1,-1,-1,-1,-1,-1,-1,-1,-1,-1,-1,-1,-1,-1,-1,-1,-1,-1,-1,-1,-1,-1,-1,-1,-1,-1,-1,-1,-1,-1,-1,-1,-1,-1,-1,-1,-1,-1,-1,-1,-1,-1,-1,-1,-1,-1,-1,-1,-1,-1,-1,-1,-1,-1,-1,-1,-1,-1,-1,-1,-1,-1,-1,-1,-1,-1,-1,-1,-1,-1],"loss_changes":[3.0519885E-1,6.244151E-1,8.940071E-1,3.8674876E-1,1.4163345E-1,1.3257384E-2,1.1529949E0,6.345664E-1,9.967898E-1,0E0,0E0,0E0,0E0,0E0,5.652375E-1,6.974787E-1,5.0676906E-1,4.20884E-1,6.0584515E-1,3.6808854E-1,4.1665864E-1,3.0623418E-1,8.773941E-2,3.298527E-1,5.7537335E-1,1.0802845E-1,4.0427983E-1,4.600892E-1,2.8754652E-1,0E0,0E0,4.339614E-1,6.823042E-1,6.944513E-2,3.4119827E-1,8.414036E-2,0E0,2.135269E-1,9.9679565E-1,6.1977166E-1,2.6114005E-1,1.3995245E-3,5.3704385E-2,6.30842E-1,1.0911453E-1,2.3040895E-1,2.1012318E-1,1.6384351E-1,4.682071E-1,1.5990403E-1,3.4614778E-1,7.4278677E-1,4.1598812E-1,0E0,0E0,2.1199262E-1,3.0973876E-1,4.1891515E-2,0E0,4.4778013E-1,1.211537E-1,3.3198592E-1,0E0,2.2505996E-1,1.3446921E-1,0E0,1.4393276E-1,0E0,0E0,1.0595844E-3,0E0,4.1163605E-1,8.763269E-2,1.18578196E-1,0E0,9.683289E-2,1.7676666E-1,5.0287526E-3,1.6404402E-1,1.9180428E-2,1.932581E-1,3.0663785E-1,3.9438784E-1,1.7701143E-1,4.664759E-3,1.4006975E-1,3.5265356E-1,2.3435365E-2,6.95616E-2,1.5279971E-1,4.714979E-1,0E0,0E0,1.6907604E-1,1.089361E-1,0E0,0E0,0E0,0E0,7.1394086E-2,1.1078048E-1,1.1074046E-1,2.6451552E-1,1.444025E-1,2.956285E-1,0E0,0E0,1.1143279E-1,0E0,0E0,0E0,1.914761E-1,0E0,5.8441713E-2,0E0,0E0,1.0606754E-1,1.4684945E-1,5.453656E-2,0E0,0E0,0E0,0E0,0E0,2.1760625E-1,3.355851E-2,0E0,1.3009636E-1,1.1436117E-1,1.9683087E-1,1.6807616E-1,4.3364584E-1,4.0442288E-1,0E0,0E0,0E0,0E0,1.2972082E-1,0E0,1.06950104E-1,4.4780022E-1,9.131538E-3,0E0,0E0,4.1081786E-2,4.609433E-2,0E0,2.7446228E-1,2.000747E-1,0E0,0E0,0E0,0E0,0E0,0E0,0E0,0E0,0E0,0E0,0E0,0E0,0E0,0E0,0E0,0E0,0E0,0E0,0E0,0E0,0E0,0E0,0E0,0E0,0E0,0E0,0E0,0E0,0E0,0E0,0E0,0E0,0E0,0E0,0E0,0E0,0E0,0E0,0E0,0E0,0E0,0E0,0E0,0E0,0E0,0E0,0E0,0E0,0E0,0E0,0E0,0E0,0E0,0E0,0E0,0E0,0E0,0E0,0E0,0E0],"parents":[2147483647,0,0,1,1,2,2,3,3,4,4,5,5,6,6,7,7,8,8,14,14,15,15,16,16,17,17,18,18,19,19,20,20,21,21,22,22,23,23,24,24,25,25,26,26,27,27,28,28,31,31,32,32,33,33,34,34,35,35,37,37,38,38,39,39,40,40,41,41,42,42,43,43,44,44,45,45,46,46,47,47,48,48,49,49,50,50,51,51,52,52,55,55,56,56,57,57,59,59,60,60,61,61,63,63,64,64,66,66,69,69,71,71,72,72,73,73,75,75,76,76,77,77,78,78,79,79,80,80,81,81,82,82,83,83,84,84,85,85,86,86,87,87,88,88,89,89,90,90,93,93,94,94,99,99,100,100,101,101,102,102,103,103,104,104,107,107,111,111,113,113,116,116,117,117,118,118,124,124,125,125,127,127,128,128,129,129,130,130,131,131,132,132,137,137,139,139,140,140,141,141,144,144,145,145,147,147,148,148],"right_children":[2,-1,6,-1,-1,-1,14,-1,-1,-1,-1,-1,-1,-1,-1,-1,-1,-1,-1,-1,-1,-1,-1,-1,-1,-1,-1,-1,-1,-1,-1,-1,-1,-1,-1,-1,-1,-1,-1,-1,-1,-1,-1,-1,-1,-1,-1,-1,-1,-1,-1,-1,-1,-1,-1,-1,-1,-1,-1,-1,-1,-1,-1,-1,-1,-1,-1,-1,-1,-1,-1,-1,-1,-1,-1,-1,-1,-1,-1,-1,-1,-1,-1,-1,-1,-1,-1,-1,-1,-1,-1,-1,-1,-1,-1,-1,-1,-1,-1,-1,-1,-1,-1,-1,-1,-1,-1,-1,-1,-1,-1,-1,-1,-1,-1,-1,-1,-1,-1,-1,-1,-1,-1,-1,-1,-1,-1,-1,-1,-1,-1,-1,-1,-1,-1,-1,-1,-1,-1,-1,-1,-1,-1,-1,-1,-1,-1,-1,-1,-1,-1,-1,-1,-1,-1,-1,-1,-1,-1,-1,-1,-1,-1,-1,-1,-1,-1,-1,-1,-1,-1,-1,-1,-1,-1,-1,-1,-1,-1,-1,-1,-1,-1,-1,-1,-1,-1,-1,-1,-1,-1,-1,-1,-1,-1,-1,-1,-1,-1,-1,-1,-1,-1,-1,-1,-1,-1,-1,-1],"split_conditions":[2.6425E1,-2.2395547E-3,2.6560001E1,-3.720534E-3,2.6741052E-1,-4.4265157E-1,2.6885E1,-2.9794015E-2,3.8857162E-3,3.161128E-1,-0E0,-0E0,-4.923706E-1,5.3445107E-1,-3.583785E-2,1.0792256E-2,-6.378644E-2,1.1586308E-1,-1.9238741E-3,-2.9612663E-1,-2.6373819E-2,-5.288033E-3,2.0215541E-1,-1.1687916E-1,-1.9756066E-2,-2.2073517E-2,1.4997765E-1,-8.41672E-2,3.0940354E-3,-0E0,-4.499418E-1,3.6597908E-2,-4.8919905E-2,-1.4091344E-1,4.5878924E-3,2.2059268E-1,-0E0,-8.198849E-2,-2.5360262E-1,4.0840763E-3,-1.6709734E-1,-1.4402269E-1,2.1607717E-3,7.9053275E-2,2.8234413E-1,-2.392914E-2,-1.9668958E-1,7.705632E-2,-0E0,-1.4633882E-1,7.268897E-2,-2.0932809E-1,-2.6017794E-2,-1.8111308E-1,-0E0,9.356938E-2,-1.628377E-2,2.473374E-1,-0E0,-2.1219705E-1,-5.1540677E-2,-0E0,-4.563426E-1,-5.9670443E-3,3.704866E-1,4.0504457E-3,-2.0828372E-1,-0E0,-1.6019672E-1,-0E0,1.2391172E-1,1.5786135E-1,-8.900986E-2,2.9987562E-1,-0E0,-5.6249864E-2,1.10678054E-1,-0E0,-2.3970164E-1,-0E0,1.1119906E-1,-8.4265515E-2,4.5612557E-3,-2.3643082E-1,-0E0,-8.619735E-2,1.0659904E-1,-1.8439721E-2,-4.1534877E-1,5.873089E-2,-5.1385514E-2,-0E0,1.6373889E-1,-4.0364236E-2,9.247892E-2,-0E0,2.623174E-1,-3.7517154E-1,-0E0,4.0016614E-2,-6.692704E-2,-1.418497E-1,2.5146347E-1,1.172345E-2,-9.599669E-2,-0E0,4.6357018E-1,-2.4298924E-1,-0E0,-0E0,-1.739938E-2,2.103826E-1,-2.8186798E-2,-1.481919E-1,-0E0,-0E0,3.286518E-1,-7.5907074E-2,5.730262E-3,2.8329113E-1,-0E0,1.3247354E-2,-4.202156E-2,-4.2361993E-1,-1.2258425E-1,-3.7919633E-2,3.4152985E-2,-0E0,1.4923015E-1,1.00660846E-1,-1.0991704E-1,9.043267E-3,-7.6797485E-2,-3.9292255E-1,-0E0,4.3196104E-2,-0E0,-1.6460952E-1,1.2626648E-3,-6.834118E-2,1.3994245E-1,-4.9664706E-2,-0E0,-6.710107E-1,-2.016833E-1,8.2174726E-2,-1.1405029E-1,-7.116782E-2,1.0758735E-1,-0E0,-7.499073E-2,-0E0,1.5483707E-1,-0E0,1.5287971E-1,-0E0,-8.800405E-2,-2.5151417E-1,-0E0,-0E0,4.408329E-1,3.5960373E-2,-5.7859007E-2,7.118225E-3,-1.8170498E-1,-2.9119152E-1,-0E0,2.448316E-1,-0E0,-1.9418819E-1,-0E0,3.8856736E-1,1.4591641E-2,-1.1139028E-1,-0E0,-0E0,1.10302605E-1,-2.6327032E-1,-0E0,-0E0,-7.565902E-2,9.161186E-2,-1.4323956E-1,1.8116826E-1,-0E0,3.1784287E-1,-0E0,-1.3477287E-1,-0E0,-1.7754413E-2,2.3409776E-2,-1.127213E-1,1.2576059E-1,-2.7200615E-1,-0E0,-0E0,-1.5800372E-1,2.8871155E-1,5.145346E-2,-5.975923E-2,-0E0,-2.3076893E-1,-0E0,-0E0,9.704443E-2,-1.92095E-2,-1.1834146E-1,-3.0992126E-2,1.7099975E-1],"split_indices":[6,6,8,2147483647,2147483647,8,7,2147483647,2147483647,2147483647,2147483647,2147483647,2147483647,0,6,2147483647,2147483647,2147483647,2147483647,2147483647,2147483647,2147483647,2147483647,2147483647,2147483647,2147483647,2147483647,2147483647,2147483647,2147483647,2147483647,2147483647,2147483647,2147483647,2147483647,2147483647,2147483647,2147483647,2147483647,2147483647,2147483647,2147483647,2147483647,2147483647,2147483647,2147483647,2147483647,2147483647,2147483647,2147483647,2147483647,2147483647,2147483647,2147483647,2147483647,2147483647,2147483647,2147483647,2147483647,2147483647,2147483647,2147483647,2147483647,2147483647,2147483647,2147483647,2147483647,2147483647,2147483647,2147483647,2147483647,2147483647,2147483647,2147483647,2147483647,2147483647,2147483647,2147483647,2147483647,2147483647,2147483647,2147483647,2147483647,2147483647,2147483647,2147483647,2147483647,2147483647,2147483647,2147483647,2147483647,2147483647,2147483647,2147483647,2147483647,2147483647,2147483647,2147483647,2147483647,2147483647,2147483647,2147483647,2147483647,2147483647,2147483647,2147483647,2147483647,2147483647,2147483647,2147483647,2147483647,2147483647,2147483647,2147483647,2147483647,2147483647,2147483647,2147483647,2147483647,2147483647,2147483647,2147483647,2147483647,2147483647,2147483647,2147483647,2147483647,2147483647,2147483647,2147483647,2147483647,2147483647,2147483647,2147483647,2147483647,2147483647,2147483647,2147483647,2147483647,2147483647,2147483647,2147483647,2147483647,2147483647,2147483647,2147483647,2147483647,2147483647,2147483647,2147483647,2147483647,2147483647,2147483647,2147483647,2147483647,2147483647,2147483647,2147483647,2147483647,2147483647,2147483647,2147483647,2147483647,2147483647,2147483647,2147483647,2147483647,2147483647,2147483647,2147483647,2147483647,2147483647,2147483647,2147483647,2147483647,2147483647,2147483647,2147483647,2147483647,2147483647,2147483647,2147483647,2147483647,2147483647,2147483647,2147483647,2147483647,2147483647,2147483647,2147483647,2147483647,2147483647,2147483647,2147483647,2147483647,2147483647,2147483647,2147483647,2147483647,2147483647,2147483647,2147483647,2147483647,2147483647,2147483647,2147483647,2147483647,2147483647,2147483647],"split_type":[0,0,0,0,0,0,0,0,0,0,0,0,0,0,0,0,0,0,0,0,0,0,0,0,0,0,0,0,0,0,0,0,0,0,0,0,0,0,0,0,0,0,0,0,0,0,0,0,0,0,0,0,0,0,0,0,0,0,0,0,0,0,0,0,0,0,0,0,0,0,0,0,0,0,0,0,0,0,0,0,0,0,0,0,0,0,0,0,0,0,0,0,0,0,0,0,0,0,0,0,0,0,0,0,0,0,0,0,0,0,0,0,0,0,0,0,0,0,0,0,0,0,0,0,0,0,0,0,0,0,0,0,0,0,0,0,0,0,0,0,0,0,0,0,0,0,0,0,0,0,0,0,0,0,0,0,0,0,0,0,0,0,0,0,0,0,0,0,0,0,0,0,0,0,0,0,0,0,0,0,0,0,0,0,0,0,0,0,0,0,0,0,0,0,0,0,0,0,0,0,0,0,0,0,0,0,0,0,0],"sum_hessian":[2.196E3,1.892E3,3.04E2,1.884E3,8E0,5E0,2.99E2,4.4E2,1.444E3,7E0,1E0,1E0,4E0,3E0,2.96E2,1.94E2,2.46E2,7.5E1,1.369E3,8E0,2.88E2,1.77E2,1.7E1,1.06E2,1.4E2,1.2E1,6.3E1,8.4E1,1.285E3,3E0,5E0,7E1,2.18E2,1.5E1,1.62E2,1.6E1,1E0,8.8E1,1.8E1,1.18E2,2.2E1,5E0,7E0,4.4E1,1.9E1,5.8E1,2.6E1,5E1,1.235E3,9E0,6.1E1,2.4E1,1.94E2,1.1E1,4E0,3.5E1,1.27E2,1.4E1,2E0,1.3E1,7.5E1,8E0,1E1,1.14E2,4E0,2E0,2E1,1E0,4E0,4E0,3E0,3.2E1,1.2E1,1.8E1,1E0,5E1,8E0,5E0,2.1E1,1.3E1,3.7E1,6.2E1,1.173E3,6E0,3E0,8E0,5.3E1,1.4E1,1E1,4E1,1.54E2,1.6E1,1.9E1,1.08E2,1.9E1,1E0,1.3E1,7E0,6E0,6E0,6.9E1,5E0,3E0,9.1E1,2.3E1,1E0,3E0,1.7E1,3E0,1E0,3E0,2.7E1,5E0,8E0,4E0,2E0,1.6E1,4.4E1,6E0,3E0,5E0,3E0,2E0,6E0,1.5E1,1E1,3E0,8E0,2.9E1,5E0,5.7E1,1.118E3,5.5E1,3E0,3E0,2E0,1E0,7E0,1E0,6E0,4.7E1,1.1E1,3E0,3E0,7E0,3.8E1,2E0,1.4E2,1.4E1,4.7E1,6.1E1,8E0,1.1E1,3E0,3E0,1.5E1,5.4E1,3E0,2E0,1E0,2E0,7.3E1,1.8E1,8E0,1.5E1,1.3E1,4E0,2.3E1,4E0,6E0,2E0,1.2E1,4E0,3.2E1,1.2E1,2E0,4E0,6E0,9E0,2E0,8E0,4E0,4E0,2.3E1,6E0,2E0,3E0,4.7E1,1E1,3.78E2,7.4E2,4.9E1,6E0,4E0,3E0,1E0,5E0,1.5E1,3.2E1,1E1,1E0,6E0,1E0,6E0,3.2E1,7.2E1,6.8E1,2E0,1.2E1],"tree_param":{"num_deleted":"202","num_feature":"9","num_nodes":"209","size_leaf_vector":"0"}},{"base_weights":[-0E0,-1.9557217E-2,9.411013E-3,3.0434601E-2,-3.8409956E-2,4.6537753E-2,-0E0,7.54089E-3,2.0418641E-1,-1.6351128E-1,-2.5277484E-2,-5.3930515E-3,7.534832E-2,-3.095552E-2,1.2273465E-2,5.0115936E-2,-5.506396E-2,2.8217843E-1,-0E0,-3.9309642E-1,-1.0519117E-1,1.2549536E-1,-3.5450075E-2,-1.408158E-1,1.676783E-2,2.5542188E-2,1.09307095E-1,-9.7208366E-2,-2.6216723E-3,1.971827E-2,-5.9152436E-2,-1.4839603E-1,8.636854E-2,-2.1611272E-1,-1.0585588E-2,3.8374576E-1,-0E0,-3.5352965E-3,-1.6696039E-1,2.66988E-2,3.657074E-1,-3.2699472E-1,-2.263421E-2,-0E0,-1.8607415E-1,-4.559649E-3,1.3510409E-1,3.9714195E-2,-1.291542E-1,2.1062976E-1,7.023076E-2,-1.21185735E-1,5.50459E-2,-1.356249E-1,8.085269E-3,1.2826498E-2,1.0274406E-1,3.2232795E-2,-1.5563554E-1,-2.1164125E-1,-0E0,4.0678356E-2,1.8601178E-1,-0E0,-2.394342E-1,-3.933982E-2,2.1118546E-2,-1.7745318E-1,3.5924604E-3,-0E0,-1.7702089E-1,1.6178554E-1,-0E0,4.2095166E-1,-0E0,-7.106366E-2,-4.8614383E-1,-5.838818E-2,1.3175632E-2,-0E0,-2.7143276E-1,5.4672636E-2,-1.251214E-1,-0E0,2.340972E-1,2.2434259E-2,2.294693E-1,-0E0,2.46998E-1,-2.421158E-2,1.3334669E-1,-8.4678955E-2,-3.8808957E-1,-0E0,1.2216517E-1,4.0490288E-4,-1.8472177E-1,3.567885E-2,-9.021382E-2,7.860029E-2,2.4285456E-3,3.5220455E-2,2.8281265E-1,-3.7576403E-2,1.2442439E-1,-3.6943898E-2,-2.1699528E-1,-2.3039557E-1,-0E0,7.10081E-2,-9.559842E-2,3.328578E-1,-0E0,-0E0,-2.5587344E-1,-5.5958204E-2,-0E0,-0E0,6.826855E-2,1.3109294E-1,-1.5745526E-2,-1.8723546E-1,-0E0,2.6617354E-1,-0E0,-6.89977E-2,1.1591028E-2,-8.155462E-2,-6.8206733E-1,-2.5355985E-2,-1.7207418E-1,7.151641E-2,-4.7221635E-2,-0E0,1.1187046E-1,-1.9131482E-1,-0E0,-0E0,-1.4098697E-2,-0E0,2.8375664E-1,-1.536384E-2,5.858628E-2,3.3460018E-1,-0E0,4.4088218E-1,1.3935536E-1,9.655808E-3,-9.174101E-2,-0E0,1.538742E-1,-1.4155342E-1,9.957065E-2,-0E0,-5.055028E-1,2.0724927E-1,-0E0,-0E0,-1.9756566E-1,1.4013765E-2,2.150368E-1,-3.9665568E-1,-0E0,-0E0,9.868345E-2,1.0020763E-1,-3.4629724E-3,7.7842094E-2,-0E0,4.335562E-1,3.339122E-2,-0E0,-1.1658287E-1,2.959086E-1,-0E0,-0E0,-6.015808E-2,-3.2508156E-1,-3.0368987E-2,9.648319E-2,1.6676437E-3,-1.7644055E-1,-0E0,4.9981907E-1,7.703934E-2,-9.097952E-3,1.3172149E-3,-0E0,-7.16312E-2,1.3674273E-1,-0E0,-0E0,1.9029427E-1,-1.13736816E-1,1.6435836E-2,3.2369234E-2,-0E0,-1.3408525E-1,-0E0,-0E0,-9.479145E-2,-1.1727168E-1,-4.3180758E-1,-0E0,1.474247E-1,-2.653015E-2,-3.1129906E-1,-4.478035E-2,6.3078846E-3,1.585519E-1,-0E0,-2.2263671E-1,-0E0,2.1788476E-1,-2.588331E-1,3.2667428E-1,-0E0,1.03763856E-1,-4.6186384E-2,1.3917497E-1,2.1906966E-2,-0E0,6.3475204E-1,-0E0,1.5661766E-1,-1.4915521E-1,8.750845E-2,-0E0,-1.5599605E-1,-6.341171E-2,4.0069155E-2,-0E0,1.6405332E-1,-6.5740675E-2,-2.671852E-1,1.5696763E-1,-0E0,-0E0,-7.1394986E-1,2.0156303E-1,-0E0,2.6077652E-1,-0E0,-4.2448586E-1,-0E0,6.387889E-2,-1.0295242E-1,6.781387E-2,-5.48558E-2,1.9130963E-1,5.8861427E-2,-0E0,2.1694608E-1,1.8181E-2,-2.5682762E-2,-0E0,1.0186983E-1,3.8517166E-2,-6.8937205E-2,-0E0,3.8140036E-2,-1.3556163E-3,6.484331E-2,-0E0,-1.7084295E-1,2.2335052E-1,-2.404658E-2,-0E0,-1.2064565E-1,-3.8977402E-1,-0E0,-1.0739018E-1,-0E0,-0E0,1.5304166E-1,-1.0768064E-1,5.8309555E-2,-2.235323E-1,-0E0,-0E0,6.0248536E-1,-0E0,9.313809E-2,-0E0,-1.5905157E-2,-0E0,-8.196506E-2,6.337084E-2,-0E0,-0E0,1.2094498E-1,-9.64572E-3,3.4294727E-1,-1.5179966E-1,-0E0,-1.5731753E-1,-0E0,1.1838648E-1,-2.480556E-2,2.995961E-1,7.125926E-2,-5.8299642E-2,3.490531E-2,-3.588456E-1,-0E0,-8.075888E-2,-0E0,7.300377E-2,-0E0,-0E0,1.9820113E-1,-0E0,-2.5201106E-1,-1.0511073E-1,3.0765433E-2,-2.8285848E-2,7.3687494E-2,1.7940952E-1,-0E0,2.854647E-1,-0E0,-0E0,7.574717E-3,-0E0,-1.3817291E-1,-6.329092E-2,2.2149931E-1,2.7071264E-1,8.466669E-2,1.16216324E-1,-1.2585305E-1,-5.7886846E-2,-6.366058E-1,-0E0,1.791085E-1,-4.8150744E-2,-0E0,-0E0,2.6690924E-1,8.317221E-3,-1.6928212E-1,-0E0,2.8210267E-1,2.2492717E-1,-0E0,1.1774445E-2,-1.729849E-1,-0E0,9.111887E-2,-6.557043E-2,-0E0,-0E0,2.1776347E-1,-7.3040007E-3,1.0228714E-1,5.5699088E-2,-8.7624356E-2,2.8271058E-1,-0E0,-3.1574305E-2,4.9806863E-2,-8.938313E-2,-6.175009E-4,1.23868346E-1,-0E0,5.6894757E-2,-0E0,-1.7892422E-1,-0E0,-2.249579E-2,-0E0,-7.634309E-2,-0E0,-0E0,2.9589972E-2,-1.637601E-1,-0E0,-0E0,-1.4222544E-1],"categories":[],"categories_nodes":[],"categories_segments":[],"categories_sizes":[],"default_left":[1,1,1,1,1,1,1,1,1,1,1,1,1,1,1,1,1,1,1,1,1,1,1,1,1,1,1,1,1,1,1,1,1,1,1,1,1,1,1,1,1,1,1,1,1,1,1,1,1,1,1,1,1,1,1,1,1,1,1,1,1,1,1,1,1,1,1,1,1,1,1,1,1,1,1,1,1,1,1,1,1,1,1,1,1,1,1,1,1,1,1,1,1,1,1,1,1,1,1,1,1,1,1,1,1,1,1,1,1,1,1,1,1,1,1,1,1,1,1,1,1,1,1,1,1,1,1,1,1,1,1,1,1,1,1,1,1,1,1,1,1,1,1,1,1,1,1,1,1,1,1,1,1,1,1,1,1,1,1,1,1,1,1,1,1,1,1,1,1,1,1,1,1,1,1,1,1,1,1,1,1,1,1,1,1,1,1,1,1,1,1,1,1,1,1,1,1,1,1,1,1,1,1,1,1,1,1,1,1,1,1,1,1,1,1,1,1,1,1,1,1,1,1,1,1,1,1,1,1,1,1,1,1,1,1,1,1,1,1,1,1,1,1,1,1,1,1,1,1,1,1,1,1,1,1,1,1,1,1,1,1,1,1,1,1,1,1,1,1,1,1,1,1,1,1,1,1,1,1,1,1,1,1,1,1,1,1,1,1,1,1,1,1,1,1,1,1,1,1,1,1,1,1,1,1,1,1,1,1,1,1,1,1,1,1,1,1,1,1,1,1,1,1,1,1,1,1,1,1,1,1,0,0,1,1,1,1,1,1,1,1,1,1,1,1,1,1,1,1,1,1,1,1,1,1,1,1,1,1,1,1,1,1,1,1,1,1,1,1,1,1,1,1,1,1,1,1,1,1],"id":7,"left_children":[1,3,5,-1,9,-1,13,-1,-1,-1,21,-1,-1,27,-1,-1,-1,-1,-1,-1,-1,-1,41,-1,-1,-1,-1,51,53,-1,-1,-1,-1,-1,-1,-1,-1,-1,-1,-1,-1,-1,-1,-1,-1,-1,-1,-1,-1,-1,-1,91,-1,-1,97,-1,-1,-1,-1,-1,-1,-1,-1,-1,-1,-1,-1,-1,-1,-1,-1,-1,-1,-1,-1,-1,-1,-1,-1,-1,-1,-1,-1,-1,-1,-1,-1,-1,-1,-1,-1,151,-1,-1,-1,-1,-1,-1,161,-1,-1,-1,-1,-1,-1,-1,-1,-1,-1,-1,-1,-1,-1,-1,-1,-1,-1,-1,-1,-1,-1,-1,-1,-1,-1,-1,-1,-1,-1,-1,-1,-1,-1,-1,-1,-1,-1,-1,-1,-1,-1,-1,-1,-1,-1,-1,-1,-1,-1,-1,-1,233,-1,-1,-1,-1,-1,-1,-1,-1,-1,-1,-1,-1,-1,-1,-1,-1,-1,-1,-1,-1,-1,-1,-1,-1,-1,-1,-1,-1,-1,-1,-1,-1,-1,-1,-1,-1,-1,-1,-1,-1,-1,-1,-1,-1,-1,-1,-1,-1,-1,-1,-1,-1,-1,-1,-1,-1,-1,-1,-1,-1,-1,-1,-1,-1,-1,-1,-1,-1,-1,-1,-1,-1,-1,-1,-1,-1,-1,-1,-1,-1,-1,-1,331,-1,-1,-1,-1,-1,-1,-1,-1,-1,-1,-1,-1,-1,-1,-1,-1,-1,-1,-1,-1,-1,-1,-1,-1,-1,-1,-1,-1,-1,-1,-1,-1,-1,-1,-1,-1,-1,-1,-1,-1,-1,-1,-1,-1,-1,-1,-1,-1,-1,-1,-1,-1,-1,-1,-1,-1,-1,-1,-1,-1,-1,-1,-1,-1,-1,-1,-1,-1,-1,-1,-1,-1,-1,-1,-1,-1,-1,-1,-1,-1,-1,-1,-1,-1,-1,-1,-1,-1,-1,-1,-1,-1,-1,-1,-1,-1,-1,-1,-1,-1,-1,-1,-1,-1,-1,-1,-1,-1,-1,-1,-1,-1,-1,-1,-1,-1,-1,-1,-1,-1,-1,-1,-1,-1,-1,-1,-1,-1,-1,-1,-1,-1,-1,-1,-1,-1,-1,-1,-1,-1,-1,-1,-1,-1],"loss_changes":[4.055565E-1,6.808034E-1,5.19688E-1,6.4716405E-1,7.7180594E-1,4.8477566E-1,4.4966292E-1,4.533572E-1,1.8231249E-1,3.5278952E-1,6.972362E-1,3.678149E-1,2.6860476E-1,5.8163464E-1,4.299306E-1,7.418298E-1,3.475325E-1,2.5640857E-1,0E0,0E0,1.6248557E-1,4.5154834E-1,1.5234134E0,1.2040946E-1,2.7884254E-1,1.49676E-1,2.975967E-1,3.8504314E-1,4.0822804E-1,3.830041E-1,7.122687E-1,6.142211E-2,3.0399805E-1,6.484759E-2,5.8298144E-2,0E0,0E0,1.10182524E-1,4.3067038E-2,1.0245978E-1,1.0527933E-1,4.1691887E-1,5.8442175E-1,0E0,1.5882537E-1,5.278134E-1,3.2904077E-1,1.452671E-1,0E0,2.1365368E-1,5.6583166E-1,5.80279E-1,8.0116935E-2,2.357865E-1,5.7243127E-1,4.507814E-1,4.8650312E-1,2.7423334E-1,1.4941335E-1,1.7383724E-2,0E0,2.700927E-1,7.2420776E-1,0E0,2.0024776E-2,4.5279726E-2,4.113137E-2,0E0,9.6922606E-2,0E0,4.1217744E-2,5.933536E-2,2.3236822E-2,0E0,0E0,0E0,3.4342694E-1,7.4967855E-1,7.626059E-1,0E0,0E0,1.640768E-1,1.6810936E-1,8.944797E-4,1.3470227E-1,1.3069625E-1,1.5489775E-1,0E0,1.6961133E-1,1.13527454E-1,1.5558726E-1,8.4016854E-1,3.8075054E-1,0E0,1.6725723E-1,0E0,1.2771726E-2,5.698125E-1,1.2898604E0,1.3100976E-1,4.1002804E-1,7.8796975E-2,2.2927117E-1,7.722699E-2,3.703079E-1,2.2717386E-2,2.7120256E-1,0E0,0E0,5.4181695E-2,1.4666346E-1,3.116386E-1,7.9067866E-4,0E0,0E0,5.472844E-2,0E0,0E0,1.6508758E-2,3.2222204E-2,8.269685E-2,0E0,0E0,0E0,0E0,0E0,1.1283338E-2,3.2995783E-2,0E0,3.1140223E-1,3.7625802E-1,5.873791E-1,3.7610346E-1,1.5576755E-2,1.4582479E-1,5.226773E-2,6.2957585E-1,0E0,0E0,0E0,1.4216739E-1,9.29416E-2,5.8341622E-2,0E0,0E0,5.496446E-1,1.5823275E-2,1.7970644E-1,1.2506063E-1,2.1298576E-2,9.989345E-2,4.1051078E-1,1.4439924E-1,0E0,6.3279414E-1,0E0,0E0,0E0,0E0,4.763258E-1,8.708131E-2,5.9763312E-2,2.2430153E-1,7.988274E-2,1.3301623E-1,4.169646E-1,2.8652748E-1,7.208359E-2,6.2208287E-2,0E0,7.5331517E-4,1.4730077E-2,5.859348E-2,0E0,8.0899686E-2,0E0,6.392786E-2,1.22300744E-1,6.5278344E-2,1.310581E-1,1.11618325E-1,9.129898E-2,0E0,4.8578286E-1,3.1979233E-3,1.3639377E-3,0E0,0E0,3.4974366E-2,0E0,0E0,0E0,0E0,0E0,1.2839907E-2,3.8099818E-2,0E0,0E0,0E0,4.236936E-1,2.990515E-1,1.5935498E-1,0E0,1.9101943E-1,4.2397356E-1,1.99109E-1,4.6476662E-2,2.083138E-2,3.943447E-2,5.111882E-2,0E0,4.7261715E-2,0E0,0E0,0E0,0E0,0E0,0E0,1.7255244E-1,0E0,1.2120587E-1,0E0,0E0,0E0,1.4487624E-2,0E0,1.8183598E-1,8.606451E-5,0E0,3.3655725E-2,1.7050049E-1,0E0,1.9611335E-1,4.660529E-1,1.2193702E0,6.0932875E-2,8.11473E-3,0E0,0E0,1.6893953E-1,2.5329897E-1,6.513715E-2,0E0,0E0,0E0,2.3703797E-1,1.8205622E-1,2.2285935E-2,9.248901E-3,9.453535E-2,2.0445889E-1,1.0877462E-1,1.7541778E-1,4.6072593E-1,4.36367E-1,0E0,6.61484E-2,1.6927563E-2,1.309291E-1,0E0,0E0,2.7695503E-3,0E0,0E0,0E0,0E0,4.346877E-2,3.9400486E-3,3.8330227E-2,0E0,0E0,3.6292173E-2,0E0,0E0,0E0,0E0,0E0,0E0,0E0,0E0,0E0,0E0,0E0,0E0,0E0,0E0,0E0,0E0,0E0,0E0,0E0,0E0,0E0,0E0,0E0,0E0,0E0,0E0,0E0,0E0,0E0,0E0,0E0,0E0,0E0,0E0,0E0,0E0,0E0,0E0,0E0,0E0,0E0,0E0,0E0,0E0,0E0,0E0,0E0,0E0,0E0,0E0,0E0,0E0,0E0,0E0,0E0,0E0,0E0,0E0,0E0,0E0,0E0,0E0,0E0,0E0,0E0,0E0,0E0,0E0,0E0,0E0,0E0,0E0,0E0,0E0,0E0,0E0,0E0,0E0,0E0,0E0,0E0,0E0,0E0,0E0,0E0,0E0,0E0,0E0,0E0,0E0,0E0,0E0,0E0,0E0,0E0,0E0,0E0,0E0,0E0,0E0,0E0,0E0,0E0,0E0,0E0,0E0,0E0],"parents":[2147483647,0,0,1,1,2,2,3,3,4,4,5,5,6,6,7,7,8,8,9,9,10,10,11,11,12,12,13,13,14,14,15,15,16,16,17,17,20,20,21,21,22,22,23,23,24,24,25,25,26,26,27,27,28,28,29,29,30,30,31,31,32,32,33,33,34,34,37,37,38,38,39,39,40,40,41,41,42,42,44,44,45,45,46,46,47,47,49,49,50,50,51,51,52,52,53,53,54,54,55,55,56,56,57,57,58,58,59,59,61,61,62,62,64,64,65,65,66,66,68,68,70,70,71,71,72,72,76,76,77,77,78,78,81,81,82,82,83,83,84,84,85,85,86,86,88,88,89,89,90,90,91,91,92,92,94,94,96,96,97,97,98,98,99,99,100,100,101,101,102,102,103,103,104,104,105,105,106,106,109,109,110,110,111,111,112,112,115,115,118,118,119,119,120,120,126,126,127,127,129,129,130,130,131,131,132,132,133,133,134,134,135,135,136,136,140,140,141,141,142,142,145,145,146,146,147,147,148,148,149,149,150,150,151,151,152,152,154,154,159,159,160,160,161,161,162,162,163,163,164,164,165,165,166,166,167,167,168,168,170,170,171,171,172,172,174,174,176,176,177,177,178,178,179,179,180,180,181,181,183,183,184,184,185,185,188,188,194,194,195,195,199,199,200,200,201,201,203,203,204,204,205,205,206,206,207,207,208,208,209,209,211,211,218,218,220,220,224,224,226,226,227,227,229,229,230,230,232,232,233,233,234,234,235,235,236,236,239,239,240,240,241,241,245,245,246,246,247,247,248,248,249,249,250,250,251,251,252,252,253,253,254,254,256,256,257,257,258,258,261,261,266,266,267,267,268,268,271,271],"right_children":[2,4,6,-1,10,-1,14,-1,-1,-1,22,-1,-1,28,-1,-1,-1,-1,-1,-1,-1,-1,42,-1,-1,-1,-1,52,54,-1,-1,-1,-1,-1,-1,-1,-1,-1,-1,-1,-1,-1,-1,-1,-1,-1,-1,-1,-1,-1,-1,92,-1,-1,98,-1,-1,-1,-1,-1,-1,-1,-1,-1,-1,-1,-1,-1,-1,-1,-1,-1,-1,-1,-1,-1,-1,-1,-1,-1,-1,-1,-1,-1,-1,-1,-1,-1,-1,-1,-1,152,-1,-1,-1,-1,-1,-1,162,-1,-1,-1,-1,-1,-1,-1,-1,-1,-1,-1,-1,-1,-1,-1,-1,-1,-1,-1,-1,-1,-1,-1,-1,-1,-1,-1,-1,-1,-1,-1,-1,-1,-1,-1,-1,-1,-1,-1,-1,-1,-1,-1,-1,-1,-1,-1,-1,-1,-1,-1,-1,234,-1,-1,-1,-1,-1,-1,-1,-1,-1,-1,-1,-1,-1,-1,-1,-1,-1,-1,-1,-1,-1,-1,-1,-1,-1,-1,-1,-1,-1,-1,-1,-1,-1,-1,-1,-1,-1,-1,-1,-1,-1,-1,-1,-1,-1,-1,-1,-1,-1,-1,-1,-1,-1,-1,-1,-1,-1,-1,-1,-1,-1,-1,-1,-1,-1,-1,-1,-1,-1,-1,-1,-1,-1,-1,-1,-1,-1,-1,-1,-1,-1,-1,332,-1,-1,-1,-1,-1,-1,-1,-1,-1,-1,-1,-1,-1,-1,-1,-1,-1,-1,-1,-1,-1,-1,-1,-1,-1,-1,-1,-1,-1,-1,-1,-1,-1,-1,-1,-1,-1,-1,-1,-1,-1,-1,-1,-1,-1,-1,-1,-1,-1,-1,-1,-1,-1,-1,-1,-1,-1,-1,-1,-1,-1,-1,-1,-1,-1,-1,-1,-1,-1,-1,-1,-1,-1,-1,-1,-1,-1,-1,-1,-1,-1,-1,-1,-1,-1,-1,-1,-1,-1,-1,-1,-1,-1,-1,-1,-1,-1,-1,-1,-1,-1,-1,-1,-1,-1,-1,-1,-1,-1,-1,-1,-1,-1,-1,-1,-1,-1,-1,-1,-1,-1,-1,-1,-1,-1,-1,-1,-1,-1,-1,-1,-1,-1,-1,-1,-1,-1,-1,-1,-1,-1,-1,-1,-1],"split_conditions":[2.0165E3,1.1911667E1,6.5E0,3.0434601E-2,1.295E1,4.6537753E-2,1.35E1,7.54089E-3,2.0418641E-1,-1.6351128E-1,1.3809999E1,-5.3930515E-3,7.534832E-2,3.5E0,1.2273465E-2,5.0115936E-2,-5.506396E-2,2.8217843E-1,-0E0,-3.9309642E-1,-1.0519117E-1,1.2549536E-1,1.4174999E1,-1.408158E-1,1.676783E-2,2.5542188E-2,1.09307095E-1,3.2184998E1,1.5495E1,1.971827E-2,-5.9152436E-2,-1.4839603E-1,8.636854E-2,-2.1611272E-1,-1.0585588E-2,3.8374576E-1,-0E0,-3.5352965E-3,-1.6696039E-1,2.66988E-2,3.657074E-1,-3.2699472E-1,-2.263421E-2,-0E0,-1.8607415E-1,-4.559649E-3,1.3510409E-1,3.9714195E-2,-1.291542E-1,2.1062976E-1,7.023076E-2,3.1645E1,5.50459E-2,-1.356249E-1,2.6765E1,1.2826498E-2,1.0274406E-1,3.2232795E-2,-1.5563554E-1,-2.1164125E-1,-0E0,4.0678356E-2,1.8601178E-1,-0E0,-2.394342E-1,-3.933982E-2,2.1118546E-2,-1.7745318E-1,3.5924604E-3,-0E0,-1.7702089E-1,1.6178554E-1,-0E0,4.2095166E-1,-0E0,-7.106366E-2,-4.8614383E-1,-5.838818E-2,1.3175632E-2,-0E0,-2.7143276E-1,5.4672636E-2,-1.251214E-1,-0E0,2.340972E-1,2.2434259E-2,2.294693E-1,-0E0,2.46998E-1,-2.421158E-2,1.3334669E-1,2.2994999E1,-3.8808957E-1,-0E0,1.2216517E-1,4.0490288E-4,-1.8472177E-1,3.567885E-2,2.852E1,7.860029E-2,2.4285456E-3,3.5220455E-2,2.8281265E-1,-3.7576403E-2,1.2442439E-1,-3.6943898E-2,-2.1699528E-1,-2.3039557E-1,-0E0,7.10081E-2,-9.559842E-2,3.328578E-1,-0E0,-0E0,-2.5587344E-1,-5.5958204E-2,-0E0,-0E0,6.826855E-2,1.3109294E-1,-1.5745526E-2,-1.8723546E-1,-0E0,2.6617354E-1,-0E0,-6.89977E-2,1.1591028E-2,-8.155462E-2,-6.8206733E-1,-2.5355985E-2,-1.7207418E-1,7.151641E-2,-4.7221635E-2,-0E0,1.1187046E-1,-1.9131482E-1,-0E0,-0E0,-1.4098697E-2,-0E0,2.8375664E-1,-1.536384E-2,5.858628E-2,3.3460018E-1,-0E0,4.4088218E-1,1.3935536E-1,9.655808E-3,-9.174101E-2,-0E0,1.538742E-1,1.925E1,9.957065E-2,-0E0,-5.055028E-1,2.0724927E-1,-0E0,-0E0,-1.9756566E-1,1.4013765E-2,2.150368E-1,-3.9665568E-1,-0E0,-0E0,9.868345E-2,1.0020763E-1,-3.4629724E-3,7.7842094E-2,-0E0,4.335562E-1,3.339122E-2,-0E0,-1.1658287E-1,2.959086E-1,-0E0,-0E0,-6.015808E-2,-3.2508156E-1,-3.0368987E-2,9.648319E-2,1.6676437E-3,-1.7644055E-1,-0E0,4.9981907E-1,7.703934E-2,-9.097952E-3,1.3172149E-3,-0E0,-7.16312E-2,1.3674273E-1,-0E0,-0E0,1.9029427E-1,-1.13736816E-1,1.6435836E-2,3.2369234E-2,-0E0,-1.3408525E-1,-0E0,-0E0,-9.479145E-2,-1.1727168E-1,-4.3180758E-1,-0E0,1.474247E-1,-2.653015E-2,-3.1129906E-1,-4.478035E-2,6.3078846E-3,1.585519E-1,-0E0,-2.2263671E-1,-0E0,2.1788476E-1,-2.588331E-1,3.2667428E-1,-0E0,1.03763856E-1,-4.6186384E-2,1.3917497E-1,2.1906966E-2,-0E0,6.3475204E-1,-0E0,1.5661766E-1,-1.4915521E-1,8.750845E-2,-0E0,-1.5599605E-1,-6.341171E-2,4.0069155E-2,-0E0,1.6405332E-1,-6.5740675E-2,2.5E0,1.5696763E-1,-0E0,-0E0,-7.1394986E-1,2.0156303E-1,-0E0,2.6077652E-1,-0E0,-4.2448586E-1,-0E0,6.387889E-2,-1.0295242E-1,6.781387E-2,-5.48558E-2,1.9130963E-1,5.8861427E-2,-0E0,2.1694608E-1,1.8181E-2,-2.5682762E-2,-0E0,1.0186983E-1,3.8517166E-2,-6.8937205E-2,-0E0,3.8140036E-2,-1.3556163E-3,6.484331E-2,-0E0,-1.7084295E-1,2.2335052E-1,-2.404658E-2,-0E0,-1.2064565E-1,-3.8977402E-1,-0E0,-1.0739018E-1,-0E0,-0E0,1.5304166E-1,-1.0768064E-1,5.8309555E-2,-2.235323E-1,-0E0,-0E0,6.0248536E-1,-0E0,9.313809E-2,-0E0,-1.5905157E-2,-0E0,-8.196506E-2,6.337084E-2,-0E0,-0E0,1.2094498E-1,-9.64572E-3,3.4294727E-1,-1.5179966E-1,-0E0,-1.5731753E-1,-0E0,1.1838648E-1,-2.480556E-2,2.995961E-1,7.125926E-2,-5.8299642E-2,3.490531E-2,-3.588456E-1,-0E0,-8.075888E-2,-0E0,7.300377E-2,-0E0,-0E0,1.9820113E-1,-0E0,-2.5201106E-1,-1.0511073E-1,3.0765433E-2,-2.8285848E-2,7.3687494E-2,1.7940952E-1,-0E0,2.854647E-1,-0E0,-0E0,7.574717E-3,-0E0,-1.3817291E-1,-6.329092E-2,2.2149931E-1,2.7071264E-1,8.466669E-2,1.16216324E-1,-1.2585305E-1,-5.7886846E-2,-6.366058E-1,-0E0,1.791085E-1,-4.8150744E-2,-0E0,-0E0,2.6690924E-1,8.317221E-3,-1.6928212E-1,-0E0,2.8210267E-1,2.2492717E-1,-0E0,1.1774445E-2,-1.729849E-1,-0E0,9.111887E-2,-6.557043E-2,-0E0,-0E0,2.1776347E-1,-7.3040007E-3,1.0228714E-1,5.5699088E-2,-8.7624356E-2,2.8271058E-1,-0E0,-3.1574305E-2,4.9806863E-2,-8.938313E-2,-6.175009E-4,1.23868346E-1,-0E0,5.6894757E-2,-0E0,-1.7892422E-1,-0E0,-2.249579E-2,-0E0,-7.634309E-2,-0E0,-0E0,2.9589972E-2,