{"learner":{"attributes":{"best_iteration":"39","best_ntree_limit":"40","scikit_learn":"{\"n_estimators\": 40, \"objective\": \"reg:squarederror\", \"max_depth\": 9, \"max_leaves\": null, \"max_bin\": null, \"grow_policy\": null, \"learning_rate\": 1.0, \"verbosity\": null, \"booster\": null, \"tree_method\": null, \"gamma\": 1.0, \"min_child_weight\": 1, \"max_delta_step\": null, \"subsample\": 0.8, \"sampling_method\": null, \"colsample_bytree\": 1.0, \"colsample_bylevel\": null, \"colsample_bynode\": null, \"reg_alpha\": 0.5, \"reg_lambda\": 0.5, \"scale_pos_weight\": 10, \"base_score\": null, \"missing\": NaN, \"num_parallel_tree\": null, \"random_state\": null, \"n_jobs\": null, \"monotone_constraints\": null, \"interaction_constraints\": null, \"importance_type\": null, \"gpu_id\": null, \"validate_parameters\": null, \"predictor\": null, \"enable_categorical\": false, \"feature_types\": null, \"max_cat_to_onehot\": null, \"max_cat_threshold\": null, \"eval_metric\": null, \"early_stopping_rounds\": null, \"callbacks\": null, \"kwargs\": {\"seed\": 42}, \"_estimator_type\": \"regressor\"}"},"feature_names":["day_of_month","month","quarter","day_of_week","week_of_month","year","Close_lag_1","Close_lag_2","Close_MA_3"],"feature_types":["int","int","int","int","int","int","float","float","float"],"gradient_booster":{"model":{"gbtree_model_param":{"num_parallel_tree":"1","num_trees":"40","size_leaf_vector":"0"},"tree_info":[0,0,0,0,0,0,0,0,0,0,0,0,0,0,0,0,0,0,0,0,0,0,0,0,0,0,0,0,0,0,0,0,0,0,0,0,0,0,0,0],"trees":[{"base_weights":[8.511104E0,7.056459E0,1.3121305E1,5.284353E0,8.30824E0,1.1232259E1,1.5393997E1,3.4791646E0,5.8013344E0,7.4707294E0,9.129434E0,1.0630256E1,1.2413735E1,1.4195645E1,1.6267536E1,2.6899507E0,4.238829E0,5.1948357E0,6.295175E0,7.113606E0,7.8703213E0,8.697428E0,9.4802E0,2.1022222E0,2.8330817E0,4.8302073E0,5.399549E0],"categories":[],"categories_nodes":[],"categories_segments":[],"categories_sizes":[],"default_left":[1,1,1,1,1,1,1,1,1,1,1,0,0,0,0,1,0,1,0,0,0,0,0,0,0,0,0],"id":0,"left_children":[1,3,5,7,9,11,13,15,17,19,21,-1,-1,-1,-1,23,-1,25,-1,-1,-1,-1,-1,-1,-1,-1,-1],"loss_changes":[1.9240719E4,4.8259844E3,2.8603984E3,8.321914E2,8.3896094E2,1.9171094E2,1.9539062E2,1.1284082E2,1.8891016E2,5.5484375E1,4.734375E1,0E0,0E0,0E0,0E0,3.0928955E0,0E0,5.694336E0,0E0,0E0,0E0,0E0,0E0,0E0,0E0,0E0,0E0],"parents":[2147483647,0,0,1,1,2,2,3,3,4,4,5,5,6,6,7,7,8,8,9,9,10,10,15,15,17,17],"right_children":[2,4,6,8,10,12,14,16,18,20,22,-1,-1,-1,-1,24,-1,26,-1,-1,-1,-1,-1,-1,-1,-1,-1],"split_conditions":[1.0575E1,7.285E0,1.3905E1,5.145E0,8.815001E0,1.2155E1,1.5775E1,3.9516668E0,6.205E0,7.9849997E0,9.545E0,1.0630256E1,1.2413735E1,1.4195645E1,1.6267536E1,2.97E0,4.238829E0,5.5550003E0,6.295175E0,7.113606E0,7.8703213E0,8.697428E0,9.4802E0,2.1022222E0,2.8330817E0,4.8302073E0,5.399549E0],"split_indices":[6,6,8,6,6,6,6,8,6,6,6,0,0,0,0,6,0,6,0,0,0,0,0,0,0,0,0],"split_type":[0,0,0,0,0,0,0,0,0,0,0,0,0,0,0,0,0,0,0,0,0,0,0,0,0,0,0],"sum_hessian":[2.877E3,2.188E3,6.89E2,9.07E2,1.281E3,3.78E2,3.11E2,2.03E2,7.04E2,6.37E2,6.44E2,2.54E2,1.24E2,1.35E2,1.76E2,1.01E2,1.02E2,3.19E2,3.85E2,3.42E2,2.95E2,2.95E2,3.49E2,2.2E1,7.9E1,1.2E2,1.99E2],"tree_param":{"num_deleted":"0","num_feature":"9","num_nodes":"27","size_leaf_vector":"0"}},{"base_weights":[2.4879081E-2,1.1722999E-2,9.917825E-1,2.3053857E-2,-2.3616959E-1,1.0499644E0,3.2441202E-1,1.00854775E-2,5.716798E-1,-6.065159E-1,1.3398857E-1,1.9370493E-2,-2.6631403E-1,3.9721075E-1,7.3182416E-1,-7.9126346E-1,-4.3061545E-1,-1.4947905E-1,2.2181989E-1,9.200979E-3,6.6542584E-1,-4.66714E-1,5.22877E-2,-0E0,4.1380936E-1,-0E0,7.5072145E-1,-5.802841E-2,-8.266391E-1,-4.64242E-1,-0E0,8.1970975E-2,-2.3677345E-1,2.76831E-1,-0E0,1.6573874E-2,-1.6630386E-1,5.1379097E-1,8.3092326E-1,-4.912448E-1,-3.390715E-2,-3.4724966E-2,1.0181684E-1,4.2834866E-1,-0E0,-0E0,7.6392734E-1,-0E0,-2.6908183E-1,-0E0,2.9256997E-1,3.0997163E-1,-4.1876543E-2,1.8991978E-3,7.066797E-1,-4.7982427E-1,9.354663E-2,-0E0,-5.012571E-1,-1.2483896E-1,-0E0,-5.240475E-2,-0E0,1.4765881E-1,-0E0,1.4863528E-1,4.753258E-1,-3.188573E-1,-0E0,3.5114634E-1,2.7024662E-2,-9.9264584E-2,-0E0,1.624542E-2,-1.5541877E-1,7.790602E-1,1.7309456E-1,-5.5180764E-1,-3.1620014E-1,-8.415237E-2,2.0392288E-1,-6.100199E-1,-3.6185646E-1,-0E0,1.6873033E-1,1.7304993E-1,-0E0,-0E0,3.6090794E-1,-0E0,1.1496665E-1,-0E0,-1.5503147E-1,-3.843304E-3,4.180171E-1,-3.796171E-1,-4.5699836E-3,3.8909468E-1,8.348194E-1,-0E0,2.1976748E-1,-0E0,-3.378085E-1,-0E0,-2.1722291E-1,2.6773382E-2,2.8345874E-1,-6.238231E-1,-0E0,5.7745617E-2,3.91298E-1,-2.028656E-3,-0E0],"categories":[],"categories_nodes":[],"categories_segments":[],"categories_sizes":[],"default_left":[1,1,1,1,1,1,1,1,1,1,1,1,1,1,1,1,1,1,1,1,1,1,1,1,1,1,1,1,1,1,1,1,1,1,1,1,1,1,1,1,1,1,1,1,1,1,1,1,1,1,1,1,1,1,1,1,1,1,1,1,1,1,1,1,1,1,1,1,1,1,1,1,1,1,1,1,1,1,1,1,1,1,1,1,1,1,1,1,1,1,1,1,1,0,0,0,0,1,1,1,1,1,1,1,1,1,1,1,1,1,1,1,1],"id":1,"left_children":[1,3,-1,7,9,-1,-1,11,13,15,17,19,21,-1,-1,-1,-1,-1,-1,35,-1,-1,-1,-1,-1,-1,-1,-1,-1,-1,-1,-1,-1,-1,-1,53,55,-1,-1,-1,-1,-1,-1,-1,-1,-1,-1,-1,-1,-1,-1,-1,-1,73,75,-1,79,-1,-1,-1,-1,-1,-1,-1,-1,-1,-1,-1,-1,-1,-1,-1,-1,93,95,-1,-1,-1,-1,-1,-1,-1,-1,-1,-1,-1,-1,-1,-1,-1,-1,-1,-1,-1,-1,-1,-1,-1,-1,-1,-1,-1,-1,-1,-1,-1,-1,-1,-1,-1,-1,-1,-1],"loss_changes":[3.646503E1,7.9533105E0,6.37413E-1,1.923989E1,1.7207104E1,0E0,0E0,6.7659717E0,1.0364056E0,1.2497673E0,1.5839354E0,1.673195E1,5.6784005E0,2.662711E-1,2.909069E-1,2.7293587E-1,3.915763E-1,3.5986343E-1,4.8743057E-1,3.2384515E0,1.0544205E-1,2.9710865E-1,1.7537776E-1,0E0,1.8733025E-2,0E0,6.4811707E-3,0E0,0E0,0E0,0E0,0E0,1.1554372E-1,1.6487265E-1,2.5686562E-1,2.4552595E1,8.403159E0,0E0,0E0,2.4063683E-1,4.9373057E-2,4.8549213E-3,1.2757131E-1,4.0328026E-2,0E0,0E0,0E0,0E0,1.0394192E-1,0E0,3.58361E-1,0E0,4.7387846E-2,5.3697205E0,1.4068623E0,2.6441574E-2,1.1374149E0,0E0,1.3903046E-1,0E0,0E0,0E0,0E0,5.972916E-2,0E0,2.1103635E-2,0E0,0E0,0E0,6.089163E-2,6.64875E-2,2.0074181E-2,0E0,1.8057083E1,6.520319E0,1.7150307E-1,4.092467E-2,0E0,1.9081712E-2,3.1017345E-1,3.4127498E-1,2.8102875E-2,0E0,0E0,0E0,0E0,0E0,0E0,8.328199E-3,1.0288613E-5,0E0,0E0,0E0,0E0,0E0,0E0,0E0,0E0,0E0,0E0,0E0,0E0,0E0,0E0,0E0,0E0,0E0,0E0,0E0,0E0,0E0,0E0,0E0],"parents":[2147483647,0,0,1,1,2,2,3,3,4,4,7,7,8,8,9,9,10,10,11,11,12,12,13,13,14,14,15,15,16,16,17,17,18,18,19,19,20,20,21,21,22,22,24,24,26,26,32,32,33,33,34,34,35,35,36,36,39,39,40,40,41,41,42,42,43,43,48,48,50,50,52,52,53,53,54,54,55,55,56,56,58,58,63,63,65,65,69,69,70,70,71,71,73,73,74,74,75,75,76,76,78,78,79,79,80,80,81,81,88,88,89,89],"right_children":[2,4,-1,8,10,-1,-1,12,14,16,18,20,22,-1,-1,-1,-1,-1,-1,36,-1,-1,-1,-1,-1,-1,-1,-1,-1,-1,-1,-1,-1,-1,-1,54,56,-1,-1,-1,-1,-1,-1,-1,-1,-1,-1,-1,-1,-1,-1,-1,-1,74,76,-1,80,-1,-1,-1,-1,-1,-1,-1,-1,-1,-1,-1,-1,-1,-1,-1,-1,94,96,-1,-1,-1,-1,-1,-1,-1,-1,-1,-1,-1,-1,-1,-1,-1,-1,-1,-1,-1,-1,-1,-1,-1,-1,-1,-1,-1,-1,-1,-1,-1,-1,-1,-1,-1,-1,-1,-1],"split_conditions":[1.736E1,1.5775E1,9.917825E-1,1.4895E1,1.6474998E1,1.0499644E0,3.2441202E-1,1.3908333E1,1.527E1,1.6095001E1,1.6625E1,1.3315001E1,1.4515E1,3.9721075E-1,7.3182416E-1,-7.9126346E-1,-4.3061545E-1,-1.4947905E-1,2.2181989E-1,1.2145E1,6.6542584E-1,-4.66714E-1,5.22877E-2,-0E0,4.1380936E-1,-0E0,7.5072145E-1,-5.802841E-2,-8.266391E-1,-4.64242E-1,-0E0,8.1970975E-2,-2.3677345E-1,2.76831E-1,-0E0,1.1431666E1,1.265E1,5.1379097E-1,8.3092326E-1,-4.912448E-1,-3.390715E-2,-3.4724966E-2,1.0181684E-1,4.2834866E-1,-0E0,-0E0,7.6392734E-1,-0E0,-2.6908183E-1,-0E0,2.9256997E-1,3.0997163E-1,-4.1876543E-2,1.0575E1,2.0235E3,-4.7982427E-1,1.293E1,-0E0,-5.012571E-1,-1.2483896E-1,-0E0,-5.240475E-2,-0E0,1.4765881E-1,-0E0,1.4863528E-1,4.753258E-1,-3.188573E-1,-0E0,3.5114634E-1,2.7024662E-2,-9.9264584E-2,-0E0,1.0165E1,1.0885E1,7.790602E-1,1.7309456E-1,-5.5180764E-1,-3.1620014E-1,-8.415237E-2,2.0392288E-1,-6.100199E-1,-3.6185646E-1,-0E0,1.6873033E-1,1.7304993E-1,-0E0,-0E0,3.6090794E-1,-0E0,1.1496665E-1,-0E0,-1.5503147E-1,-3.843304E-3,4.180171E-1,-3.796171E-1,-4.5699836E-3,3.8909468E-1,8.348194E-1,-0E0,2.1976748E-1,-0E0,-3.378085E-1,-0E0,-2.1722291E-1,2.6773382E-2,2.8345874E-1,-6.238231E-1,-0E0,5.7745617E-2,3.91298E-1,-2.028656E-3,-0E0],"split_indices":[6,6,1,6,6,2147483647,2147483647,8,6,6,6,6,6,0,7,7,0,0,1,6,6,1,8,2147483647,2147483647,2147483647,2147483647,2147483647,2147483647,2147483647,2147483647,2147483647,2147483647,2147483647,2147483647,8,6,2147483647,2147483647,2147483647,2147483647,2147483647,2147483647,2147483647,2147483647,2147483647,2147483647,2147483647,2147483647,2147483647,2147483647,2147483647,2147483647,6,5,6,6,2147483647,2147483647,2147483647,2147483647,2147483647,2147483647,2147483647,2147483647,2147483647,2147483647,2147483647,2147483647,2147483647,2147483647,2147483647,2147483647,6,6,7,7,2147483647,2147483647,7,3,2147483647,2147483647,2147483647,2147483647,2147483647,2147483647,2147483647,2147483647,2147483647,2147483647,2147483647,2147483647,0,0,0,0,2147483647,2147483647,2147483647,2147483647,2147483647,2147483647,2147483647,2147483647,2147483647,2147483647,2147483647,2147483647,2147483647,2147483647,2147483647,2147483647],"split_type":[0,0,0,0,0,0,0,0,0,0,0,0,0,0,0,0,0,0,0,0,0,0,0,0,0,0,0,0,0,0,0,0,0,0,0,0,0,0,0,0,0,0,0,0,0,0,0,0,0,0,0,0,0,0,0,0,0,0,0,0,0,0,0,0,0,0,0,0,0,0,0,0,0,0,0,0,0,0,0,0,0,0,0,0,0,0,0,0,0,0,0,0,0,0,0,0,0,0,0,0,0,0,0,0,0,0,0,0,0,0,0,0,0],"sum_hessian":[2.906E3,2.868E3,3.8E1,2.745E3,1.23E2,3.4E1,4E0,2.683E3,6.2E1,6.2E1,6.1E1,2.598E3,8.5E1,3.2E1,3E1,2.8E1,3.4E1,1.3E1,4.8E1,2.559E3,3.9E1,5.3E1,3.2E1,1E0,3.1E1,1E0,2.9E1,2E0,2.6E1,3.1E1,3E0,2E0,1.1E1,3.7E1,1.1E1,2.459E3,1E2,2.3E1,1.6E1,4.9E1,4E0,8E0,2.4E1,2.9E1,2E0,1E0,2.8E1,1E0,1E1,2E0,3.5E1,2E0,9E0,2.409E3,5E1,4.6E1,5.4E1,1E0,4.8E1,3E0,1E0,5E0,3E0,1.7E1,7E0,6E0,2.3E1,8E0,2E0,2.7E1,8E0,6E0,3E0,2.211E3,1.98E2,4.3E1,7E0,2.9E1,1.7E1,1.9E1,3.5E1,2.4E1,2.4E1,2E0,1.5E1,5E0,1E0,1E0,2.6E1,3E0,5E0,3E0,3E0,2.105E3,1.06E2,7.8E1,1.2E2,7E0,3.6E1,2E0,5E0,2E0,1.5E1,1E1,9E0,1.3E1,2.2E1,2.3E1,1E0,4E0,2.2E1,2E0,1E0],"tree_param":{"num_deleted":"76","num_feature":"9","num_nodes":"113","size_leaf_vector":"0"}},{"base_weights":[2.5298651E-3,3.0699125E-4,4.1307122E-1,2.3950314E-2,-4.219269E-2,1.9122921E-1,5.944745E-1,-3.80794E-2,6.259478E-2,-2.407861E-1,-5.6268903E-4,2.3447476E-1,-0E0,2.6954927E-2,-2.4698386E-1,2.3607446E-1,2.1542052E-2,-3.3412904E-1,-1.6524144E-1,3.649575E-3,-1.9640918E-1,2.6061907E-1,-0E0,8.1596366E-4,2.0090528E-1,-3.7427205E-1,-1.1091462E-1,1.0359515E-1,3.291083E-1,-1.957637E-1,5.1639974E-2,-0E0,-3.3879712E-1,-1.8933776E-1,-0E0,8.565154E-3,-8.5105844E-2,-2.4237026E-1,-0E0,-6.3937955E-2,2.9701678E-2,1.3139439E-1,2.495859E-1,-3.8323995E-1,-0E0,-1.6884695E-1,-5.2265096E-2,4.8178653E-3,1.3047639E-1,2.3745012E-1,3.6434066E-1,-2.5176457E-1,-1.1461649E-1,2.7062995E-2,2.1520038E-1,-9.825871E-2,-2.3047516E-1,1.9891472E-1,-3.0815579E-2,2.3037163E-3,8.4617175E-2,-1.4215721E-1,-0E0,-0E0,-2.7805096E-1,2.5045507E-2,-3.2438603E-1,2.0062634E-1,-1.648499E-2,-0E0,1.4105153E-1,2.6268974E-1,-0E0,-0E0,-3.8831747E-1,-0E0,-1.8264735E-1,1.8816207E-2,-7.051184E-2,5.1516533E-2,-0E0,-0E0,1.4775506E-1,-0E0,2.4465959E-1,-1.2430118E-1,-0E0,7.931945E-2,-1.14692E-1,2.2598569E-1,-0E0,-1.4181119E-1,-0E0,-2.4843073E-1,-0E0,-6.342782E-2,-0E0,-5.571535E-5,1.2862462E-1,4.612516E-2,2.1188857E-1,-0E0,-1.5251403E-1,2.032838E-2,-1.15779184E-1,-4.0603155E-1,-8.994742E-2,-4.8378415E-2,3.514747E-1,-5.054148E-1,-1.3754717E-1,-0E0,2.9506454E-1,2.8199656E-2,-6.0521323E-2,-0E0,1.4684685E-1,2.71437E-1,-0E0,-1.9117655E-1,-0E0,-0E0,2.457278E-2,-8.339238E-2,-0E0,-4.044434E-3,-0E0,-0E0,9.334845E-3,-0E0,1.5150014E-1,-0E0,2.5156322E-1,-1.3030285E-1,-0E0,2.7637327E-2,3.0989105E-1,-3.0504242E-1,-2.3570891E-2,9.330546E-2,2.4286933E-1,-1.5491143E-1,-0E0,-5.116272E-2,-0E0,-2.6081595E-1,-0E0,-2.7596734E-2,-0E0,5.9928624E-3,-8.717361E-2,2.3691545E-1,-9.9428385E-2,5.9324954E-2,-0E0,-0E0,2.392448E-1,-0E0,1.7144245E-1,-1.43873E-1,-0E0,-4.4244882E-1,-0E0,-0E0,-2.3084477E-1,3.972294E-2,-8.570109E-2,4.0619305E-1,6.770028E-4,-0E0,-5.2362263E-1,-1.5836461E-1,-0E0,2.8194774E-2,-7.553834E-4,-3.7533704E-2,1.4961834E-1,-1.3401228E-1,2.073993E-2,1.7353219E-1,8.747606E-3,-0E0,-1.9652428E-1,3.0934524E-2,-0E0,-1.2764075E-1,-5.0795274E-3,4.2934608E-2,-0E0,-1.7278442E-2,-0E0,-0E0,3.6001343E-2,-0E0,4.1423734E-2,-0E0,1.5294069E-1,-0E0,-1.349301E-1,1.4410092E-1,-1.06064886E-1,3.1719306E-1,-0E0,-3.1312644E-1,-0E0,-1.126979E-1,1.1517155E-2,-0E0,1.0343578E-1,2.4436581E-1,-0E0,-0E0,-1.923442E-1,-6.508522E-2,-0E0,3.105545E-2,-0E0,-4.5650057E-2,-0E0,-1.4565049E-2,2.396659E-2,9.454105E-2,-1.3735068E-1,-0E0,2.9218814E-1,-0E0,-2.3948517E-1,7.614486E-2,-0E0,2.9222268E-1,-0E0,-3.4265224E-2,-0E0,-0E0,2.0526041E-1],"categories":[],"categories_nodes":[],"categories_segments":[],"categories_sizes":[],"default_left":[1,1,1,1,1,1,1,1,1,1,1,1,1,1,1,1,1,1,1,1,1,1,1,1,1,1,1,1,1,1,1,1,1,1,1,1,1,1,1,1,1,1,1,1,1,1,1,1,1,1,1,1,1,1,1,1,1,1,1,1,1,1,1,1,1,1,1,1,1,1,1,1,1,1,1,1,1,1,1,1,1,1,1,1,1,1,1,1,1,1,1,1,1,1,1,1,1,1,1,1,1,1,1,1,1,1,1,1,1,1,1,1,0,1,1,1,1,1,1,1,1,1,1,1,1,1,1,1,1,1,1,1,1,1,1,1,1,1,1,1,1,1,1,1,1,1,1,1,1,1,1,1,1,1,1,1,1,1,1,1,1,1,1,1,1,1,1,1,1,1,1,1,1,1,1,0,0,1,1,1,1,1,1,1,1,1,1,1,1,1,1,1,1,1,1,1,1,1,1,0,0,1,1,1,1,1,1,1,1,1,1,1,1,1,1,1,1,1,1,1,1,1,1,1,1,1,1,1,1,1,1,1,1,1,1],"id":2,"left_children":[1,3,-1,7,9,-1,-1,13,15,-1,-1,-1,-1,23,25,27,29,-1,-1,-1,-1,-1,-1,39,-1,-1,-1,-1,-1,-1,53,-1,-1,-1,-1,-1,-1,-1,-1,65,67,-1,-1,-1,-1,-1,-1,-1,-1,-1,-1,-1,-1,87,-1,-1,-1,-1,-1,-1,-1,-1,-1,-1,-1,107,-1,111,113,-1,-1,-1,-1,-1,-1,-1,-1,-1,-1,-1,-1,-1,-1,-1,-1,-1,-1,135,137,-1,-1,-1,-1,-1,-1,-1,-1,-1,-1,-1,-1,-1,-1,-1,-1,-1,-1,-1,-1,-1,-1,-1,-1,175,-1,-1,-1,-1,-1,-1,-1,-1,-1,-1,-1,-1,-1,-1,-1,-1,-1,-1,-1,-1,-1,199,-1,-1,-1,-1,-1,-1,-1,-1,-1,-1,-1,-1,-1,-1,-1,-1,-1,-1,-1,-1,-1,-1,-1,-1,-1,-1,-1,-1,-1,-1,-1,-1,-1,-1,-1,-1,-1,-1,-1,-1,-1,-1,-1,-1,-1,-1,-1,-1,-1,-1,-1,-1,-1,-1,-1,-1,-1,-1,-1,-1,-1,-1,-1,-1,-1,-1,-1,-1,-1,-1,-1,-1,-1,-1,-1,-1,-1,-1,-1,-1,-1,-1,-1,-1,-1,-1,-1,-1,-1,-1,-1,-1,-1,-1,-1,-1,-1,-1,-1],"loss_changes":[2.4557045E0,2.9089184E0,1.3382936E-1,4.504426E0,8.398859E0,4.652652E-2,0E0,9.820513E0,8.126392E0,9.67309E-1,8.0166405E-1,1.621294E-2,0E0,2.3702874E0,2.7070312E0,2.4719505E0,6.0842876E0,1.2238312E-1,4.3703604E-1,3.261734E-1,1.7844558E-1,0E0,0E0,8.732366E-1,2.4905443E-2,1.4700317E-1,1.755352E-1,1.80305E-1,6.4359665E-2,3.1361628E-1,3.2063775E0,0E0,0E0,1.5964437E-1,1.0888846E-1,3.3573145E-1,1.3542205E-1,2.2907597E-1,0E0,3.433076E0,2.7344148E0,4.8349082E-2,3.128624E-2,2.5536537E-2,0E0,1.5339422E-1,8.811879E-2,1.4028053E-2,1.158036E-1,2.1051168E-2,0E0,0E0,8.594763E-2,5.3462706E0,2.4665642E-1,9.8483294E-2,1.241374E-1,0E0,8.1330985E-3,2.8558686E-1,1.3309821E-1,1.6041964E-2,7.930528E-2,0E0,1.0689056E-1,2.664676E0,9.121301E-1,1.3511796E0,5.315803E-1,0E0,3.0992568E-2,4.488468E-3,0E0,0E0,0E0,0E0,8.301723E-2,5.201523E-4,5.1461637E-2,0E0,2.3718299E-4,7.406843E-4,4.373145E-2,0E0,5.322933E-3,4.015255E-2,0E0,6.160535E0,3.170999E0,4.571438E-2,0E0,5.56888E-2,9.161684E-3,5.2717447E-2,4.1886885E-3,0E0,0E0,4.2314604E-1,5.1270235E-1,4.925455E-2,6.0004383E-2,0E0,0E0,1.2668754E-1,1.9420981E-2,3.598416E-2,1.17743E-1,3.0254233E-1,1.8992639E-1,5.3708553E-2,7.612383E-2,4.383326E-3,0E0,1.0525168E0,8.791715E-1,0E0,2.0500422E-2,0E0,0E0,3.705442E-2,0E0,0E0,2.7898652E-4,6.6726506E-2,4.6084514E-3,3.4946243E-3,4.536338E-3,0E0,1.2128759E-2,0E0,2.2649765E-3,0E0,0E0,3.886336E-2,0E0,6.823594E0,2.3606968E-1,1.0624027E-1,4.656056E-1,2.0193323E-2,2.626896E-3,6.849396E-2,0E0,1.4285315E-3,6.2688664E-3,0E0,0E0,5.1889867E-3,0E0,2.5373513E-1,5.065876E-1,5.3311646E-2,9.889585E-2,6.557125E-2,0E0,0E0,6.853801E-2,7.6316865E-3,1.51951015E-2,0E0,0E0,0E0,0E0,0E0,0E0,0E0,0E0,0E0,0E0,0E0,0E0,0E0,0E0,0E0,0E0,0E0,0E0,0E0,0E0,0E0,0E0,0E0,0E0,0E0,0E0,0E0,0E0,0E0,0E0,0E0,0E0,0E0,0E0,0E0,0E0,0E0,0E0,0E0,0E0,0E0,0E0,0E0,0E0,0E0,0E0,0E0,0E0,0E0,0E0,0E0,0E0,0E0,0E0,0E0,0E0,0E0,0E0,0E0,0E0,0E0,0E0,0E0,0E0,0E0,0E0,0E0,0E0,0E0,0E0,0E0,0E0,0E0,0E0,0E0,0E0],"parents":[2147483647,0,0,1,1,2,2,3,3,4,4,5,5,7,7,8,8,9,9,10,10,11,11,13,13,14,14,15,15,16,16,17,17,18,18,19,19,20,20,23,23,24,24,25,25,26,26,27,27,28,28,29,29,30,30,33,33,34,34,35,35,36,36,37,37,39,39,40,40,41,41,42,42,43,43,45,45,46,46,47,47,48,48,49,49,52,52,53,53,54,54,55,55,56,56,58,58,59,59,60,60,61,61,62,62,64,64,65,65,66,66,67,67,68,68,70,70,71,71,76,76,77,77,78,78,80,80,81,81,82,82,84,84,85,85,87,87,88,88,89,89,91,91,92,92,93,93,94,94,97,97,98,98,99,99,100,100,103,103,104,104,105,105,106,106,107,107,108,108,109,109,110,110,111,111,113,113,114,114,116,116,119,119,122,122,123,123,124,124,125,125,126,126,128,128,130,130,133,133,135,135,136,136,137,137,138,138,139,139,140,140,141,141,143,143,144,144,147,147,149,149,150,150,151,151,152,152,153,153,156,156,157,157,158,158],"right_children":[2,4,-1,8,10,-1,-1,14,16,-1,-1,-1,-1,24,26,28,30,-1,-1,-1,-1,-1,-1,40,-1,-1,-1,-1,-1,-1,54,-1,-1,-1,-1,-1,-1,-1,-1,66,68,-1,-1,-1,-1,-1,-1,-1,-1,-1,-1,-1,-1,88,-1,-1,-1,-1,-1,-1,-1,-1,-1,-1,-1,108,-1,112,114,-1,-1,-1,-1,-1,-1,-1,-1,-1,-1,-1,-1,-1,-1,-1,-1,-1,-1,136,138,-1,-1,-1,-1,-1,-1,-1,-1,-1,-1,-1,-1,-1,-1,-1,-1,-1,-1,-1,-1,-1,-1,-1,-1,176,-1,-1,-1,-1,-1,-1,-1,-1,-1,-1,-1,-1,-1,-1,-1,-1,-1,-1,-1,-1,-1,200,-1,-1,-1,-1,-1,-1,-1,-1,-1,-1,-1,-1,-1,-1,-1,-1,-1,-1,-1,-1,-1,-1,-1,-1,-1,-1,-1,-1,-1,-1,-1,-1,-1,-1,-1,-1,-1,-1,-1,-1,-1,-1,-1,-1,-1,-1,-1,-1,-1,-1,-1,-1,-1,-1,-1,-1,-1,-1,-1,-1,-1,-1,-1,-1,-1,-1,-1,-1,-1,-1,-1,-1,-1,-1,-1,-1,-1,-1,-1,-1,-1,-1,-1,-1,-1,-1,-1,-1,-1,-1,-1,-1,-1,-1,-1,-1,-1,-1,-1],"split_conditions":[1.791E1,9.545E0,4.1307122E-1,6.785E0,9.945E0,1.9122921E-1,5.944745E-1,6.205E0,7.285E0,-2.407861E-1,-5.6268903E-4,2.3447476E-1,-0E0,5.995E0,6.535E0,6.975E0,7.535E0,-3.3412904E-1,-1.6524144E-1,3.649575E-3,-1.9640918E-1,2.6061907E-1,-0E0,4.6499996E0,2.0090528E-1,-3.7427205E-1,-1.1091462E-1,1.0359515E-1,3.291083E-1,-1.957637E-1,9.305E0,-0E0,-3.3879712E-1,-1.8933776E-1,-0E0,8.565154E-3,-8.5105844E-2,-2.4237026E-1,-0E0,3.9450002E0,5.145E0,1.3139439E-1,2.495859E-1,-3.8323995E-1,-0E0,-1.6884695E-1,-5.2265096E-2,4.8178653E-3,1.3047639E-1,2.3745012E-1,3.6434066E-1,-2.5176457E-1,-1.1461649E-1,8.815001E0,2.1520038E-1,-9.825871E-2,-2.3047516E-1,1.9891472E-1,-3.0815579E-2,2.3037163E-3,8.4617175E-2,-1.4215721E-1,-0E0,-0E0,-2.7805096E-1,3.45E0,-3.2438603E-1,4.87E0,5.5550003E0,-0E0,1.4105153E-1,2.6268974E-1,-0E0,-0E0,-3.8831747E-1,-0E0,-1.8264735E-1,1.8816207E-2,-7.051184E-2,5.1516533E-2,-0E0,-0E0,1.4775506E-1,-0E0,2.4465959E-1,-1.2430118E-1,-0E0,8.515E0,8.975E0,2.2598569E-1,-0E0,-1.4181119E-1,-0E0,-2.4843073E-1,-0E0,-6.342782E-2,-0E0,-5.571535E-5,1.2862462E-1,4.612516E-2,2.1188857E-1,-0E0,-1.5251403E-1,2.032838E-2,-1.15779184E-1,-4.0603155E-1,-8.994742E-2,-4.8378415E-2,3.514747E-1,-5.054148E-1,-1.3754717E-1,-0E0,2.9506454E-1,5.395E0,-6.0521323E-2,-0E0,1.4684685E-1,2.71437E-1,-0E0,-1.9117655E-1,-0E0,-0E0,2.457278E-2,-8.339238E-2,-0E0,-4.044434E-3,-0E0,-0E0,9.334845E-3,-0E0,1.5150014E-1,-0E0,2.5156322E-1,-1.3030285E-1,-0E0,7.9849997E0,3.0989105E-1,-3.0504242E-1,-2.3570891E-2,9.330546E-2,2.4286933E-1,-1.5491143E-1,-0E0,-5.116272E-2,-0E0,-2.6081595E-1,-0E0,-2.7596734E-2,-0E0,5.9928624E-3,-8.717361E-2,2.3691545E-1,-9.9428385E-2,5.9324954E-2,-0E0,-0E0,2.392448E-1,-0E0,1.7144245E-1,-1.43873E-1,-0E0,-4.4244882E-1,-0E0,-0E0,-2.3084477E-1,3.972294E-2,-8.570109E-2,4.0619305E-1,6.770028E-4,-0E0,-5.2362263E-1,-1.5836461E-1,-0E0,2.8194774E-2,-7.553834E-4,-3.7533704E-2,1.4961834E-1,-1.3401228E-1,2.073993E-2,1.7353219E-1,8.747606E-3,-0E0,-1.9652428E-1,3.0934524E-2,-0E0,-1.2764075E-1,-5.0795274E-3,4.2934608E-2,-0E0,-1.7278442E-2,-0E0,-0E0,3.6001343E-2,-0E0,4.1423734E-2,-0E0,1.5294069E-1,-0E0,-1.349301E-1,1.4410092E-1,-1.06064886E-1,3.1719306E-1,-0E0,-3.1312644E-1,-0E0,-1.126979E-1,1.1517155E-2,-0E0,1.0343578E-1,2.4436581E-1,-0E0,-0E0,-1.923442E-1,-6.508522E-2,-0E0,3.105545E-2,-0E0,-4.5650057E-2,-0E0,-1.4565049E-2,2.396659E-2,9.454105E-2,-1.3735068E-1,-0E0,2.9218814E-1,-0E0,-2.3948517E-1,7.614486E-2,-0E0,2.9222268E-1,-0E0,-3.4265224E-2,-0E0,-0E0,2.0526041E-1],"split_indices":[6,6,6,6,6,2147483647,2147483647,6,6,6,6,2147483647,2147483647,6,6,6,6,2147483647,2147483647,2147483647,2147483647,2147483647,2147483647,6,6,7,6,6,6,8,6,2147483647,2147483647,2147483647,2147483647,2147483647,2147483647,2147483647,2147483647,8,6,2147483647,2147483647,2147483647,2147483647,2147483647,2147483647,2147483647,2147483647,2147483647,2147483647,2147483647,2147483647,6,8,2147483647,2147483647,2147483647,2147483647,2147483647,2147483647,2147483647,2147483647,2147483647,2147483647,6,6,6,6,2147483647,2147483647,2147483647,2147483647,2147483647,2147483647,2147483647,2147483647,2147483647,2147483647,2147483647,2147483647,2147483647,2147483647,2147483647,2147483647,2147483647,2147483647,6,6,2147483647,2147483647,2147483647,2147483647,2147483647,2147483647,2147483647,2147483647,2147483647,2147483647,2147483647,2147483647,2147483647,2147483647,2147483647,2147483647,2147483647,2147483647,6,0,2147483647,2147483647,8,0,6,6,2147483647,2147483647,2147483647,2147483647,2147483647,2147483647,2147483647,2147483647,2147483647,2147483647,2147483647,2147483647,2147483647,2147483647,2147483647,2147483647,2147483647,2147483647,2147483647,2147483647,6,7,8,6,2147483647,2147483647,2147483647,2147483647,2147483647,2147483647,2147483647,2147483647,2147483647,2147483647,2147483647,2147483647,2147483647,2147483647,2147483647,2147483647,2147483647,2147483647,2147483647,2147483647,2147483647,2147483647,2147483647,2147483647,2147483647,2147483647,2147483647,2147483647,2147483647,2147483647,2147483647,2147483647,2147483647,2147483647,2147483647,2147483647,0,0,2147483647,2147483647,2147483647,2147483647,2147483647,2147483647,2147483647,2147483647,2147483647,2147483647,2147483647,2147483647,2147483647,2147483647,2147483647,2147483647,2147483647,2147483647,2147483647,2147483647,2147483647,2147483647,0,0,2147483647,2147483647,2147483647,2147483647,2147483647,2147483647,2147483647,2147483647,2147483647,2147483647,2147483647,2147483647,2147483647,2147483647,2147483647,2147483647,2147483647,2147483647,2147483647,2147483647,2147483647,2147483647,2147483647,2147483647,2147483647,2147483647,2147483647,2147483647,2147483647,2147483647,2147483647,2147483647,2147483647,2147483647],"split_type":[0,0,0,0,0,0,0,0,0,0,0,0,0,0,0,0,0,0,0,0,0,0,0,0,0,0,0,0,0,0,0,0,0,0,0,0,0,0,0,0,0,0,0,0,0,0,0,0,0,0,0,0,0,0,0,0,0,0,0,0,0,0,0,0,0,0,0,0,0,0,0,0,0,0,0,0,0,0,0,0,0,0,0,0,0,0,0,0,0,0,0,0,0,0,0,0,0,0,0,0,0,0,0,0,0,0,0,0,0,0,0,0,0,0,0,0,0,0,0,0,0,0,0,0,0,0,0,0,0,0,0,0,0,0,0,0,0,0,0,0,0,0,0,0,0,0,0,0,0,0,0,0,0,0,0,0,0,0,0,0,0,0,0,0,0,0,0,0,0,0,0,0,0,0,0,0,0,0,0,0,0,0,0,0,0,0,0,0,0,0,0,0,0,0,0,0,0,0,0,0,0,0,0,0,0,0,0,0,0,0,0,0,0,0,0,0,0,0,0,0,0,0,0,0,0,0,0,0,0,0,0,0,0,0,0],"sum_hessian":[2.917E3,2.903E3,1.4E1,1.873E3,1.03E3,8E0,6E0,7.14E2,1.159E3,1.76E2,8.54E2,6E0,2E0,5.43E2,1.71E2,2.19E2,9.4E2,7.5E1,1.01E2,8.34E2,2E1,5E0,1E0,4.75E2,6.8E1,8.6E1,8.5E1,9.3E1,1.26E2,1.12E2,8.28E2,1E0,7.4E1,8.9E1,1.2E1,7.96E2,3.8E1,1.6E1,4E0,1.41E2,3.34E2,3.3E1,3.5E1,8.3E1,3E0,3.8E1,4.7E1,2.4E1,6.9E1,4E1,8.6E1,6.2E1,5E1,7.23E2,1.05E2,3.2E1,5.7E1,2E0,1E1,7.42E2,5.4E1,2E1,1.8E1,1E0,1.5E1,1.04E2,3.7E1,7.3E1,2.61E2,2E0,3.1E1,3.2E1,3E0,2E0,8.1E1,1E0,3.7E1,4E0,4.3E1,5E0,1.9E1,1E1,5.9E1,2E0,3.8E1,4.8E1,2E0,5.31E2,1.92E2,1E2,5E0,2E1,1.2E1,5.1E1,6E0,4E0,6E0,7.25E2,1.7E1,4.5E1,9E0,2E0,1.8E1,1.3E1,5E0,7E0,8E0,8.4E1,2E1,1.7E1,2E1,2.4E1,4.9E1,1.24E2,1.37E2,1E0,3E1,3E1,2E0,3.6E1,1E0,1E0,3E0,3.8E1,5E0,1.4E1,5E0,2E0,8E0,1E0,5.8E1,2E0,3.6E1,4.6E1,2E0,4.36E2,9.5E1,6E1,1.32E2,1.5E1,8.5E1,1.9E1,1E0,3E0,9E0,4.7E1,4E0,5E0,1E0,6.73E2,5.2E1,1.3E1,4E0,4.1E1,4E0,1E0,8E0,9E0,4E0,4E0,1E0,6E0,1E0,5E0,3E0,2.1E1,6.3E1,1.6E1,4E0,1E0,1.6E1,1.8E1,2E0,5E0,1.9E1,7.8E1,4.6E1,7.5E1,6.2E1,2.2E1,8E0,1E0,3.5E1,2E0,1E0,2E1,1.8E1,2E0,3E0,1.2E1,2E0,2E0,3E0,1E0,7E0,1E0,5.7E1,1E0,4.5E1,2.35E2,2.01E2,9.3E1,2E0,5.8E1,2E0,4.1E1,9.1E1,1E0,1.4E1,8.4E1,1E0,5E0,1.4E1,2E0,1E0,6E0,3E0,4E0,1E0,3.01E2,3.72E2,9E0,4.3E1,4E0,9E0,2E0,2E0,3.6E1,5E0,6E0,2E0,6E0,3E0,1E0,3E0],"tree_param":{"num_deleted":"190","num_feature":"9","num_nodes":"235","size_leaf_vector":"0"}},{"base_weights":[-8.0460316E-4,-1.6873071E-2,1.0280665E-2,-5.6029074E-3,-4.158863E-2,4.357703E-2,-2.3551959E-4,-3.316179E-2,8.909135E-3,-1.5993163E-1,-5.073283E-4,8.095219E-2,1.1834534E-2,5.0306767E-3,-5.9388027E-2,-1.0026972E-2,-8.695948E-2,-2.9246558E-3,7.335047E-2,-1.1894633E-1,-2.5711125E-1,7.577186E-2,-5.1383734E-2,2.809333E-2,1.0831651E-1,3.6557928E-2,-1.9767934E-2,-9.083626E-3,3.4045305E-2,-0E0,-2.1783555E-1,1.607337E-2,-3.8188837E-2,-1.467894E-1,-1.2591982E-2,6.408233E-2,-1.103177E-2,-0E0,8.4587894E-2,-1.24143966E-1,-0E0,8.967056E-3,1.6135809E-1,-2.0191412E-1,2.7685878E-3,8.249678E-2,-1.9727465E-2,1.8028146E-1,5.137449E-2,-0E0,4.170015E-2,1.8644014E-2,-3.427004E-2,-4.4073635E-3,-3.2933655E-1,2.5808534E-1,2.0893747E-2,7.3265575E-2,-5.4263752E-2,-7.704089E-2,-3.3438364E-1,3.852036E-2,-0E0,-5.851098E-3,-7.1158476E-2,-1.8322283E-1,-0E0,-3.159041E-2,1.5214186E-2,9.385306E-2,-0E0,-2.4512207E-2,1.1862102E-2,-0E0,-3.222222E-2,9.541334E-2,7.435683E-3,-1.7256795E-1,-7.093421E-2,-0E0,8.065199E-2,5.4435067E-2,2.0602037E-1,-2.0678227E-1,-0E0,4.2895995E-2,-2.9117238E-2,1.1041266E-1,-0E0,-0E0,-3.474037E-2,1.3836452E-2,2.1199466E-1,6.9878814E-3,9.016784E-2,2.9759025E-2,-9.087935E-2,4.9256023E-2,-0E0,-0E0,5.2539475E-2,-5.8858138E-2,7.886354E-3,1.2353566E-3,-7.911121E-2,-0E0,-4.1579348E-1,-0E0,2.8096148E-1,-1.3854033E-1,2.8729683E-2,-5.547975E-3,1.2484413E-1,-2.3103344E-1,-7.604577E-3,-2.3217392E-1,-0E0,-0E0,-3.6283082E-1,-0E0,8.953008E-2,-2.4121813E-2,2.1251233E-2,2.5071125E-2,-6.721765E-2,-9.92828E-2,-0E0,-1.8742082E-1,-0E0,-3.555503E-2,-0E0,-8.4937684E-2,-0E0,-0E0,1.1368791E-1,3.9863966E-2,-3.4543087E-3,-6.2874965E-2,-0E0,4.6907354E-2,-2.0921474E-2,6.5917835E-2,1.7391692E-1,2.7126884E-2,-0E0,-2.1352565E-1,-4.813026E-3,-0E0,-8.4119976E-2,-3.65476E-2,1.7256552E-2,-0E0,9.9497445E-2,-0E0,9.727251E-2,2.126825E-1,-0E0,-0E0,-2.1328199E-1,-0E0,8.88681E-2,1.809053E-2,-4.6006903E-2,-0E0,1.2463763E-1,7.428537E-2,-9.0913335E-3,-8.876788E-2,-0E0,-0E0,2.2766915E-1,-0E0,2.1825968E-1,4.8084702E-2,-1.5130724E-2,-0E0,-1.04396924E-1,2.6997518E-2,1.3478602E-1,-4.836765E-2,3.0335354E-2,-0E0,6.6970825E-2,-0E0,-7.3590234E-2,7.4905284E-2,-0E0,5.607973E-2,-4.1135647E-3,-2.8826317E-1,-6.786326E-3,-5.4779553E-1,-0E0,2.9159486E-1,-0E0,-0E0,-2.880113E-1,-1.2131954E-2,4.479498E-2,-0E0,-6.1368767E-2,-0E0,1.4590889E-1,-2.4617195E-1,-0E0,1.2794739E-1,-7.714735E-2,-0E0,-2.6526424E-1,3.1621296E-2,-3.888626E-2,1.0987673E-2,-9.073755E-3,1.2514845E-1,-0E0,-4.67603E-2,5.7935715E-3,1.1453908E-1,-0E0,-0E0,2.5400183E-1,-0E0,-2.2401462E-1,-2.899252E-3,-1.4064476E-1,-0E0,-1.911984E-1,-8.289511E-2,-0E0,7.1852304E-2,-0E0,-0E0,1.2337285E-1,-0E0,4.9871445E-2,-0E0,-3.9290283E-2,-0E0,-7.520037E-2,-3.0258568E-2,1.6751066E-2,-0E0,8.6994104E-2,-9.0969674E-2,-0E0,-0E0,7.5190894E-2,1.825502E-1,-0E0,5.2990913E-2,-0E0,-0E0,-5.260346E-2,-0E0,-1.0913544E-1,-7.413064E-2,-0E0,4.5890655E-2,-0E0,1.0791844E-1,-0E0,-2.1992627E-1,-0E0,1.3549938E-2,-1.3855734E-1,-0E0,9.559312E-2,6.718932E-2,-0E0,-7.046603E-2,-0E0,-0E0,1.4046083E-1,-1.1111524E-2,-0E0,3.7936997E-2,-5.345731E-2,-0E0,-1.032114E-1,-0E0,2.2707759E-1,-0E0,9.071473E-2,-0E0,-4.040397E-2,4.5921657E-2,-2.9050699E-2,1.5172054E-1,-0E0,-8.036748E-2,-0E0,-0E0,3.558575E-2,-7.9461545E-2,-0E0,-5.9277344E-2,-0E0,-3.409219E-2,1.2393463E-1,5.139064E-2,-1.1324819E-2,-4.7088286E-1,-4.410858E-2,-1.2011681E-1,4.360949E-2,6.806998E-2,-0E0,-4.11157E-1,-0E0,5.2778114E-2,-5.0065514E-2,-0E0,8.23382E-2,-8.466993E-2,-0E0,2.6343867E-1,4.560352E-2,2.0945027E-1,-0E0,-1.23963945E-1,1.722374E-1,-0E0,6.2472206E-2,-0E0,-7.61698E-2,-0E0,4.747419E-2,-0E0,-2.192963E-2,-0E0,1.34215E-1,-0E0,8.32411E-3,-5.2248932E-2,-0E0,3.2015257E-2,-0E0,1.357643E-1,-0E0,-0E0,-8.072502E-3,-1.9346608E-2,3.8795026E-3,1.120394E-3,-1.1260494E-2,-1.6802598E-2,-0E0,-1.447778E-1,-0E0,-1.0016409E-1,-0E0,1.4435422E-1,-0E0,6.5768875E-2,-0E0,-5.068649E-2,-0E0,6.609716E-3,-0E0,-0E0,-8.275233E-2,-5.005823E-2,9.356005E-3,6.85227E-2,-0E0,5.5374984E-2,-4.829468E-2,1.1360704E-1,-0E0,-0E0,-1.2449206E-1,-2.3478044E-2,3.1136755E-2,8.356608E-2,-0E0,-0E0,1.9034237E-1,5.9569146E-2,-0E0,-2.363665E-2,-0E0,-1.3101947E-1,-0E0,-0E0,-8.463224E-2,7.21289E-2,-0E0,-0E0,-5.093002E-4,-2.2312413E-1,-0E0,6.2003326E-2,-0E0,-0E0,1.0188863E-1,-0E0,1.11063E-1,-1.1157137E-1,-0E0,3.849084E-2,-3.807787E-2,-0E0,-6.5766394E-2,-1.6833058E-1,-0E0,1.20814E-1,-0E0,-0E0,1.8134484E-3,5.9629433E-2,-0E0,-4.66059E-2,-0E0,-1.05789706E-1,-0E0,-3.291329E-2,-1.4119805E-1,-7.357098E-2,-0E0,9.894689E-3,-0E0,-1.2620029E-1,9.4438955E-2,-0E0,1.4604864E-1,9.727783E-2,-0E0,-8.148838E-2,-2.0841598E-3,-0E0,-1.14377975E-1,-1.501155E-1,-0E0,7.1215145E-2,-0E0,1.0877948E-1,-0E0,-4.4977587E-1,-0E0,-0E0,7.87011E-2,-1.2605132E-1,-0E0,-7.18843E-2,2.3956854E-2,-0E0,9.692021E-2,-0E0,1.5362294E-1,-2.831353E-3,2.7470907E-2,-1.6411904E-1,-0E0,-0E0,-9.114202E-2],"categories":[],"categories_nodes":[],"categories_segments":[],"categories_sizes":[],"default_left":[1,1,1,1,1,1,1,1,1,1,1,1,1,1,1,1,1,1,1,1,1,1,1,1,1,1,1,1,1,1,1,1,1,1,1,1,1,1,1,1,1,1,1,1,1,1,1,1,1,1,1,1,1,1,1,1,1,1,1,1,1,1,1,1,1,1,1,1,1,1,1,1,1,1,1,1,1,1,1,1,1,1,1,1,1,1,1,1,1,1,1,1,1,1,1,1,1,1,1,1,1,1,1,1,1,1,1,1,1,1,1,1,1,1,1,1,1,1,1,1,1,1,1,1,1,1,1,1,1,1,1,1,1,1,1,1,1,1,1,1,1,1,1,1,1,1,1,1,1,1,1,1,1,1,1,1,1,1,1,1,1,1,1,1,1,1,1,1,1,1,1,1,1,1,1,1,1,1,1,1,1,1,1,1,1,1,1,1,1,1,1,1,1,1,1,1,1,1,1,1,1,1,1,1,1,1,1,1,1,1,1,1,1,1,1,1,1,1,1,1,1,1,1,1,1,1,1,1,1,1,1,1,1,1,1,1,1,1,1,1,1,1,1,1,1,1,1,1,1,1,1,1,1,1,1,1,1,1,1,1,1,1,1,1,1,1,1,1,1,1,1,1,1,1,1,1,1,1,1,1,1,1,1,1,1,1,1,1,1,1,1,1,1,1,1,1,1,1,1,1,1,1,1,1,1,1,1,1,1,1,1,1,1,1,1,1,1,1,1,1,1,1,1,1,1,1,1,1,1,1,1,1,1,1,1,1,1,1,1,1,1,1,1,1,1,1,1,1,1,1,1,1,1,1,1,1,1,1,1,1,1,1,1,1,1,1,1,1,1,1,1,1,1,1,1,1,1,1,1,1,1,1,1,1,1,1,1,1,1,1,1,1,1,1,1,1,1,1,1,1,1,1,1,1,1,1,1,1,1,1,1,1,1,1,1,1,1,1,1,1,1,1,1,1,1,1,1,1,1,1,1,1,1,1,1,1,1,1,1,1,1,1,1,1,1,1,1,1,1,1,1,1,1,1,1],"id":3,"left_children":[1,3,5,-1,9,-1,13,-1,-1,-1,21,-1,-1,27,-1,-1,-1,-1,-1,-1,-1,-1,43,-1,-1,-1,-1,-1,55,-1,-1,-1,-1,-1,-1,-1,-1,-1,-1,-1,-1,-1,-1,-1,-1,-1,-1,-1,-1,-1,-1,-1,-1,-1,-1,-1,-1,-1,-1,-1,-1,-1,-1,-1,-1,-1,-1,-1,-1,-1,-1,-1,-1,-1,-1,-1,-1,-1,-1,-1,-1,-1,-1,-1,-1,-1,-1,-1,-1,-1,-1,-1,-1,-1,-1,-1,-1,-1,-1,-1,-1,-1,-1,-1,-1,-1,-1,-1,-1,-1,-1,-1,-1,-1,-1,-1,-1,-1,-1,-1,-1,-1,-1,-1,-1,-1,-1,-1,-1,-1,-1,-1,-1,-1,-1,-1,-1,-1,-1,-1,-1,-1,-1,-1,-1,-1,-1,-1,-1,-1,-1,-1,-1,-1,-1,-1,-1,-1,-1,-1,-1,-1,-1,-1,-1,-1,-1,-1,-1,-1,-1,-1,-1,-1,-1,-1,-1,-1,-1,-1,-1,-1,-1,-1,-1,-1,-1,-1,-1,-1,-1,-1,-1,-1,-1,-1,-1,-1,-1,-1,-1,-1,-1,-1,-1,-1,-1,-1,-1,-1,-1,-1,-1,-1,-1,-1,-1,-1,-1,-1,-1,-1,-1,-1,-1,-1,-1,-1,-1,-1,-1,-1,-1,-1,-1,-1,-1,-1,-1,-1,-1,-1,-1,-1,-1,-1,-1,-1,-1,-1,-1,-1,-1,-1,-1,-1,-1,-1,-1,-1,-1,-1,-1,-1,-1,-1,-1,-1,-1,-1,-1,-1,-1,-1,-1,-1,-1,-1,-1,-1,-1,-1,-1,-1,-1,-1,-1,-1,-1,-1,-1,-1,-1,-1,-1,-1,-1,-1,-1,-1,-1,-1,-1,-1,-1,-1,-1,-1,-1,-1,-1,-1,-1,-1,-1,-1,-1,-1,-1,-1,-1,-1,-1,-1,-1,-1,-1,-1,-1,-1,-1,-1,-1,-1,-1,-1,-1,-1,-1,-1,-1,-1,-1,-1,-1,-1,-1,-1,-1,-1,-1,-1,-1,-1,-1,-1,-1,-1,-1,-1,-1,-1,-1,-1,-1,-1,-1,-1,-1,-1,-1,-1,-1,-1,-1,-1,-1,-1,-1,-1,-1,-1,-1,-1,-1,-1,-1,-1,-1,-1,-1,-1,-1,-1,-1,-1,-1,-1,-1,-1,-1,-1,-1,-1,-1,-1,-1,-1,-1,-1,-1,-1,-1,-1,-1,-1,-1,-1,-1,-1,-1,-1,-1,-1,-1,-1,-1,-1,-1,-1,-1,-1,-1,-1,-1,-1,-1,-1,-1,-1,-1,-1,-1,-1,-1,-1,-1,-1,-1,-1,-1,-1,-1,-1,-1],"loss_changes":[5.1557636E-1,3.084567E-1,6.111546E-1,3.4562045E-1,1.6675155E0,4.4606894E-1,4.2247692E-1,3.2382852E-1,4.4292203E-1,1.531527E-1,1.039512E0,1.9569671E-1,1.9041331E-1,4.8665628E-1,9.591377E-1,1.7049956E-1,2.9091018E-1,2.1583861E-1,1.15915775E-1,3.90507E-2,0E0,5.1160014E-1,1.4570886E0,2.1301067E-1,3.487426E-1,4.3965325E-2,6.0217045E-2,9.818002E-1,1.0084128E0,3.2609951E-1,2.490735E-1,4.8193254E-2,8.2296625E-2,1.4172101E-1,3.0351765E-2,5.419247E-2,1.3130698E-1,4.672221E-3,1.7960548E-2,3.832096E-2,0E0,6.977904E-2,6.712055E-2,4.975736E-2,1.6169308E-1,9.222776E-2,1.6920768E-2,1.3106823E-1,6.90576E-2,4.7638815E-2,5.4668754E-2,2.0488376E-2,1.0605025E-1,3.587195E-1,2.6623702E-1,1.6152108E-1,4.1120544E-1,1.9210978E-1,3.0457085E-1,1.5057415E-1,1.3610983E-1,8.938773E-2,2.8489988E-2,1.4620802E-1,9.448792E-2,1.3886094E-2,8.217042E-3,4.032395E-2,0E0,4.034722E-2,1.2031876E-2,2.320217E-1,1.7030966E-1,0E0,0E0,3.064692E-2,4.6067345E-3,8.613622E-2,3.9243683E-2,3.987656E-2,1.9242994E-2,5.0457977E-2,2.8686523E-2,3.3249974E-2,0E0,1.611411E-1,6.261239E-2,1.761952E-2,0E0,1.9768696E-2,2.9529134E-2,1.275729E-1,5.0750136E-2,5.1837433E-2,0E0,0E0,3.6194175E-3,1.4098173E-1,2.8206099E-2,0E0,2.9293317E-3,5.067447E-2,4.635463E-2,2.3130253E-1,7.515471E-1,0E0,3.5380828E-1,0E0,2.7604342E-2,4.2677483E-1,2.5128564E-1,2.0421281E-2,9.144989E-2,8.048713E-4,3.8959506E-1,3.706634E-3,1.5840638E-2,0E0,0E0,3.3010445E-3,1.579398E-2,4.1951846E-2,8.823268E-2,2.6612657E-1,2.5211832E-1,6.556225E-2,0E0,7.066369E-3,0E0,2.9576747E-2,1.2906884E-2,0E0,0E0,0E0,1.662463E-2,4.248026E-3,9.920864E-3,9.0161234E-2,9.056303E-2,1.5991685E-1,1.3357742E-1,1.4777079E-2,8.221388E-3,9.925194E-3,0E0,0E0,1.5022279E-2,0E0,2.1266788E-2,3.180696E-2,1.7837428E-2,0E0,0E0,0E0,1.1290319E-2,0E0,0E0,0E0,2.8473616E-2,1.0953717E-1,2.4521321E-2,1.753305E-2,7.0116E-2,0E0,1.9658595E-2,0E0,1.0100895E-4,0E0,3.9381333E-2,3.7284076E-2,0E0,0E0,3.627801E-2,7.784104E-2,1.1502137E-2,0E0,0E0,1.1357793E-1,4.857284E-2,3.267634E-2,9.833821E-4,0E0,0E0,0E0,2.1944538E-2,0E0,2.6353527E-2,4.7839558E-1,2.3221856E-1,3.3404958E-1,3.0645204E-1,0E0,0E0,0E0,0E0,2.548437E-2,3.9374608E-1,2.2772487E-1,4.1300154E-1,0E0,4.3777972E-3,0E0,9.293264E-2,0E0,0E0,1.2438895E-1,3.5431224E-1,0E0,0E0,9.16014E-3,2.0569047E-2,2.807207E-2,3.1408935E-3,9.028956E-3,4.5039022E-4,1.294449E-3,3.4363733E-3,2.9816777E-3,6.190702E-4,5.3765187E-3,0E0,1.9722844E-3,0E0,1.9955724E-3,3.2224953E-3,0E0,0E0,7.3540173E-3,0E0,0E0,0E0,0E0,2.056712E-2,0E0,3.2984074E-3,0E0,4.095941E-3,4.1503925E-4,3.3509463E-2,7.352924E-2,1.097518E-1,8.381119E-2,9.7824275E-2,6.335305E-2,3.6307506E-2,0E0,3.821814E-2,9.030104E-5,0E0,5.239723E-4,0E0,0E0,0E0,4.7488753E-3,3.907454E-2,1.2010917E-2,0E0,2.310009E-2,3.242334E-6,0E0,0E0,9.013414E-3,0E0,4.410774E-2,0E0,0E0,1.9642979E-2,2.2857646E-2,0E0,1.1129269E-1,2.4980728E-2,0E0,0E0,0E0,0E0,0E0,9.6163545E-3,0E0,3.3553883E-2,0E0,0E0,0E0,6.949429E-2,2.1375869E-5,0E0,6.669371E-2,1.5882647E-2,0E0,0E0,6.652117E-3,0E0,0E0,0E0,3.2754064E-2,0E0,8.828957E-3,4.4057192E-4,3.4740564E-1,1.3173169E-1,1.9398022E-1,3.24775E-1,0E0,3.1196374E-2,7.4261814E-2,5.800819E-2,2.776402E-2,0E0,1.3815284E-2,0E0,6.338268E-2,2.1422367E-1,1.9920829E-1,2.1434933E-1,0E0,0E0,0E0,7.6044664E-2,0E0,1.1680506E-3,1.6807762E-1,0E0,0E0,0E0,0E0,5.4707974E-3,0E0,0E0,0E0,0E0,0E0,0E0,0E0,0E0,0E0,0E0,0E0,0E0,0E0,0E0,0E0,0E0,0E0,0E0,0E0,0E0,0E0,0E0,0E0,0E0,0E0,0E0,0E0,0E0,0E0,0E0,0E0,0E0,0E0,0E0,0E0,0E0,0E0,0E0,0E0,0E0,0E0,0E0,0E0,0E0,0E0,0E0,0E0,0E0,0E0,0E0,0E0,0E0,0E0,0E0,0E0,0E0,0E0,0E0,0E0,0E0,0E0,0E0,0E0,0E0,0E0,0E0,0E0,0E0,0E0,0E0,0E0,0E0,0E0,0E0,0E0,0E0,0E0,0E0,0E0,0E0,0E0,0E0,0E0,0E0,0E0,0E0,0E0,0E0,0E0,0E0,0E0,0E0,0E0,0E0,0E0,0E0,0E0,0E0,0E0,0E0,0E0,0E0,0E0,0E0,0E0,0E0,0E0,0E0,0E0,0E0,0E0,0E0,0E0,0E0,0E0,0E0,0E0,0E0,0E0,0E0,0E0,0E0,0E0,0E0,0E0,0E0,0E0,0E0,0E0,0E0],"parents":[2147483647,0,0,1,1,2,2,3,3,4,4,5,5,6,6,7,7,8,8,9,9,10,10,11,11,12,12,13,13,14,14,15,15,16,16,17,17,18,18,19,19,21,21,22,22,23,23,24,24,25,25,26,26,27,27,28,28,29,29,30,30,31,31,32,32,33,33,34,34,35,35,36,36,37,37,38,38,39,39,41,41,42,42,43,43,44,44,45,45,46,46,47,47,48,48,49,49,50,50,51,51,52,52,53,53,54,54,55,55,56,56,57,57,58,58,59,59,60,60,61,61,62,62,63,63,64,64,65,65,66,66,67,67,69,69,70,70,71,71,72,72,75,75,76,76,77,77,78,78,79,79,80,80,81,81,82,82,83,83,85,85,86,86,87,87,89,89,90,90,91,91,92,92,93,93,96,96,97,97,98,98,100,100,101,101,102,102,103,103,104,104,106,106,108,108,109,109,110,110,111,111,112,112,113,113,114,114,115,115,116,116,119,119,120,120,121,121,122,122,123,123,124,124,125,125,127,127,129,129,130,130,134,134,135,135,136,136,137,137,138,138,139,139,140,140,141,141,142,142,143,143,146,146,148,148,149,149,150,150,154,154,158,158,159,159,160,160,161,161,162,162,164,164,166,166,168,168,169,169,172,172,173,173,174,174,177,177,178,178,179,179,180,180,184,184,186,186,187,187,188,188,189,189,190,190,195,195,196,196,197,197,198,198,200,200,202,202,205,205,206,206,209,209,210,210,211,211,212,212,213,213,214,214,215,215,216,216,217,217,218,218,219,219,221,221,223,223,224,224,227,227,232,232,234,234,236,236,237,237,238,238,239,239,240,240,241,241,242,242,243,243,244,244,246,246,247,247,249,249,253,253,254,254,255,255,257,257,258,258,261,261,263,263,266,266,267,267,269,269,270,270,276,276,278,278,282,282,283,283,285,285,286,286,289,289,293,293,295,295,296,296,297,297,298,298,299,299,300,300,302,302,303,303,304,304,305,305,307,307,309,309,310,310,311,311,312,312,316,316,318,318,319,319,324,324],"right_children":[2,4,6,-1,10,-1,14,-1,-1,-1,22,-1,-1,28,-1,-1,-1,-1,-1,-1,-1,-1,44,-1,-1,-1,-1,-1,56,-1,-1,-1,-1,-1,-1,-1,-1,-1,-1,-1,-1,-1,-1,-1,-1,-1,-1,-1,-1,-1,-1,-1,-1,-1,-1,-1,-1,-1,-1,-1,-1,-1,-1,-1,-1,-1,-1,-1,-1,-1,-1,-1,-1,-1,-1,-1,-1,-1,-1,-1,-1,-1,-1,-1,-1,-1,-1,-1,-1,-1,-1,-1,-1,-1,-1,-1,-1,-1,-1,-1,-1,-1,-1,-1,-1,-1,-1,-1,-1,-1,-1,-1,-1,-1,-1,-1,-1,-1,-1,-1,-1,-1,-1,-1,-1,-1,-1,-1,-1,-1,-1,-1,-1,-1,-1,-1,-1,-1,-1,-1,-1,-1,-1,-1,-1,-1,-1,-1,-1,-1,-1,-1,-1,-1,-1,-1,-1,-1,-1,-1,-1,-1,-1,-1,-1,-1,-1,-1,-1,-1,-1,-1,-1,-1,-1,-1,-1,-1,-1,-1,-1,-1,-1,-1,-1,-1,-1,-1,-1,-1,-1,-1,-1,-1,-1,-1,-1,-1,-1,-1,-1,-1,-1,-1,-1,-1,-1,-1,-1,-1,-1,-1,-1,-1,-1,-1,-1,-1,-1,-1,-1,-1,-1,-1,-1,-1,-1,-1,-1,-1,-1,-1,-1,-1,-1,-1,-1,-1,-1,-1,-1,-1,-1,-1,-1,-1,-1,-1,-1,-1,-1,-1,-1,-1,-1,-1,-1,-1,-1,-1,-1,-1,-1,-1,-1,-1,-1,-1,-1,-1,-1,-1,-1,-1,-1,-1,-1,-1,-1,-1,-1,-1,-1,-1,-1,-1,-1,-1,-1,-1,-1,-1,-1,-1,-1,-1,-1,-1,-1,-1,-1,-1,-1,-1,-1,-1,-1,-1,-1,-1,-1,-1,-1,-1,-1,-1,-1,-1,-1,-1,-1,-1,-1,-1,-1,-1,-1,-1,-1,-1,-1,-1,-1,-1,-1,-1,-1,-1,-1,-1,-1,-1,-1,-1,-1,-1,-1,-1,-1,-1,-1,-1,-1,-1,-1,-1,-1,-1,-1,-1,-1,-1,-1,-1,-1,-1,-1,-1,-1,-1,-1,-1,-1,-1,-1,-1,-1,-1,-1,-1,-1,-1,-1,-1,-1,-1,-1,-1,-1,-1,-1,-1,-1,-1,-1,-1,-1,-1,-1,-1,-1,-1,-1,-1,-1,-1,-1,-1,-1,-1,-1,-1,-1,-1,-1,-1,-1,-1,-1,-1,-1,-1,-1,-1,-1,-1,-1,-1,-1,-1,-1,-1,-1,-1,-1,-1,-1,-1,-1,-1,-1,-1,-1,-1,-1,-1,-1,-1,-1,-1,-1,-1,-1,-1,-1],"split_conditions":[2.0155E3,7.535E0,8.905E0,-5.6029074E-3,7.705E0,4.357703E-2,1.6341667E1,-3.316179E-2,8.909135E-3,-1.5993163E-1,7.9849997E0,8.095219E-2,1.1834534E-2,1.1355E1,-5.9388027E-2,-1.0026972E-2,-8.695948E-2,-2.9246558E-3,7.335047E-2,-1.1894633E-1,-2.5711125E-1,7.577186E-2,8.175E0,2.809333E-2,1.0831651E-1,3.6557928E-2,-1.9767934E-2,-9.083626E-3,1.1325001E1,-0E0,-2.1783555E-1,1.607337E-2,-3.8188837E-2,-1.467894E-1,-1.2591982E-2,6.408233E-2,-1.103177E-2,-0E0,8.4587894E-2,-1.24143966E-1,-0E0,8.967056E-3,1.6135809E-1,-2.0191412E-1,2.7685878E-3,8.249678E-2,-1.9727465E-2,1.8028146E-1,5.137449E-2,-0E0,4.170015E-2,1.8644014E-2,-3.427004E-2,-4.4073635E-3,-3.2933655E-1,2.5808534E-1,2.0893747E-2,7.3265575E-2,-5.4263752E-2,-7.704089E-2,-3.3438364E-1,3.852036E-2,-0E0,-5.851098E-3,-7.1158476E-2,-1.8322283E-1,-0E0,-3.159041E-2,1.5214186E-2,9.385306E-2,-0E0,-2.4512207E-2,1.1862102E-2,-0E0,-3.222222E-2,9.541334E-2,7.435683E-3,-1.7256795E-1,-7.093421E-2,-0E0,8.065199E-2,5.4435067E-2,2.0602037E-1,-2.0678227E-1,-0E0,4.2895995E-2,-2.9117238E-2,1.1041266E-1,-0E0,-0E0,-3.474037E-2,1.3836452E-2,2.1199466E-1,6.9878814E-3,9.016784E-2,2.9759025E-2,-9.087935E-2,4.9256023E-2,-0E0,-0E0,5.2539475E-2,-5.8858138E-2,7.886354E-3,1.2353566E-3,-7.911121E-2,-0E0,-4.1579348E-1,-0E0,2.8096148E-1,-1.3854033E-1,2.8729683E-2,-5.547975E-3,1.2484413E-1,-2.3103344E-1,-7.604577E-3,-2.3217392E-1,-0E0,-0E0,-3.6283082E-1,-0E0,8.953008E-2,-2.4121813E-2,2.1251233E-2,2.5071125E-2,-6.721765E-2,-9.92828E-2,-0E0,-1.8742082E-1,-0E0,-3.555503E-2,-0E0,-8.4937684E-2,-0E0,-0E0,1.1368791E-1,3.9863966E-2,-3.4543087E-3,-6.2874965E-2,-0E0,4.6907354E-2,-2.0921474E-2,6.5917835E-2,1.7391692E-1,2.7126884E-2,-0E0,-2.1352565E-1,-4.813026E-3,-0E0,-8.4119976E-2,-3.65476E-2,1.7256552E-2,-0E0,9.9497445E-2,-0E0,9.727251E-2,2.126825E-1,-0E0,-0E0,-2.1328199E-1,-0E0,8.88681E-2,1.809053E-2,-4.6006903E-2,-0E0,1.2463763E-1,7.428537E-2,-9.0913335E-3,-8.876788E-2,-0E0,-0E0,2.2766915E-1,-0E0,2.1825968E-1,4.8084702E-2,-1.5130724E-2,-0E0,-1.04396924E-1,2.6997518E-2,1.3478602E-1,-4.836765E-2,3.0335354E-2,-0E0,6.6970825E-2,-0E0,-7.3590234E-2,7.4905284E-2,-0E0,5.607973E-2,-4.1135647E-3,-2.8826317E-1,-6.786326E-3,-5.4779553E-1,-0E0,2.9159486E-1,-0E0,-0E0,-2.880113E-1,-1.2131954E-2,4.479498E-2,-0E0,-6.1368767E-2,-0E0,1.4590889E-1,-2.4617195E-1,-0E0,1.2794739E-1,-7.714735E-2,-0E0,-2.6526424E-1,3.1621296E-2,-3.888626E-2,1.0987673E-2,-9.073755E-3,1.2514845E-1,-0E0,-4.67603E-2,5.7935715E-3,1.1453908E-1,-0E0,-0E0,2.5400183E-1,-0E0,-2.2401462E-1,-2.899252E-3,-1.4064476E-1,-0E0,-1.911984E-1,-8.289511E-2,-0E0,7.1852304E-2,-0E0,-0E0,1.2337285E-1,-0E0,4.9871445E-2,-0E0,-3.9290283E-2,-0E0,-7.520037E-2,-3.0258568E-2,1.6751066E-2,-0E0,8.6994104E-2,-9.0969674E-2,-0E0,-0E0,7.5190894E-2,1.825502E-1,-0E0,5.2990913E-2,-0E0,-0E0,-5.260346E-2,-0E0,-1.0913544E-1,-7.413064E-2,-0E0,4.5890655E-2,-0E0,1.0791844E-1,-0E0,-2.1992627E-1,-0E0,1.3549938E-2,-1.3855734E-1,-0E0,9.559312E-2,6.718932E-2,-0E0,-7.046603E-2,-0E0,-0E0,1.4046083E-1,-1.1111524E-2,-0E0,3.7936997E-2,-5.345731E-2,-0E0,-1.032114E-1,-0E0,2.2707759E-1,-0E0,9.071473E-2,-0E0,-4.040397E-2,4.5921657E-2,-2.9050699E-2,1.5172054E-1,-0E0,-8.036748E-2,-0E0,-0E0,3.558575E-2,-7.9461545E-2,-0E0,-5.9277344E-2,-0E0,-3.409219E-2,1.2393463E-1,5.139064E-2,-1.1324819E-2,-4.7088286E-1,-4.410858E-2,-1.2011681E-1,4.360949E-2,6.806998E-2,-0E0,-4.11157E-1,-0E0,5.2778114E-2,-5.0065514E-2,-0E0,8.23382E-2,-8.466993E-2,-0E0,2.6343867E-1,4.560352E-2,2.0945027E-1,-0E0,-1.23963945E-1,1.722374E-1,-0E0,6.2472206E-2,-0E0,-7.61698E-2,-0E0,4.747419E-2,-0E0,-2.192963E-2,-0E0,1.34215E-1,-0E0,8.32411E-3,-5.2248932E-2,-0E0,3.2015257E-2,-0E0,1.357643E-1,-0E0,-0E0,-8.072502E-3,-1.9346608E-2,3.8795026E-3,1.120394E-3,-1.1260494E-2,-1.6802598E-2,-0E0,-1.447778E-1,-0E0,-1.0016409E-1,-0E0,1.4435422E-1,-0E0,6.5768875E-2,-0E0,-5.068649E-2,-0E0,6.609716E-3,-0E0,-0E0,-8.275233E-2,-5.005823E-2,9.356005E-3,6.85227E-2,-0E0,5.5374984E-2,-4.829468E-2,1.1360704E-1,-0E0,-0E0,-1.2449206E-1,-2.3478044E-2,3.1136755E-2,8.356608E-2,-0E0,-0E0,1.9034237E-1,5.9569146E-2,-0E0,-2.363665E-2,-0E0,-1.3101947E-1,-0E0,-0E0,-8.463224E-2,7.21289E-2,-0E0,-0E0,-5.093002E-4,-2.2312413E-1,-0E0,6.2003326E-2,-0E0,-0E0,1.0188863E-1,-0E0,1.11063E-1,-1.1157137E-1,-0E0,3.849084E-2,-3.807787E-2,-0E0,-6.5766394E-2,-1.6833058E-1,-0E0,1.20814E-1,-0E0,-0E0,1.8134484E-3,5.9629433E-2,-0E0,-4.66059E-2,-0E0,-1.05789706E-1,-0E0,-3.291329E-2,-1.4119805E-1,-7.357098E-2,-0E0,9.894689E-3,-0E0,-1.2620029E-1,9.4438955E-2,-0E0,1.4604864E-1,9.727783E-2,-0E0,-8.148838E-2,-2.0841598E-3,-0E0,-1.14377975E-1,-1.501155E-1,-0E0,7.1215145E-2,-0E0,1.0877948E-1,-0E0,-4.4977587E-1,-0E0,-0E0,7.87011E-2,-1.2605132E-1,-0E0,-7.18843E-2,2.3956854E-2,-0E0,9.692021E-2,-0E0,1.5362294E-1,-2.831353E-3,2.7470907E-2,-1.6411904E-1,-0E0,-0E0,-9.114202E-2],"split_indices":[5,6,6,6,6,1,8,2147483647,2147483647,0,6,2147483647,2147483647,6,1,2147483647,2147483647,2147483647,2147483647,2147483647,2147483647,6,6,2147483647,2147483647,2147483647,2147483647,8,8,2147483647,2147483647,2147483647,2147483647,2147483647,2147483647,2147483647,2147483647,2147483647,2147483647,2147483647,2147483647,2147483647,2147483647,8,6,2147483647,2147483647,2147483647,2147483647,2147483647,2147483647,2147483647,2147483647,2147483647,2147483647,5,8,2147483647,2147483647,2147483647,2147483647,2147483647,2147483647,2147483647,2147483647,2147483647,2147483647,2147483647,2147483647,2147483647,2147483647,2147483647,2147483647,2147483647,2147483647,2147483647,2147483647,2147483647,2147483647,2147483647,2147483647,2147483647,2147483647,2147483647,2147483647,2147483647,2147483647,2147483647,2147483647,2147483647,2147483647,2147483647,2147483647,2147483647,2147483647,2147483647,2147483647,2147483647,2147483647,2147483647,2147483647,2147483647,2147483647,2147483647,2147483647,2147483647,2147483647,2147483647,2147483647,2147483647,2147483647,2147483647,2147483647,2147483647,2147483647,2147483647,2147483647,2147483647,2147483647,2147483647,2147483647,2147483647,2147483647,2147483647,2147483647,2147483647,2147483647,2147483647,2147483647,2147483647,2147483647,2147483647,2147483647,2147483647,2147483647,2147483647,2147483647,2147483647,2147483647,2147483647,2147483647,2147483647,2147483647,2147483647,2147483647,2147483647,2147483647,2147483647,2147483647,2147483647,2147483647,2147483647,2147483647,2147483647,2147483647,2147483647,2147483647,2147483647,2147483647,2147483647,2147483647,2147483647,2147483647,2147483647,2147483647,2147483647,2147483647,2147483647,2147483647,2147483647,2147483647,2147483647,2147483647,2147483647,2147483647,2147483647,2147483647,2147483647,2147483647,2147483647,2147483647,2147483647,2147483647,2147483647,2147483647,2147483647,2147483647,2147483647,2147483647,2147483647,2147483647,2147483647,2147483647,2147483647,2147483647,2147483647,2147483647,2147483647,2147483647,2147483647,2147483647,2147483647,2147483647,2147483647,2147483647,2147483647,2147483647,2147483647,2147483647,2147483647,2147483647,2147483647,2147483647,2147483647,2147483647,2147483647,2147483647,2147483647,2147483647,2147483647,2147483647,2147483647,2147483647,2147483647,2147483647,2147483647,2147483647,2147483647,2147483647,2147483647,2147483647,2147483647,2147483647,2147483647,2147483647,2147483647,2147483647,2147483647,2147483647,2147483647,2147483647,2147483647,2147483647,2147483647,2147483647,2147483647,2147483647,2147483647,2147483647,2147483647,2147483647,2147483647,2147483647,2147483647,2147483647,2147483647,2147483647,2147483647,2147483647,2147483647,2147483647,2147483647,2147483647,2147483647,2147483647,2147483647,2147483647,2147483647,2147483647,2147483647,2147483647,2147483647,2147483647,2147483647,2147483647,2147483647,2147483647,2147483647,2147483647,2147483647,2147483647,2147483647,2147483647,2147483647,2147483647,2147483647,2147483647,2147483647,2147483647,2147483647,2147483647,2147483647,2147483647,2147483647,2147483647,2147483647,2147483647,2147483647,2147483647,2147483647,2147483647,2147483647,2147483647,2147483647,2147483647,2147483647,2147483647,2147483647,2147483647,2147483647,2147483647,2147483647,2147483647,2147483647,2147483647,2147483647,2147483647,2147483647,2147483647,2147483647,2147483647,2147483647,2147483647,2147483647,2147483647,2147483647,2147483647,2147483647,2147483647,2147483647,2147483647,2147483647,2147483647,2147483647,2147483647,2147483647,2147483647,2147483647,2147483647,2147483647,2147483647,2147483647,2147483647,2147483647,2147483647,2147483647,2147483647,2147483647,2147483647,2147483647,2147483647,2147483647,2147483647,2147483647,2147483647,2147483647,2147483647,2147483647,2147483647,2147483647,2147483647,2147483647,2147483647,2147483647,2147483647,2147483647,2147483647,2147483647,2147483647,2147483647,2147483647,2147483647,2147483647,2147483647,2147483647,2147483647,2147483647,2147483647,2147483647,2147483647,2147483647,2147483647,2147483647,2147483647,2147483647,2147483647,2147483647,2147483647,2147483647,2147483647,2147483647,2147483647,2147483647,2147483647,2147483647,2147483647,2147483647,2147483647,2147483647,2147483647,2147483647,2147483647,2147483647,2147483647,2147483647,2147483647,2147483647,2147483647,2147483647,2147483647,2147483647,2147483647,2147483647,2147483647,2147483647,2147483647,2147483647,2147483647,2147483647,2147483647,2147483647,2147483647,2147483647,2147483647,2147483647,2147483647,2147483647,2147483647,2147483647,2147483647,2147483647,2147483647,2147483647,2147483647,2147483647,2147483647,2147483647,2147483647,2147483647,2147483647,2147483647,2147483647,2147483647,2147483647,2147483647,2147483647,2147483647,2147483647,2147483647,2147483647,2147483647,2147483647,2147483647,2147483647,2147483647],"split_type":[0,0,0,0,0,0,0,0,0,0,0,0,0,0,0,0,0,0,0,0,0,0,0,0,0,0,0,0,0,0,0,0,0,0,0,0,0,0,0,0,0,0,0,0,0,0,0,0,0,0,0,0,0,0,0,0,0,0,0,0,0,0,0,0,0,0,0,0,0,0,0,0,0,0,0,0,0,0,0,0,0,0,0,0,0,0,0,0,0,0,0,0,0,0,0,0,0,0,0,0,0,0,0,0,0,0,0,0,0,0,0,0,0,0,0,0,0,0,0,0,0,0,0,0,0,0,0,0,0,0,0,0,0,0,0,0,0,0,0,0,0,0,0,0,0,0,0,0,0,0,0,0,0,0,0,0,0,0,0,0,0,0,0,0,0,0,0,0,0,0,0,0,0,0,0,0,0,0,0,0,0,0,0,0,0,0,0,0,0,0,0,0,0,0,0,0,0,0,0,0,0,0,0,0,0,0,0,0,0,0,0,0,0,0,0,0,0,0,0,0,0,0,0,0,0,0,0,0,0,0,0,0,0,0,0,0,0,0,0,0,0,0,0,0,0,0,0,0,0,0,0,0,0,0,0,0,0,0,0,0,0,0,0,0,0,0,0,0,0,0,0,0,0,0,0,0,0,0,0,0,0,0,0,0,0,0,0,0,0,0,0,0,0,0,0,0,0,0,0,0,0,0,0,0,0,0,0,0,0,0,0,0,0,0,0,0,0,0,0,0,0,0,0,0,0,0,0,0,0,0,0,0,0,0,0,0,0,0,0,0,0,0,0,0,0,0,0,0,0,0,0,0,0,0,0,0,0,0,0,0,0,0,0,0,0,0,0,0,0,0,0,0,0,0,0,0,0,0,0,0,0,0,0,0,0,0,0,0,0,0,0,0,0,0,0,0,0,0,0,0,0,0,0,0,0,0,0,0,0,0,0,0,0,0,0,0,0,0,0,0,0,0,0,0,0,0,0,0,0,0,0,0,0,0,0,0,0,0,0,0,0,0,0,0,0,0,0,0,0,0,0,0,0,0,0],"sum_hessian":[2.875E3,1.192E3,1.683E3,8.33E2,3.59E2,4.15E2,1.268E3,2.99E2,5.34E2,8.9E1,2.7E2,1.83E2,2.32E2,1.157E3,1.11E2,2.16E2,8.3E1,4.45E2,8.9E1,6.7E1,2.2E1,1.04E2,1.66E2,6.9E1,1.14E2,1.39E2,9.3E1,7.67E2,3.9E2,8.3E1,2.8E1,1.03E2,1.13E2,4.2E1,4.1E1,4.1E1,4.04E2,6E0,8.3E1,6.4E1,3E0,6.2E1,4.2E1,4.6E1,1.2E2,3.7E1,3.2E1,4.6E1,6.8E1,7E0,1.32E2,1.6E1,7.7E1,7.58E2,9E0,1.9E1,3.71E2,3.2E1,5.1E1,1.5E1,1.3E1,5E1,5.3E1,6.5E1,4.8E1,3.1E1,1.1E1,3.5E1,6E0,2.5E1,1.6E1,2.68E2,1.36E2,2E0,4E0,6.7E1,1.6E1,2.8E1,3.6E1,5.1E1,1.1E1,1.6E1,2.6E1,4.5E1,1E0,6E1,6E1,2.8E1,9E0,8E0,2.4E1,1E1,3.6E1,3.8E1,3E1,2E0,5E0,1.17E2,1.5E1,7E0,9E0,5.6E1,2.1E1,6.99E2,5.9E1,2E0,7E0,1E0,1.8E1,1.4E1,3.57E2,9E0,2.3E1,8E0,4.3E1,4E0,1.1E1,1E0,1.2E1,3E1,2E1,3.1E1,2.2E1,3.8E1,2.7E1,3.4E1,1.4E1,3E1,1E0,6E0,5E0,1E1,2.5E1,5E0,2E1,7E0,9E0,9.9E1,1.69E2,7.3E1,6.3E1,5.4E1,1.3E1,7E0,9E0,2E1,8E0,5E0,3.1E1,2.3E1,2.8E1,2E0,9E0,6E0,1E1,2.5E1,1E0,2E0,4.3E1,2.6E1,3.4E1,8E0,5.2E1,5E0,2.3E1,3E0,5E0,7E0,1.7E1,8E0,2E0,1E0,3.5E1,2.1E1,1.7E1,1E0,4E0,9.8E1,1.9E1,9E0,6E0,3E0,6E0,1.1E1,4.5E1,8E0,1.3E1,7E1,6.29E2,1.3E1,4.6E1,5E0,2E0,1.7E1,1E0,6E0,8E0,9.2E1,2.65E2,4E0,5E0,2E0,2.1E1,7E0,1E0,1.2E1,3.1E1,1E0,3E0,4E0,7E0,1.9E1,1.1E1,1.1E1,9E0,2.7E1,4E0,7E0,1.5E1,3.4E1,4E0,2E1,7E0,1.4E1,2E1,1E0,2.9E1,5E0,1E0,2E0,3E0,2E0,1.8E1,1E0,6E0,3E0,6E0,1.4E1,8.5E1,6.7E1,1.02E2,3.1E1,4.2E1,1.9E1,4.4E1,1E1,4.4E1,1.2E1,1E0,5E0,2E0,3E0,5E0,1.1E1,2E1,1.1E1,1.2E1,1.2E1,1.6E1,9E0,1E0,4.1E1,2E0,2.1E1,5E0,2E0,3.2E1,4E0,4E0,3.6E1,1.6E1,4E0,1.9E1,4E0,1E0,8E0,9E0,5E0,3E0,2E0,3.3E1,6E0,1.5E1,8E0,9E0,8E1,1.8E1,1.7E1,2E0,8E0,1E0,1E0,5E0,4.2E1,3E0,7E0,6E0,2.7E1,4.3E1,6.4E1,5.65E2,6E0,7E0,1.7E1,2.9E1,5E0,1E0,6E0,2E0,2.9E1,6.3E1,1.26E2,1.39E2,3E0,2E0,7E0,1.4E1,7E0,5E0,2.8E1,3E0,1E0,3E0,2E0,5E0,6E0,1.3E1,3E0,8E0,1E0,1E1,3E0,6E0,2.2E1,5E0,3E0,1E0,5E0,2E0,6E0,9E0,1.3E1,2.1E1,5E0,1.5E1,7E0,7E0,1.9E1,1E0,4E0,1E0,1.4E1,4E0,4E0,2E0,5E0,1E0,9E0,5E0,1E1,7.5E1,5.3E1,1.4E1,2.9E1,7.3E1,1.2E1,1.9E1,3.2E1,1E1,5E0,1.4E1,1.7E1,2.7E1,4.1E1,3E0,1E0,1.1E1,4E0,1E0,8E0,3E0,1.6E1,4E0,1E0,1E1,9E0,3E0,4E0,1.2E1,4E1,1E0,1.2E1,9E0,2E0,3E1,1E0,3E0,2.3E1,1.3E1,1E1,6E0,1E0,8E0,2E0,1E0,1.3E1,2E0,2E0,6E0,6.6E1,1.4E1,1.4E1,4E0,5E0,3E0,2.9E1,1.3E1,6E0,1E0,4E0,2E0,1.8E1,9E0,6E0,3.7E1,3.8E1,2.6E1,5.9E1,5.06E2,4E0,3E0,1.4E1,3E0,2.2E1,7E0,4E0,1E0,5E0,1E0,6E0,2.3E1,2.3E1,4E1,2.7E1,9.9E1,1.6E1,1.23E2,1E1,4E0,4E0,1E0,2.2E1,6E0,1E0,4E0],"tree_param":{"num_deleted":"436","num_feature":"9","num_nodes":"455","size_leaf_vector":"0"}},{"base_weights":[-1.3655428E-3,-2.1450948E-3,2.6799744E-1,-8.8681444E-4,-1.0030214E-1,3.1181577E-1,-0E0,-2.3726323E-3,1.2899366E-1,-1.9417937E-1,-2.080266E-2,-1.8632859E-3,-2.1058443E-1,1.8501163E-1,-0E0,-0E0,-2.0511372E-1,5.8695655E-2,-1.4692943E-1,-2.351448E-3,3.4944916E-1,-0E0,-2.93778E-1,-0E0,2.7388355E-1,-0E0,-6.806346E-2,7.533405E-2,-0E0,-0E0,-2.8752345E-1,-1.8773576E-2,2.450595E-4,-0E0,5.7650976E-2,-0E0,3.109776E-1,-0E0,3.2474518E-2,-0E0,-3.4852812E-1,-4.5365184E-3,-7.191112E-2,7.583451E-2,-1.7850877E-3,-0E0,3.4790078E-1,2.60271E-2,-2.089781E-2,-1.3318673E-1,-5.233697E-3,9.5037386E-2,1.4947242E-2,4.67316E-3,-1.2337536E-2,3.934665E-1,-0E0,-0E0,3.6613178E-2,-0E0,-5.1772796E-2,-1.7922907E-1,-0E0,-2.2967875E-2,1.2390328E-2,-0E0,1.11679934E-1,3.7071448E-2,-0E0,6.963178E-5,4.9482595E-2,-2.3090666E-2,2.6451793E-2],"categories":[],"categories_nodes":[],"categories_segments":[],"categories_sizes":[],"default_left":[1,1,1,1,1,1,1,1,1,1,1,1,1,1,1,1,1,1,1,1,1,1,1,1,1,1,1,1,1,1,1,1,1,1,1,1,1,1,1,1,1,1,1,1,1,1,1,1,1,1,1,1,1,1,1,1,1,1,1,1,1,1,1,1,1,1,1,1,1,1,1,1,1],"id":4,"left_children":[-1,-1,-1,-1,-1,-1,-1,-1,-1,-1,-1,-1,-1,-1,-1,-1,-1,-1,-1,-1,-1,-1,-1,-1,-1,-1,-1,-1,-1,-1,-1,-1,-1,-1,-1,-1,-1,-1,-1,-1,-1,-1,-1,-1,-1,-1,-1,-1,-1,-1,-1,-1,-1,-1,-1,-1,-1,-1,-1,-1,-1,-1,-1,-1,-1,-1,-1,-1,-1,-1,-1,-1,-1],"loss_changes":[4.747355E-1,3.0586997E-1,6.791282E-2,4.8789328E-1,1.2557977E-1,0E0,0E0,1.9344176E-1,2.9593745E-1,8.137524E-3,2.539797E-1,3.1108502E-1,1.02513224E-1,2.4250525E-1,1.6214224E-2,0E0,0E0,1.7740186E-2,2.2800682E-1,1.2957582E-1,0E0,0E0,0E0,1.1632723E-2,9.946668E-2,2.6364857E-3,0E0,0E0,0E0,0E0,9.193984E-2,2.7292204E-1,4.0700224E-1,0E0,0E0,0E0,3.770089E-2,0E0,0E0,0E0,0E0,1.6397734E-1,2.5525433E-1,2.5557518E-2,1.63435E-1,0E0,1.6610289E-1,3.108339E-2,1.593073E-1,1.5393656E-1,1.8714337E-2,2.2777617E-2,1.879974E-2,2.688639E-1,3.8173738E-1,0E0,0E0,0E0,0E0,0E0,0E0,0E0,0E0,0E0,0E0,0E0,0E0,0E0,0E0,0E0,0E0,0E0,0E0],"parents":[2147483647,0,0,1,1,2,2,3,3,4,4,7,7,8,8,9,9,10,10,11,11,12,12,13,13,14,14,17,17,18,18,19,19,23,23,24,24,25,25,30,30,31,31,32,32,36,36,41,41,42,42,43,43,44,44,46,46,47,47,48,48,49,49,50,50,51,51,52,52,53,53,54,54],"right_children":[-1,-1,-1,-1,-1,-1,-1,-1,-1,-1,-1,-1,-1,-1,-1,-1,-1,-1,-1,-1,-1,-1,-1,-1,-1,-1,-1,-1,-1,-1,-1,-1,-1,-1,-1,-1,-1,-1,-1,-1,-1,-1,-1,-1,-1,-1,-1,-1,-1,-1,-1,-1,-1,-1,-1,-1,-1,-1,-1,-1,-1,-1,-1,-1,-1,-1,-1,-1,-1,-1,-1,-1,-1],"split_conditions":[-1.3655428E-3,-2.1450948E-3,2.6799744E-1,-8.8681444E-4,-1.0030214E-1,3.1181577E-1,-0E0,-2.3726323E-3,1.2899366E-1,-1.9417937E-1,-2.080266E-2,-1.8632859E-3,-2.1058443E-1,1.8501163E-1,-0E0,-0E0,-2.0511372E-1,5.8695655E-2,-1.4692943E-1,-2.351448E-3,3.4944916E-1,-0E0,-2.93778E-1,-0E0,2.7388355E-1,-0E0,-6.806346E-2,7.533405E-2,-0E0,-0E0,-2.8752345E-1,-1.8773576E-2,2.450595E-4,-0E0,5.7650976E-2,-0E0,3.109776E-1,-0E0,3.2474518E-2,-0E0,-3.4852812E-1,-4.5365184E-3,-7.191112E-2,7.583451E-2,-1.7850877E-3,-0E0,3.4790078E-1,2.60271E-2,-2.089781E-2,-1.3318673E-1,-5.233697E-3,9.5037386E-2,1.4947242E-2,4.67316E-3,-1.2337536E-2,3.934665E-1,-0E0,-0E0,3.6613178E-2,-0E0,-5.1772796E-2,-1.7922907E-1,-0E0,-2.2967875E-2,1.2390328E-2,-0E0,1.11679934E-1,3.7071448E-2,-0E0,6.963178E-5,4.9482595E-2,-2.3090666E-2,2.6451793E-2],"split_indices":[6,2147483647,2147483647,2147483647,2147483647,2147483647,2147483647,2147483647,2147483647,2147483647,2147483647,2147483647,2147483647,2147483647,2147483647,2147483647,2147483647,2147483647,2147483647,2147483647,2147483647,2147483647,2147483647,2147483647,2147483647,2147483647,2147483647,2147483647,2147483647,2147483647,2147483647,2147483647,2147483647,2147483647,2147483647,2147483647,2147483647,2147483647,2147483647,2147483647,2147483647,2147483647,2147483647,2147483647,2147483647,2147483647,2147483647,2147483647,2147483647,2147483647,2147483647,2147483647,2147483647,2147483647,2147483647,2147483647,2147483647,2147483647,2147483647,2147483647,2147483647,2147483647,2147483647,2147483647,2147483647,2147483647,2147483647,2147483647,2147483647,2147483647,2147483647,2147483647,2147483647],"split_type":[0,0,0,0,0,0,0,0,0,0,0,0,0,0,0,0,0,0,0,0,0,0,0,0,0,0,0,0,0,0,0,0,0,0,0,0,0,0,0,0,0,0,0,0,0,0,0,0,0,0,0,0,0,0,0,0,0,0,0,0,0,0,0,0,0,0,0,0,0,0,0,0,0],"sum_hessian":[2.892E3,2.886E3,6E0,2.855E3,3.1E1,5E0,1E0,2.827E3,2.8E1,1.1E1,2E1,2.823E3,4E0,2.2E1,6E0,1E0,1E1,1E1,1E1,2.821E3,2E0,1E0,3E0,9E0,1.3E1,3E0,3E0,9E0,1E0,5E0,5E0,4.11E2,2.41E3,6E0,3E0,2E0,1.1E1,1E0,2E0,1E0,4E0,3.32E2,7.9E1,6.9E1,2.341E3,2E0,9E0,1.05E2,2.27E2,3.7E1,4.2E1,4.6E1,2.3E1,1.423E3,9.18E2,8E0,1E0,2.9E1,7.6E1,1.31E2,9.6E1,2.5E1,1.2E1,3.5E1,7E0,1.1E1,3.5E1,1.7E1,6E0,1.301E3,1.22E2,7.29E2,1.89E2],"tree_param":{"num_deleted":"72","num_feature":"9","num_nodes":"73","size_leaf_vector":"0"}},{"base_weights":[1.8115838E-3,1.1933601E-3,2.330572E-1,2.7689745E-3,-1.1373708E-1,2.7854496E-1,-0E0,1.2637676E-3,1.6856918E-1,-2.3226178E-1,-0E0,-2.209995E-2,5.2151484E-3,2.7703372E-1,-4.2807654E-2,-0E0,-2.7393472E-1,1.3075921E-2,-1.1701075E-1,-7.913423E-3,-7.794851E-2,8.9219E-2,2.4852233E-3,3.4115426E-2,3.6660057E-1,-0E0,-1.4689255E-1,-0E0,-3.1648377E-1,-0E0,4.9259186E-2,-0E0,-2.0426014E-1,3.0835463E-2,-2.6261147E-2,-1.15177706E-1,-6.042917E-3,-0E0,1.0313194E-1,1.762816E-2,-1.3142894E-3,7.99623E-2,-0E0,-1.9043274E-1,-0E0,-0E0,-7.1144104E-3,6.889419E-2,-0E0,2.4600073E-3,5.5592727E-2,6.35477E-2,-3.9663572E-2,-1.5217164E-1,-0E0,-4.7887422E-2,-0E0,-0E0,1.0690229E-1,5.931138E-2,1.0156267E-2,-3.011654E-2,3.9288695E-3,1.0618549E-1,-0E0,-0E0,-2.6860373E-2,2.1540707E-2,-8.835738E-3,-0E0,7.404923E-2,-0E0,1.7527576E-1,-1.1688312E-1,-2.7017793E-2,-1.558192E-1,-0E0,-2.9122572E-2,-0E0,-6.7783654E-2,-0E0,1.060673E-2,-0E0,1.080022E-1,-0E0,1.4055746E-2,1.1861813E-1,-2.4068711E-2,2.2797128E-2,-3.433903E-2,5.8134753E-2,2.4527807E-2,-9.093836E-3,-0E0,4.885087E-2,-0E0,-1.306739E-2,1.069189E-2,-0E0,-0E0,7.562927E-2,-0E0,-3.52993E-2,6.376998E-3,-4.4322286E-2,-0E0,-1.5897578E-1,-7.656011E-2,-0E0,7.7427104E-2,-0E0,-0E0,-8.604563E-2,-0E0,2.083679E-2,4.2567763E-2,-7.0208326E-2,1.553361E-1,-0E0,-0E0,-1.3041428E-1,4.609232E-3,8.662775E-2,-1.2809895E-2,-5.932288E-2,8.938077E-2,-0E0,4.897356E-2,4.0246705E-3,5.3634632E-2,-1.6039837E-2],"categories":[],"categories_nodes":[],"categories_segments":[],"categories_sizes":[],"default_left":[1,1,1,1,1,1,1,1,1,1,1,1,1,1,1,1,1,1,1,1,1,1,1,1,1,1,1,1,1,1,1,1,1,1,1,1,1,1,1,1,1,1,1,1,1,1,1,1,1,1,1,1,1,1,1,1,1,1,1,1,1,1,1,1,1,1,1,1,1,1,1,1,1,1,1,1,1,1,1,1,1,1,1,1,1,1,1,1,1,1,1,1,1,1,1,1,1,1,1,1,1,1,1,1,1,1,1,1,1,1,1,1,1,1,1,1,1,1,1,1,1,1,1,1,1,1,1,1,1,1,1],"id":5,"left_children":[-1,-1,-1,-1,-1,-1,-1,-1,-1,-1,-1,-1,-1,-1,-1,-1,-1,-1,-1,-1,-1,-1,-1,-1,-1,-1,-1,-1,-1,-1,-1,-1,-1,-1,-1,-1,-1,-1,-1,-1,-1,-1,-1,-1,-1,-1,-1,-1,-1,-1,-1,-1,-1,-1,-1,-1,-1,-1,-1,-1,-1,-1,-1,-1,-1,-1,-1,-1,-1,-1,-1,-1,-1,-1,-1,-1,-1,-1,-1,-1,-1,-1,-1,-1,-1,-1,-1,-1,-1,-1,-1,-1,-1,-1,-1,-1,-1,-1,-1,-1,-1,-1,-1,-1,-1,-1,-1,-1,-1,-1,-1,-1,-1,-1,-1,-1,-1,-1,-1,-1,-1,-1,-1,-1,-1,-1,-1,-1,-1,-1,-1],"loss_changes":[2.933927E-1,4.6393767E-1,5.0406694E-2,6.221155E-1,3.8985953E-1,0E0,0E0,2.5116998E-1,6.3889766E-1,2.519276E-1,6.426201E-2,2.6456797E-1,5.0980437E-1,1.5238631E-1,6.360976E-2,0E0,1.6394126E-1,1.7974786E-2,8.441589E-2,2.238456E-1,1.3044631E-1,1.1421639E-1,1.4357896E-1,2.7601726E-2,0E0,0E0,1.5140593E-2,0E0,0E0,2.2776675E-4,1.4973104E-2,0E0,0E0,3.6588855E-2,2.59539E-1,1.1930716E-1,2.7587816E-2,0E0,2.7429521E-2,1.2022407E-1,2.933609E-1,1.5572283E-2,0E0,0E0,0E0,0E0,2.297412E-3,0E0,0E0,1.7978542E-2,9.173259E-3,2.5435972E-1,1.2225911E-1,8.861184E-3,5.512808E-3,1.49838645E-2,1.5187869E-3,0E0,2.8726459E-3,1.0862911E-1,1.8718506E-1,1.010786E-1,4.2509744E-1,0E0,0E0,0E0,0E0,3.9144505E-2,1.4512555E-3,1.543273E-3,7.44313E-5,5.6071826E-3,0E0,0E0,1.2226553E-1,3.0463934E-3,0E0,2.6725166E-2,1.498739E-2,4.4761E-3,0E0,3.4741885E-3,0E0,0E0,0E0,8.978192E-2,1.15740985E-1,3.0397373E-1,3.3439127E-1,1.2088373E-1,3.1189898E-2,2.829024E-1,3.9054847E-1,0E0,0E0,0E0,0E0,0E0,0E0,0E0,0E0,0E0,0E0,0E0,0E0,0E0,0E0,0E0,0E0,0E0,0E0,0E0,0E0,0E0,0E0,0E0,0E0,0E0,0E0,0E0,0E0,0E0,0E0,0E0,0E0,0E0,0E0,0E0,0E0,0E0,0E0],"parents":[2147483647,0,0,1,1,2,2,3,3,4,4,7,7,8,8,9,9,10,10,11,11,12,12,13,13,14,14,16,16,17,17,18,18,19,19,20,20,21,21,22,22,23,23,26,26,29,29,30,30,33,33,34,34,35,35,36,36,38,38,39,39,40,40,41,41,46,46,49,49,50,50,51,51,52,52,53,53,54,54,55,55,56,56,58,58,59,59,60,60,61,61,62,62,67,67,68,68,69,69,70,70,71,71,74,74,75,75,77,77,78,78,79,79,81,81,85,85,86,86,87,87,88,88,89,89,90,90,91,91,92,92],"right_children":[-1,-1,-1,-1,-1,-1,-1,-1,-1,-1,-1,-1,-1,-1,-1,-1,-1,-1,-1,-1,-1,-1,-1,-1,-1,-1,-1,-1,-1,-1,-1,-1,-1,-1,-1,-1,-1,-1,-1,-1,-1,-1,-1,-1,-1,-1,-1,-1,-1,-1,-1,-1,-1,-1,-1,-1,-1,-1,-1,-1,-1,-1,-1,-1,-1,-1,-1,-1,-1,-1,-1,-1,-1,-1,-1,-1,-1,-1,-1,-1,-1,-1,-1,-1,-1,-1,-1,-1,-1,-1,-1,-1,-1,-1,-1,-1,-1,-1,-1,-1,-1,-1,-1,-1,-1,-1,-1,-1,-1,-1,-1,-1,-1,-1,-1,-1,-1,-1,-1,-1,-1,-1,-1,-1,-1,-1,-1,-1,-1,-1,-1],"split_conditions":[1.8115838E-3,1.1933601E-3,2.330572E-1,2.7689745E-3,-1.1373708E-1,2.7854496E-1,-0E0,1.2637676E-3,1.6856918E-1,-2.3226178E-1,-0E0,-2.209995E-2,5.2151484E-3,2.7703372E-1,-4.2807654E-2,-0E0,-2.7393472E-1,1.3075921E-2,-1.1701075E-1,-7.913423E-3,-7.794851E-2,8.9219E-2,2.4852233E-3,3.4115426E-2,3.6660057E-1,-0E0,-1.4689255E-1,-0E0,-3.1648377E-1,-0E0,4.9259186E-2,-0E0,-2.0426014E-1,3.0835463E-2,-2.6261147E-2,-1.15177706E-1,-6.042917E-3,-0E0,1.0313194E-1,1.762816E-2,-1.3142894E-3,7.99623E-2,-0E0,-1.9043274E-1,-0E0,-0E0,-7.1144104E-3,6.889419E-2,-0E0,2.4600073E-3,5.5592727E-2,6.35477E-2,-3.9663572E-2,-1.5217164E-1,-0E0,-4.7887422E-2,-0E0,-0E0,1.0690229E-1,5.931138E-2,1.0156267E-2,-3.011654E-2,3.9288695E-3,1.0618549E-1,-0E0,-0E0,-2.6860373E-2,2.1540707E-2,-8.835738E-3,-0E0,7.404923E-2,-0E0,1.7527576E-1,-1.1688312E-1,-2.7017793E-2,-1.558192E-1,-0E0,-2.9122572E-2,-0E0,-6.7783654E-2,-0E0,1.060673E-2,-0E0,1.080022E-1,-0E0,1.4055746E-2,1.1861813E-1,-2.4068711E-2,2.2797128E-2,-3.433903E-2,5.8134753E-2,2.4527807E-2,-9.093836E-3,-0E0,4.885087E-2,-0E0,-1.306739E-2,1.069189E-2,-0E0,-0E0,7.562927E-2,-0E0,-3.52993E-2,6.376998E-3,-4.4322286E-2,-0E0,-1.5897578E-1,-7.656011E-2,-0E0,7.7427104E-2,-0E0,-0E0,-8.604563E-2,-0E0,2.083679E-2,4.2567763E-2,-7.0208326E-2,1.553361E-1,-0E0,-0E0,-1.3041428E-1,4.609232E-3,8.662775E-2,-1.2809895E-2,-5.932288E-2,8.938077E-2,-0E0,4.897356E-2,4.0246705E-3,5.3634632E-2,-1.6039837E-2],"split_indices":[6,2147483647,2147483647,2147483647,2147483647,2147483647,2147483647,2147483647,2147483647,2147483647,2147483647,2147483647,2147483647,2147483647,2147483647,2147483647,2147483647,2147483647,2147483647,2147483647,2147483647,2147483647,2147483647,2147483647,2147483647,2147483647,2147483647,2147483647,2147483647,2147483647,2147483647,2147483647,2147483647,2147483647,2147483647,2147483647,2147483647,2147483647,2147483647,2147483647,2147483647,2147483647,2147483647,2147483647,2147483647,2147483647,2147483647,2147483647,2147483647,2147483647,2147483647,2147483647,2147483647,2147483647,2147483647,2147483647,2147483647,2147483647,2147483647,2147483647,2147483647,2147483647,2147483647,2147483647,2147483647,2147483647,2147483647,2147483647,2147483647,2147483647,2147483647,2147483647,2147483647,2147483647,2147483647,2147483647,2147483647,2147483647,2147483647,2147483647,2147483647,2147483647,2147483647,2147483647,2147483647,2147483647,2147483647,2147483647,2147483647,2147483647,2147483647,2147483647,2147483647,2147483647,2147483647,2147483647,2147483647,2147483647,2147483647,2147483647,2147483647,2147483647,2147483647,2147483647,2147483647,2147483647,2147483647,2147483647,2147483647,2147483647,2147483647,2147483647,2147483647,2147483647,2147483647,2147483647,2147483647,2147483647,2147483647,2147483647,2147483647,2147483647,2147483647,2147483647,2147483647,2147483647,2147483647,2147483647,2147483647,2147483647,2147483647],"split_type":[0,0,0,0,0,0,0,0,0,0,0,0,0,0,0,0,0,0,0,0,0,0,0,0,0,0,0,0,0,0,0,0,0,0,0,0,0,0,0,0,0,0,0,0,0,0,0,0,0,0,0,0,0,0,0,0,0,0,0,0,0,0,0,0,0,0,0,0,0,0,0,0,0,0,0,0,0,0,0,0,0,0,0,0,0,0,0,0,0,0,0,0,0,0,0,0,0,0,0,0,0,0,0,0,0,0,0,0,0,0,0,0,0,0,0,0,0,0,0,0,0,0,0,0,0,0,0,0,0,0,0],"sum_hessian":[2.872E3,2.867E3,5E0,2.833E3,3.4E1,4E0,1E0,2.811E3,2.2E1,1.5E1,1.9E1,3.88E2,2.423E3,1.6E1,6E0,1E0,1.4E1,1.5E1,4E0,3.17E2,7.1E1,7E1,2.353E3,6E0,1E1,3E0,3E0,2E0,1.2E1,7E0,8E0,1E0,3E0,9.3E1,2.24E2,4.2E1,2.9E1,7E0,6.3E1,4.98E2,1.855E3,5E0,1E0,2E0,1E0,3E0,4E0,7E0,1E0,5.3E1,4E1,2.4E1,2E2,2.9E1,1.3E1,1.2E1,1.7E1,2E0,6.1E1,6.5E1,4.33E2,3E2,1.555E3,4E0,1E0,1E0,3E0,3.6E1,1.7E1,1.6E1,2.4E1,1.3E1,1.1E1,2.2E1,1.78E2,2.8E1,1E0,6E0,7E0,9E0,3E0,1.3E1,4E0,6E1,1E0,4.2E1,2.3E1,1.06E2,3.27E2,2.92E2,8E0,6.17E2,9.38E2,1.3E1,2.3E1,1E0,1.6E1,1.3E1,3E0,1E0,2.3E1,9E0,4E0,5.1E1,1.27E2,1E0,2.7E1,5E0,1E0,2E0,5E0,3E0,6E0,2E0,1.1E1,3.6E1,6E0,1.8E1,5E0,8.5E1,2.1E1,2.61E2,6.6E1,1.68E2,1.24E2,7E0,1E0,2.7E2,3.47E2,8.6E1,8.52E2],"tree_param":{"num_deleted":"130","num_feature":"9","num_nodes":"131","size_leaf_vector":"0"}},{"base_weights":[4.958734E-4,-2.9780306E-2,5.7115196E-3,-1.676232E-2,-6.0446616E-2,8.216857E-2,3.4391652E-3,1.259864E-2,-3.0085817E-2,-1.3444594E-1,-2.2573052E-2,-0E0,9.781068E-2,2.7637947E-3,2.5026745E-1,-4.9737925E-3,1.4979742E-1,-2.8412265E-1,-1.3363353E-2,-1.4584352E-1,-0E0,9.524464E-2,-5.2518617E-2,3.1974282E-2,-0E0,-0E0,1.0622688E-1,4.816653E-3,-1.1922863E-1,4.5815248E-2,-3.287885E-2,-0E0,1.9682966E-1,-0E0,-5.406049E-2,-0E0,-1.4941616E-1,1.5383027E-1,-0E0,-6.0850877E-2,-0E0,5.8156792E-2,-0E0,-0E0,-2.0025166E-2,-0E0,1.14560954E-1,2.584364E-3,1.6925691E-1,7.158661E-2,-1.533283E-1,-8.593559E-3,1.6915464E-1,-1.1308077E-1,3.6351863E-4,-8.334554E-3,7.2879955E-2,-6.847965E-2,-0E0,-2.1947682E-2,-1.5267828E-1,-0E0,1.1946642E-1,-4.082763E-2,5.2462257E-3,2.6066957E-2,2.562528E-1,-2.7742308E-1,-4.9530774E-2,-0E0,-1.7495707E-2,3.329654E-2,-2.446856E-4,5.987139E-2,-1.9898742E-2,9.756207E-2,-0E0,-7.584884E-2,-0E0,-3.3978973E-2,-0E0,-2.0953162E-1,-0E0,-0E0,1.2654811E-1,-0E0,-6.251099E-2,1.0183315E-2,-8.799472E-3,9.171757E-2,-4.313999E-3,3.0012047E-1,-0E0,-3.3035177E-1,-0E0,1.25363665E-2,-1.1921508E-1,-0E0,5.845626E-2,-1.1220031E-2,-0E0,8.152257E-2,-0E0,-0E0,-3.917684E-2,-0E0,1.08954705E-1,-9.0821035E-2,-0E0,-6.195888E-2,-0E0,-2.7186077E-3,3.3701237E-2,-1.2997708E-2,-8.587224E-2,8.537104E-3,4.1236115E-1,-7.709904E-1,-5.7789655E-3,-0E0,1.0837308E-1,-0E0,-1.9882966E-2,-0E0,3.6677969E-1,-0E0,4.1149434E-2,-0E0,-1.5835154E-1,-0E0,7.237608E-2,-2.5205249E-2,-0E0,1.5426083E-2,-1.6201591E-2,-0E0,-4.6259955E-2,1.1629993E-1,-0E0,-0E0,-9.2667066E-2,-7.571628E-2,-0E0,-0E0,-4.156227E-3,-0E0,-2.598392E-2,4.812968E-2,-0E0,-5.4777615E-2,7.9965785E-2,-9.651032E-2,-0E0,1.375028E-2,-1.3242136E-2,5.465389E-1,-0E0,-3.8151257E-2,2.4657372E-2,-1.9094804E-1,-0E0],"categories":[],"categories_nodes":[],"categories_segments":[],"categories_sizes":[],"default_left":[1,1,1,1,1,1,1,1,1,1,1,1,1,1,1,1,1,1,1,1,1,1,1,1,1,1,1,1,1,1,1,1,1,1,1,1,1,1,1,1,1,1,1,1,1,1,1,1,1,1,1,1,1,1,1,1,1,1,1,1,1,1,1,1,1,1,1,1,1,1,1,1,1,1,1,1,1,1,1,1,1,1,1,1,1,1,1,1,1,1,1,1,1,1,1,1,1,1,1,1,1,1,1,1,1,1,1,1,1,1,1,1,1,1,1,1,1,1,1,1,1,1,1,1,1,1,1,1,1,1,1,1,1,1,1,1,1,1,1,1,1,1,1,1,1,1,1,1,1,1,1,1,1,1,1,1,1,1,1,1,1],"id":6,"left_children":[-1,-1,-1,-1,-1,-1,-1,-1,-1,-1,-1,-1,-1,-1,-1,-1,-1,-1,-1,-1,-1,-1,-1,-1,-1,-1,-1,-1,-1,-1,-1,-1,-1,-1,-1,-1,-1,-1,-1,-1,-1,-1,-1,-1,-1,-1,-1,-1,-1,-1,-1,-1,-1,-1,-1,-1,-1,-1,-1,-1,-1,-1,-1,-1,-1,-1,-1,-1,-1,-1,-1,-1,-1,-1,-1,-1,-1,-1,-1,-1,-1,-1,-1,-1,-1,-1,-1,-1,-1,-1,-1,-1,-1,-1,-1,-1,-1,-1,-1,-1,-1,-1,-1,-1,-1,-1,-1,-1,-1,-1,-1,-1,-1,-1,-1,-1,-1,-1,-1,-1,-1,-1,-1,-1,-1,-1,-1,-1,-1,-1,-1,-1,-1,-1,-1,-1,-1,-1,-1,-1,-1,-1,-1,-1,-1,-1,-1,-1,-1,-1,-1,-1,-1,-1,-1,-1,-1,-1,-1,-1,-1],"loss_changes":[4.3990967E-1,1.2316927E-1,3.836673E-1,1.2531233E-1,2.2685972E-1,4.764691E-2,2.7180284E-1,2.6927403E-1,7.690769E-1,4.0014327E-2,2.5456715E-1,7.667661E-3,4.158309E-2,5.4099035E-1,0E0,9.278531E-2,4.881543E-2,0E0,1.1965768E-1,8.793056E-3,0E0,1.675637E-2,3.595306E-2,1.0934509E-2,2.2055402E-3,0E0,3.3066094E-2,7.77412E-1,2.773481E-1,2.0515624E-1,1.9368342E-1,0E0,0E0,1.0236351E-1,3.8257003E-2,0E0,0E0,0E0,0E0,1.1999573E-1,0E0,0E0,0E0,0E0,0E0,0E0,5.973816E-3,2.5092798E-1,2.1052295E-1,0E0,2.482763E-1,2.1325308E-3,0E0,0E0,1.7180976E-2,8.748448E-2,2.6028417E-2,3.838566E-2,0E0,2.0224435E-2,5.8485866E-2,0E0,2.077365E-2,1.3605548E-1,1.5339941E-1,7.082575E-2,1.9816077E-1,7.471222E-2,1.4275128E-1,0E0,0E0,1.8695692E-2,1.6984551E-3,2.8036308E-2,5.3560764E-2,5.667381E-3,0E0,4.3325067E-2,0E0,2.887788E-2,0E0,0E0,0E0,0E0,0E0,1.663501E-2,5.1217556E-2,8.8384616E-1,8.675411E-1,1.9915089E-2,9.045832E-4,1.9656122E-1,0E0,0E0,0E0,9.82759E-3,7.1424514E-2,0E0,8.6456165E-3,4.971195E-3,0E0,0E0,0E0,1.411582E-2,2.3123167E-2,0E0,3.84707E-3,2.7600825E-3,0E0,1.2108147E-2,2.159278E-4,1.1649078E-2,1.4803579E-2,1.2747829E-1,2.7346551E-2,1.8774122E-1,4.0894204E-1,0E0,5.446952E-1,0E0,0E0,0E0,0E0,0E0,0E0,0E0,0E0,0E0,4.6630114E-2,0E0,0E0,0E0,0E0,0E0,0E0,0E0,0E0,0E0,0E0,0E0,0E0,0E0,0E0,0E0,0E0,0E0,0E0,0E0,0E0,0E0,0E0,0E0,0E0,0E0,0E0,0E0,0E0,0E0,0E0,0E0,0E0],"parents":[2147483647,0,0,1,1,2,2,3,3,4,4,5,5,6,6,7,7,8,8,9,9,10,10,11,11,12,12,13,13,15,15,16,16,18,18,19,19,21,21,22,22,23,23,24,24,26,26,27,27,28,28,29,29,30,30,33,33,34,34,39,39,46,46,47,47,48,48,50,50,51,51,54,54,55,55,56,56,57,57,59,59,60,60,62,62,63,63,64,64,65,65,66,66,67,67,68,68,71,71,72,72,73,73,74,74,75,75,77,77,79,79,85,85,86,86,87,87,88,88,89,89,90,90,91,91,95,95,96,96,98,98,99,99,103,103,104,104,106,106,107,107,109,109,110,110,111,111,112,112,113,113,114,114,115,115,116,116,118,118,128,128],"right_children":[-1,-1,-1,-1,-1,-1,-1,-1,-1,-1,-1,-1,-1,-1,-1,-1,-1,-1,-1,-1,-1,-1,-1,-1,-1,-1,-1,-1,-1,-1,-1,-1,-1,-1,-1,-1,-1,-1,-1,-1,-1,-1,-1,-1,-1,-1,-1,-1,-1,-1,-1,-1,-1,-1,-1,-1,-1,-1,-1,-1,-1,-1,-1,-1,-1,-1,-1,-1,-1,-1,-1,-1,-1,-1,-1,-1,-1,-1,-1,-1,-1,-1,-1,-1,-1,-1,-1,-1,-1,-1,-1,-1,-1,-1,-1,-1,-1,-1,-1,-1,-1,-1,-1,-1,-1,-1,-1,-1,-1,-1,-1,-1,-1,-1,-1,-1,-1,-1,-1,-1,-1,-1,-1,-1,-1,-1,-1,-1,-1,-1,-1,-1,-1,-1,-1,-1,-1,-1,-1,-1,-1,-1,-1,-1,-1,-1,-1,-1,-1,-1,-1,-1,-1,-1,-1,-1,-1,-1,-1,-1,-1],"split_conditions":[4.958734E-4,-2.9780306E-2,5.7115196E-3,-1.676232E-2,-6.0446616E-2,8.216857E-2,3.4391652E-3,1.259864E-2,-3.0085817E-2,-1.3444594E-1,-2.2573052E-2,-0E0,9.781068E-2,2.7637947E-3,2.5026745E-1,-4.9737925E-3,1.4979742E-1,-2.8412265E-1,-1.3363353E-2,-1.4584352E-1,-0E0,9.524464E-2,-5.2518617E-2,3.1974282E-2,-0E0,-0E0,1.0622688E-1,4.816653E-3,-1.1922863E-1,4.5815248E-2,-3.287885E-2,-0E0,1.9682966E-1,-0E0,-5.406049E-2,-0E0,-1.4941616E-1,1.5383027E-1,-0E0,-6.0850877E-2,-0E0,5.8156792E-2,-0E0,-0E0,-2.0025166E-2,-0E0,1.14560954E-1,2.584364E-3,1.6925691E-1,7.158661E-2,-1.533283E-1,-8.593559E-3,1.6915464E-1,-1.1308077E-1,3.6351863E-4,-8.334554E-3,7.2879955E-2,-6.847965E-2,-0E0,-2.1947682E-2,-1.5267828E-1,-0E0,1.1946642E-1,-4.082763E-2,5.2462257E-3,2.6066957E-2,2.562528E-1,-2.7742308E-1,-4.9530774E-2,-0E0,-1.7495707E-2,3.329654E-2,-2.446856E-4,5.987139E-2,-1.9898742E-2,9.756207E-2,-0E0,-7.584884E-2,-0E0,-3.3978973E-2,-0E0,-2.0953162E-1,-0E0,-0E0,1.2654811E-1,-0E0,-6.251099E-2,1.0183315E-2,-8.799472E-3,9.171757E-2,-4.313999E-3,3.0012047E-1,-0E0,-3.3035177E-1,-0E0,1.25363665E-2,-1.1921508E-1,-0E0,5.845626E-2,-1.1220031E-2,-0E0,8.152257E-2,-0E0,-0E0,-3.917684E-2,-0E0,1.08954705E-1,-9.0821035E-2,-0E0,-6.195888E-2,-0E0,-2.7186077E-3,3.3701237E-2,-1.2997708E-2,-8.587224E-2,8.537104E-3,4.1236115E-1,-7.709904E-1,-5.7789655E-3,-0E0,1.0837308E-1,-0E0,-1.9882966E-2,-0E0,3.6677969E-1,-0E0,4.1149434E-2,-0E0,-1.5835154E-1,-0E0,7.237608E-2,-2.5205249E-2,-0E0,1.5426083E-2,-1.6201591E-2,-0E0,-4.6259955E-2,1.1629993E-1,-0E0,-0E0,-9.2667066E-2,-7.571628E-2,-0E0,-0E0,-4.156227E-3,-0E0,-2.598392E-2,4.812968E-2,-0E0,-5.4777615E-2,7.9965785E-2,-9.651032E-2,-0E0,1.375028E-2,-1.3242136E-2,5.465389E-1,-0E0,-3.8151257E-2,2.4657372E-2,-1.9094804E-1,-0E0],"split_indices":[6,2147483647,2147483647,2147483647,2147483647,2147483647,2147483647,2147483647,2147483647,2147483647,2147483647,2147483647,2147483647,2147483647,2147483647,2147483647,2147483647,2147483647,2147483647,2147483647,2147483647,2147483647,2147483647,2147483647,2147483647,2147483647,2147483647,2147483647,2147483647,2147483647,2147483647,2147483647,2147483647,2147483647,2147483647,2147483647,2147483647,2147483647,2147483647,2147483647,2147483647,2147483647,2147483647,2147483647,2147483647,2147483647,2147483647,2147483647,2147483647,2147483647,2147483647,2147483647,2147483647,2147483647,2147483647,2147483647,2147483647,2147483647,2147483647,2147483647,2147483647,2147483647,2147483647,2147483647,2147483647,2147483647,2147483647,2147483647,2147483647,2147483647,2147483647,2147483647,2147483647,2147483647,2147483647,2147483647,2147483647,2147483647,2147483647,2147483647,2147483647,2147483647,2147483647,2147483647,2147483647,2147483647,2147483647,2147483647,2147483647,2147483647,2147483647,2147483647,2147483647,2147483647,2147483647,2147483647,2147483647,2147483647,2147483647,2147483647,2147483647,2147483647,2147483647,2147483647,2147483647,2147483647,2147483647,2147483647,2147483647,2147483647,2147483647,2147483647,2147483647,2147483647,2147483647,2147483647,2147483647,2147483647,2147483647,2147483647,2147483647,2147483647,2147483647,2147483647,2147483647,2147483647,2147483647,2147483647,2147483647,2147483647,2147483647,2147483647,2147483647,2147483647,2147483647,2147483647,2147483647,2147483647,2147483647,2147483647,2147483647,2147483647,2147483647,2147483647,2147483647,2147483647,2147483647,2147483647,2147483647,2147483647,2147483647,2147483647,2147483647,2147483647,2147483647,2147483647,2147483647,2147483647,2147483647,2147483647,2147483647],"split_type":[0,0,0,0,0,0,0,0,0,0,0,0,0,0,0,0,0,0,0,0,0,0,0,0,0,0,0,0,0,0,0,0,0,0,0,0,0,0,0,0,0,0,0,0,0,0,0,0,0,0,0,0,0,0,0,0,0,0,0,0,0,0,0,0,0,0,0,0,0,0,0,0,0,0,0,0,0,0,0,0,0,0,0,0,0,0,0,0,0,0,0,0,0,0,0,0,0,0,0,0,0,0,0,0,0,0,0,0,0,0,0,0,0,0,0,0,0,0,0,0,0,0,0,0,0,0,0,0,0,0,0,0,0,0,0,0,0,0,0,0,0,0,0,0,0,0,0,0,0,0,0,0,0,0,0,0,0,0,0,0,0],"sum_hessian":[2.861E3,4.06E2,2.455E3,2.97E2,1.09E2,6.4E1,2.391E3,8.1E1,2.16E2,3.2E1,7.7E1,1.4E1,5E1,2.387E3,4E0,6.9E1,1.2E1,1.1E1,2.05E2,2.9E1,3E0,1.2E1,6.5E1,7E0,7E0,4E0,4.6E1,2.352E3,3.5E1,1.8E1,5.1E1,4E0,8E0,1.52E2,5.3E1,1E0,2.8E1,5E0,7E0,5.8E1,7E0,5E0,2E0,2E0,5E0,4E0,4.2E1,2.324E3,2.8E1,3E0,3.2E1,1E1,8E0,1.9E1,3.2E1,1.35E2,1.7E1,4.1E1,1.2E1,4.5E1,1.3E1,3E0,3.9E1,1.23E2,2.201E3,1.3E1,1.5E1,1.2E1,2E1,1E0,9E0,1.5E1,1.7E1,1.3E1,1.22E2,1.2E1,5E0,4E1,1E0,3.6E1,9E0,8E0,5E0,3E0,3.6E1,3.6E1,8.7E1,1.655E3,5.46E2,9E0,4E0,1.3E1,2E0,9E0,3E0,7E0,1.3E1,5E0,1E1,1.3E1,4E0,1.1E1,2E0,5.6E1,6.6E1,2E0,1E1,3.3E1,7E0,1.8E1,1.8E1,2.2E1,1.4E1,3.5E1,5.2E1,1.65E3,5E0,1E0,5.45E2,1E0,8E0,2E0,2E0,3E0,1E1,1E0,6E0,3E0,1E1,2E0,8E0,1E1,3E0,3.4E1,2.2E1,8E0,5.8E1,9E0,1E0,1E0,3.2E1,1.4E1,4E0,6E0,1.2E1,5E0,1.7E1,1.3E1,1E0,2.8E1,7E0,4.4E1,8E0,1.35E3,3E2,4E0,1E0,2.72E2,2.73E2,8E0,2E0],"tree_param":{"num_deleted":"160","num_feature":"9","num_nodes":"161","size_leaf_vector":"0"}},{"base_weights":[-9.66458E-4,-1.5444593E-3,2.0914078E-1,-0E0,-1.4027911E-1,2.4982664E-1,-0E0,-8.9776755E-4,2.6751855E-1,-0E0,-1.8517621E-1,-1.3619838E-2,5.745092E-3,-0E0,3.877449E-1,-2.491333E-1,-4.982798E-3,-7.523772E-3,-4.7044624E-2,1.5349957E-2,-1.5810894E-2,4.6558034E-1,-0E0,-0E0,-2.8360736E-1,3.705597E-2,-2.252001E-1,-1.078146E-2,4.708761E-2,-8.32012E-2,-1.2489253E-2,1.3587996E-2,5.1341546E-1,-8.4158516E-1,-1.1095328E-2,-3.1390813E-1,-0E0,7.891549E-2,-0E0,-6.021989E-5,-2.7825551E-2,-0E0,7.977295E-2,-3.4448788E-2,-1.3174483E-1,-0E0,-7.64964E-2,1.5208316E-2,-1.7038715E-1,-6.410531E-2,1.6727183E-3,7.1347676E-2,-7.810739E-3,-8.89571E-2,-1.7833356E-2,9.93999E-2,-0E0,-6.367907E-2,1.615359E-2,-0E0,-1.5360771E-1,-1.6839608E-3,1.4171508E-2,-0E0,-1.06250905E-1,5.5109556E-3,4.1787587E-2,-0E0,-2.3617452E-1,-3.0508736E-2,-6.301372E-1,-1.869056E-2,3.2639816E-2,1.2038842E-1,-3.1133942E-2,-2.2915298E-1,-1.7224743E-3,-1.1771431E-1,-0E0,1.1825317E-1,-2.6584513E-2,-0E0,1.1331107E-1,-0E0,-7.04049E-2,5.1580004E-2,-0E0,-0E0,-1.7028396E-1,-1.6763799E-2,-0E0,6.785471E-2,-0E0,-0E0,-1.3226059E-1,1.383332E-2,-6.0210798E-2,8.865037E-2,2.0851032E-3,-0E0,-1.5452617E-1,4.2627335E-1,-2.3313716E-2,-1.5487444E-2,7.12998E-2],"categories":[],"categories_nodes":[],"categories_segments":[],"categories_sizes":[],"default_left":[1,1,1,1,1,1,1,1,1,1,1,1,1,1,1,1,1,1,1,1,1,1,1,1,1,1,1,1,1,1,1,1,1,0,1,1,1,1,1,1,1,1,1,1,1,1,1,1,1,1,1,1,1,1,1,1,1,1,1,1,1,1,1,1,1,1,1,1,1,1,0,1,1,1,1,1,1,1,1,1,1,1,1,1,1,1,1,1,1,1,1,1,1,1,1,1,1,1,1,1,1,1,1,1,1],"id":7,"left_children":[1,3,-1,7,-1,-1,-1,11,-1,-1,-1,-1,19,-1,-1,-1,-1,-1,-1,-1,33,-1,-1,-1,-1,-1,-1,-1,-1,-1,-1,-1,-1,-1,49,-1,-1,-1,-1,-1,-1,-1,-1,-1,-1,-1,-1,-1,-1,69,-1,-1,-1,-1,-1,-1,-1,-1,-1,-1,-1,-1,-1,-1,-1,-1,-1,-1,-1,-1,-1,-1,-1,-1,-1,-1,-1,-1,-1,-1,-1,-1,-1,-1,-1,-1,-1,-1,-1,-1,-1,-1,-1,-1,-1,-1,-1,-1,-1,-1,-1,-1,-1,-1,-1],"loss_changes":[2.4472043E-1,6.523903E-1,4.0290803E-2,7.537181E-1,2.4947023E-1,0E0,0E0,2.4233955E-1,2.2580492E-1,0E0,1.7772454E-1,1.7497408E-1,3.7826076E-1,0E0,2.1495807E-1,2.4096715E-1,1.8619236E-1,1.3394429E-1,1.271765E-1,8.5674065E-1,1.700952E0,0E0,0E0,0E0,2.0019698E-1,1.9099003E-2,0E0,1.3489297E-1,7.469384E-2,6.018102E-2,9.0004206E-2,3.0452698E-1,0E0,0E0,4.004828E-1,0E0,0E0,0E0,0E0,2.5547308E-1,1.2692517E-1,0E0,5.0152376E-2,7.826501E-2,1.1189434E-1,5.8215344E-3,5.000022E-2,3.0344763E-1,1.7156787E-1,1.8184637E0,2.8001055E-1,2.7014828E-1,5.237964E-1,9.419027E-2,2.6835263E-1,5.0780356E-2,0E0,1.669018E-2,1.0015198E-2,0E0,6.89373E-2,6.5062535E-3,5.182957E-2,0E0,6.625584E-2,4.9383178E-1,5.60155E-1,0E0,0E0,3.4075928E-1,0E0,3.208593E-1,3.66157E-1,0E0,0E0,0E0,0E0,0E0,0E0,0E0,0E0,0E0,0E0,0E0,0E0,0E0,0E0,0E0,0E0,0E0,0E0,0E0,0E0,0E0,0E0,0E0,0E0,0E0,0E0,0E0,0E0,0E0,0E0,0E0,0E0],"parents":[2147483647,0,0,1,1,2,2,3,3,4,4,7,7,8,8,10,10,11,11,12,12,14,14,15,15,16,16,17,17,18,18,19,19,20,20,24,24,25,25,27,27,28,28,29,29,30,30,31,31,34,34,39,39,40,40,42,42,43,43,44,44,45,45,46,46,47,47,48,48,49,49,50,50,51,51,52,52,53,53,54,54,55,55,57,57,58,58,60,60,61,61,62,62,64,64,65,65,66,66,69,69,71,71,72,72],"right_children":[2,4,-1,8,-1,-1,-1,12,-1,-1,-1,-1,20,-1,-1,-1,-1,-1,-1,-1,34,-1,-1,-1,-1,-1,-1,-1,-1,-1,-1,-1,-1,-1,50,-1,-1,-1,-1,-1,-1,-1,-1,-1,-1,-1,-1,-1,-1,70,-1,-1,-1,-1,-1,-1,-1,-1,-1,-1,-1,-1,-1,-1,-1,-1,-1,-1,-1,-1,-1,-1,-1,-1,-1,-1,-1,-1,-1,-1,-1,-1,-1,-1,-1,-1,-1,-1,-1,-1,-1,-1,-1,-1,-1,-1,-1,-1,-1,-1,-1,-1,-1,-1,-1],"split_conditions":[1.8295E1,1.736E1,2.0914078E-1,1.7235E1,-1.4027911E-1,2.4982664E-1,-0E0,7.395E0,2.6751855E-1,-0E0,-1.8517621E-1,-1.3619838E-2,1.0934999E1,-0E0,3.877449E-1,-2.491333E-1,-4.982798E-3,-7.523772E-3,-4.7044624E-2,1.5349957E-2,1.045E1,4.6558034E-1,-0E0,-0E0,-2.8360736E-1,3.705597E-2,-2.252001E-1,-1.078146E-2,4.708761E-2,-8.32012E-2,-1.2489253E-2,1.3587996E-2,5.1341546E-1,-8.4158516E-1,1.1665E1,-3.1390813E-1,-0E0,7.891549E-2,-0E0,-6.021989E-5,-2.7825551E-2,-0E0,7.977295E-2,-3.4448788E-2,-1.3174483E-1,-0E0,-7.64964E-2,1.5208316E-2,-1.7038715E-1,1.1705E1,1.6727183E-3,7.1347676E-2,-7.810739E-3,-8.89571E-2,-1.7833356E-2,9.93999E-2,-0E0,-6.367907E-2,1.615359E-2,-0E0,-1.5360771E-1,-1.6839608E-3,1.4171508E-2,-0E0,-1.06250905E-1,5.5109556E-3,4.1787587E-2,-0E0,-2.3617452E-1,-3.0508736E-2,-6.301372E-1,-1.869056E-2,3.2639816E-2,1.2038842E-1,-3.1133942E-2,-2.2915298E-1,-1.7224743E-3,-1.1771431E-1,-0E0,1.1825317E-1,-2.6584513E-2,-0E0,1.1331107E-1,-0E0,-7.04049E-2,5.1580004E-2,-0E0,-0E0,-1.7028396E-1,-1.6763799E-2,-0E0,6.785471E-2,-0E0,-0E0,-1.3226059E-1,1.383332E-2,-6.0210798E-2,8.865037E-2,2.0851032E-3,-0E0,-1.5452617E-1,4.2627335E-1,-2.3313716E-2,-1.5487444E-2,7.12998E-2],"split_indices":[6,6,0,7,1,2147483647,2147483647,7,3,2147483647,2147483647,1,6,2147483647,2147483647,2147483647,2147483647,2147483647,2147483647,7,7,2147483647,2147483647,2147483647,2147483647,2147483647,2147483647,2147483647,2147483647,2147483647,2147483647,2147483647,2147483647,0,8,2147483647,2147483647,2147483647,2147483647,2147483647,2147483647,2147483647,2147483647,2147483647,2147483647,2147483647,2147483647,2147483647,2147483647,7,0,2147483647,2147483647,2147483647,2147483647,2147483647,2147483647,2147483647,2147483647,2147483647,2147483647,2147483647,2147483647,2147483647,2147483647,2147483647,2147483647,2147483647,2147483647,8,0,2147483647,2147483647,2147483647,2147483647,2147483647,2147483647,2147483647,2147483647,2147483647,2147483647,2147483647,2147483647,2147483647,2147483647,2147483647,2147483647,2147483647,2147483647,2147483647,2147483647,2147483647,2147483647,2147483647,2147483647,2147483647,2147483647,2147483647,2147483647,2147483647,2147483647,2147483647,2147483647,2147483647,2147483647],"split_type":[0,0,0,0,0,0,0,0,0,0,0,0,0,0,0,0,0,0,0,0,0,0,0,0,0,0,0,0,0,0,0,0,0,0,0,0,0,0,0,0,0,0,0,0,0,0,0,0,0,0,0,0,0,0,0,0,0,0,0,0,0,0,0,0,0,0,0,0,0,0,0,0,0,0,0,0,0,0,0,0,0,0,0,0,0,0,0,0,0,0,0,0,0,0,0,0,0,0,0,0,0,0,0,0,0],"sum_hessian":[2.868E3,2.863E3,5E0,2.83E3,3.3E1,4E0,1E0,2.82E3,1E1,7E0,2.6E1,9.93E2,1.827E3,4E0,6E0,1.7E1,9E0,8.53E2,1.4E2,1.28E3,5.47E2,5E0,1E0,1E0,1.6E1,6E0,3E0,8.14E2,3.9E1,6.1E1,7.9E1,1.277E3,3E0,2E0,5.45E2,1.5E1,1E0,4E0,2E0,5.18E2,2.96E2,1.4E1,2.5E1,3.6E1,2.5E1,6.2E1,1.7E1,1.269E3,8E0,1.13E2,4.32E2,4.4E1,4.74E2,3.4E1,2.62E2,2.1E1,4E0,2.9E1,7E0,2E0,2.3E1,3.4E1,2.8E1,4E0,1.3E1,9.44E2,3.25E2,1E0,7E0,1.08E2,5E0,2.51E2,1.81E2,3.3E1,1.1E1,1E1,4.64E2,2.6E1,8E0,1.2E1,2.5E2,1E0,2E1,2E0,2.7E1,4E0,3E0,2E0,2.1E1,2.3E1,1.1E1,1.2E1,1.6E1,1E0,1.2E1,8.45E2,9.9E1,1.43E2,1.82E2,9E1,1.8E1,1E0,2.5E2,7.5E1,1.06E2],"tree_param":{"num_deleted":"88","num_feature":"9","num_nodes":"105","size_leaf_vector":"0"}},{"base_weights":[-1.6411139E-3,2.1570679E-2,-5.834753E-3,-1.4144486E-2,3.1993102E-2,-4.527814E-3,-6.0098156E-2,2.5066268E-2,-7.975131E-2,1.1490827E-1,2.2360602E-2,-6.63545E-3,1.5331128E-1,-1.9873802E-1,5.936004E-2,5.8382103E-4,9.219805E-2,-1.1150553E-1,-8.744578E-4,-0E0,1.3769421E-1,-1.2783337E-2,3.3111807E-2,-6.0077156E-3,-2.8744778E-1,-0E0,1.8848857E-1,-3.7928122E-1,-6.9405526E-2,8.927601E-2,-9.577688E-2,-2.774541E-2,4.1215234E-2,-0E0,1.2852512E-1,-1.2343732E-1,-0E0,-0E0,-1.7018283E-2,-3.1989165E-2,-0E0,2.3385612E-2,1.0719959E-1,7.245714E-2,-6.870846E-3,2.048673E-1,-0E0,7.157644E-3,-1.3419205E-1,1.6488083E-1,-0E0,-0E0,-9.5084116E-2,-0E0,8.147634E-2,-2.5027465E-2,-0E0,-0E0,-7.736615E-2,-0E0,3.1087784E-2,4.471916E-2,-0E0,-0E0,1.5179744E-1,-0E0,1.8020073E-1,-1.0883892E-1,-5.4460955E-3,2.2797854E-1,-0E0,-0E0,6.287929E-2,-2.606673E-1,-0E0,-0E0,1.8076447E-1,3.4237202E-2,-7.7877045E-2,8.246804E-3,-0E0,-0E0,-1.2547493E-1,-0E0,1.0034466E-1,-3.48821E-2,4.198269E-2,-8.3806194E-2,-0E0,-0E0,-3.723853E-2,4.0247265E-2,-0E0,6.8302035E-2,-1.0675052E-2,-9.844513E-3,1.8593088E-2,2.2328694E-3,-0E0,-0E0,1.7586143E-1,-0E0,-2.3685603E-3,-6.5745856E-3,4.584706E-2,-0E0,2.3554611E-1,-0E0,-3.1462267E-1,1.3256073E-2,-6.447262E-2,-0E0,4.8860338E-2,-1.0496031E-1,-0E0,-0E0,9.600053E-3,-0E0,-7.283809E-2,-0E0,-9.850203E-2,-0E0,1.4495069E-2,4.6797473E-2,-0E0,-0E0,7.352808E-2,9.061813E-3,-1.4902401E-1,8.005386E-3,-3.1021636E-2,-0E0,5.9589803E-2,-0E0,-2.6356957E-3,-5.2166684E-3,-1.2057131E-1,1.7779206E-1,-0E0,2.1705627E-2,-0E0,-1.0632738E-1,-0E0,-0E0,-1.0482043E-1,-0E0,-8.768949E-3,1.5897308E-1,4.8647054E-2,-0E0,9.292713E-2,-4.8344437E-2,5.6849103E-2,-0E0,-6.1856586E-2,8.360812E-3,-1.1282173E-2,1.5247339E-1,-0E0,-6.0999137E-3,1.24225534E-1,-1.5739751E-1,-0E0,-3.400966E-2,2.9909837E-1,4.2894054E-2,-1.7170893E-1],"categories":[],"categories_nodes":[],"categories_segments":[],"categories_sizes":[],"default_left":[1,1,1,1,1,1,1,1,1,1,1,1,1,1,1,1,1,1,1,1,1,1,1,1,1,1,1,1,1,1,1,1,1,1,1,1,1,1,1,1,1,1,1,1,1,1,1,1,1,1,1,1,1,1,1,1,1,1,1,1,1,1,1,1,1,1,1,1,1,1,1,1,1,1,1,1,1,1,1,1,1,1,1,1,1,1,1,1,1,1,1,1,1,1,1,1,1,1,1,1,1,1,1,1,1,1,1,1,1,1,1,1,1,1,1,1,1,1,1,1,1,1,1,1,1,1,1,1,1,1,1,1,1,1,1,1,1,1,1,1,1,1,1,1,1,1,1,1,1,1,1,1,1,1,1,1,1,1,1,1,1,1,1,1,1,1,1],"id":8,"left_children":[-1,-1,-1,-1,-1,-1,-1,-1,-1,-1,-1,-1,-1,-1,-1,-1,-1,-1,-1,-1,-1,-1,-1,-1,-1,-1,-1,-1,-1,-1,-1,-1,-1,-1,-1,-1,-1,-1,-1,-1,-1,-1,-1,-1,-1,-1,-1,-1,-1,-1,-1,-1,-1,-1,-1,-1,-1,-1,-1,-1,-1,-1,-1,-1,-1,-1,-1,-1,-1,-1,-1,-1,-1,-1,-1,-1,-1,-1,-1,-1,-1,-1,-1,-1,-1,-1,-1,-1,-1,-1,-1,-1,-1,-1,-1,-1,-1,-1,-1,-1,-1,-1,-1,-1,-1,-1,-1,-1,-1,-1,-1,-1,-1,-1,-1,-1,-1,-1,-1,-1,-1,-1,-1,-1,-1,-1,-1,-1,-1,-1,-1,-1,-1,-1,-1,-1,-1,-1,-1,-1,-1,-1,-1,-1,-1,-1,-1,-1,-1,-1,-1,-1,-1,-1,-1,-1,-1,-1,-1,-1,-1,-1,-1,-1,-1,-1,-1],"loss_changes":[2.7122548E-1,1.656769E-1,1.4105415E-1,2.4571772E-1,1.9883677E-1,7.250732E-1,8.788284E-1,3.329435E-2,3.518182E-2,3.7077814E-2,1.2656157E-1,2.7026993E-1,1.6503274E-1,3.3457196E-1,1.1473111E-1,5.5075534E-2,2.7099282E-2,4.503393E-2,3.8980441E-3,0E0,0E0,2.7300745E-2,1.1107993E-1,1.277956E-1,0E0,0E0,1.094321E-1,0E0,1.4584178E-1,1.7970692E-1,0E0,4.529479E-2,3.4723483E-2,0E0,0E0,0E0,0E0,0E0,3.919779E-3,6.7395926E-2,1.0147728E-2,9.420256E-2,9.85938E-2,2.0611112E-1,2.8374892E-1,6.9158494E-2,0E0,1.3607775E-2,1.4861707E-1,4.1440636E-2,3.4910962E-2,5.100732E-4,1.2081381E-2,0E0,9.245403E-3,0E0,0E0,3.061175E-2,4.1172877E-3,4.8534786E-3,5.240773E-3,1.7091751E-1,2.4897963E-2,2.2435677E-5,2.9432327E-2,3.6465502E-5,0E0,0E0,1.1489173E-1,1.2919188E-2,0E0,0E0,0E0,7.173252E-2,1.9320268E-2,0E0,0E0,3.1237877E-3,1.1266578E-2,8.897338E-5,0E0,0E0,0E0,0E0,0E0,1.8837165E-2,0E0,2.7165785E-3,0E0,1.1555887E-3,0E0,3.226527E-3,0E0,2.8711677E-2,1.4301655E-1,3.525789E-2,5.395356E-2,0E0,0E0,0E0,0E0,0E0,1.7424027E-6,2.8996336E-1,3.0999607E-1,0E0,0E0,0E0,0E0,5.628035E-4,0E0,0E0,0E0,0E0,0E0,0E0,0E0,0E0,2.1695165E-2,0E0,3.7864074E-3,4.2291955E-4,0E0,0E0,0E0,0E0,5.495903E-2,5.444704E-2,0E0,6.480171E-2,6.911057E-2,3.9099096E-3,1.24814786E-1,0E0,0E0,1.9964293E-1,1.0645223E-1,4.587915E-1,2.6068753E-1,0E0,0E0,0E0,0E0,0E0,0E0,0E0,0E0,0E0,0E0,0E0,0E0,0E0,0E0,0E0,0E0,0E0,0E0,0E0,0E0,0E0,0E0,0E0,0E0,0E0,0E0,0E0,0E0],"parents":[2147483647,0,0,1,1,2,2,3,3,4,4,5,5,6,6,7,7,8,8,9,9,10,10,11,11,12,12,13,13,14,14,15,15,16,16,17,17,18,18,21,21,22,22,23,23,26,26,28,28,29,29,31,31,32,32,38,38,39,39,40,40,41,41,42,42,43,43,44,44,45,45,47,47,48,48,49,49,50,50,51,51,52,52,54,54,57,57,58,58,59,59,60,60,61,61,62,62,63,63,64,64,65,65,68,68,69,69,73,73,74,74,77,77,78,78,79,79,85,85,87,87,89,89,91,91,93,93,94,94,95,95,96,96,102,102,103,103,104,104,109,109,118,118,120,120,121,121,126,126,127,127,129,129,130,130,131,131,132,132,135,135,136,136,137,137,138,138],"right_children":[-1,-1,-1,-1,-1,-1,-1,-1,-1,-1,-1,-1,-1,-1,-1,-1,-1,-1,-1,-1,-1,-1,-1,-1,-1,-1,-1,-1,-1,-1,-1,-1,-1,-1,-1,-1,-1,-1,-1,-1,-1,-1,-1,-1,-1,-1,-1,-1,-1,-1,-1,-1,-1,-1,-1,-1,-1,-1,-1,-1,-1,-1,-1,-1,-1,-1,-1,-1,-1,-1,-1,-1,-1,-1,-1,-1,-1,-1,-1,-1,-1,-1,-1,-1,-1,-1,-1,-1,-1,-1,-1,-1,-1,-1,-1,-1,-1,-1,-1,-1,-1,-1,-1,-1,-1,-1,-1,-1,-1,-1,-1,-1,-1,-1,-1,-1,-1,-1,-1,-1,-1,-1,-1,-1,-1,-1,-1,-1,-1,-1,-1,-1,-1,-1,-1,-1,-1,-1,-1,-1,-1,-1,-1,-1,-1,-1,-1,-1,-1,-1,-1,-1,-1,-1,-1,-1,-1,-1,-1,-1,-1,-1,-1,-1,-1,-1,-1],"split_conditions":[-1.6411139E-3,2.1570679E-2,-5.834753E-3,-1.4144486E-2,3.1993102E-2,-4.527814E-3,-6.0098156E-2,2.5066268E-2,-7.975131E-2,1.1490827E-1,2.2360602E-2,-6.63545E-3,1.5331128E-1,-1.9873802E-1,5.936004E-2,5.8382103E-4,9.219805E-2,-1.1150553E-1,-8.744578E-4,-0E0,1.3769421E-1,-1.2783337E-2,3.3111807E-2,-6.0077156E-3,-2.8744778E-1,-0E0,1.8848857E-1,-3.7928122E-1,-6.9405526E-2,8.927601E-2,-9.577688E-2,-2.774541E-2,4.1215234E-2,-0E0,1.2852512E-1,-1.2343732E-1,-0E0,-0E0,-1.7018283E-2,-3.1989165E-2,-0E0,2.3385612E-2,1.0719959E-1,7.245714E-2,-6.870846E-3,2.048673E-1,-0E0,7.157644E-3,-1.3419205E-1,1.6488083E-1,-0E0,-0E0,-9.5084116E-2,-0E0,8.147634E-2,-2.5027465E-2,-0E0,-0E0,-7.736615E-2,-0E0,3.1087784E-2,4.471916E-2,-0E0,-0E0,1.5179744E-1,-0E0,1.8020073E-1,-1.0883892E-1,-5.4460955E-3,2.2797854E-1,-0E0,-0E0,6.287929E-2,-2.606673E-1,-0E0,-0E0,1.8076447E-1,3.4237202E-2,-7.7877045E-2,8.246804E-3,-0E0,-0E0,-1.2547493E-1,-0E0,1.0034466E-1,-3.48821E-2,4.198269E-2,-8.3806194E-2,-0E0,-0E0,-3.723853E-2,4.0247265E-2,-0E0,6.8302035E-2,-1.0675052E-2,-9.844513E-3,1.8593088E-2,2.2328694E-3,-0E0,-0E0,1.7586143E-1,-0E0,-2.3685603E-3,-6.5745856E-3,4.584706E-2,-0E0,2.3554611E-1,-0E0,-3.1462267E-1,1.3256073E-2,-6.447262E-2,-0E0,4.8860338E-2,-1.0496031E-1,-0E0,-0E0,9.600053E-3,-0E0,-7.283809E-2,-0E0,-9.850203E-2,-0E0,1.4495069E-2,4.6797473E-2,-0E0,-0E0,7.352808E-2,9.061813E-3,-1.4902401E-1,8.005386E-3,-3.1021636E-2,-0E0,5.9589803E-2,-0E0,-2.6356957E-3,-5.2166684E-3,-1.2057131E-1,1.7779206E-1,-0E0,2.1705627E-2,-0E0,-1.0632738E-1,-0E0,-0E0,-1.0482043E-1,-0E0,-8.768949E-3,1.5897308E-1,4.8647054E-2,-0E0,9.292713E-2,-4.8344437E-2,5.6849103E-2,-0E0,-6.1856586E-2,8.360812E-3,-1.1282173E-2,1.5247339E-1,-0E0,-6.0999137E-3,1.24225534E-1,-1.5739751E-1,-0E0,-3.400966E-2,2.9909837E-1,4.2894054E-2,-1.7170893E-1],"split_indices":[5,2147483647,2147483647,2147483647,2147483647,2147483647,2147483647,2147483647,2147483647,2147483647,2147483647,2147483647,2147483647,2147483647,2147483647,2147483647,2147483647,2147483647,2147483647,2147483647,2147483647,2147483647,2147483647,2147483647,2147483647,2147483647,2147483647,2147483647,2147483647,2147483647,2147483647,2147483647,2147483647,2147483647,2147483647,2147483647,2147483647,2147483647,2147483647,2147483647,2147483647,2147483647,2147483647,2147483647,2147483647,2147483647,2147483647,2147483647,2147483647,2147483647,2147483647,2147483647,2147483647,2147483647,2147483647,2147483647,2147483647,2147483647,2147483647,2147483647,2147483647,2147483647,2147483647,2147483647,2147483647,2147483647,2147483647,2147483647,2147483647,2147483647,2147483647,2147483647,2147483647,2147483647,2147483647,2147483647,2147483647,2147483647,2147483647,2147483647,2147483647,2147483647,2147483647,2147483647,2147483647,2147483647,2147483647,2147483647,2147483647,2147483647,2147483647,2147483647,2147483647,2147483647,2147483647,2147483647,2147483647,2147483647,2147483647,2147483647,2147483647,2147483647,2147483647,2147483647,2147483647,2147483647,2147483647,2147483647,2147483647,2147483647,2147483647,2147483647,2147483647,2147483647,2147483647,2147483647,2147483647,2147483647,2147483647,2147483647,2147483647,2147483647,2147483647,2147483647,2147483647,2147483647,2147483647,2147483647,2147483647,2147483647,2147483647,2147483647,2147483647,2147483647,2147483647,2147483647,2147483647,2147483647,2147483647,2147483647,2147483647,2147483647,2147483647,2147483647,2147483647,2147483647,2147483647,2147483647,2147483647,2147483647,2147483647,2147483647,2147483647,2147483647,2147483647,2147483647,2147483647,2147483647,2147483647,2147483647,2147483647,2147483647,2147483647,2147483647,2147483647,2147483647,2147483647],"split_type":[0,0,0,0,0,0,0,0,0,0,0,0,0,0,0,0,0,0,0,0,0,0,0,0,0,0,0,0,0,0,0,0,0,0,0,0,0,0,0,0,0,0,0,0,0,0,0,0,0,0,0,0,0,0,0,0,0,0,0,0,0,0,0,0,0,0,0,0,0,0,0,0,0,0,0,0,0,0,0,0,0,0,0,0,0,0,0,0,0,0,0,0,0,0,0,0,0,0,0,0,0,0,0,0,0,0,0,0,0,0,0,0,0,0,0,0,0,0,0,0,0,0,0,0,0,0,0,0,0,0,0,0,0,0,0,0,0,0,0,0,0,0,0,0,0,0,0,0,0,0,0,0,0,0,0,0,0,0,0,0,0,0,0,0,0,0,0],"sum_hessian":[2.866E3,4.2E2,2.446E3,8.4E1,3.36E2,2.398E3,4.8E1,4.8E1,3.6E1,2.9E1,3.07E2,2.37E3,2.8E1,2.4E1,2.4E1,4.1E1,7E0,2.1E1,1.5E1,7E0,2.2E1,6.1E1,2.46E2,2.367E3,3E0,5E0,2.3E1,8E0,1.6E1,2.3E1,1E0,1.7E1,2.4E1,2E0,5E0,2E1,1E0,2E0,1.3E1,3.6E1,2.5E1,2.24E2,2.2E1,1.9E1,2.348E3,2.2E1,1E0,4E0,1.2E1,1.3E1,1E1,1.1E1,6E0,1.3E1,1.1E1,1.2E1,1E0,1.9E1,1.7E1,1.5E1,1E1,1.08E2,1.16E2,7E0,1.5E1,1E1,9E0,2.7E1,2.321E3,1.9E1,3E0,1E0,3E0,5E0,7E0,1E0,1.2E1,6E0,4E0,7E0,4E0,2E0,4E0,3E0,8E0,8E0,1.1E1,1.5E1,2E0,1.2E1,3E0,9E0,1E0,8.2E1,2.6E1,6.2E1,5.4E1,4E0,3E0,3E0,1.2E1,4E0,6E0,2.281E3,4E1,1E0,1.8E1,1E0,4E0,3E0,4E0,2E0,4E0,3E0,1E0,1E0,6E0,3E0,5E0,4E0,1.1E1,7E0,5E0,8E0,1E0,6E0,7.6E1,2E1,6E0,2.1E1,4.1E1,3.4E1,2E1,1E0,5E0,2.259E3,2.2E1,1.2E1,2.8E1,2E0,1E0,4E0,1E0,1E0,1E1,2E0,5E0,1.2E1,6.4E1,1.4E1,6E0,5E0,1.6E1,1.3E1,2.8E1,9E0,2.5E1,8E0,1.2E1,2.248E3,1.1E1,1.7E1,5E0,3E0,9E0,2.1E1,7E0],"tree_param":{"num_deleted":"166","num_feature":"9","num_nodes":"167","size_leaf_vector":"0"}},{"base_weights":[-1.2140114E-4,1.3193445E-2,-7.2201947E-3,1.8056676E-2,-6.341809E-2,-4.050305E-3,-6.341799E-2,1.2042301E-2,6.25729E-2,-8.5377514E-2,7.3636374E-3,-1.986098E-2,4.6336153E-3,-9.280572E-2,-1.2612679E-5,6.55069E-3,5.501206E-2,-6.0395617E-3,8.15175E-2,-1.0775684E-1,-0E0,1.3571813E-2,-0E0,-9.884835E-3,-5.2266877E-2,8.526701E-2,-3.1616533E-4,-2.442805E-2,-1.2854387E-1,2.7467156E-2,-8.2848795E-2,-9.258439E-3,2.0976087E-2,2.5344297E-2,1.444101E-1,-0E0,-3.4110244E-2,5.2796934E-2,1.7540917E-1,-0E0,-1.16803735E-1,2.1219946E-2,-1.5169356E-2,-2.1226382E-2,1.0323082E-1,-7.066654E-2,-0E0,9.436685E-2,-0E0,-1.8549409E-2,2.21073E-2,-4.2644743E-2,-0E0,-1.582708E-1,-0E0,7.458023E-2,-0E0,-1.3112922E-1,-0E0,1.1694363E-2,-2.8726451E-2,5.1771905E-2,-2.0566748E-2,8.255036E-2,-8.187892E-3,4.435094E-3,1.9468458E-1,-4.2605523E-2,-0E0,9.215344E-2,-0E0,1.8297435E-1,-0E0,-1.2798819E-1,-0E0,4.2332966E-2,-0E0,-0E0,-4.8808236E-2,-1.23129655E-2,-1.0054825E-1,1.10790946E-1,-0E0,-5.1431995E-2,-1.6280442E-1,2.691489E-2,-3.034559E-2,1.07469074E-1,-0E0,-0E0,-5.1955994E-2,-0E0,4.3451548E-2,-0E0,-6.439672E-2,-1.3793287E-2,-2.187791E-1,-2.9698277E-2,-0E0,8.7903894E-2,-0E0,-1.980292E-2,-0E0,-1.4344444E-2,3.2273896E-2,1.2090374E-2,-4.2394787E-2,2.8811938E-3,6.0756646E-2,-1.4698961E-1,-7.935583E-3,-0E0,8.83779E-2,-0E0,-1.0474046E-1,5.1681172E-2,-0E0,-0E0,2.1733373E-1,-4.8946884E-2,-0E0,-0E0,9.9158004E-2,-8.9893505E-2,8.142488E-2,-1.443777E-1,-0E0,-2.1512758E-2,6.9844805E-2,-1.4974602E-1,-0E0,3.404444E-2,1.3867024E-1,-6.901055E-2,-0E0,-2.4877916E-1,-0E0,8.341316E-2,-1.5574968E-2,-5.059095E-2,-0E0,-0E0,1.16874896E-1,-1.2334227E-2,8.3542496E-2,-1.4717367E-1,-1.42194E-2,2.8790522E-2,-1.02390155E-1,1.333482E-1,2.4839737E-2,-8.254692E-2,-0E0,-2.4953093E-1,-0E0,-0E0,-4.4162057E-2,-5.3297043E-2,-0E0,2.9234547E-2,-7.9013824E-2,8.156381E-2,1.5551627E-2,-0E0,6.7481115E-2,-1.5972222E-1,-3.0834306E-2,6.963883E-2,-4.7005937E-3,9.034957E-2,3.5795473E-2,-2.5230715E-1,-0E0,-2.0088656E-2,4.5020524E-2,-0E0,9.1706224E-2,1.7687298E-2,-9.119359E-4,-0E0,-1.5026645E-1,5.942154E-2,-0E0,-1.0887361E-1,-0E0,1.6092555E-1,-0E0,-0E0,-1.3889586E-2,-1.1667257E-2,-1.13391235E-1,1.3180222E-1,-0E0,-0E0,-1.5612091E-1,3.0325802E-2,-2.6570489E-3,1.4550339E-1,-0E0,-9.781655E-2,-0E0,9.528694E-2,-2.8767461E-2,-0E0,-2.8139585E-1,1.2749425E-1,-0E0,-0E0,-2.2676043E-2,-7.064595E-2,-0E0,-0E0,4.3535233E-2,3.68642E-2,1.4127344E-1,5.7388403E-2,-2.8369907E-2,5.525883E-1,4.667399E-2,-1.7741506E-1,-0E0,1.7483491E-2,-1.2838969E-1,4.261187E-3,1.1417183E-1,-1.3200276E-1,1.038723E-1,-0E0,1.5893918E-1,1.4060242E-1,1.0216984E-2,-0E0,-2.90097E-1,-0E0,-5.4277632E-2,-1.0811064E-1,-0E0,-0E0,4.437493E-2,-9.850162E-2,-0E0,-0E0,9.009154E-2,-0E0,3.4552287E-2,-9.4218165E-2,1.9820075E-2,8.137E-2,-0E0,-0E0,-1.7789398E-1,6.7718094E-3,-4.039136E-2,-0E0,9.285987E-2,-9.727917E-2,-0E0,1.2638119E-2,1.4009298E-1,-2.3891579E-4,8.084093E-2,-3.0734253E-1,-0E0,1.1240163E-2,-4.5278955E-2,9.655143E-2,-0E0,1.1544293E-1,1.5903654E-4,-0E0,3.7215784E-2,-3.004245E-2,-0E0,-0E0,-1.374993E-1,-0E0,2.5047727E-2,8.194666E-3,-4.812365E-2,-1.7205931E-1,-0E0,-0E0,1.563892E-1,-5.569403E-2,1.857941E-2,-0E0,5.2318573E-2,-1.9192377E-2,-0E0,-4.0607292E-2,-1.593714E-1,-0E0,-2.7028274E-2,1.0465123E-1,-0E0,-8.614972E-2,-0E0,-3.2063484E-1,-0E0,-0E0,1.611065E-1,1.0679105E-1,-0E0,-0E0,1.5282133E-1,-6.3422404E-2,1.1404781E-1,-1.8917857E-2,-1.8387413E-1,-0E0,1.0208393E-1,-8.6586155E-2,-2.8929064E-1,6.402969E-2,-0E0,6.9202945E-2,-5.640313E-2,-0E0,-2.3511314E-1,1.8966813E-2,-4.421085E-2,2.2693299E-1,3.7050247E-2,-2.945536E-1,-9.193901E-2,1.8087687E-1,-0E0,1.8406588E-1,-0E0,-0E0,2.5880113E-1,-4.7226664E-2,5.2770004E-2],"categories":[],"categories_nodes":[],"categories_segments":[],"categories_sizes":[],"default_left":[1,1,1,1,1,1,1,1,1,1,1,1,1,1,1,1,1,1,1,1,1,1,1,1,1,1,1,1,1,1,1,1,1,1,1,1,1,1,1,1,1,1,1,1,1,1,1,1,1,1,1,1,1,1,1,1,1,1,1,1,1,1,1,1,1,1,1,1,1,1,1,1,1,1,1,1,1,1,1,1,1,1,1,1,1,1,1,1,1,1,1,1,1,1,1,1,1,1,1,1,1,1,1,1,1,1,1,1,1,1,1,1,1,1,1,1,1,1,1,1,1,1,1,1,1,1,1,1,1,1,1,1,1,1,1,1,1,1,1,1,1,1,1,1,1,1,1,1,1,1,1,1,1,1,1,1,1,1,1,1,1,1,1,1,1,1,1,1,1,1,1,1,1,1,1,1,1,1,1,1,1,1,1,1,1,1,1,1,1,1,1,1,1,1,1,1,1,1,1,1,1,1,1,1,1,1,1,1,1,1,1,1,1,1,1,1,1,1,1,1,1,1,1,1,1,1,1,1,1,1,1,1,1,1,1,1,1,1,1,1,1,1,1,1,1,1,1,1,1,1,1,1,1,1,1,1,1,1,1,1,1,1,1,1,1,1,1,1,1,1,1,1,1,1,1,1,1,1,1,1,1,1,1,1,1,1,1,1,1,1,1,1,1,1,1,1,1,1,1,1,1,1,1,1,1,1,1,1,1,1,1,1,1,1,1,1,1,1,1,1,1,1,1,1,1,1,1,1,1,1,1,1,1],"id":9,"left_children":[-1,-1,-1,-1,-1,-1,-1,-1,-1,-1,-1,-1,-1,-1,-1,-1,-1,-1,-1,-1,-1,-1,-1,-1,-1,-1,-1,-1,-1,-1,-1,-1,-1,-1,-1,-1,-1,-1,-1,-1,-1,-1,-1,-1,-1,-1,-1,-1,-1,-1,-1,-1,-1,-1,-1,-1,-1,-1,-1,-1,-1,-1,-1,-1,-1,-1,-1,-1,-1,-1,-1,-1,-1,-1,-1,-1,-1,-1,-1,-1,-1,-1,-1,-1,-1,-1,-1,-1,-1,-1,-1,-1,-1,-1,-1,-1,-1,-1,-1,-1,-1,-1,-1,-1,-1,-1,-1,-1,-1,-1,-1,-1,-1,-1,-1,-1,-1,-1,-1,-1,-1,-1,-1,-1,-1,-1,-1,-1,-1,-1,-1,-1,-1,-1,-1,-1,-1,-1,-1,-1,-1,-1,-1,-1,-1,-1,-1,-1,-1,-1,-1,-1,-1,-1,-1,-1,-1,-1,-1,-1,-1,-1,-1,-1,-1,-1,-1,-1,-1,-1,-1,-1,-1,-1,-1,-1,-1,-1,-1,-1,-1,-1,-1,-1,-1,-1,-1,-1,-1,-1,-1,-1,-1,-1,-1,-1,-1,-1,-1,-1,-1,-1,-1,-1,-1,-1,-1,-1,-1,-1,-1,-1,-1,-1,-1,-1,-1,-1,-1,-1,-1,-1,-1,-1,-1,-1,-1,-1,-1,-1,-1,-1,-1,-1,-1,-1,-1,-1,-1,-1,-1,-1,-1,-1,-1,-1,-1,-1,-1,-1,-1,-1,-1,-1,-1,-1,-1,-1,-1,-1,-1,-1,-1,-1,-1,-1,-1,-1,-1,-1,-1,-1,-1,-1,-1,-1,-1,-1,-1,-1,-1,-1,-1,-1,-1,-1,-1,-1,-1,-1,-1,-1,-1,-1,-1,-1,-1,-1,-1,-1,-1,-1,-1,-1,-1,-1,-1,-1,-1,-1,-1,-1,-1,-1,-1,-1,-1,-1,-1,-1,-1,-1,-1,-1,-1,-1,-1,-1,-1,-1,-1,-1,-1],"loss_changes":[2.7017465E-1,3.4320602E-1,3.0629733E-1,2.109096E-1,1.20923415E-1,2.5706264E-1,1.2781256E-1,1.6454223E-1,1.6861871E-1,9.2157006E-2,7.90588E-4,1.8348932E-1,5.024719E-1,6.489992E-2,1.0963795E-1,1.759694E-1,1.3475487E-1,1.5105511E-2,1.0913092E-1,4.6866298E-2,3.5120659E-3,0E0,0E0,6.278462E-1,1.3209265E-1,7.3985815E-2,4.401912E-1,2.7519887E-2,8.522791E-2,5.255263E-2,1.05078086E-1,1.4716926E-1,5.36189E-1,1.670007E-1,1.6121745E-2,0E0,5.167784E-3,1.3321948E-1,8.544654E-3,0E0,2.8932422E-2,5.5877864E-3,7.3023615E-3,2.8055662E-1,4.5835137E-2,7.5665355E-2,3.3003546E-2,8.6107016E-2,0E0,3.642548E-1,2.1181852E-1,2.5687963E-2,0E0,1.0512817E-1,6.614907E-3,1.9333959E-2,2.9411674E-3,0E0,0E0,9.0379976E-2,1.20572284E-1,7.373798E-2,1.8783277E-1,1.4759496E-2,4.6853475E-2,1.4542664E-2,4.141876E-2,1.8849205E-3,0E0,4.175979E-2,2.331974E-1,0E0,0E0,3.192562E-2,0E0,0E0,0E0,0E0,0E0,3.0575117E-1,2.3183128E-1,7.7188015E-5,0E0,1.10117316E-1,1.0636178E-1,8.138044E-2,2.591275E-2,1.6275287E-2,0E0,3.915168E-1,6.8181E-1,6.856756E-1,3.1160107E-1,0E0,0E0,2.8665299E-2,9.869021E-2,4.1116723E-3,0E0,0E0,0E0,1.5522569E-2,0E0,1.8527439E-1,2.9522896E-2,2.3971234E-2,1.0639167E-1,5.61684E-2,7.898259E-2,1.6531447E-1,8.806288E-2,0E0,8.672237E-3,3.3043688E-3,7.0824847E-3,1.1989465E-3,0E0,0E0,0E0,0E0,0E0,0E0,0E0,1.914262E-2,7.820255E-2,0E0,6.75222E-4,2.9638368E-1,2.2042346E-1,8.773565E-3,5.1181084E-3,0E0,7.1735084E-3,9.968072E-2,7.761403E-2,5.0510436E-2,0E0,4.4235967E-2,7.3714554E-4,1.2604509E-2,0E0,4.7382913E-3,8.862674E-3,3.7594518E-1,5.261845E-1,3.3427215E-1,6.230316E-1,3.3532462E-1,3.2937342E-1,1.8975228E-1,2.6157945E-1,0E0,0E0,4.3054163E-2,0E0,0E0,2.5306968E-3,3.4131862E-2,0E0,1.9093098E-2,1.751253E-2,7.92025E-3,3.6287192E-2,5.9626818E-2,6.816877E-3,2.6636958E-2,6.7802146E-2,2.6148058E-2,2.2873698E-2,2.3006696E-1,2.2778861E-1,1.05744034E-1,0E0,1.2341888E-1,9.159438E-2,0E0,1.9481182E-3,9.872813E-3,1.3067415E-2,0E0,0E0,0E0,0E0,2.438666E-2,0E0,0E0,2.8232487E-3,0E0,0E0,2.8409395E-1,2.3537052E-1,4.422745E-2,3.1711098E-2,0E0,0E0,7.2594504E-3,2.702596E-3,0E0,0E0,6.404638E-2,1.2784233E-2,3.0902103E-3,4.6146292E-2,0E0,5.074334E-2,5.6499094E-2,0E0,0E0,0E0,0E0,0E0,0E0,0E0,6.17505E-2,9.38136E-2,4.3621087E-1,3.2238162E-1,0E0,9.149241E-2,3.025334E-1,1.8449107E-2,4.6500593E-1,4.59778E-1,9.578822E-2,1.8991637E-1,9.603965E-2,6.5955E-2,0E0,4.2942166E-2,3.3754206E-1,4.4767645E-1,0E0,0E0,0E0,0E0,0E0,0E0,0E0,0E0,0E0,0E0,0E0,0E0,0E0,0E0,0E0,0E0,0E0,0E0,0E0,0E0,0E0,0E0,0E0,0E0,0E0,0E0,0E0,0E0,0E0,0E0,0E0,0E0,0E0,0E0,0E0,0E0,0E0,0E0,0E0,0E0,0E0,0E0,0E0,0E0,0E0,0E0,0E0,0E0,0E0,0E0,0E0,0E0,0E0,0E0,0E0,0E0,0E0,0E0,0E0,0E0,0E0,0E0,0E0,0E0,0E0,0E0,0E0,0E0,0E0,0E0,0E0,0E0,0E0,0E0,0E0,0E0,0E0,0E0,0E0,0E0,0E0,0E0,0E0,0E0,0E0,0E0,0E0,0E0,0E0,0E0,0E0,0E0,0E0,0E0,0E0,0E0,0E0,0E0,0E0,0E0,0E0,0E0],"parents":[2147483647,0,0,1,1,2,2,3,3,4,4,5,5,6,6,7,7,8,8,9,9,10,10,11,11,12,12,13,13,14,14,15,15,16,16,17,17,18,18,19,19,20,20,23,23,24,24,25,25,26,26,27,27,28,28,29,29,30,30,31,31,32,32,33,33,34,34,36,36,37,37,38,38,40,40,41,41,42,42,43,43,44,44,45,45,46,46,47,47,49,49,50,50,51,51,53,53,54,54,55,55,56,56,59,59,60,60,61,61,62,62,63,63,64,64,65,65,66,66,67,67,69,69,70,70,73,73,79,79,80,80,81,81,83,83,84,84,85,85,86,86,87,87,89,89,90,90,91,91,92,92,95,95,96,96,97,97,101,101,103,103,104,104,105,105,106,106,107,107,108,108,109,109,110,110,112,112,113,113,114,114,115,115,123,123,124,124,126,126,127,127,128,128,129,129,130,130,132,132,133,133,134,134,135,135,137,137,138,138,139,139,141,141,142,142,143,143,144,144,145,145,146,146,147,147,148,148,149,149,150,150,153,153,156,156,157,157,159,159,160,160,161,161,162,162,163,163,164,164,165,165,166,166,167,167,168,168,169,169,170,170,171,171,173,173,174,174,176,176,177,177,178,178,183,183,186,186,189,189,190,190,191,191,192,192,195,195,196,196,199,199,200,200,201,201,202,202,204,204,205,205,213,213,214,214,215,215,216,216,218,218,219,219,220,220,221,221,222,222,223,223,224,224,225,225,226,226,228,228,229,229,230,230],"right_children":[-1,-1,-1,-1,-1,-1,-1,-1,-1,-1,-1,-1,-1,-1,-1,-1,-1,-1,-1,-1,-1,-1,-1,-1,-1,-1,-1,-1,-1,-1,-1,-1,-1,-1,-1,-1,-1,-1,-1,-1,-1,-1,-1,-1,-1,-1,-1,-1,-1,-1,-1,-1,-1,-1,-1,-1,-1,-1,-1,-1,-1,-1,-1,-1,-1,-1,-1,-1,-1,-1,-1,-1,-1,-1,-1,-1,-1,-1,-1,-1,-1,-1,-1,-1,-1,-1,-1,-1,-1,-1,-1,-1,-1,-1,-1,-1,-1,-1,-1,-1,-1,-1,-1,