{"learner":{"attributes":{"best_iteration":"39","best_ntree_limit":"40","scikit_learn":"{\"n_estimators\": 40, \"objective\": \"reg:squarederror\", \"max_depth\": 11, \"max_leaves\": null, \"max_bin\": null, \"grow_policy\": null, \"learning_rate\": null, \"verbosity\": null, \"booster\": null, \"tree_method\": null, \"gamma\": null, \"min_child_weight\": null, \"max_delta_step\": null, \"subsample\": null, \"sampling_method\": null, \"colsample_bytree\": null, \"colsample_bylevel\": null, \"colsample_bynode\": null, \"reg_alpha\": null, \"reg_lambda\": null, \"scale_pos_weight\": null, \"base_score\": null, \"missing\": NaN, \"num_parallel_tree\": null, \"random_state\": null, \"n_jobs\": null, \"monotone_constraints\": null, \"interaction_constraints\": null, \"importance_type\": null, \"gpu_id\": null, \"validate_parameters\": null, \"predictor\": null, \"enable_categorical\": false, \"feature_types\": null, \"max_cat_to_onehot\": null, \"max_cat_threshold\": null, \"eval_metric\": [\"rmse\", \"logloss\"], \"early_stopping_rounds\": null, \"callbacks\": null, \"evals_result_\": {\"validation_0\": {\"rmse\": [6.386772408698129, 4.483957673658148, 3.1499368655499564, 2.2157953687597765, 1.562483807069386, 1.1073561645120287, 0.7917424088130566, 0.5755359809169702, 0.42933390785931563, 0.32995024376548787, 0.26271049274207864, 0.2170837740400471, 0.18472735200043888, 0.16350458847154398, 0.1479477100750783, 0.13434026495127604, 0.12259083950692572, 0.11747680193503648, 0.11052253807828506, 0.1067731945633908, 0.10316922211228, 0.10052284206464297, 0.09827756425926029, 0.094630324680812, 0.09039915441224905, 0.0849712290632803, 0.08335194855871525, 0.08250934922547633, 0.08221731898277995, 0.08030129948928694, 0.07863837590533443, 0.07366500781060482, 0.07149907820325206, 0.07027787924605457, 0.06669914783772406, 0.06506412711281054, 0.06483388956965579, 0.06246782321065074, 0.06108191687337287, 0.05616897952880511], \"logloss\": [-305.2954070118026, -309.45478952305496, -311.5297968156277, -312.7427037397888, -313.50488482431007, -314.00349091356713, -314.33702322732154, -314.5633848835635, -314.718425052909, -314.82411161289633, -314.89748741236866, -314.9489222789825, -314.985081147445, -315.0112859552557, -315.02983376102907, -315.042889372057, -315.0522781692348, -315.0592921206379, -315.0640985204141, -315.0676973092082, -315.0702490171592, -315.07207835910384, -315.0733068347938, -315.0743252157933, -315.0749783318408, -315.0754811337566, -315.0758995902449, -315.07617681703204, -315.0763874356204, -315.0765457672976, -315.0765920177181, -315.07656298168905, -315.0767290329052, -315.0767765570124, -315.0768145873277, -315.07688620543195, -315.0769030422776, -315.07692510961726, -315.07694699454714, -315.0768948179303]}}, \"_estimator_type\": \"regressor\"}"},"feature_names":["day_of_month","month","quarter","day_of_week","week_of_month","year","Close_lag_1","Close_lag_2","Close_MA_3"],"feature_types":["int","int","int","int","int","int","float","float","float"],"gradient_booster":{"model":{"gbtree_model_param":{"num_parallel_tree":"1","num_trees":"40","size_leaf_vector":"0"},"tree_info":[0,0,0,0,0,0,0,0,0,0,0,0,0,0,0,0,0,0,0,0,0,0,0,0,0,0,0,0,0,0,0,0,0,0,0,0,0,0,0,0],"trees":[{"base_weights":[8.4977045E0,7.000674E0,1.2991002E1,5.261076E0,8.254312E0,1.1162476E1,1.5301701E1,3.4665613E0,5.769864E0,7.465623E0,9.0872555E0,1.0430569E1,1.2165749E1,1.4162827E1,1.6222322E1,2.6930158E0,4.2009377E0,5.1778984E0,6.2801065E0,7.107828E0,7.8728647E0,8.672592E0,9.421716E0,2.0886207E0,2.8443878E0,4.820183E0,5.390996E0],"categories":[],"categories_nodes":[],"categories_segments":[],"categories_sizes":[],"default_left":[1,1,1,1,1,1,1,1,1,1,1,0,0,0,0,1,0,1,0,0,0,0,0,0,0,0,0],"id":0,"left_children":[1,3,5,7,9,11,13,15,17,19,21,-1,-1,-1,-1,23,-1,25,-1,-1,-1,-1,-1,-1,-1,-1,-1],"loss_changes":[2.4111406E4,5.8469844E3,3.6233906E3,1.0153711E3,9.6222656E2,2.4392969E2,1.8335156E2,1.3240942E2,2.3388672E2,6.2210938E1,2.3417969E1,0E0,0E0,0E0,0E0,5.586731E0,0E0,5.573242E0,0E0,0E0,0E0,0E0,0E0,0E0,0E0,0E0,0E0],"parents":[2147483647,0,0,1,1,2,2,3,3,4,4,5,5,6,6,7,7,8,8,9,9,10,10,15,15,17,17],"right_children":[2,4,6,8,10,12,14,16,18,20,22,-1,-1,-1,-1,24,-1,26,-1,-1,-1,-1,-1,-1,-1,-1,-1],"split_conditions":[1.0445E1,7.275E0,1.3805E1,5.0950003E0,8.815001E0,1.1665E1,1.5775E1,3.9516668E0,6.205E0,7.9849997E0,9.530001E0,3.1291707E0,3.6497247E0,4.248848E0,4.866697E0,2.97E0,1.2602813E0,5.565E0,1.884032E0,2.1323485E0,2.3618596E0,2.6017778E0,2.8265147E0,6.265862E-1,8.5331637E-1,1.4460549E0,1.6172988E0],"split_indices":[6,6,6,6,6,8,6,8,6,6,6,0,0,0,0,6,0,6,0,0,0,0,0,0,0,0,0],"split_type":[0,0,0,0,0,0,0,0,0,0,0,0,0,0,0,0,0,0,0,0,0,0,0,0,0,0,0],"sum_hessian":[3.597E3,2.7E3,8.97E2,1.133E3,1.567E3,5.04E2,3.93E2,2.52E2,8.81E2,8.1E2,7.57E2,2.98E2,2.06E2,1.83E2,2.1E2,1.25E2,1.27E2,4.13E2,4.68E2,4.41E2,3.69E2,3.5E2,4.07E2,2.8E1,9.7E1,1.63E2,2.5E2],"tree_param":{"num_deleted":"0","num_feature":"9","num_nodes":"27","size_leaf_vector":"0"}},{"base_weights":[5.957705E0,4.8287215E0,8.910465E0,3.525694E0,5.6085324E0,7.526812E0,1.0546293E1,2.083656E0,3.8243597E0,5.0527363E0,6.204828E0,7.195187E0,8.181162E0,9.571391E0,1.1252555E1,1.7890815E0,2.520727E0,3.4156213E0,4.138036E0,4.7883315E0,5.307071E0,5.8835135E0,6.4093995E0,1.3647431E0,1.8669615E0,3.9460323E0,4.3718348E0],"categories":[],"categories_nodes":[],"categories_segments":[],"categories_sizes":[],"default_left":[1,1,1,1,1,1,1,1,1,1,1,0,0,0,0,1,0,0,1,0,0,0,0,0,0,0,0],"id":1,"left_children":[1,3,5,7,9,11,13,15,17,19,21,-1,-1,-1,-1,23,-1,-1,25,-1,-1,-1,-1,-1,-1,-1,-1],"loss_changes":[1.1951328E4,2.627207E3,2.170461E3,4.1324414E2,5.0820312E2,5.8748047E1,2.0419922E2,1.7377747E1,8.958984E1,3.1611328E1,1.3625E1,0E0,0E0,0E0,0E0,9.220581E-1,0E0,0E0,3.0839844E0,0E0,0E0,0E0,0E0,0E0,0E0,0E0,0E0],"parents":[2147483647,0,0,1,1,2,2,3,3,4,4,5,5,6,6,7,7,8,8,9,9,10,10,15,15,18,18],"right_children":[2,4,6,8,10,12,14,16,18,20,22,-1,-1,-1,-1,24,-1,-1,26,-1,-1,-1,-1,-1,-1,-1,-1],"split_conditions":[1.0195E1,6.9449997E0,1.3184999E1,4.6549997E0,8.515E0,1.145E1,1.5165E1,3.56E0,5.865E0,7.705E0,9.245E0,2.1585562E0,2.4543486E0,2.8714175E0,3.3757665E0,2.77E0,7.5621814E-1,1.0246865E0,6.535E0,1.4364995E0,1.5921215E0,1.7650541E0,1.92282E0,4.0942296E-1,5.6008846E-1,1.1838098E0,1.3115505E0],"split_indices":[6,6,6,6,6,6,6,6,6,6,6,0,0,0,0,6,0,0,6,0,0,0,0,0,0,0,0],"split_type":[0,0,0,0,0,0,0,0,0,0,0,0,0,0,0,0,0,0,0,0,0,0,0,0,0,0,0],"sum_hessian":[3.597E3,2.604E3,9.93E2,9.77E2,1.627E3,5.41E2,4.52E2,1.69E2,8.08E2,8.47E2,7.8E2,3.67E2,1.74E2,1.96E2,2.56E2,1.04E2,6.5E1,3.56E2,4.52E2,4.25E2,4.22E2,3.15E2,4.65E2,1.9E1,8.5E1,2.58E2,1.94E2],"tree_param":{"num_deleted":"0","num_feature":"9","num_nodes":"27","size_leaf_vector":"0"}},{"base_weights":[4.1767364E0,3.4881656E0,6.584523E0,2.6473742E0,4.158665E0,5.698327E0,7.6547956E0,1.8614854E0,2.9550686E0,3.7523305E0,4.547906E0,5.306232E0,6.247848E0,7.247964E0,8.487291E0,1.3694429E0,2.1900218E0,2.7132065E0,3.2209916E0,3.5746596E0,3.9626682E0,4.3788595E0,4.827359E0,1.1371799E0,1.5128624E0],"categories":[],"categories_nodes":[],"categories_segments":[],"categories_sizes":[],"default_left":[1,1,1,1,1,1,1,1,1,1,1,0,0,0,0,1,0,0,0,0,0,0,0,0,0],"id":2,"left_children":[1,3,5,7,9,11,13,15,17,19,21,-1,-1,-1,-1,23,-1,-1,-1,-1,-1,-1,-1,-1,-1],"loss_changes":[5.9422734E3,1.5674883E3,7.1421094E2,2.9555664E2,2.2903711E2,6.1867188E1,6.0072266E1,5.4064575E1,4.86958E1,1.4498047E1,1.6180664E1,0E0,0E0,0E0,0E0,3.076416E0,0E0,0E0,0E0,0E0,0E0,0E0,0E0,0E0,0E0],"parents":[2147483647,0,0,1,1,2,2,3,3,4,4,5,5,6,6,7,7,8,8,9,9,10,10,15,15],"right_children":[2,4,6,8,10,12,14,16,18,20,22,-1,-1,-1,-1,24,-1,-1,-1,-1,-1,-1,-1,-1,-1],"split_conditions":[1.0765E1,7.455E0,1.4255E1,5.395E0,8.965E0,1.2365E1,1.6625E1,4.325E0,6.625E0,8.175E0,9.945E0,1.5918697E0,1.8743545E0,2.1743894E0,2.5461874E0,3.205E0,6.5700656E-1,8.13962E-1,9.662975E-1,1.072398E0,1.1888005E0,1.3136579E0,1.4482079E0,3.4115398E-1,4.5385876E-1],"split_indices":[6,6,7,6,6,6,6,6,6,6,6,0,0,0,0,6,0,0,0,0,0,0,0,0,0],"split_type":[0,0,0,0,0,0,0,0,0,0,0,0,0,0,0,0,0,0,0,0,0,0,0,0,0],"sum_hessian":[3.597E3,2.799E3,7.98E2,1.244E3,1.555E3,4.4E2,3.58E2,3.52E2,8.92E2,7.66E2,7.89E2,2.63E2,1.77E2,2.47E2,1.11E2,1.43E2,2.09E2,4.73E2,4.19E2,4.25E2,3.41E2,5.02E2,2.87E2,5.8E1,8.5E1],"tree_param":{"num_deleted":"0","num_feature":"9","num_nodes":"25","size_leaf_vector":"0"}},{"base_weights":[2.9282854E0,2.454567E0,4.6592093E0,1.8922044E0,2.9586296E0,4.072649E0,5.4662876E0,1.3993208E0,2.1460009E0,2.6808934E0,3.218679E0,3.7904892E0,4.495996E0,5.138177E0,5.9234385E0,9.652376E-1,1.5973299E0,1.969761E0,2.3041265E0,2.549696E0,2.8183904E0,3.0476575E0,3.3612022E0,1.0402017E0,3.7966852E0,8.433502E-1,1.1407574E0,1.3281777E0,1.6483184E0,6.209052E-1,8.8305575E-1],"categories":[],"categories_nodes":[],"categories_segments":[],"categories_sizes":[],"default_left":[1,1,1,1,1,1,1,1,1,1,1,1,0,0,0,1,1,0,0,0,0,0,0,0,0,1,0,0,0,0,0],"id":3,"left_children":[1,3,5,7,9,11,13,15,17,19,21,23,-1,-1,-1,25,27,-1,-1,-1,-1,-1,-1,-1,-1,29,-1,-1,-1,-1,-1],"loss_changes":[2.9388184E3,7.9575977E2,3.4320312E2,1.6449512E2,9.891406E1,3.6830566E1,1.7863281E1,3.7824463E1,2.0041016E1,5.9101562E0,8.378418E0,7.709961E-1,0E0,0E0,0E0,2.1614227E0,2.1062012E0,0E0,0E0,0E0,0E0,0E0,0E0,0E0,0E0,2.4661255E-1,0E0,0E0,0E0,0E0,0E0],"parents":[2147483647,0,0,1,1,2,2,3,3,4,4,5,5,6,6,7,7,8,8,9,9,10,10,11,11,15,15,16,16,25,25],"right_children":[2,4,6,8,10,12,14,16,18,20,22,24,-1,-1,-1,26,28,-1,-1,-1,-1,-1,-1,-1,-1,30,-1,-1,-1,-1,-1],"split_conditions":[1.0885E1,7.5950003E0,1.4515E1,5.725E0,9.085E0,1.265E1,1.6474998E1,4.325E0,6.785E0,8.305E0,9.745E0,1.029E1,1.3487989E0,1.5414531E0,1.7770317E0,3.3850002E0,4.875E0,5.909283E-1,6.91238E-1,7.6490885E-1,8.4551716E-1,9.142973E-1,1.0083607E0,3.120605E-1,1.1390057E0,2.71E0,3.4222725E-1,3.9845333E-1,4.9449554E-1,1.8627158E-1,2.6491675E-1],"split_indices":[6,6,6,6,6,6,6,8,6,6,6,7,0,0,0,6,6,0,0,0,0,0,0,0,0,6,0,0,0,0,0],"split_type":[0,0,0,0,0,0,0,0,0,0,0,0,0,0,0,0,0,0,0,0,0,0,0,0,0,0,0,0,0,0,0],"sum_hessian":[3.597E3,2.826E3,7.71E2,1.338E3,1.488E3,4.5E2,3.21E2,4.57E2,8.81E2,7.25E2,7.63E2,2.76E2,1.74E2,1.94E2,1.27E2,1.45E2,3.12E2,4.23E2,4.58E2,3.81E2,3.44E2,3.57E2,4.06E2,1E0,2.75E2,8.9E1,5.6E1,5.4E1,2.58E2,1.6E1,7.3E1],"tree_param":{"num_deleted":"0","num_feature":"9","num_nodes":"31","size_leaf_vector":"0"}},{"base_weights":[2.0533073E0,1.7316904E0,3.3166637E0,1.312212E0,2.072864E0,2.915375E0,3.864962E0,8.6424226E-1,1.4476767E0,1.8939527E0,2.2970586E0,2.6094863E0,3.1130168E0,3.7105787E0,4.5610957E0,6.1792535E-1,1.0001522E0,1.2724298E0,1.5721627E0,1.786616E0,2.018473E0,2.192889E0,2.4192982E0,2.6179423E0,5.775256E-1,2.9880428E-1,6.3027585E-1,9.0714365E-1,1.0649539E0,1.2266829E0,1.363637E0,1.5101042E0,1.6470983E0],"categories":[],"categories_nodes":[],"categories_segments":[],"categories_sizes":[],"default_left":[1,1,1,1,1,1,1,1,1,1,1,1,0,0,0,1,1,1,1,0,0,0,0,0,0,0,0,0,0,0,0,0,0],"id":4,"left_children":[1,3,5,7,9,11,13,15,17,19,21,23,-1,-1,-1,25,27,29,31,-1,-1,-1,-1,-1,-1,-1,-1,-1,-1,-1,-1,-1,-1],"loss_changes":[1.4561846E3,4.080205E2,1.4913135E2,7.7031494E1,5.9064453E1,1.7570557E1,1.5854492E1,9.49202E0,1.957544E1,8.222168E0,3.5703125E0,1.4606934E0,0E0,0E0,0E0,2.4521637E-1,1.9715881E-1,6.2927246E-2,1.8188477E-1,0E0,0E0,0E0,0E0,0E0,0E0,0E0,0E0,0E0,0E0,0E0,0E0,0E0,0E0],"parents":[2147483647,0,0,1,1,2,2,3,3,4,4,5,5,6,6,7,7,8,8,9,9,10,10,11,11,15,15,16,16,17,17,18,18],"right_children":[2,4,6,8,10,12,14,16,18,20,22,24,-1,-1,-1,26,28,30,32,-1,-1,-1,-1,-1,-1,-1,-1,-1,-1,-1,-1,-1,-1],"split_conditions":[1.1065001E1,7.525E0,1.4695E1,5.2650003E0,9.305E0,1.2155E1,1.734E1,3.7E0,6.395E0,8.385E0,1.0051666E1,1.2488334E1,9.3390507E-1,1.1131736E0,1.3683288E0,2.4650002E0,4.815E0,5.995E0,7.065E0,5.359848E-1,6.055419E-1,6.578667E-1,7.257895E-1,7.8538275E-1,1.732577E-1,8.964129E-2,1.8908276E-1,2.721431E-1,3.194862E-1,3.680049E-1,4.0909111E-1,4.5303127E-1,4.941295E-1],"split_indices":[6,6,6,6,6,6,6,6,6,6,8,8,0,0,0,6,6,6,6,0,0,0,0,0,0,0,0,0,0,0,0,0,0],"split_type":[0,0,0,0,0,0,0,0,0,0,0,0,0,0,0,0,0,0,0,0,0,0,0,0,0,0,0,0,0,0,0,0,0],"sum_hessian":[3.597E3,2.869E3,7.28E2,1.289E3,1.58E3,4.24E2,3.04E2,3.01E2,9.88E2,8.84E2,6.96E2,1.72E2,2.52E2,2.54E2,5E1,1.09E2,1.92E2,4.15E2,5.73E2,4.83E2,4.01E2,3.86E2,3.1E2,1.71E2,1E0,5E0,1.04E2,8.5E1,1.07E2,2.86E2,1.29E2,3.25E2,2.48E2],"tree_param":{"num_deleted":"0","num_feature":"9","num_nodes":"33","size_leaf_vector":"0"}},{"base_weights":[1.4399537E0,1.2170342E0,2.3418195E0,9.576053E-1,1.4957447E0,2.0277529E0,2.6814036E0,7.389831E-1,1.1073676E0,1.3944132E0,1.6502966E0,1.8936135E0,2.2265415E0,2.5539062E0,3.1348739E0,4.7623786E-1,8.195437E-1,1.0136498E0,1.1552258E0,1.30772E0,1.4526591E0,4.1760045E-1,5.772762E-1,7.1127814E-1,8.618786E-1,3.365939E-1,4.546897E-1,1.9018085E-1,5.891947E-1],"categories":[],"categories_nodes":[],"categories_segments":[],"categories_sizes":[],"default_left":[1,1,1,1,1,1,1,1,1,1,0,0,0,0,0,1,1,0,0,0,0,1,1,0,0,0,0,0,0],"id":5,"left_children":[1,3,5,7,9,11,13,15,17,19,-1,-1,-1,-1,-1,21,23,-1,-1,-1,-1,25,27,-1,-1,-1,-1,-1,-1],"loss_changes":[7.205044E2,2.0731348E2,7.049902E1,4.822815E1,1.9467773E1,5.756714E0,1.1593506E1,1.2563873E1,2.807373E0,2.3723145E0,0E0,0E0,0E0,0E0,0E0,6.2392807E-1,1.5274048E0,0E0,0E0,0E0,0E0,1.353836E-1,1.23241425E-1,0E0,0E0,0E0,0E0,0E0,0E0],"parents":[2147483647,0,0,1,1,2,2,3,3,4,4,5,5,6,6,7,7,8,8,9,9,15,15,16,16,21,21,22,22],"right_children":[2,4,6,8,10,12,14,16,18,20,-1,-1,-1,-1,-1,22,24,-1,-1,-1,-1,26,28,-1,-1,-1,-1,-1,-1],"split_conditions":[1.1105E1,7.875E0,1.4365E1,6.0550003E0,9.625E0,1.288E1,1.714E1,4.325E0,6.855E0,8.585E0,4.95089E-1,5.6808406E-1,6.679625E-1,7.661719E-1,9.404622E-1,3.45E0,5.215E0,3.0409497E-1,3.4656775E-1,3.92316E-1,4.3579775E-1,3.045E0,2.5E0,2.1338345E-1,2.5856358E-1,1.0097817E-1,1.3640691E-1,5.705426E-2,1.7675842E-1],"split_indices":[7,6,6,6,6,6,6,8,6,6,0,0,0,0,0,6,8,0,0,0,0,6,0,0,0,0,0,0,0],"split_type":[0,0,0,0,0,0,0,0,0,0,0,0,0,0,0,0,0,0,0,0,0,0,0,0,0,0,0,0,0],"sum_hessian":[3.597E3,2.886E3,7.11E2,1.497E3,1.389E3,3.73E2,3.38E2,6.11E2,8.86E2,8.45E2,5.44E2,2.29E2,1.44E2,2.69E2,6.9E1,1.45E2,4.66E2,3.07E2,5.79E2,3.49E2,4.96E2,9.5E1,5E1,1.36E2,3.3E2,3.3E1,6.2E1,2E0,4.8E1],"tree_param":{"num_deleted":"0","num_feature":"9","num_nodes":"29","size_leaf_vector":"0"}},{"base_weights":[1.0095963E0,8.156092E-1,1.5306349E0,6.0385764E-1,9.544782E-1,1.3013616E0,1.8305048E0,3.8683912E-1,6.638286E-1,8.5979843E-1,1.041528E0,1.2450728E0,1.4628367E0,1.6589916E0,2.072971E0,2.947931E-1,4.503698E-1,5.969062E-1,7.262703E-1,8.2077664E-1,9.1053474E-1,9.9135226E-1,1.0821956E0,1.2487056E0,3.2509837E-1,1.9746504E0,2.482922E0,2.0817602E-1,3.1346256E-1,4.790188E-1,3.815339E-1,5.594879E-1,6.233564E-1,8.2182056E-1,1.8020582E-1,9.936111E-1,6.875563E-2,1.0834081E0,2.7373266E-1,2.3698336E-1,1.3534209E-1,1.5214467E-1,3.888347E-1],"categories":[],"categories_nodes":[],"categories_segments":[],"categories_sizes":[],"default_left":[1,1,1,1,1,1,1,1,1,1,1,1,0,0,1,1,1,1,0,1,0,1,1,0,0,0,0,1,0,0,1,0,0,0,0,0,0,0,0,0,0,0,0],"id":6,"left_children":[1,3,5,7,9,11,13,15,17,19,21,23,-1,-1,25,27,29,31,-1,33,-1,35,37,-1,-1,-1,-1,39,-1,-1,41,-1,-1,-1,-1,-1,-1,-1,-1,-1,-1,-1,-1],"loss_changes":[3.6241846E2,7.658411E1,6.465137E1,1.3304626E1,1.2151367E1,3.2322998E0,1.4027222E1,1.2005196E0,2.9721375E0,7.653198E-1,6.003418E-1,9.9438477E-1,0E0,0E0,1.9492188E0,8.99868E-2,7.95269E-2,4.6142578E-2,0E0,1.4746094E-1,0E0,7.215271E-1,1.3665771E-1,0E0,0E0,0E0,0E0,9.889126E-3,0E0,0E0,1.4528275E-2,0E0,0E0,0E0,0E0,0E0,0E0,0E0,0E0,0E0,0E0,0E0,0E0],"parents":[2147483647,0,0,1,1,2,2,3,3,4,4,5,5,6,6,7,7,8,8,9,9,10,10,11,11,14,14,15,15,16,16,17,17,19,19,21,21,22,22,27,27,30,30],"right_children":[2,4,6,8,10,12,14,16,18,20,22,24,-1,-1,26,28,30,32,-1,34,-1,36,38,-1,-1,-1,-1,40,-1,-1,42,-1,-1,-1,-1,-1,-1,-1,-1,-1,-1,-1,-1],"split_conditions":[1.0235E1,7.065E0,1.3450001E1,5.0150003E0,8.445E0,1.2155E1,1.617E1,3.45E0,6.0950003E0,7.835E0,9.315001E0,1.2423334E1,4.3885103E-1,4.976975E-1,1.7665E1,2.7566667E0,7.5E0,5.5150003E0,2.178811E-1,8.045E0,2.7316043E-1,9.5E0,1.09E1,3.746117E-1,9.7529516E-2,5.923951E-1,7.448766E-1,1.9E1,9.403877E-2,1.4370565E-1,2.5E0,1.6784637E-1,1.8700692E-1,2.4654618E-1,5.4061748E-2,2.9808334E-1,2.0626688E-2,3.2502246E-1,8.21198E-2,7.109501E-2,4.060263E-2,4.5643404E-2,1.1665042E-1],"split_indices":[7,6,6,6,6,6,6,6,6,8,8,8,0,0,6,8,1,6,0,6,0,7,6,0,0,0,0,0,0,0,0,0,0,0,0,0,0,0,0,0,0,0,0],"split_type":[0,0,0,0,0,0,0,0,0,0,0,0,0,0,0,0,0,0,0,0,0,0,0,0,0,0,0,0,0,0,0,0,0,0,0,0,0,0,0,0,0,0,0],"sum_hessian":[3.597E3,2.623E3,9.74E2,1.041E3,1.582E3,5.55E2,4.19E2,2.27E2,8.14E2,7.63E2,8.19E2,4.18E2,1.37E2,2.5E2,1.69E2,9.5E1,1.32E2,3.98E2,4.16E2,4.41E2,3.22E2,3.78E2,4.41E2,4.16E2,2E0,1.41E2,2.8E1,1.9E1,7.6E1,8.9E1,4.3E1,1.74E2,2.24E2,4.4E2,1E0,3.77E2,1E0,4.4E2,1E0,1.2E1,7E0,2E0,4.1E1],"tree_param":{"num_deleted":"0","num_feature":"9","num_nodes":"43","size_leaf_vector":"0"}},{"base_weights":[7.081431E-1,5.838619E-1,1.1155047E0,4.296415E-1,6.858588E-1,9.859649E-1,1.3656391E0,2.9669052E-1,4.7770947E-1,6.0052925E-1,7.405105E-1,9.071106E-1,1.0893764E0,1.3117151E0,1.7492995E0,2.1500342E-1,3.43405E-1,4.3115407E-1,5.2308244E-1,5.829682E-1,6.421227E-1,7.0887196E-1,7.961302E-1,1.0913022E0,3.184247E-1,1.2137285E0,1.3809404E0,1.3758989E-1,2.2965471E-1,3.147929E-1,3.6694977E-1,4.128201E-1,4.7259876E-1,5.242157E-1,3.3186436E-2,7.127721E-1,5.4162854E-1,7.871632E-1,1.390677E0,1.2285216E0,5.0348806E-1,3.7671447E-2,1.4086604E-1,1.7674384E-1,2.3858579E-1,2.680748E-1,3.404979E-1,4.134469E-1,1.1646724E-1,2.7982116E-1,4.787065E-1,1.2236595E-1,5.581228E-1,7.8943944E-1,2.576952E-1,1.8210305E-1,4.5498133E-2,2.5599325E-1,1.9815794E-1,7.4445404E-2,2.7701235E-1,3.438887E-1,7.869744E-2,1.2938023E-1,5.7573235E-1,6.821251E-2,2.5848424E-1,2.0262986E-1,4.094386E-2,9.149814E-2,2.0169973E-2,2.0416987E-1,3.1077516E-1,2.4206202E-1,1.1330334E-1,1.6836119E-1,3.4275803E-1,7.840554E-3,1.640746E-1,-2.2596478E-2,3.435731E-2],"categories":[],"categories_nodes":[],"categories_segments":[],"categories_sizes":[],"default_left":[1,1,1,1,1,1,1,1,1,1,1,0,1,1,0,1,1,1,1,0,0,1,1,0,0,1,0,1,1,1,0,1,1,0,0,0,1,1,0,0,0,0,0,1,1,1,1,0,0,0,0,0,1,0,0,0,0,1,1,1,1,0,0,0,0,0,0,0,0,0,0,1,1,0,1,0,0,1,0,0,0],"id":7,"left_children":[1,3,5,7,9,11,13,15,17,19,21,-1,23,25,-1,27,29,31,33,-1,-1,35,37,-1,-1,39,-1,41,43,45,-1,47,49,-1,-1,-1,51,53,-1,-1,-1,-1,-1,55,57,59,61,-1,-1,-1,-1,-1,63,-1,-1,-1,-1,65,67,69,71,-1,-1,-1,-1,-1,-1,-1,-1,-1,-1,73,75,-1,77,-1,-1,79,-1,-1,-1],"loss_changes":[1.815061E2,4.310437E1,2.5871582E1,6.894409E0,7.291931E0,3.553772E0,3.5809937E0,1.051878E0,1.4791412E0,1.02645874E-1,1.2077026E0,0E0,2.8381348E-3,4.006958E-2,0E0,9.3164444E-2,9.788513E-3,1.1187744E-1,2.0689392E-1,0E0,0E0,3.85437E-2,8.085785E-1,0E0,0E0,5.687103E-1,0E0,1.2403429E-3,8.339882E-4,1.8001556E-2,0E0,5.344391E-3,3.8070679E-3,0E0,0E0,0E0,6.3097954E-2,2.2320557E-1,0E0,0E0,0E0,0E0,0E0,3.6720037E-3,2.0537376E-3,4.3408632E-2,2.1761417E-2,0E0,0E0,0E0,0E0,0E0,6.1410904E-2,0E0,0E0,0E0,0E0,5.2883625E-3,1.0685921E-2,9.311177E-4,2.2627115E-2,0E0,0E0,0E0,0E0,0E0,0E0,0E0,0E0,0E0,0E0,2.0777285E-2,4.249859E-2,0E0,3.0840442E-2,0E0,0E0,3.1976283E-3,0E0,0E0,0E0],"parents":[2147483647,0,0,1,1,2,2,3,3,4,4,5,5,6,6,7,7,8,8,9,9,10,10,12,12,13,13,15,15,16,16,17,17,18,18,21,21,22,22,25,25,27,27,28,28,29,29,31,31,32,32,36,36,37,37,43,43,44,44,45,45,46,46,52,52,57,57,58,58,59,59,60,60,71,71,72,72,74,74,77,77],"right_children":[2,4,6,8,10,12,14,16,18,20,22,-1,24,26,-1,28,30,32,34,-1,-1,36,38,-1,-1,40,-1,42,44,46,-1,48,50,-1,-1,-1,52,54,-1,-1,-1,-1,-1,56,58,60,62,-1,-1,-1,-1,-1,64,-1,-1,-1,-1,66,68,70,72,-1,-1,-1,-1,-1,-1,-1,-1,-1,-1,74,76,-1,78,-1,-1,80,-1,-1,-1],"split_conditions":[1.0645E1,7.1949997E0,1.4895E1,5.2349997E0,2.0165E3,1.248E1,1.761E1,3.7E0,6.325E0,8.105E0,9.715E0,2.7213317E-1,1.529E1,1.6115E1,5.2478987E-1,1.5E0,4.875E0,6.5E0,7.338333E0,1.7489046E-1,1.9263682E-1,9.775E0,1.1285E1,3.2739067E-1,9.552742E-2,1.6363333E1,4.1428214E-1,2.38E0,3.01E0,1.5E0,1.10084936E-1,6.315E0,5.295E0,1.5726471E-1,9.955931E-3,2.1383163E-1,3E0,1.1003333E1,4.172031E-1,3.685565E-1,1.5104643E-1,1.1301435E-2,4.2259812E-2,2.25E1,2.25E1,2.0125E3,5.0299997E0,1.2403408E-1,3.4940172E-2,8.394635E-2,1.4361195E-1,3.6709785E-2,9.52E0,2.3683184E-1,7.7308565E-2,5.4630917E-2,1.364944E-2,3.02E0,3.605E0,2.45E1,4.3016667E0,1.0316662E-1,2.3609234E-2,3.8814068E-2,1.7271972E-1,2.0463753E-2,7.754528E-2,6.0788963E-2,1.22831585E-2,2.7449442E-2,6.0509923E-3,4.205E0,8E0,7.261861E-2,4.2483335E0,5.0508358E-2,1.02827415E-1,1.95E1,4.9222384E-2,-6.778944E-3,1.0307193E-2],"split_indices":[6,7,6,6,5,6,6,6,7,6,6,0,7,6,0,1,6,1,8,0,0,8,7,0,0,8,0,7,7,3,0,7,6,0,0,0,0,8,0,0,0,0,0,0,0,5,7,0,0,0,0,0,7,0,0,0,0,6,6,0,8,0,0,0,0,0,0,0,0,0,0,7,0,0,8,0,0,0,0,0,0],"split_type":[0,0,0,0,0,0,0,0,0,0,0,0,0,0,0,0,0,0,0,0,0,0,0,0,0,0,0,0,0,0,0,0,0,0,0,0,0,0,0,0,0,0,0,0,0,0,0,0,0,0,0,0,0,0,0,0,0,0,0,0,0,0,0,0,0,0,0,0,0,0,0,0,0,0,0,0,0,0,0,0,0],"sum_hessian":[3.597E3,2.758E3,8.39E2,1.1E3,1.658E3,5.56E2,2.83E2,2.94E2,8.06E2,6.52E2,1.006E3,3.21E2,2.35E2,2.52E2,3.1E1,1.09E2,1.85E2,4.03E2,4.03E2,4.69E2,1.83E2,6.5E2,3.56E2,2.34E2,1E0,1.12E2,1.4E2,1.9E1,9E1,9E1,9.5E1,2.87E2,1.16E2,4.02E2,1E0,6.32E2,1.8E1,3.53E2,3E0,1.09E2,3E0,1E0,1.8E1,1.6E1,7.4E1,3.6E1,5.4E1,2.86E2,1E0,5E0,1.11E2,1E0,1.7E1,3.51E2,2E0,1.5E1,1E0,4.8E1,2.6E1,2E0,3.4E1,5.3E1,1E0,1E0,1.6E1,1E0,4.7E1,2.5E1,1E0,1E0,1E0,1.3E1,2.1E1,8E0,5E0,5E0,1.6E1,2E0,3E0,1E0,1E0],"tree_param":{"num_deleted":"0","num_feature":"9","num_nodes":"81","size_leaf_vector":"0"}},{"base_weights":[4.9712056E-1,4.2047745E-1,8.271857E-1,3.138334E-1,5.019301E-1,7.5718814E-1,1.0251833E0,2.3249821E-1,3.547078E-1,4.468005E-1,5.524963E-1,6.7485285E-1,8.100254E-1,9.785786E-1,1.4242437E0,1.5880111E-1,2.614564E-1,3.1497625E-1,3.7785864E-1,4.2731354E-1,4.7350255E-1,5.2373177E-1,5.92051E-1,-1.3790941E-1,6.795592E-1,8.131682E-1,2.2573598E-1,9.823933E-1,1.879301E-1,1.4734693E0,3.4292984E-1,9.899096E-2,1.6877612E-1,2.838509E-1,2.417552E-1,3.1660032E-1,3.9997738E-2,4.5385885E-1,5.2247524E-1,5.312085E-1,4.527644E-1,5.867425E-1,1.0175635E0,6.930925E-1,4.7891557E-1,4.753394E-2,1.0888435E-1,1.4566332E-1,1.8527853E-1,2.848943E-1,7.097411E-2,2.4914399E-1,1.9153446E-1,2.9880682E-1,3.47773E-1,3.9554653E-1,4.6937206E-1,5.9358734E-1,4.7463402E-1,4.9013472E-1,3.4039924E-1,5.9137714E-1,3.5686255E-2,1.946485E-1,5.295427E-1,6.587607E-2,-1.291728E-2,6.761126E-2,1.5229098E-1,1.5151052E-1,4.346651E-2,4.3830793E-2,1.8962517E-1,2.0290668E-1,2.5953183E-1,2.610253E-1,1.3939077E-1,1.8475313E-1,3.03058E-1,3.5109043E-1,1.7374742E-1,6.709814E-3,4.7185007E-1,6.0785645E-1,8.2756996E-2,4.9762174E-1,1.028142E-1,1.18992485E-1,3.619873E-1,7.0672375E-1,5.762693E-1,-1.1267821E-1,2.4038982E-1,1.9796848E-2,2.4633344E-1,7.492264E-2,1.9368172E-2,5.447626E-3,7.3913045E-2,1.5592806E-1,6.72487E-2,6.1219532E-2,-4.896283E-3,5.3731203E-3,6.0373068E-2,2.005535E-1,1.2767969E-1,1.3210239E-1,2.2179067E-1,2.6092637E-1,5.0973892E-2,9.573522E-2,1.8807936E-1,2.6495662E-1,5.1558305E-2,2.9524273E-1,3.915641E-1,-1.9250178E-1,3.5999775E-1,4.8069897E-1,3.4010556E-1,7.005034E-1,4.8300892E-1,1.4538813E-1,5.0321215E-1,5.775329E-1,9.0390205E-2,5.1293034E-2,1.0205539E-1,4.5389056E-2,1.5751709E-1,2.0520605E-1,6.701597E-2,1.5071633E-1,6.989245E-2,1.3964319E-1,3.5887957E-2,1.4433713E-1,3.117744E-2,2.5077128E-1,7.836759E-2,7.39609E-2,-1.9026041E-2,2.9597953E-1,7.946825E-2,3.713236E-1,-4.847336E-2,7.173403E-2,2.8769827E-2,2.1756412E-1,1.3434619E-1,2.2838116E-3,3.6499403E-2,8.463192E-2,2.097392E-2,-4.720211E-2,4.071488E-1,-3.1791925E-3,3.755188E-2,1.2424926E-1,2.3258619E-1,1.7584164E-1,4.3321905E-1],"categories":[],"categories_nodes":[],"categories_segments":[],"categories_sizes":[],"default_left":[1,1,1,1,1,1,1,1,1,1,1,1,1,1,1,1,1,1,0,0,1,1,1,0,1,0,0,0,0,0,0,1,1,1,1,1,0,1,1,0,1,1,0,0,1,1,1,1,1,0,0,1,1,1,1,0,1,1,0,1,1,1,1,1,0,1,0,1,0,1,1,1,1,1,1,0,1,1,1,0,1,0,1,1,0,1,0,0,0,0,1,0,0,0,0,0,0,0,1,1,0,0,0,0,0,1,1,1,0,0,0,1,1,0,1,1,0,0,0,0,1,0,0,0,0,0,0,1,0,0,0,1,0,0,0,0,0,0,1,0,0,1,0,0,0,1,0,0,1,1,0,0,0,0,0,0,1,0,0,0,0,0,0],"id":8,"left_children":[1,3,5,7,9,11,13,15,17,19,21,23,25,27,29,31,33,35,-1,-1,37,39,41,-1,43,-1,-1,-1,-1,-1,-1,45,47,49,51,53,-1,55,57,-1,59,61,-1,-1,63,65,67,69,71,-1,-1,73,75,77,79,-1,81,83,-1,85,87,89,91,93,-1,95,-1,97,-1,99,101,103,105,107,109,-1,111,113,115,-1,117,-1,119,121,-1,123,-1,-1,-1,-1,125,-1,-1,-1,-1,-1,-1,-1,127,129,-1,-1,-1,-1,-1,131,133,135,-1,-1,-1,137,139,-1,141,143,-1,-1,-1,-1,145,-1,-1,-1,-1,-1,-1,147,-1,-1,-1,149,-1,-1,-1,-1,-1,-1,151,-1,-1,153,-1,-1,-1,155,-1,-1,157,159,-1,-1,-1,-1,-1,-1,161,-1,-1,-1,-1,-1,-1],"loss_changes":[9.067157E1,2.5224243E1,8.606537E0,4.133026E0,4.3668213E0,1.645935E0,1.8423309E0,8.697548E-1,6.554718E-1,2.1237183E-1,6.6726685E-1,8.70224E-1,3.7101746E-1,2.9493713E-1,3.4635925E-1,5.6674957E-2,6.594467E-2,1.2845612E-1,0E0,0E0,7.7445984E-2,2.796936E-2,2.0257568E-1,0E0,2.1656036E-1,0E0,0E0,0E0,0E0,0E0,0E0,5.0059855E-3,1.2679338E-2,1.0210037E-2,1.499176E-2,7.024956E-2,0E0,3.2352448E-2,1.4245987E-2,0E0,6.41098E-2,8.7789154E-1,0E0,0E0,1.2719154E-1,6.394959E-3,1.8367827E-2,2.2097468E-2,2.6733398E-2,0E0,0E0,1.650238E-2,5.7826698E-2,4.4376373E-2,1.3484955E-3,0E0,2.0893478E-1,1.7565823E-1,0E0,6.193161E-2,3.818202E-2,2.0091248E-1,1.4856963E-1,3.1272173E-2,0E0,2.3183413E-4,0E0,3.5147667E-3,0E0,6.264448E-3,3.7340913E-3,1.5841406E-3,1.1626124E-2,1.2150049E-2,1.9855976E-2,0E0,1.8128127E-2,9.31662E-2,2.135086E-2,0E0,3.4215635E-1,0E0,5.101776E-2,8.651733E-3,0E0,1.666069E-3,0E0,0E0,0E0,0E0,1.405716E-1,0E0,0E0,0E0,0E0,0E0,0E0,0E0,4.944876E-4,2.2780895E-4,0E0,0E0,0E0,0E0,0E0,1.4205933E-2,4.1095316E-3,1.5183091E-3,0E0,0E0,0E0,3.001389E-2,2.8493956E-2,0E0,9.313546E-3,6.0482025E-3,0E0,0E0,0E0,0E0,1.9995928E-1,0E0,0E0,0E0,0E0,0E0,0E0,1.159003E-3,0E0,0E0,0E0,8.425832E-3,0E0,0E0,0E0,0E0,0E0,0E0,8.392674E-4,0E0,0E0,4.8663653E-4,0E0,0E0,0E0,2.291311E-1,0E0,0E0,1.5222742E-3,2.0163774E-2,0E0,0E0,0E0,0E0,0E0,0E0,2.215147E-3,0E0,0E0,0E0,0E0,0E0,0E0],"parents":[2147483647,0,0,1,1,2,2,3,3,4,4,5,5,6,6,7,7,8,8,9,9,10,10,11,11,12,12,13,13,14,14,15,15,16,16,17,17,20,20,21,21,22,22,24,24,31,31,32,32,33,33,34,34,35,35,37,37,38,38,40,40,41,41,44,44,45,45,46,46,47,47,48,48,51,51,52,52,53,53,54,54,56,56,57,57,59,59,60,60,61,61,62,62,63,63,65,65,67,67,69,69,70,70,71,71,72,72,73,73,74,74,76,76,77,77,78,78,80,80,82,82,83,83,85,85,90,90,98,98,99,99,105,105,106,106,107,107,111,111,112,112,114,114,115,115,120,120,127,127,131,131,138,138,141,141,145,145,148,148,149,149,156,156],"right_children":[2,4,6,8,10,12,14,16,18,20,22,24,26,28,30,32,34,36,-1,-1,38,40,42,-1,44,-1,-1,-1,-1,-1,-1,46,48,50,52,54,-1,56,58,-1,60,62,-1,-1,64,66,68,70,72,-1,-1,74,76,78,80,-1,82,84,-1,86,88,90,92,94,-1,96,-1,98,-1,100,102,104,106,108,110,-1,112,114,116,-1,118,-1,120,122,-1,124,-1,-1,-1,-1,126,-1,-1,-1,-1,-1,-1,-1,128,130,-1,-1,-1,-1,-1,132,134,136,-1,-1,-1,138,140,-1,142,144,-1,-1,-1,-1,146,-1,-1,-1,-1,-1,-1,148,-1,-1,-1,150,-1,-1,-1,-1,-1,-1,152,-1,-1,154,-1,-1,-1,156,-1,-1,158,160,-1,-1,-1,-1,-1,-1,162,-1,-1,-1,-1,-1,-1],"split_conditions":[1.1225E1,7.4849997E0,1.6095001E1,5.62E0,9.085E0,1.2955E1,1.791E1,3.8850002E0,6.455E0,2.0165E3,1.0095E1,1.045E1,1.6363333E1,1.8119999E1,2.75E1,1.5E0,2.0145E3,6.653333E0,1.13357596E-1,1.2819406E-1,2.35E1,2.75E1,1.1835E1,-4.1372824E-2,1.2795E1,2.4395047E-1,6.772079E-2,2.94718E-1,5.6379035E-2,4.420408E-1,1.0287896E-1,7.5E0,3.245E0,5.7483335E0,7.5E0,6.5E0,1.1999322E-2,8.258333E0,2.0205E3,1.5936255E-1,8.5E0,1.1361667E1,3.0526906E-1,2.0792776E-1,1.2731667E1,6.5E0,2.855E0,3.335E0,3.185E0,8.546829E-2,2.1292234E-2,5E-1,4.2033334E0,5.685E0,6.4399996E0,1.1866396E-1,8.005E0,1E1,1.423902E-1,1.0195E1,9.155E0,3.5E0,1.6E1,7.5E0,1.5886281E-1,5.5E0,-3.875184E-3,1.7E1,4.5687295E-2,3.2350001E0,2.95E1,8.5E0,2.45E1,8.5E0,5.605E0,7.83076E-2,4.77E0,1.85E1,2.85E1,1.0532714E-1,1E0,2.0129443E-3,9.195E0,8.809999E0,2.48271E-2,9.048333E0,3.084426E-2,3.5697747E-2,1.0859619E-1,2.1201713E-1,1.168E1,-3.3803463E-2,7.211695E-2,5.939055E-3,7.390004E-2,2.2476794E-2,5.8104517E-3,1.6342879E-3,3.5E0,2.51E0,2.0174611E-2,1.836586E-2,-1.468885E-3,1.6119361E-3,1.8111922E-2,4.0550003E0,3.3449998E0,7.5E0,6.65372E-2,7.8277916E-2,1.5292169E-2,4.275E0,1.5E0,7.948699E-2,2.8E1,6.69E0,1.17469236E-1,-5.7750538E-2,1.0799933E-1,1.442097E-1,2.15E1,2.1015103E-1,1.4490268E-1,4.361644E-2,1.5096365E-1,1.7325987E-1,2.7117062E-2,2.05E1,3.0616619E-2,1.3616717E-2,4.725513E-2,3.5E0,2.0104792E-2,4.5214903E-2,2.0967737E-2,4.189296E-2,1.0766387E-2,4.3301143E-2,1.15E1,7.523139E-2,2.351028E-2,2.55E1,-5.7078125E-3,8.879386E-2,2.3840476E-2,1.5E0,-1.4542008E-2,2.152021E-2,2.35E1,5E-1,4.0303856E-2,6.851435E-4,1.0949821E-2,2.5389576E-2,6.2921764E-3,-1.4160634E-2,9.028334E0,-9.537578E-4,1.1265565E-2,3.7274778E-2,6.977586E-2,5.2752495E-2,1.2996572E-1],"split_indices":[6,7,6,6,6,6,6,6,6,5,7,7,8,7,0,1,5,8,0,0,0,0,7,0,7,0,0,0,0,0,0,0,6,8,1,1,0,8,5,0,1,8,0,0,8,0,7,7,8,0,0,3,8,6,6,0,7,1,0,6,6,0,0,1,0,0,0,0,0,6,0,0,0,0,6,0,7,0,0,0,3,0,7,6,0,8,0,0,0,0,7,0,0,0,0,0,0,0,3,6,0,0,0,0,0,7,6,0,0,0,0,6,3,0,0,7,0,0,0,0,0,0,0,0,0,0,0,0,0,0,0,3,0,0,0,0,0,0,0,0,0,0,0,0,0,0,0,0,0,3,0,0,0,0,0,0,8,0,0,0,0,0,0],"split_type":[0,0,0,0,0,0,0,0,0,0,0,0,0,0,0,0,0,0,0,0,0,0,0,0,0,0,0,0,0,0,0,0,0,0,0,0,0,0,0,0,0,0,0,0,0,0,0,0,0,0,0,0,0,0,0,0,0,0,0,0,0,0,0,0,0,0,0,0,0,0,0,0,0,0,0,0,0,0,0,0,0,0,0,0,0,0,0,0,0,0,0,0,0,0,0,0,0,0,0,0,0,0,0,0,0,0,0,0,0,0,0,0,0,0,0,0,0,0,0,0,0,0,0,0,0,0,0,0,0,0,0,0,0,0,0,0,0,0,0,0,0,0,0,0,0,0,0,0,0,0,0,0,0,0,0,0,0,0,0,0,0,0,0],"sum_hessian":[3.597E3,2.921E3,6.76E2,1.267E3,1.654E3,5.03E2,1.73E2,4.26E2,8.41E2,7.96E2,8.58E2,2.02E2,3.01E2,1.58E2,1.5E1,1.22E2,3.04E2,3.15E2,5.26E2,4.7E2,3.26E2,5.05E2,3.53E2,1E0,2.01E2,2.99E2,2E0,1.57E2,1E0,1.4E1,1E0,1.9E1,1.03E2,1.36E2,1.68E2,3.13E2,2E0,2.4E2,8.6E1,4.51E2,5.4E1,3.51E2,2E0,1.86E2,1.5E1,4E0,1.5E1,4.7E1,5.6E1,1.35E2,1E0,1.43E2,2.5E1,2.06E2,1.07E2,5.6E1,1.84E2,3E1,5.6E1,3.8E1,1.6E1,3.48E2,3E0,3E0,1.2E1,3E0,1E0,9E0,6E0,4.4E1,3E0,2E0,5.4E1,3E1,1.13E2,9E0,1.6E1,9E0,1.97E2,1.04E2,3E0,1E0,1.83E2,2.9E1,1E0,3.7E1,1E0,2E0,1.4E1,3.5E1,3.13E2,2E0,1E0,1E0,2E0,2E0,1E0,1E0,8E0,4.1E1,3E0,2E0,1E0,1E0,1E0,4.4E1,1E1,8E0,2.2E1,1.12E2,1E0,1E1,6E0,5E0,4E0,1.85E2,1.2E1,1E0,2E0,1.69E2,1.4E1,1.4E1,1.5E1,1E0,3.6E1,3.12E2,1E0,6E0,2E0,1E0,4E1,4.2E1,2E0,6E0,4E0,7E0,1E0,5E0,5E0,3E0,3E0,3E0,1E0,1.84E2,1E0,1.3E1,1E0,2E0,4E0,3.4E1,8E0,1E0,4E0,2E0,1E0,1E0,1.2E1,1E0,3E0,6E0,2.8E1,2E0,1E1],"tree_param":{"num_deleted":"0","num_feature":"9","num_nodes":"163","size_leaf_vector":"0"}},{"base_weights":[3.495466E-1,2.9646006E-1,5.8585143E-1,2.3162717E-1,3.6438665E-1,5.112473E-1,6.8256027E-1,1.8633643E-1,2.7036953E-1,3.2861087E-1,3.9404586E-1,-1.17222786E-1,5.1323575E-1,6.592962E-1,1.0310276E0,1.3771246E-1,2.0932648E-1,2.5271514E-1,2.8198043E-1,3.2988536E-1,1.3555796E-1,3.6923686E-1,4.1581416E-1,1.4890511E-1,5.1479006E-1,6.9503367E-1,6.0216504E-1,1.0608974E0,2.9149055E-1,1.0610001E-1,1.5966006E-1,2.0028451E-1,2.3063916E-1,3.7611508E-1,2.4729791E-1,3.8498926E-1,2.7782965E-1,3.2631212E-1,4.1326278E-1,7.293916E-2,1.7386372E-1,3.89178E-1,3.307659E-1,1.7442703E-2,4.187292E-1,2.1812677E-1,5.2309036E-3,4.8180512E-1,5.3704613E-1,7.279382E-1,5.292798E-1,6.0760677E-1,1.789093E-3,1.08213335E-1,4.5158863E-3,1.6167864E-1,5.4645896E-2,2.0372404E-1,1.3523762E-1,1.7685406E-1,2.4445356E-1,4.0059137E-1,5.343795E-2,2.5442618E-1,1.9680178E-1,7.703352E-2,4.0038407E-1,2.2035687E-1,2.8257397E-1,3.2854655E-1,1.5514679E-1,4.3772346E-1,1.8764377E-1,1.0451794E-2,9.028435E-2,3.7064865E-1,4.44765E-1,2.3253305E-1,3.5116303E-1,-1.00050926E-1,1.849618E-1,5.06401E-1,4.0770373E-1,5.72679E-1,4.273665E-1,4.2569822E-1,5.5358213E-1,7.311045E-1,1.5974045E-1,1.22170925E-1,5.3910524E-1,6.295796E-1,4.119659E-1,8.456068E-2,1.2143635E-1,-4.817009E-2,5.494392E-2,1.629579E-1,5.363019E-2,7.666413E-2,-5.704403E-3,1.9754979E-1,2.6867828E-1,1.33921625E-2,1.6486198E-1,2.2572792E-1,1.096734E-1,2.5399244E-1,1.4071651E-1,4.2461625E-1,8.017135E-2,2.3581877E-1,2.8705245E-1,2.0640574E-1,-1.0808444E-1,2.4098781E-1,-2.9212475E-1,2.8638864E-1,2.0328256E-1,2.4978657E-1,3.3102638E-1,1.9331312E-1,7.8317836E-2,1.2357998E-1,4.477531E-1,-5.3747654E-2,2.8602347E-1,1.3424492E-1,3.7379053E-1,2.1314795E-1,4.6366373E-1,3.2711586E-1,-2.1167755E-2,3.0291557E-2,3.5385358E-1,1.0996199E-1,5.135629E-1,4.0857148E-1,4.6352386E-2,-3.0626678E-1,4.3746263E-1,2.1064878E-1,4.4068095E-1,5.5498993E-1,1.4868546E-1,6.331243E-1,1.4464283E-1,1.5631802E-1,4.415474E-1,9.338471E-2,2.340571E-2,1.3059671E-1,8.3318315E-2,1.5425856E-1,2.1017374E-1,1.07758045E-2,6.9669485E-2,1.9898224E-1,4.323578E-2,2.7532318E-1,5.460024E-2,-9.331322E-2,6.339681E-2,2.0870681E-1,2.6661968E-2,1.3916981E-1,6.646782E-2,3.222936E-1,2.390516E-1,-5.1368713E-2,1.650619E-1,2.1202993E-1,4.8543468E-1,2.5392497E-1,1.8939313E-1,2.9454327E-1,1.256001E-1,5.6239367E-2,2.246845E-1,-9.2832886E-2,2.6154116E-1,2.1830559E-1,2.9049405E-1,-3.3355713E-2,2.1555501E-1,3.3018315E-1,1.6254432E-1,3.9046156E-1,3.2641038E-1,8.488401E-2,2.2630668E-1,-4.1202545E-2,2.064616E-1,3.87078E-1,2.961527E-1,3.6943913E-1,-6.628958E-2,2.0207752E-1,4.435943E-1,2.0223601E-1,-4.6091938E-1,3.0714878E-1,3.8743642E-1,3.3572707E-1,5.475304E-1,4.0407008E-1,8.140507E-1,1.5654755E-1,4.5322493E-1,5.0356865E-2,2.4729379E-1,5.7138336E-1,3.6368084E-1,1.06788635E-1,4.6227196E-1,7.283552E-2,1.1781542E-1,3.736031E-2,-3.0023258E-3,3.5493534E-2,1.3419467E-1,3.275776E-2,1.1714402E-1,1.6177915E-1,8.5120276E-2,2.4692054E-1,1.22403964E-1,2.0126906E-1,9.235573E-2,6.540616E-4,8.5490465E-2,1.6868114E-3,2.2737347E-1,-7.3313236E-2,6.998408E-2,1.681199E-1,6.818974E-2,7.7834405E-2,-6.54912E-3,1.1472043E-1,2.4572179E-1,2.6459694E-3,1.8281412E-1,1.9766447E-1,2.737914E-1,5.6058034E-2,2.1089575E-1,3.2631034E-1,2.4588245E-1,-3.0610085E-2,1.6296415E-1,9.276533E-2,-6.319523E-2,-4.0610075E-2,2.3295219E-1,-2.7124643E-2,-1.1212468E-1,1.9130471E-1,3.1167692E-1,3.199172E-1,1.3971539E-1,3.694237E-1,2.862148E-1,1.4304528E-1,2.5475058E-1,1.0567369E-1,2.6408482E-1,2.701681E-1,4.2946377E-1,2.4514198E-3,3.2756507E-1,3.8922438E-1,3.0414104E-2,3.152892E-1,1.2448947E-2,-1.2217045E-2,-8.721733E-2,2.1483783E-1,3.7237167E-2,1.771342E-1,4.9442086E-1,1.0225463E-1,2.6813254E-1,-7.62763E-1,7.138395E-2,3.7885305E-1,2.5497597E-1,8.723688E-2,3.9110819E-1,3.599732E-1,7.087898E-2,5.6374663E-1,2.0285861E-1,4.064184E-1,9.2876196E-2,2.2648668E-1,-1.3154364E-1,4.6679282E-1,1.6964626E-1,6.020963E-1,1.6283989E-1,1.8182203E-1,4.6160764E-1,5.000365E-1,1.948878E-1,9.781983E-2,3.143027E-2,-1.0979652E-2,6.476164E-3,1.5045881E-2,1.3667332E-1,6.329656E-2,-5.970478E-3,1.2628865E-1,2.656579E-2,1.9695477E-1,1.4917113E-1,6.2996545E-3,9.88786E-2,2.6615277E-1,2.7299166E-2,3.3258438E-2,1.5141049E-1,1.8589212E-1,2.2283871E-1,3.394143E-2,1.7839909E-1,-4.509449E-3,5.4905415E-3,2.4277344E-1,3.6686897E-2,1.1471677E-1,1.6834259E-2,5.0558805E-2,1.8487048E-1,1.4609337E-2,8.593702E-2,1.7412761E-1,2.5773126E-1,4.3631077E-2,1.9475812E-1,2.1378075E-1,9.805461E-2,2.3399894E-1,3.0393583E-1,1.1667812E-1,6.3016415E-3,1.6679709E-1,2.6208907E-1,4.119991E-1,2.9609877E-1,-1.751391E-2,2.602063E-1,2.0080344E-1,7.0803486E-2,3.2202404E-2,1.2240648E-1,2.4552172E-1,6.787312E-2,3.7873268E-2,2.1946612E-1,3.552439E-1,1.0992718E-1,4.9939316E-2,3.7436348E-1,-1.0395511E-1,1.7913513E-1,4.2566615E-1,2.0474188E-1,2.557554E-1,2.9419318E-1,1.6160148E-1,-1.1980295E-2,2.7506396E-1,9.5351376E-2,1.4656226E-2,1.2659603E-1,3.2241735E-1,5.947908E-3,4.6091276E-1,2.425735E-1,1.683855E-2,-1.3161421E-2,3.0992275E-1,3.417632E-1,3.51886E-1,2.3411989E-1,5.2237034E-2,-3.3563614E-2,6.333876E-2,2.2463343E-1,1.0706234E-1,4.0453064E-1,9.34364E-2,2.814301E-1,3.9458263E-1,9.653282E-2,4.0766445E-1,1.942277E-1,-3.2708645E-2,1.4564069E-1,4.845667E-2,2.5240135E-1,3.9717427E-1,5.064058E-1,1.6827106E-2,1.9684467E-1,1.3106346E-2,2.2815418E-1,1.0654366E-1,3.6133766E-2,7.7605722E-3,4.8813917E-2,1.3862792E-1,2.8267384E-2,4.851818E-4,-8.284092E-3,1.379143E-1,2.8267384E-2,1.4814222E-1,2.873632E-1,1.3589829E-1,2.097408E-1,3.5039186E-2,-2.5589705E-2,2.3130417E-2,1.0414038E-1,7.26974E-2,2.795703E-1,4.4721603E-2,5.166054E-3,1.92039E-1,1.2926653E-1,1.4618987E-1,2.2880313E-1,8.265591E-2,-4.232502E-2,7.760239E-2,2.743659E-1,-1.6346693E-2,1.9003692E-1,3.6091024E-1,2.3838906E-1,-1.6362643E-1,1.6893919E-1,2.5549856E-1,1.4627291E-1,3.1755567E-2,3.2099637E-1,-8.750439E-3,4.078102E-2,1.892087E-1,7.253245E-2,3.005388E-1,1.2228322E-1,2.4032868E-1,3.904726E-1,-4.4373512E-2,1.8102646E-2,2.778575E-1,8.813687E-2,1.6470118E-1,2.9386106E-1,4.588731E-2,6.9155693E-3,1.0925379E-1,2.4961115E-1,1.6325378E-1,4.056361E-1,1.6660595E-1,1.6606012E-2,4.006505E-1,8.2033634E-2,1.9599769E-1,-2.8470278E-2,2.240653E-1,5.4062366E-2,2.1258982E-1,3.28802E-1,2.86949E-1,3.7438175E-1,1.94473E-1,3.1034151E-2,1.4922269E-1,3.914404E-2,7.708335E-2,-6.816149E-2,3.1361204E-1,-1.1066421E-1,5.7034492E-3,3.428681E-1,9.6095085E-2,3.6127988E-1,1.3632488E-1,2.4268627E-2,4.1828418E-1,9.2236996E-2,1.0442734E-3,1.393714E-1,7.476592E-2,3.0414787E-1,3.2730708E-1,-1.0250521E-1,2.8627348E-1,5.845642E-2,4.2423633E-1,-5.9961636E-2,5.1437277E-1,1.9685332E-1,-1.17162704E-1,1.3682222E-1,2.855215E-1,1.1374831E-1],"categories":[],"categories_nodes":[],"categories_segments":[],"categories_sizes":[],"default_left":[1,1,1,1,1,1,1,1,1,1,1,0,1,1,1,1,1,1,1,1,1,1,1,1,1,1,1,0,0,1,1,1,1,1,1,1,1,1,1,1,0,1,1,1,1,0,0,1,1,1,1,1,0,1,1,1,1,1,1,1,1,1,0,1,1,0,0,1,1,1,1,1,1,0,0,1,1,1,1,0,0,1,1,0,1,1,1,0,0,0,0,1,1,1,1,0,0,1,1,0,0,1,1,1,1,0,1,1,1,1,0,1,1,1,0,1,0,1,1,1,1,1,0,0,0,0,0,1,1,1,0,1,1,0,1,0,1,1,0,0,1,1,1,0,0,0,0,0,1,1,1,1,1,1,1,0,0,1,1,0,0,0,0,1,1,1,1,0,1,0,1,0,0,1,1,1,1,1,1,1,1,1,1,0,1,0,1,1,1,0,0,0,0,1,1,0,1,1,1,1,1,1,1,1,1,1,0,1,1,0,0,1,1,0,1,1,0,0,1,0,1,1,1,1,1,1,1,1,1,1,0,0,1,0,1,1,0,1,0,0,1,0,1,1,1,1,1,1,1,0,1,1,0,0,1,0,0,1,1,1,1,1,1,1,1,1,0,1,1,1,1,0,0,1,1,0,0,1,0,0,0,0,0,0,0,1,1,0,1,0,0,0,0,1,1,1,0,1,1,0,0,1,0,0,0,1,1,0,0,0,1,0,1,1,0,1,1,1,1,1,0,1,0,1,1,1,0,0,0,1,0,0,0,0,0,0,0,1,1,0,0,0,1,1,1,0,1,1,1,0,1,1,1,0,0,0,0,1,0,1,1,1,1,0,1,0,1,0,1,1,1,1,0,0,0,0,1,0,1,0,0,0,0,1,1,1,0,0,0,0,0,1,1,1,1,0,0,0,1,0,0,0,1,1,1,0,0,1,1,0,0,0,0,0,0,0,0,0,0,0,0,0,0,0,0,0,0,0,0,0,0,0,0,0,0,0,0,0,0,0,0,0,0,0,0,0,0,0,0,0,0,0,0,0,0,0,0,0,0,0,0,0,0,0,0,0,0,0,0,0,0,0,0,0,0,0,0,0,0,0,0,0,0,0,0,0,0,0,0,0,0,0,0,0,0,0,0,0,0,0,0,0,0,0,0,0,0,0,0,0,0,0,0],"id":9,"left_children":[1,3,5,7,9,11,13,15,17,19,21,-1,23,25,27,29,31,33,35,37,39,41,43,45,47,49,51,-1,-1,53,55,57,59,61,63,65,67,69,71,73,-1,75,77,79,81,-1,-1,83,85,87,89,91,-1,93,95,97,99,101,103,105,107,109,-1,111,113,-1,-1,115,117,119,121,123,125,-1,-1,127,129,131,133,-1,-1,135,137,-1,139,141,143,-1,-1,-1,-1,145,147,149,151,-1,-1,153,155,-1,-1,157,159,161,163,-1,165,167,169,171,-1,173,175,177,-1,179,-1,181,183,185,187,189,-1,-1,-1,-1,-1,191,193,195,-1,197,199,-1,201,-1,203,205,-1,-1,207,209,211,-1,-1,-1,-1,-1,213,215,217,219,221,223,225,-1,-1,227,229,-1,-1,-1,-1,231,233,235,237,-1,239,-1,241,-1,-1,243,245,247,249,251,253,255,257,259,261,-1,263,-1,265,267,269,-1,-1,-1,-1,271,273,-1,275,277,279,281,283,285,287,289,291,293,-1,295,297,-1,-1,299,301,-1,303,305,-1,-1,307,-1,309,311,313,315,317,319,321,323,325,327,-1,-1,329,-1,331,333,-1,335,-1,-1,337,-1,339,341,343,345,347,349,351,-1,353,355,-1,-1,357,-1,-1,359,361,363,365,367,369,371,373,375,-1,377,379,381,383,-1,-1,385,387,-1,-1,389,-1,-1,-1,-1,-1,-1,-1,391,393,-1,395,-1,-1,-1,-1,397,399,401,-1,403,405,-1,-1,407,-1,-1,-1,409,411,-1,-1,-1,413,-1,415,417,-1,419,421,423,425,427,-1,429,-1,431,433,435,-1,-1,-1,437,-1,-1,-1,-1,-1,-1,-1,439,441,-1,-1,-1,443,445,447,-1,449,451,453,-1,455,457,459,-1,-1,-1,-1,461,-1,463,465,467,469,-1,471,-1,473,-1,475,477,479,481,-1,-1,-1,-1,483,-1,485,-1,-1,-1,-1,487,489,491,-1,-1,-1,-1,-1,493,495,497,499,-1,-1,-1,501,-1,-1,-1,503,505,507,-1,-1,509,511,-1,-1,-1,-1,-1,-1,-1,-1,-1,-1,-1,-1,-1,-1,-1,-1,-1,-1,-1,-1,-1,-1,-1,-1,-1,-1,-1,-1,-1,-1,-1,-1,-1,-1,-1,-1,-1,-1,-1,-1,-1,-1,-1,-1,-1,-1,-1,-1,-1,-1,-1,-1,-1,-1,-1,-1,-1,-1,-1,-1,-1,-1,-1,-1,-1,-1,-1,-1,-1,-1,-1,-1,-1,-1,-1,-1,-1,-1,-1,-1,-1,-1,-1,-1,-1,-1,-1,-1,-1,-1,-1,-1,-1,-1,-1,-1,-1,-1,-1,-1,-1,-1,-1,-1],"loss_changes":[4.4961823E1,1.2862976E1,4.405655E0,2.5939026E0,1.3921051E0,5.300522E-1,1.6225739E0,7.5144386E-1,9.477615E-2,1.1668396E-1,2.6716614E-1,0E0,1.3569641E-1,1.3070679E-1,4.4195175E-2,1.4055681E-1,4.476738E-2,1.2825775E-1,9.827423E-2,5.909729E-2,1.7104894E-3,1.5742111E-1,4.6533203E-1,2.8695099E-2,1.5075684E-2,4.819107E-1,3.61557E-1,0E0,0E0,2.012062E-2,1.9146204E-2,4.8293114E-2,5.6331158E-2,7.336855E-2,6.511116E-2,4.501176E-2,6.4525604E-2,1.8959045E-1,4.479599E-2,3.3917874E-3,0E0,8.234787E-2,1.8683529E-1,9.72353E-2,1.8405151E-1,0E0,0E0,5.4677963E-1,1.5837097E-1,1.1709595E-1,5.4138184E-2,2.1350098E-1,0E0,1.9130588E-2,1.0617204E-2,9.091377E-3,5.7525514E-3,7.52573E-2,6.998402E-2,7.7028334E-2,6.717014E-2,5.063653E-2,0E0,1.004715E-1,1.5114653E-1,0E0,0E0,4.9331772E-1,7.0632935E-2,3.8398743E-2,1.4182955E-2,7.6818466E-3,1.1036515E-1,0E0,0E0,8.797073E-2,1.4192104E-1,6.3081336E-1,8.338261E-2,0E0,0E0,5.9937477E-2,9.519577E-2,0E0,9.0429306E-1,1.0275841E-2,2.1793365E-2,0E0,0E0,0E0,0E0,7.5164795E-2,3.68526E-2,1.7780691E-2,9.370983E-3,0E0,0E0,1.9743681E-2,1.3113171E-3,0E0,0E0,5.6827545E-2,2.0530343E-2,3.2594584E-2,9.1385126E-2,0E0,9.865835E-3,1.8880367E-2,5.9919313E-2,2.6364803E-2,0E0,1.0489559E-1,7.9108715E-2,1.05392575E-1,0E0,2.9186392E-1,0E0,4.950714E-2,7.398498E-2,1.0765219E-1,3.6613464E-2,2.254948E-3,0E0,0E0,0E0,0E0,0E0,5.9187666E-2,7.415199E-2,2.865317E-1,0E0,1.8708086E-1,8.791519E-1,0E0,5.0395012E-2,0E0,5.780506E-2,3.336296E-1,0E0,0E0,3.8511848E-1,1.1042669E-2,8.405781E-2,0E0,0E0,0E0,0E0,0E0,3.3887148E-2,7.48387E-3,2.3232491E-3,1.0634959E-2,2.0106085E-2,4.3945074E-2,2.4605334E-2,0E0,0E0,5.285549E-2,7.1411924E-3,0E0,0E0,0E0,0E0,4.5988917E-2,2.6786443E-2,4.974976E-3,7.1493722E-3,0E0,3.8985252E-2,0E0,2.8348714E-2,0E0,0E0,8.894634E-2,1.4586568E-1,6.0435295E-2,4.000821E-2,3.2037117E-2,9.280825E-2,7.6154806E-4,7.066488E-2,1.7091584E-1,2.1940231E-2,0E0,2.6084423E-2,0E0,4.7163904E-2,6.225729E-2,2.0904922E-1,0E0,0E0,0E0,0E0,1.0528946E-1,1.6437674E-1,0E0,2.3293113E-3,1.5137583E-2,3.431034E-2,1.2112737E-2,5.364662E-1,9.0452194E-2,3.0914307E-2,3.2279372E-2,6.449509E-2,2.2606659E-1,0E0,1.7083482E-1,2.9402542E-1,0E0,0E0,1.4882803E-2,2.900555E-1,0E0,1.3622999E-2,1.7615132E-2,0E0,0E0,2.9794505E-4,0E0,1.0642767E-2,8.656909E-3,3.2714754E-3,1.4526129E-2,1.3474822E-2,3.9196134E-2,1.3064936E-2,5.3435326E-2,3.4154184E-2,9.967896E-5,0E0,0E0,2.3395658E-2,0E0,7.5789653E-3,4.992485E-4,0E0,2.330538E-3,0E0,0E0,2.0467758E-2,0E0,6.464094E-3,3.843534E-2,3.9235592E-2,2.641087E-2,6.2389374E-2,1.2624264E-2,1.5547156E-1,0E0,3.2188892E-3,5.033992E-3,0E0,0E0,6.0109615E-2,0E0,0E0,6.946331E-2,1.3674164E-1,1.4299667E-1,1.819143E-1,6.104207E-2,1.2971878E-2,3.0702889E-2,1.5865505E-2,1.7187566E-2,0E0,1.6374594E-1,4.6887398E-2,8.954912E-4,3.4103394E-2,0E0,0E0,3.7622452E-3,7.2455187E-3,0E0,0E0,6.122589E-4,0E0,0E0,0E0,0E0,0E0,0E0,0E0,8.9289665E-2,1.1045265E-1,0E0,2.1271706E-2,0E0,0E0,0E0,0E0,1.5476227E-2,3.1269386E-2,1.5450984E-2,0E0,5.25856E-2,2.1626309E-2,0E0,0E0,6.73624E-2,0E0,0E0,0E0,2.6078448E-3,3.3243662E-3,0E0,0E0,0E0,4.980743E-3,0E0,6.37629E-5,4.078448E-3,0E0,5.892986E-2,3.3399343E-2,3.646098E-3,1.9754544E-3,5.632937E-3,0E0,7.3504867E-4,0E0,3.5391808E-2,1.8668175E-2,2.5790095E-2,0E0,0E0,0E0,3.0890167E-2,0E0,0E0,0E0,0E0,0E0,0E0,0E0,4.5530885E-2,3.9692402E-2,0E0,0E0,0E0,1.5748698E-1,4.561472E-2,2.1733999E-1,0E0,3.47077E-3,4.5429647E-2,7.075894E-2,0E0,1.272142E-1,3.673218E-3,9.0925455E-2,0E0,0E0,0E0,0E0,8.443236E-2,0E0,6.750482E-4,2.2564352E-2,8.857536E-2,2.3679987E-2,0E0,3.6293626E-2,0E0,5.809149E-2,0E0,5.3563714E-3,1.9180727E-1,5.5805206E-2,3.2592237E-2,0E0,0E0,0E0,0E0,9.988785E-3,0E0,2.1069529E-2,0E0,0E0,0E0,0E0,4.3813896E-1,1.0943222E-1,8.534431E-3,0E0,0E0,0E0,0E0,0E0,3.9598458E-3,3.4436226E-2,2.5318649E-2,1.0402393E-1,0E0,0E0,0E0,1.915068E-1,0E0,0E0,0E0,1.6112119E-2,4.9553728E-1,3.438568E-2,0E0,0E0,6.437951E-2,1.346451E-2,0E0,0E0,0E0,0E0,0E0,0E0,0E0,0E0,0E0,0E0,0E0,0E0,0E0,0E0,0E0,0E0,0E0,0E0,0E0,0E0,0E0,0E0,0E0,0E0,0E0,0E0,0E0,0E0,0E0,0E0,0E0,0E0,0E0,0E0,0E0,0E0,0E0,0E0,0E0,0E0,0E0,0E0,0E0,0E0,0E0,0E0,0E0,0E0,0E0,0E0,0E0,0E0,0E0,0E0,0E0,0E0,0E0,0E0,0E0,0E0,0E0,0E0,0E0,0E0,0E0,0E0,0E0,0E0,0E0,0E0,0E0,0E0,0E0,0E0,0E0,0E0,0E0,0E0,0E0,0E0,0E0,0E0,0E0,0E0,0E0,0E0,0E0,0E0,0E0,0E0,0E0,0E0,0E0,0E0,0E0,0E0,0E0,0E0,0E0,0E0,0E0,0E0,0E0,0E0],"parents":[2147483647,0,0,1,1,2,2,3,3,4,4,5,5,6,6,7,7,8,8,9,9,10,10,12,12,13,13,14,14,15,15,16,16,17,17,18,18,19,19,20,20,21,21,22,22,23,23,24,24,25,25,26,26,29,29,30,30,31,31,32,32,33,33,34,34,35,35,36,36,37,37,38,38,39,39,41,41,42,42,43,43,44,44,47,47,48,48,49,49,50,50,51,51,53,53,54,54,55,55,56,56,57,57,58,58,59,59,60,60,61,61,63,63,64,64,67,67,68,68,69,69,70,70,71,71,72,72,75,75,76,76,77,77,78,78,81,81,82,82,84,84,85,85,86,86,91,91,92,92,93,93,94,94,97,97,98,98,101,101,102,102,103,103,104,104,106,106,107,107,108,108,109,109,111,111,112,112,113,113,115,115,117,117,118,118,119,119,120,120,121,121,127,127,128,128,129,129,131,131,132,132,134,134,136,136,137,137,140,140,141,141,142,142,148,148,149,149,150,150,151,151,152,152,153,153,154,154,157,157,158,158,163,163,164,164,165,165,166,166,168,168,170,170,173,173,174,174,175,175,176,176,177,177,178,178,179,179,180,180,181,181,182,182,184,184,186,186,187,187,188,188,193,193,194,194,196,196,197,197,198,198,199,199,200,200,201,201,202,202,203,203,204,204,205,205,207,207,208,208,211,211,212,212,214,214,215,215,218,218,220,220,221,221,222,222,223,223,224,224,225,225,226,226,227,227,228,228,229,229,232,232,234,234,235,235,237,237,240,240,242,242,243,243,244,244,245,245,246,246,247,247,248,248,250,250,251,251,254,254,257,257,258,258,259,259,260,260,261,261,262,262,263,263,264,264,265,265,267,267,268,268,269,269,270,270,273,273,274,274,277,277,285,285,286,286,288,288,293,293,294,294,295,295,297,297,298,298,301,301,305,305,306,306,310,310,312,312,313,313,315,315,316,316,317,317,318,318,319,319,321,321,323,323,324,324,325,325,329,329,337,337,338,338,342,342,343,343,344,344,346,346,347,347,348,348,350,350,351,351,352,352,357,357,359,359,360,360,361,361,362,362,364,364,366,366,368,368,369,369,370,370,371,371,376,376,378,378,383,383,384,384,385,385,391,391,392,392,393,393,394,394,398,398,402,402,403,403,404,404,407,407,408,408],"right_children":[2,4,6,8,10,12,14,16,18,20,22,-1,24,26,28,30,32,34,36,38,40,42,44,46,48,50,52,-1,-1,54,56,58,60,62,64,66,68,70,72,74,-1,76,78,80,82,-1,-1,84,86,88,90,92,-1,94,96,98,100,102,104,106,108,110,-1,112,114,-1,-1,116,118,120,122,124,126,-1,-1,128,130,132,134,-1,-1,136,138,-1,140,142,144,-1,-1,-1,-1,146,148,150,152,-1,-1,154,156,-1,-1,158,160,162,164,-1,166,168,170,172,-1,174,176,178,-1,180,-1,182,184,186,188,190,-1,-1,-1,-1,-1,192,194,196,-1,198,200,-1,202,-1,204,206,-1,-1,208,210,212,-1,-1,-1,-1,-1,214,216,218,220,222,224,226,-1,-1,228,230,-1,-1,-1,-1,232,234,236,238,-1,240,-1,242,-1,-1,244,246,248,250,252,254,256,258,260,262,-1,264,-1,266,268,270,-1,-1,-1,-1,272,274,-1,276,278,280,282,284,286,288,290,292,294,-1,296,298,-1,-1,300,302,-1,304,306,-1,-1,308,-1,310,312,314,316,318,320,322,324,326,328,-1,-1,330,-1,332,334,-1,336,-1,-1,338,-1,340,342,344,346,348,350,352,-1,354,356,-1,-1,358,-1,-1,360,362,364,366,368,370,372,374,376,-1,378,380,382,384,-1,-1,386,388,-1,-1,390,-1,-1,-1,-1,-1,-1,-1,392,394,-1,396,-1,-1,-1,-1,398,400,402,-1,404,406,-1,-1,408,-1,-1,-1,410,412,-1,-1,-1,414,-1,416,418,-1,420,422,424,426,428,-1,430,-1,432,434,436,-1,-1,-1,438,-1,-1,-1,-1,-1,-1,-1,440,442,-1,-1,-1,444,446,448,-1,450,452,454,-1,456,458,460,-1,-1,-1,-1,462,-1,464,466,468,470,-1,472,-1,474,-1,476,478,480,482,-1,-1,-1,-1,484,-1,486,-1,-1,-1,-1,488,490,492,-1,-1,-1,-1,-1,494,496,498,500,-1,-1,-1,502,-1,-1,-1,504,506,508,-1,-1,510,512,-1,-1,-1,-1,-1,-1,-1,-1,-1,-1,-1,-1,-1,-1,-1,-1,-1,-1,-1,-1,-1,-1,-1,-1,-1,-1,-1,-1,-1,-1,-1,-1,-1,-1,-1,-1,-1,-1,-1,-1,-1,-1,-1,-1,-1,-1,-1,-1,-1,-1,-1,-1,-1,-1,-1,-1,-1,-1,-1,-1,-1,-1,-1,-1,-1,-1,-1,-1,-1,-1,-1,-1,-1,-1,-1,-1,-1,-1,-1,-1,-1,-1,-1,-1,-1,-1,-1,-1,-1,-1,-1,-1,-1,-1,-1,-1,-1,-1,-1,-1,-1,-1,-1,-1],"split_conditions":[1.1295E1,7.885E0,1.4895E1,6.325E0,9.285E0,1.045E1,1.791E1,5.005E0,7.045E0,9.275E0,9.985E0,-3.5166837E-2,2.0175E3,7.5E0,2.75E1,3.45E0,6.5E0,6.215E0,6.9733334E0,9.345E0,9.246666E0,9.715E0,9.73E0,1.2E1,1.2681667E1,2.0195E3,3.05E1,3.1826922E-1,8.744717E-2,3.43E0,4.995E0,6.185E0,7.5E0,2.65E1,1.15E1,6.6099997E0,7.1116667E0,9.288334E0,1.05E1,7E0,5.215912E-2,9.655E0,2.0175E3,1.65E1,3.5E0,6.543803E-2,1.5692712E-3,1.1695E1,4.5E0,1.8119999E1,1.5E0,1.6861668E1,5.3672795E-4,3.07E0,1.8E1,3.05E1,1.5E1,6.0950003E0,6.26E0,4.5E0,6.215E0,6.5150003E0,1.6031384E-2,8.5E0,7.0299997E0,2.3110056E-2,1.2011523E-1,7.37E0,7.935E0,7.8E0,1.9E1,2E0,1.35E1,3.1355382E-3,2.7085306E-2,8.950001E0,9.568334E0,9.915E0,9.52E0,-3.0015279E-2,5.548854E-2,1.0005E1,1.1823334E1,1.718037E-1,1.152E1,1.293E1,1.529E1,2.1933135E-1,4.7922138E-2,3.665128E-2,1.6173157E-1,1.717E1,1.6901667E1,3.0616665E0,3.3449998E0,-1.4451028E-2,1.6483176E-2,2.55E1,5.5E0,2.2999238E-2,-1.711321E-3,6.075E0,6.3050003E0,4E0,1.85E1,6.771838E-2,7.5E0,1.15E1,6.2299995E0,6E0,2.4051405E-2,6.8450003E0,7.1433334E0,6.435E0,-3.2425333E-2,2.0105E3,-8.7637424E-2,7.135E0,7.505E0,7.791667E0,7.955E0,2.0185E3,2.3495352E-2,3.7073996E-2,1.3432594E-1,-1.6124297E-2,8.580704E-2,3.5E0,2.55E1,2.0185E3,1.3909912E-1,1.55E1,1.75E1,9.087468E-3,9.805E0,3.2988597E-2,4.5E0,1.1945E1,1.3905716E-2,-9.188004E-2,1.1764999E1,3E0,1.3346666E1,1.6649699E-1,4.460564E-2,1.899373E-1,4.3392852E-2,4.689541E-2,1.68E1,2.7566667E0,4.5E0,1.5E0,3.31E0,2.35E1,4.74E0,3.2327415E-3,2.0900846E-2,6.1499996E0,1.7E1,8.259696E-2,1.6380072E-2,-2.7993966E-2,1.9019045E-2,2.012E3,2.05E1,5.46E0,6.5E0,9.6688084E-2,1.25E1,-1.5410614E-2,2.0115E3,6.360898E-2,1.456304E-1,6.46E0,6.8883333E0,1.65E1,6.93E0,2.5E0,1.5E0,1.2E1,8.5E0,7.1383333E0,7.205E0,-1.0006715E-2,2.0125E3,9.905495E-2,2.0145E3,9.5E0,7.958333E0,2.5465203E-2,6.789201E-2,-1.2360764E-2,6.193848E-2,9.645E0,9.745E0,1.10831745E-1,1.4E1,9.860001E0,2.0145E3,1.35E1,2.4E1,9.805E0,9.721666E0,1.086E1,1.1205E1,1.168E1,2.442152E-1,1.1735001E1,1.2655001E1,1.510706E-2,7.4188136E-2,1.3355E1,1.396E1,3.203659E-2,2.35E1,2.5749998E0,3.5344627E-2,1.1208094E-2,1.85E1,1.0648061E-2,3.01E0,1.05E1,3.5E0,3.87E0,2.0125E3,3.5E0,4.8450003E0,5.725E0,1.5E1,8.5E0,2.5647141E-2,5.0604343E-4,6.3733335E0,-2.1993972E-2,2.4E1,5.205E0,2.0456923E-2,5.1099997E0,-1.964736E-3,3.4416128E-2,5.41E0,7.9379085E-4,1E1,6.5E0,1.35E1,4E0,7.0283337E0,6.7349997E0,1.85E1,-9.183026E-3,6.99E0,2.15E1,-1.8958569E-2,-1.2183023E-2,7.005E0,-8.137394E-3,-3.3637404E-2,7.065E0,7.0666666E0,1.15E1,7.16E0,1.95E1,5E-1,3.5E0,7.5E0,7.915E0,7.922545E-2,8.5E0,3.5E0,1.45E1,8.541666E0,1.1676732E-1,9.1242315E-3,9.5E0,2.8E1,-3.6651136E-3,-2.61652E-2,9.530001E0,1.1171151E-2,5.3140264E-2,1.4832626E-1,3.067639E-2,8.043976E-2,-2.2882892E-1,2.1415187E-2,9.655001E0,5E-1,2.6171066E-2,1.0328333E1,1.0799196E-1,2.1263696E-2,1.6912399E-1,6.0857587E-2,1.1361667E1,1.2E1,3.5E0,-3.946309E-2,1.2155E1,1E0,1.806289E-1,4.885197E-2,3.5E0,1.384823E-1,1.5001094E-1,5.846634E-2,2.625E0,2.635E0,-3.2938959E-3,1.9428493E-3,4.5137648E-3,3.3683333E0,1.8988967E-2,1.65E1,2.7E1,7.969737E-3,3.81E0,2.05E1,2.45E1,3.4650002E0,4.1549997E0,8.18975E-3,2.8E1,4.542315E-2,2.85E1,5.701667E0,3.5E0,5.351973E-2,-1.3528347E-3,1.6471625E-3,4E0,1.1006069E-2,3.4415033E-2,5.050278E-3,1.5167642E-2,5.5461146E-2,4.3828012E-3,2.5781108E-2,1.55E1,5.7E0,1.3089323E-2,5.842744E-2,6.4134225E-2,1.2E1,6.7299995E0,1.5E0,3.500344E-2,2.0125E3,7.008333E0,7.1133337E0,1.2359974E-1,6.95E0,1.75E1,7.105E0,6.0241036E-2,2.1241046E-2,9.660722E-3,3.6721945E-2,6.7799997E0,2.0361938E-2,1.5E1,7.0150003E0,1E1,2.015E3,1.4981795E-2,2.9E1,-3.1186534E-2,7.325E0,1.2769985E-1,2.0145E3,7.6499996E0,2.85E1,7.775E0,-3.5940886E-3,8.251919E-2,2.8605415E-2,4.396868E-3,1.65E1,9.672521E-2,2.0135E3,1.3827384E-1,7.2772056E-2,5.0515654E-3,-3.9484263E-3,8.538334E0,8E0,9.295E0,7.023597E-2,1.5671112E-2,-1.0069084E-2,1.9001627E-2,6.739003E-2,7E0,9.745E0,1.25E1,9.825E0,1.18374795E-1,2.8959848E-2,1.22299336E-1,1.138E1,-9.812593E-3,4.369221E-2,1.4537001E-2,1.1715E1,1.2423334E1,2.95E1,5.048132E-3,5.9053402E-2,3.5E0,4.5E0,3.19631E-2,1.084013E-2,2.3281719E-3,1.4644176E-2,4.1588377E-2,8.480215E-3,1.4555454E-4,-2.4852278E-3,4.1374292E-2,8.480215E-3,4.444267E-2,8.620896E-2,4.0769488E-2,6.292225E-2,1.0511756E-2,-7.6769115E-3,6.9391252E-3,3.1242115E-2,2.180922E-2,8.38711E-2,1.3416481E-2,1.5498162E-3,5.76117E-2,3.877996E-2,4.3856964E-2,6.864094E-2,2.4796773E-2,-1.2697507E-2,2.3280717E-2,8.2309775E-2,-4.904008E-3,5.701108E-2,1.08273074E-1,7.151672E-2,-4.908793E-2,5.068176E-2,7.664957E-2,4.3881875E-2,9.52667E-3,9.629892E-2,-2.6251317E-3,1.2234307E-2,5.6762613E-2,2.1759737E-2,9.0161644E-2,3.6684968E-2,7.2098605E-2,1.1714178E-1,-1.3312054E-2,5.430794E-3,8.335726E-2,2.6441062E-2,4.9410354E-2,8.8158324E-2,1.3766194E-2,2.074671E-3,3.2776136E-2,7.488335E-2,4.897614E-2,1.2169083E-1,4.9981788E-2,4.9818037E-3,1.2019516E-1,2.4610091E-2,5.8799308E-2,-8.541084E-3,6.721959E-2,1.621871E-2,6.377695E-2,9.86406E-2,8.608471E-2,1.1231453E-1,5.83419E-2,9.3102455E-3,4.4766806E-2,1.1743212E-2,2.3125006E-2,-2.0448446E-2,9.4083615E-2,-3.3199266E-2,1.7110348E-3,1.0286043E-1,2.8828526E-2,1.0838397E-1,4.0897466E-2,7.2805886E-3,1.2548526E-1,2.76711E-2,3.13282E-4,4.181142E-2,2.2429777E-2,9.124436E-2,9.8192126E-2,-3.0751564E-2,8.5882045E-2,1.7536927E-2,1.272709E-1,-1.7988492E-2,1.5431184E-1,5.9056E-2,-3.5148814E-2,4.1046668E-2,8.565646E-2,3.4124494E-2],"split_indices":[6,6,6,7,7,7,6,6,6,7,6,0,5,1,0,6,1,6,8,6,8,8,8,0,8,5,0,0,0,6,6,6,0,0,1,7,8,8,1,1,0,7,5,0,0,0,0,7,0,7,0,8,0,6,0,0,0,6,6,0,7,7,0,1,6,0,0,6,7,7,0,1,0,0,0,6,8,6,7,0,0,6,8,0,8,7,7,0,0,0,0,6,8,8,7,0,0,0,1,0,0,6,7,0,0,0,1,0,7,1,0,7,8,6,0,5,0,7,6,8,8,5,0,0,0,0,0,1,0,5,0,0,0,0,6,0,1,7,0,0,7,0,8,0,0,0,0,0,7,8,0,1,6,0,7,0,0,7,0,0,0,0,0,5,0,6,0,0,0,0,5,0,0,6,8,0,6,3,0,0,1,8,7,0,5,0,5,0,8,0,0,0,0,7,6,0,0,6,5,0,0,7,8,6,7,7,0,7,7,0,0,7,6,0,0,7,0,0,0,0,7,1,3,7,5,3,7,6,0,0,0,0,8,0,0,7,0,6,0,0,6,0,0,8,0,1,8,6,0,0,6,0,0,0,6,0,0,6,8,0,6,0,3,3,1,6,0,0,3,0,8,0,0,6,0,0,0,6,0,0,0,0,0,0,0,7,3,0,8,0,0,0,0,8,0,1,0,6,3,0,0,1,0,0,0,6,6,0,0,0,8,0,0,0,0,6,0,0,7,6,0,0,0,0,8,1,0,0,0,0,0,0,0,0,0,0,0,0,6,0,0,0,0,8,1,0,5,8,8,0,7,0,7,0,0,0,0,8,0,0,7,0,5,0,0,0,8,0,5,6,0,6,0,0,0,0,0,0,5,0,0,0,0,8,7,7,0,0,0,0,0,0,6,0,7,0,0,0,7,0,0,0,7,8,0,0,0,0,1,0,0,0,0,0,0,0,0,0,0,0,0,0,0,0,0,0,0,0,0,0,0,0,0,0,0,0,0,0,0,0,0,0,0,0,0,0,0,0,0,0,0,0,0,0,0,0,0,0,0,0,0,0,0,0,0,0,0,0,0,0,0,0,0,0,0,0,0,0,0,0,0,0,0,0,0,0,0,0,0,0,0,0,0,0,0,0,0,0,0,0,0,0,0,0,0,0,0,0,0,0,0,0,0],"split_type":[0,0,0,0,0,0,0,0,0,0,0,0,0,0,0,0,0,0,0,0,0,0,0,0,0,0,0,0,0,0,0,0,0,0,0,0,0,0,0,0,0,0,0,0,0,0,0,0,0,0,0,0,0,0,0,0,0,0,0,0,0,0,0,0,0,0,0,0,0,0,0,0,0,0,0,0,0,0,0,0,0,0,0,0,0,0,0,0,0,0,0,0,0,0,0,0,0,0,0,0,0,0,0,0,0,0,0,0,0,0,0,0,0,0,0,0,0,0,0,0,0,0,0,0,0,0,0,0,0,0,0,0,0,0,0,0,0,0,0,0,0,0,0,0,0,0,0,0,0,0,0,0,0,0,0,0,0,0,0,0,0,0,0,0,0,0,0,0,0,0,0,0,0,0,0,0,0,0,0,0,0,0,0,0,0,0,0,0,0,0,0,0,0,0,0,0,0,0,0,0,0,0,0,0,0,0,0,0,0,0,0,0,0,0,0,0,0,0,0,0,0,0,0,0,0,0,0,0,0,0,0,0,0,0,0,0,0,0,0,0,0,0,0,0,0,0,0,0,0,0,0,0,0,0,0,0,0,0,0,0,0,0,0,0,0,0,0,0,0,0,0,0,0,0,0,0,0,0,0,0,0,0,0,0,0,0,0,0,0,0,0,0,0,0,0,0,0,0,0,0,0,0,0,0,0,0,0,0,0,0,0,0,0,0,0,0,0,0,0,0,0,0,0,0,0,0,0,0,0,0,0,0,0,0,0,0,0,0,0,0,0,0,0,0,0,0,0,0,0,0,0,0,0,0,0,0,0,0,0,0,0,0,0,0,0,0,0,0,0,0,0,0,0,0,0,0,0,0,0,0,0,0,0,0,0,0,0,0,0,0,0,0,0,0,0,0,0,0,0,0,0,0,0,0,0,0,0,0,0,0,0,0,0,0,0,0,0,0,0,0,0,0,0,0,0,0,0,0,0,0,0,0,0,0,0,0,0,0,0,0,0,0,0,0,0,0,0,0,0,0,0,0,0,0,0,0,0,0,0,0,0,0,0,0,0,0,0,0,0,0,0,0,0,0,0,0,0,0,0,0,0,0,0,0,0,0,0,0,0,0,0,0,0,0,0,0,0,0,0,0,0,0,0,0,0,0,0,0,0,0,0,0,0],"sum_hessian":[3.597E3,2.939E3,6.58E2,1.506E3,1.433E3,3.75E2,2.83E2,6.97E2,8.09E2,6.55E2,7.78E2,1E0,3.74E2,2.68E2,1.5E1,2.26E2,4.71E2,3.3E2,4.79E2,6.5E2,5E0,3.72E2,4.06E2,2E0,3.72E2,1.58E2,1.1E2,1.4E1,1E0,9.5E1,1.31E2,3.38E2,1.33E2,1.1E1,3.19E2,1.5E1,4.64E2,6.28E2,2.2E1,3E0,2E0,2.39E2,1.33E2,3E0,4.03E2,1E0,1E0,1.59E2,2.13E2,1.29E2,2.9E1,1.09E2,1E0,9.3E1,2E0,1.28E2,3E0,3.19E2,1.9E1,3E1,1.03E2,1E1,1E0,2.76E2,4.3E1,1E0,1.4E1,3.9E1,4.25E2,6.19E2,9E0,1.9E1,3E0,1E0,2E0,1.85E2,5.4E1,2.5E1,1.08E2,2E0,1E0,4E1,3.63E2,5.6E1,1.03E2,3.1E1,1.82E2,1.28E2,1E0,1E0,2.8E1,9.6E1,1.3E1,3.6E1,5.7E1,1E0,1E0,1.26E2,2E0,2E0,1E0,2.95E2,2.4E1,4E0,1.5E1,1.6E1,1.4E1,9.3E1,1E1,9E0,1E0,1.81E2,9.5E1,4.2E1,1E0,3.8E1,1E0,4.03E2,2.2E1,2.2E1,5.97E2,5E0,4E0,1E0,1.8E1,1E0,2E0,3E0,1.82E2,5E0,4.9E1,1.8E1,7E0,1E0,1.07E2,1E0,3.9E1,3.62E2,1E0,1E0,1.02E2,3E0,2.8E1,1.81E2,1E0,9.5E1,1E0,2E0,1.1E1,3.1E1,5E0,4.4E1,1.3E1,1.1E2,1.6E1,1E0,1E0,2.92E2,3E0,2.3E1,1E0,1E0,3E0,1.1E1,4E0,7E0,7E0,1.3E1,8E1,1E0,9E0,3E0,6E0,1.27E2,5.4E1,9E1,5E0,5E0,3.7E1,2E0,3.6E1,2.6E1,3.77E2,1E0,2.1E1,1E1,1.2E1,3.7E1,5.6E2,2E0,3E0,1E0,2E0,1.52E2,3E1,3E0,2E0,1E1,8E0,5E0,2E0,4.9E1,5.8E1,8E0,3.1E1,3.6E2,2E0,6E0,9.6E1,1E0,2E0,8E0,2E1,1E0,1E1,1.9E1,1.2E1,3E0,2E0,2E0,4.2E1,6E0,7E0,9.8E1,1.2E1,1E1,6E0,2.85E2,7E0,2E0,1E0,1E0,1E1,1E0,3E0,4E0,3E0,6E0,1E0,5E0,7.5E1,1E0,8E0,3.6E1,9.1E1,8E0,4.6E1,5.1E1,3.9E1,1E0,4E0,4E0,1E0,1E0,3.6E1,1E0,1E0,1.7E1,1.9E1,1E1,1.6E1,1.5E1,3.62E2,9E0,1.2E1,9E0,3E0,1.1E1,2.6E1,2E0,5.58E2,1.51E2,1E0,2.8E1,2E0,1E0,1E0,9E0,1E0,2E0,6E0,3E0,2E0,1E0,1E0,1.8E1,3.1E1,1E0,5.7E1,7E0,1E0,2.9E1,2E0,3.57E2,3E0,5E0,1E0,9.1E1,5E0,7E0,1E0,8E0,1.2E1,8E0,2E0,1.1E1,8E0,1E0,1E0,1E0,4.1E1,3E0,3E0,6E0,1E0,2.2E1,7.6E1,2E0,1E1,9E0,1E0,2E0,4E0,1.72E2,1.13E2,5E0,2E0,1E0,1E0,9E0,1E0,1E0,2E0,1E0,3E0,1E0,5E0,1.3E1,6.2E1,1E0,7E0,3E1,6E0,4.3E1,4.8E1,3E0,5E0,2.7E1,1.9E1,1E1,4.1E1,2E0,3.7E1,2E0,2E0,2E0,2E0,3.3E1,3E0,3E0,1.4E1,1.5E1,4E0,2E0,8E0,2E0,1.4E1,1E1,5E0,8.2E1,2.8E2,8E0,1E0,1E1,2E0,2E0,7E0,9E0,2E0,2.1E1,5E0,1E0,1E0,2.59E2,2.99E2,1.7E1,1.1E1,1E0,1E0,1E0,8E0,2E0,1.6E1,5E0,2.6E1,5.6E1,1E0,3.54E2,3E0,1E0,2E0,1E0,4E0,3.7E1,5.4E1,1E0,4E0,2E0,6E0,9E0,2E0,4E0,4E0,4E1,1E0,1E0,2E0,5E0,1E0,1.6E1,6E0,6.5E1,1.1E1,1E0,1E0,1E0,9E0,1E0,8E0,1E0,1E0,1.53E2,1.9E1,1E1,1.03E2,3E0,2E0,2E0,7E0,1E0,1.2E1,7E0,5.5E1,1E0,5E0,3.3E1,1E1,3E0,4.5E1,4E0,1E0,2.1E1,6E0,1.4E1,5E0,2.8E1,1.3E1,1E0,1E0,3.3E1,4E0,1.4E1,1.9E1,2E0,1E0,4E0,1E1,4E0,1.1E1,2E0,2E0,7E0,1E0,1.3E1,1E0,4E0,1E0,5.4E1,2.8E1,2.61E2,1.9E1,6E0,2E0,5E0,2E0,1E0,1E0,2.57E2,2E0,1E0,2.98E2,1E0,1.6E1,1E0,1E0,1.5E1,1E0,2E0,3E0,3E0,2.3E1,2E0,1E0,3E0,1E0,3.5E1,2E0,5.2E1,2E0,1E0,1E0,3E0,3E0],"tree_param":{"num_deleted":"0","num_feature":"9","num_nodes":"513","size_leaf_vector":"0"}},{"base_weights":[2.476683E-1,2.0435283E-1,3.937016E-1,1.5645713E-1,2.4255557E-1,3.4449875E-1,4.813597E-1,1.14390224E-1,1.7530473E-1,2.4113421E-1,7.291429E-1,3.2028142E-1,3.7690997E-1,4.680054E-1,8.986051E-1,8.006091E-2,1.2765774E-1,1.7327352E-1,3.1466314E-1,2.2063908E-1,2.6554146E-1,3.2351968E-1,5.804348E-2,3.5897374E-1,4.4090402E-1,4.51254E-1,5.597451E-1,6.626032E-2,9.314557E-2,1.2926236E-1,-1.3772011E-2,1.5573151E-1,1.8435326E-1,3.469273E-1,1.1298307E-1,2.2238207E-1,8.140484E-2,2.727935E-1,2.1604131E-1,4.08495E-1,3.1383213E-1,-8.126545E-2,1.7800458E-1,3.6945292E-1,2.3799706E-1,4.708488E-1,2.4729645E-1,4.5727214E-1,2.628971E-1,5.758688E-1,2.7066422E-1,7.512368E-2,3.885275E-2,1.5585048E-1,8.2060575E-2,1.4641565E-1,1.1817435E-1,-6.0204823E-2,6.2763214E-2,1.579092E-1,3.206587E-2,3.4375226E-1,1.8273206E-1,1.4380534E-1,3.844185E-1,1.5494823E-3,1.6792512E-1,2.1355669E-1,2.4902515E-1,-7.4544633E-3,1.7150657E-1,2.6190332E-1,3.233271E-1,2.6405248E-1,1.8573932E-1,4.4681233E-1,-5.9753418E-2,-1.0054175E-1,3.1718695E-1,3.5855293E-2,2.3115158E-1,3.986661E-1,3.053715E-1,3.008409E-1,1.4870909E-1,4.049174E-1,5.89876E-1,4.783857E-1,4.019495E-1,3.9346614E-1,-3.1322956E-2,5.967023E-1,3.2319412E-1,7.635577E-2,1.2303948E-2,4.6239316E-2,1.3354445E-2,5.005908E-2,1.8815522E-1,4.249441E-2,9.40689E-2,1.5451662E-1,8.858884E-2,1.7294797E-1,1.1295277E-1,1.17531665E-1,1.63629E-1,9.4108105E-2,-3.7992835E-2,3.1057994E-3,1.834373E-1,1.780045E-1,3.7703514E-2,1.9929452E-1,2.3280932E-1,3.0039123E-1,2.2449857E-1,-2.0013237E-1,5.8013916E-2,5.1834106E-2,1.8507424E-1,2.655915E-1,1.8076172E-1,2.729177E-1,3.675187E-1,2.0319939E-2,2.7865076E-1,2.0042324E-2,2.1403223E-1,5.43269E-1,3.5257262E-1,-1.8373823E-1,9.4108105E-2,1.7064998E-1,3.2317862E-1,3.7510818E-1,5.3004736E-1,-8.04286E-2,3.1400535E-1,2.626543E-1,-3.8142633E-1,4.285997E-1,-1.0541105E-1,2.3942852E-1,6.4115006E-1,2.9505253E-2,4.8091203E-1,5.3296524E-1,3.2533818E-1,1.0997772E-1,4.223846E-1,-1.8002224E-1,7.8250885E-2,9.0869024E-2,6.448778E-2,8.056641E-3,5.3070188E-2,-2.1301508E-3,1.7758131E-2,3.1025808E-3,6.6726476E-2,1.3038039E-1,7.713617E-2,-1.2362003E-3,1.5630059E-1,2.319177E-3,1.016827E-1,1.0629696E-1,2.3299134E-1,8.476292E-2,1.2234773E-1,1.3570382E-1,6.375933E-2,3.028822E-2,1.6494948E-1,4.0046453E-2,-7.735475E-2,1.867206E-1,1.3246213E-1,2.050802E-1,1.2688762E-1,2.363239E-1,7.051604E-2,3.0637E-1,8.0685295E-2,1.9360653E-1,2.591824E-1,1.04094744E-1,-2.276516E-2,3.5595655E-1,2.6149592E-1,8.957655E-2,2.3558006E-1,2.9920283E-1,1.3259983E-1,5.0504535E-1,3.2274935E-1,1.2523985E-1,-9.475994E-2,2.8731683E-1,5.001545E-3,9.6706934E-2,-1.1913133E-1,2.6117188E-1,1.568475E-1,5.7133245E-1,1.3131714E-1,1.580909E-1,4.266015E-1,2.0006613E-1,5.9073768E-3,3.268432E-1,1.1051718E-1,4.7024226E-1,3.2396567E-1,2.2574164E-1,3.392541E-1,2.799549E-1,7.077503E-2,4.3737656E-1,1.04588985E-1,4.9894986E-1,3.9620784E-1,9.171311E-2,3.5037103E-1,-7.6007843E-3,1.2497711E-1,3.6450744E-2,1.0062318E-1,3.182456E-2,7.484662E-2,-3.866434E-3,1.5951395E-2,1.0406375E-2,5.665435E-2,7.457813E-3,2.4329543E-2,-3.4933865E-2,5.278365E-2,9.875903E-2,1.0004163E-2,3.0941486E-2,1.3799122E-1,8.8956796E-2,-1.3071656E-2,7.0753574E-2,1.5953195E-1,1.7373562E-2,-1.3894796E-2,1.126469E-1,-1.4943838E-2,1.513935E-1,2.3352027E-2,7.057214E-2,2.5136074E-1,9.419198E-2,1.0918379E-2,1.8362083E-1,1.16166025E-1,1.7056426E-1,9.4911404E-2,1.3494492E-3,8.234735E-2,9.497484E-2,-8.1885815E-2,1.4560945E-1,1.7642581E-1,1.7970175E-1,2.2321841E-1,1.8523842E-1,-3.4720737E-2,1.9464433E-1,2.6060483E-1,-4.6099346E-2,1.4089024E-1,2.2402433E-1,2.8929016E-1,-1.4104016E-1,1.8334655E-1,3.9403155E-1,2.786494E-1,1.5985012E-2,1.05042934E-1,2.2397503E-1,7.1462154E-2,2.9138434E-1,1.75379E-1,-4.5132637E-2,1.0984898E-2,4.0252924E-1,1.5436172E-1,2.625771E-1,7.2057724E-2,-3.7647884E-3,1.10737376E-1,2.4865831E-1,2.6242256E-2,3.049499E-1,2.8912544E-2,1.0257244E-2,1.8356705E-1,5.515019E-1,2.023983E-2,6.5767765E-2,3.2741308E-1,9.7833E-2,2.970111E-1,1.9188309E-1,2.0259857E-2,5.7857037E-2,2.8417552E-1,8.024222E-2,2.7139178E-1,2.2485001E-1,5.9025764E-2,-6.0569286E-2,6.943035E-2,3.2877967E-1,5.1359814E-2,4.4493675E-3,2.1510188E-1,3.3703086E-1,5.176272E-1,3.4100392E-1,9.958903E-2,-1.7054813E-1,2.9982838E-1,7.411427E-1,4.816719E-1,5.34697E-1,3.4743527E-1,1.7204456E-1,-1.5497208E-1,3.5864076E-1,1.5211105E-3,5.5780053E-2,1.14142895E-2,1.24127775E-1,5.25132E-2,4.6224117E-2,5.8689713E-3,5.9593007E-2,1.1714941E-1,2.6156723E-2,6.754371E-2,1.4377475E-2,6.4798E-2,1.0873532E-1,2.9426932E-2,2.979803E-2,-6.52647E-3,5.6713424E-3,-3.4650326E-2,5.7041645E-3,8.5589886E-2,9.280205E-2,1.6347525E-1,1.2368083E-1,3.8318157E-2,2.7497927E-2,5.457163E-3,6.593511E-2,1.2192544E-1,4.5202095E-2,-1.7524004E-2,3.3296824E-2,1.9824922E-1,6.272106E-2,1.2675196E-1,3.7424803E-2,1.7694524E-1,6.345808E-2,1.5770778E-1,1.4040232E-2,-7.560889E-3,-1.2470007E-2,9.4268166E-2,1.5252484E-1,6.9505E-2,1.825407E-1,8.8065E-2,1.866329E-1,1.4811307E-1,2.423985E-1,1.0711805E-1,2.0648427E-1,-4.6474617E-2,4.8062485E-2,-6.5239154E-2,2.039604E-1,1.2067638E-1,2.752802E-1,1.046594E-1,-5.7033062E-2,-1.2115955E-2,1.5819776E-1,-2.5043488E-3,2.8752327E-1,2.0992328E-1,3.2439288E-1,1.3399144E-1,2.3674941E-1,-1.5132427E-2,2.5610197E-1,5.3591263E-1,1.3133843E-1,2.9240432E-1,1.4918526E-1,2.6728475E-1,-4.1227076E-2,1.7621115E-1,1.05667844E-1,2.6673722E-1,4.1872612E-1,9.5984936E-2,2.5984764E-2,1.7995977E-1,2.6310387E-1,1.0655403E-2,-9.70974E-2,1.6080856E-1,-2.4560452E-2,1.8913269E-2,1.3171184E-1,-2.8529167E-2,1.2348819E-1,2.7156943E-1,1.8835312E-1,3.2684466E-1,-1.3496542E-1,1.03653274E-1,6.795851E-2,2.1621875E-1,3.1872615E-1,6.5356475E-1,2.6363784E-1,3.6586165E-1,1.8267417E-1,3.2508767E-1,-1.4502207E-3,3.5216648E-2,-3.3878326E-2,9.9728264E-2,4.521656E-2,3.0384377E-1,-6.478342E-2,1.03897855E-1,6.0246944E-2,2.3789454E-1,9.4108105E-2,-5.569458E-3,2.3328426E-1,3.358243E-1,9.918213E-4,7.60479E-2,-3.0891895E-2,2.6527086E-2,2.5783157E-1,6.482124E-2,4.2803288E-2,3.6217326E-1,3.5864064E-1,1.5623434E-1,-9.9588394E-2,1.593422E-1,-4.0410995E-2,-2.1541119E-1,3.3988547E-1,-9.042835E-2,1.9502783E-1,7.9965717E-1,7.1406364E-2,4.8436126E-1,3.9167818E-1,1.1993154E-1,2.0254183E-1,2.5027752E-2,2.8749636E-1,4.2963153E-1,1.412996E-1,4.840819E-2,6.9909014E-2,7.1311793E-3,1.4047067E-2,-9.332657E-3,1.8594647E-2,7.170957E-2,3.825752E-2,-5.072832E-3,1.5251756E-2,7.4951746E-2,-1.020205E-2,4.1234493E-4,1.142621E-2,-2.919197E-3,2.3095608E-2,1.7804544E-1,2.0862341E-1,1.5376782E-1,1.983319E-2,8.305367E-2,1.2639096E-1,2.3005843E-2,1.3466358E-2,5.4336786E-2,4.0626526E-3,-2.6073774E-2,4.2220592E-2,2.145075E-1,2.8108994E-2,1.0190148E-1,1.6081789E-1,1.1336565E-1,9.800315E-2,6.8216324E-3,-1.09779835E-2,-3.633499E-4,6.153495E-2,1.3922293E-1,1.1647348E-1,1.7098385E-1,-1.329577E-2,1.0221726E-1,1.729677E-1,2.9561666E-1,2.0035565E-2,1.6409342E-1,1.7128247E-1,2.0497203E-1,9.529967E-2,1.8765622E-1,2.525535E-1,3.455162E-2,1.3247381E-1,-8.5897684E-2,-1.2180376E-1,5.2091837E-2,1.4123917E-2,5.796981E-2,-1.1801243E-2,-1.3255596E-1,2.4304762E-1,1.8832177E-1,1.3536426E-1,-2.6995778E-2,2.8745E-1,7.5635195E-2,1.6252613E-1,-9.233713E-2,4.689312E-2,1.9887774E-1,3.1552315E-2,-5.233717E-2,1.7837581E-1,3.2264245E-1,2.1231216E-1,-1.9836426E-4,-6.717253E-2,3.3749968E-1,1.5130393E-1,-1.0910511E-2,1.2177682E-1,6.0900235E-1,-2.3288727E-3,1.6246165E-1,2.0882814E-1,3.3461085E-1,1.9182613E-2,-1.6844065E-1,2.576723E-1,5.950775E-2,1.3708675E-1,4.6164673E-2,1.19867325E-1,4.3364206E-1,2.8424484E-1,2.5260416E-1,1.7972946E-1,8.575106E-2,9.435018E-3,2.3812471E-1,2.7994722E-1,-1.4965534E-2,2.075491E-1,7.203293E-2,1.0424105E-1,3.4196028E-1,8.912563E-3,4.391241E-2,1.0391235E-1,-3.6087513E-2,1.6707897E-1,3.2495376E-1,-2.608776E-2,1.1504596E-1,2.850174E-1,-4.0068913E-1,3.5327858E-1,2.996191E-1,3.7813663E-2,1.9769669E-3,4.0765324E-1,2.7485612E-1,-3.0240059E-2,1.9235341E-1,1.8438339E-1,2.95887E-2,8.857918E-2,3.5467884E-1,4.9087608E-1,2.722524E-1,1.6826554E-1,-6.0869217E-2,1.4925702E-1,3.160195E-1,1.6670386E-1,4.507581E-1],"categories":[],"categories_nodes":[],"categories_segments":[],"categories_sizes":[],"default_left":[1,1,1,1,1,1,1,1,1,1,0,1,1,1,0,1,1,1,1,1,1,1,1,1,1,1,1,1,1,1,1,1,1,1,1,1,1,1,1,1,1,0,1,1,1,1,0,1,1,1,0,1,1,1,1,1,1,0,0,1,1,0,1,1,0,0,0,1,1,1,1,1,1,1,1,1,1,0,1,0,0,1,1,0,1,1,1,1,1,1,1,0,0,1,0,1,1,0,0,1,1,1,1,1,1,1,1,0,1,0,1,0,0,1,1,1,1,0,1,0,0,1,1,1,1,1,1,1,1,1,1,0,0,1,1,1,0,0,1,1,0,1,0,0,0,0,1,0,1,0,0,0,1,1,1,1,1,0,1,1,1,1,1,0,1,1,1,1,1,1,1,1,1,1,1,0,0,1,1,1,1,1,1,1,1,1,1,0,1,1,1,1,1,1,1,1,1,0,0,1,0,1,0,1,1,0,0,0,0,1,1,1,1,1,1,1,0,0,0,0,0,1,1,1,1,0,0,1,1,1,1,0,0,0,1,0,0,0,1,1,1,0,0,0,1,1,1,0,0,1,0,0,1,0,0,1,1,1,1,1,1,1,1,0,0,1,1,1,1,1,1,1,1,1,1,1,1,0,1,1,1,0,0,1,1,0,1,0,0,1,1,1,1,1,1,1,0,1,0,1,1,1,0,0,1,0,1,0,1,1,1,1,0,1,1,0,0,1,1,1,1,1,0,1,1,1,1,1,1,0,1,1,0,1,0,0,0,1,0,1,1,1,0,1,1,0,0,0,0,0,1,1,0,0,0,1,1,0,0,0,0,1,1,1,1,0,1,1,1,0,0,1,0,0,1,0,1,1,1,1,1,1,1,1,1,0,1,1,1,1,1,1,1,0,0,1,1,1,1,1,1,0,0,0,1,0,0,1,1,1,1,1,0,1,0,0,0,1,0,0,0,0,0,1,0,0,0,1,0,0,0,0,0,0,0,1,0,1,1,0,1,0,0,1,1,0,1,0,0,0,0,1,1,0,0,0,1,0,0,0,0,1,1,0,1,0,0,1,0,0,0,0,1,0,1,0,0,1,1,0,0,0,0,0,0,0,0,0,0,0,0,0,0,0,0,0,0,0,0,0,0,0,0,0,0,0,0,0,0,0,0,0,0,0,0,0,0,0,0,0,0,0,0,0,0,0,0,0,0,0,0,0,0,0,0,0,0,0,0,0,0,0,0,0,0,0,0,0,0,0,0,0,0,0,0,0,0,0,0,0,0,0,0,0,0,0,0,0,0,0,0,0,0,0,0,0,0,0,0,0,0,0,0,0,0,0,0,0,0,0,0,0,0,0,0,0,0,0,0,0,0,0,0,0,0,0,0,0,0,0,0,0,0,0,0,0,0],"id":10,"left_children":[1,3,5,7,9,11,13,15,17,19,-1,21,23,25,-1,27,29,31,33,35,37,39,41,43,45,47,49,51,53,55,57,59,61,63,65,67,69,71,73,75,77,-1,79,81,83,85,-1,87,89,91,-1,93,95,97,99,101,103,-1,-1,105,107,-1,109,111,-1,-1,-1,113,115,117,119,121,123,125,127,129,131,-1,133,-1,-1,135,137,-1,139,141,143,145,147,149,151,-1,-1,153,-1,155,157,-1,-1,159,161,163,165,167,169,171,173,-1,175,-1,177,-1,-1,179,181,183,185,-1,187,-1,-1,189,191,193,195,197,199,201,203,205,207,-1,-1,209,211,213,-1,-1,215,217,-1,219,-1,-1,-1,-1,221,-1,223,-1,-1,-1,225,227,229,231,233,-1,235,237,239,241,243,-1,245,247,249,251,253,255,257,259,261,263,265,-1,-1,267,269,271,273,275,277,279,281,283,285,-1,287,289,291,293,295,297,299,301,303,-1,-1,305,-1,307,-1,309,311,-1,-1,-1,-1,313,315,317,319,321,323,325,-1,-1,-1,-1,-1,327,329,331,333,-1,-1,335,337,339,341,-1,-1,-1,343,-1,-1,-1,345,347,349,-1,-1,-1,351,353,355,-1,-1,357,-1,-1,359,-1,-1,361,363,365,367,369,371,373,375,-1,-1,377,379,381,383,385,387,389,391,393,395,397,399,-1,401,403,405,-1,-1,407,409,-1,411,-1,-1,413,415,417,419,421,423,425,-1,427,-1,429,431,433,-1,-1,435,-1,437,-1,439,441,443,445,-1,447,449,-1,-1,451,453,455,457,459,-1,461,463,465,467,469,471,-1,473,475,-1,477,-1,-1,-1,479,-1,481,483,485,-1,487,489,-1,-1,-1,-1,-1,491,493,-1,-1,-1,495,497,-1,-1,-1,-1,499,501,503,505,-1,507,509,511,-1,-1,513,-1,-1,515,-1,517,519,521,523,525,527,529,531,533,-1,535,537,539,541,543,545,547,-1,-1,549,551,553,555,557,559,-1,-1,-1,561,-1,-1,563,565,567,569,571,-1,573,-1,-1,-1,575,-1,-1,-1,-1,-1,577,-1,-1,-1,579,-1,-1,-1,-1,-1,-1,-1,581,-1,583,585,-1,587,-1,-1,589,591,-1,593,-1,-1,-1,-1,595,597,-1,-1,-1,599,-1,-1,-1,-1,601,603,-1,605,-1,-1,607,-1,-1,-1,-1,609,-1,611,-1,-1,613,615,-1,-1,-1,-1,-1,-1,-1,-1,-1,-1,-1,-1,-1,-1,-1,-1,-1,-1,-1,-1,-1,-1,-1,-1,-1,-1,-1,-1,-1,-1,-1,-1,-1,-1,-1,-1,-1,-1,-1,-1,-1,-1,-1,-1,-1,-1,-1,-1,-1,-1,-1,-1,-1,-1,-1,-1,-1,-1,-1,-1,-1,-1,-1,-1,-1,-1,-1,-1,-1,-1,-1,-1,-1,-1,-1,-1,-1,-1,-1,-1,-1,-1,-1,-1,-1,-1,-1,-1,-1,-1,-1,-1,-1,-1,-1,-1,-1,-1,-1,-1,-1,-1,-1,-1,-1,-1,-1,-1,-1,-1,-1,-1,-1,-1,-1,-1,-1,-1,-1,-1,-1,-1,-1,-1,-1,-1,-1,-1,-1,-1,-1,-1,-1,-1,-1,-1,-1,-1],"loss_changes":[2.2678696E1,5.0432663E0,3.3794785E0,9.591274E-1,8.9134216E-1,2.9528427E-1,1.2120514E0,1.6513395E-1,1.8636513E-1,7.117615E-1,0E0,2.444725E-1,9.539223E-2,1.869278E-1,0E0,1.36915445E-2,6.4415455E-2,1.3475037E-1,3.238046E-2,1.8648148E-1,1.9163132E-1,1.23703E-1,9.8023884E-2,1.3772964E-1,1.3865185E-1,1.5977478E-1,3.0574799E-2,1.0927856E-2,2.4745375E-2,3.462124E-2,1.799363E-2,8.434582E-2,6.8977356E-2,1.3256192E-2,1.8106975E-2,1.4245224E-1,9.735501E-2,2.482605E-1,8.770895E-2,5.2907515E-1,4.197445E-1,0E0,1.4376417E-2,1.8152809E-1,5.0652683E-2,5.1511765E-2,0E0,8.570862E-2,3.9648473E-1,1.9216537E-3,0E0,2.3113042E-3,2.3960192E-3,1.4504075E-2,1.8808514E-2,3.456211E-2,2.9371738E-2,0E0,0E0,5.605793E-2,3.4001622E-2,0E0,6.365776E-2,4.174385E-3,0E0,0E0,0E0,1.2713814E-1,1.8578815E-1,9.991064E-2,1.488924E-4,1.025238E-1,1.2914848E-1,1.1531234E-1,2.8168106E-1,4.4799805E-2,7.452074E-2,0E0,1.8805504E-1,0E0,0E0,1.3544083E-1,2.08457E-1,0E0,6.4384085E-1,3.7149477E-1,4.414749E-2,1.7518997E-1,5.492916E-1,1.0933399E-2,7.92611E-2,0E0,0E0,1.2020469E-3,0E0,2.7022846E-3,3.787739E-4,0E0,0E0,1.2202069E-2,1.2077659E-2,2.492261E-2,1.6708218E-2,2.7259111E-2,3.1739473E-2,3.4342647E-2,4.4834137E-2,0E0,1.5384885E-2,0E0,5.9785843E-2,0E0,0E0,1.2897873E-1,1.3334751E-1,5.6721687E-2,9.982443E-2,0E0,2.4703933E-2,0E0,0E0,8.419418E-2,1.0386312E-1,1.5211606E-1,1.571598E-1,4.809023E-2,7.444978E-2,1.1821777E-1,9.921074E-2,5.2143097E-2,1.6291428E-1,0E0,0E0,6.1817348E-2,1.703968E-1,3.0987167E-1,0E0,0E0,4.3757915E-2,6.7432523E-3,0E0,2.819395E-2,0E0,0E0,0E0,0E0,5.5942535E-2,0E0,2.4858475E-1,0E0,0E0,0E0,1.2984501E-2,4.8250854E-3,6.4152107E-3,3.440642E-4,9.395685E-4,0E0,8.930545E-5,1.3182084E-2,1.3547685E-2,3.2984763E-3,2.9953271E-2,0E0,1.3038635E-2,9.7367633E-4,1.8306687E-2,2.6388891E-2,1.6218424E-4,2.89118E-2,2.2985935E-2,2.9316843E-2,1.4969859E-2,3.6801726E-2,3.645706E-2,0E0,0E0,8.07991E-2,3.0642354E-1,1.468668E-1,7.9163045E-2,1.02617264E-1,1.929492E-1,3.6005497E-2,3.0487254E-3,2.7332306E-1,1.1891127E-1,0E0,2.7604885E-3,1.0686374E-1,7.5704575E-2,2.2143878E-2,3.454119E-2,5.797863E-2,6.0471714E-2,2.3658419E-1,2.8804302E-2,0E0,0E0,2.7886868E-2,0E0,4.7044046E-2,0E0,1.09836936E-1,2.0636505E-1,0E0,0E0,0E0,0E0,2.517888E-2,1.6873732E-2,1.21816635E-1,6.560134E-2,2.1222115E-2,2.145338E-1,4.915325E-1,0E0,0E0,0E0,0E0,0E0,1.9956589E-1,4.387951E-2,1.4556158E-1,1.23505116E-1,0E0,0E0,1.29906E-3,8.182138E-3,2.718703E-3,5.2788556E-3,0E0,0E0,0E0,1.2221746E-3,0E0,0E0,0E0,4.5264326E-4,2.5863573E-4,1.5032967E-3,0E0,0E0,0E0,1.81431E-3,4.3372475E-3,6.932497E-3,0E0,0E0,5.1024407E-3,0E0,0E0,1.4670053E-4,0E0,0E0,2.173996E-2,6.642785E-3,1.3189912E-2,5.371833E-2,6.970793E-3,2.3569807E-2,5.584733E-4,1.247853E-2,0E0,0E0,4.7290802E-2,7.6318264E-2,6.015587E-2,1.3436556E-1,1.3759279E-1,2.5873274E-2,1.7591286E-1,8.790612E-2,4.2368425E-4,6.9886744E-2,1.3036251E-1,2.0184708E-1,0E0,5.6579307E-2,9.758675E-2,6.088233E-2,0E0,0E0,1.6095066E-1,2.079341E-1,0E0,9.918821E-2,0E0,0E0,2.9319286E-2,1.1754781E-2,5.8109283E-2,7.566473E-2,1.8793341E-3,3.0047E-2,6.6133738E-3,0E0,4.5657635E-2,0E0,6.824248E-2,1.1729822E-2,2.9269218E-2,0E0,0E0,4.079342E-3,0E0,3.3710003E-2,0E0,1.6746377E-3,1.8742915E-2,9.9058986E-2,6.505233E-2,0E0,4.9920976E-3,7.322586E-3,0E0,0E0,9.5220566E-2,3.6550425E-3,3.9404896E-3,2.5513768E-3,6.587136E-2,0E0,1.3949156E-1,8.727752E-2,8.810066E-3,2.3395836E-1,6.773424E-2,1.0553932E-1,0E0,2.3485732E-1,1.734887E-2,0E0,8.860779E-2,0E0,0E0,0E0,3.5618916E-3,0E0,4.1310275E-3,6.283779E-4,6.6147335E-3,0E0,1.705684E-3,1.1811405E-3,0E0,0E0,0E0,0E0,0E0,8.0719285E-5,1.8166762E-4,0E0,0E0,0E0,3.7482023E-2,2.1059513E-3,0E0,0E0,0E0,0E0,1.4925949E-2,5.0433576E-3,1.3796985E-4,8.441723E-4,0E0,1.1237413E-2,2.4257958E-2,2.281022E-2,0E0,0E0,2.4766088E-2,0E0,0E0,6.979516E-5,0E0,4.6765506E-3,4.663205E-2,3.115366E-2,1.2098169E-1,6.395051E-2,5.6383133E-2,1.4292395E-1,1.200254E-1,7.010794E-2,0E0,2.8619763E-2,1.8996093E-4,2.3616562E-2,1.11325264E-1,7.956898E-2,9.002161E-2,8.3404474E-2,0E0,0E0,1.0387075E-1,8.439917E-3,8.044267E-2,8.93898E-2,2.0742893E-1,2.673696E-2,0E0,0E0,0E0,7.718301E-2,0E0,0E0,5.0667405E-2,7.9678774E-2,7.2395526E-2,7.022765E-2,1.7975241E-2,0E0,5.9714317E-3,0E0,0E0,0E0,2.986145E-2,0E0,0E0,0E0,0E0,0E0,2.2434443E-3,0E0,0E0,0E0,7.789862E-2,0E0,0E0,0E0,0E0,0E0,0E0,0E0,9.052265E-2,0E0,7.0672035E-3,4.6331406E-2,0E0,2.9482995E-4,0E0,0E0,1.8066559E-2,9.223223E-3,0E0,2.4737671E-2,0E0,0E0,0E0,0E0,8.029493E-1,4.455185E-2,0E0,0E0,0E0,7.5650425E-4,0E0,0E0,0E0,0E0,1.09704494E-1,5.296375E-2,0E0,1.0790244E-2,0E0,0E0,1.3194919E-2,0E0,0E0,0E0,0E0,4.0470123E-2,0E0,6.267512E-2,0E0,0E0,4.746425E-2,3.0397177E-2,0E0,0E0,0E0,0E0,0E0,0E0,0E0,0E0,0E0,0E0,0E0,0E0,0E0,0E0,0E0,0E0,0E0,0E0,0E0,0E0,0E0,0E0,0E0,0E0,0E0,0E0,0E0,0E0,0E0,0E0,0E0,0E0,0E0,0E0,0E0,0E0,0E0,0E0,0E0,0E0,0E0,0E0,0E0,0E0,0E0,0E0,0E0,0E0,0E0,0E0,0E0,0E0,0E0,0E0,0E0,0E0,0E0,0E0,0E0,0E0,0E0,0E0,0E0,0E0,0E0,0E0,0E0,0E0,0E0,0E0,0E0,0E0,0E0,0E0,0E0,0E0,0E0,0E0,0E0,0E0,0E0,0E0,0E0,0E0,0E0,0E0,0E0,0E0,0E0,0E0,0E0,0E0,0E0,0E0,0E0,0E0,0E0,0E0,0E0,0E0,0E0,0E0,0E0,0E0,0E0,0E0,0E0,0E0,0E0,0E0,0E0,0E0,0E0,0E0,0E0,0E0,0E0,0E0,0E0,0E0,0E0,0E0,0E0,0E0,0E0,0E0,0E0,0E0,0E0,0E0,0E0,0E0,0E0,0E0,0E0,0E0,0E0,0E0],"parents":[2147483647,0,0,1,1,2,2,3,3,4,4,5,5,6,6,7,7,8,8,9,9,11,11,12,12,13,13,15,15,16,16,17,17,18,18,19,19,20,20,21,21,22,22,23,23,24,24,25,25,26,26,27,27,28,28,29,29,30,30,31,31,32,32,33,33,34,34,35,35,36,36,37,37,38,38,39,39,40,40,42,42,43,43,44,44,45,45,47,47,48,48,49,49,51,51,52,52,53,53,54,54,55,55,56,56,59,59,60,60,62,62,63,63,67,67,68,68,69,69,70,70,71,71,72,72,73,73,74,74,75,75,76,76,78,78,81,81,82,82,84,84,85,85,86,86,87,87,88,88,89,89,90,90,93,93,95,95,96,96,99,99,100,100,101,101,102,102,103,103,104,104,105,105,106,106,108,108,110,110,113,113,114,114,115,115,116,116,118,118,121,121,122,122,123,123,124,124,125,125,126,126,127,127,128,128,129,129,130,130,133,133,134,134,135,135,138,138,139,139,141,141,146,146,148,148,152,152,153,153,154,154,155,155,156,156,158,158,159,159,160,160,161,161,162,162,164,164,165,165,166,166,167,167,168,168,169,169,170,170,171,171,172,172,173,173,174,174,177,177,178,178,179,179,180,180,181,181,182,182,183,183,184,184,185,185,186,186,188,188,189,189,190,190,191,191,192,192,193,193,194,194,195,195,196,196,199,199,201,201,203,203,204,204,209,209,210,210,211,211,212,212,213,213,214,214,215,215,221,221,222,222,223,223,224,224,227,227,228,228,229,229,230,230,234,234,238,238,239,239,240,240,244,244,245,245,246,246,249,249,252,252,255,255,256,256,257,257,258,258,259,259,260,260,261,261,262,262,265,265,266,266,267,267,268,268,269,269,270,270,271,271,272,272,273,273,274,274,275,275,276,276,278,278,279,279,280,280,283,283,284,284,286,286,289,289,290,290,291,291,292,292,293,293,294,294,295,295,297,297,299,299,300,300,301,301,304,304,306,306,308,308,309,309,310,310,311,311,313,313,314,314,317,317,318,318,319,319,320,320,321,321,323,323,324,324,325,325,326,326,327,327,328,328,330,330,331,331,333,333,337,337,339,339,340,340,341,341,343,343,344,344,350,350,351,351,355,355,356,356,361,361,362,362,363,363,364,364,366,366,367,367,368,368,371,371,374,374,376,376,377,377,378,378,379,379,380,380,381,381,382,382,383,383,384,384,386,386,387,387,388,388,389,389,390,390,391,391,392,392,395,395,396,396,397,397,398,398,399,399,400,400,404,404,407,407,408,408,409,409,410,410,411,411,413,413,417,417,423,423,427,427,435,435,437,437,438,438,440,440,443,443,444,444,446,446,451,451,452,452,456,456,461,461,462,462,464,464,467,467,472,472,474,474,477,477,478,478],"right_children":[2,4,6,8,10,12,14,16,18,20,-1,22,24,26,-1,28,30,32,34,36,38,40,42,44,46,48,50,52,54,56,58,60,62,64,66,68,70,72,74,76,78,-1,80,82,84,86,-1,88,90,92,-1,94,96,98,100,102,104,-1,-1,106,108,-1,110,112,-1,-1,-1,114,116,118,120,122,124,126,128,130,132,-1,134,-1,-1,136,138,-1,140,142,144,146,148,150,152,-1,-1,154,-1,156,158,-1,-1,160,162,164,166,168,170,172,174,-1,176,-1,178,-1,-1,180,182,184,186,-1,188,-1,-1,190,192,194,196,198,200,202,204,206,208,-1,-1,210,212,214,-1,-1,216,218,-1,220,-1,-1,-1,-1,222,-1,224,-1,-1,-1,226,228,230,232,234,-1,236,238,240,242,244,-1,246,248,250,252,254,256,258,260,262,264,266,-1,-1,268,270,272,274,276,278,280,282,284,286,-1,288,290,292,294,296,298,300,302,304,-1,-1,306,-1,308,-1,310,312,-1,-1,-1,-1,314,316,318,320,322,324,326,-1,-1,-1,-1,-1,328,330,332,334,-1,-1,336,338,340,342,-1,-1,-1,344,-1,-1,-1,346,348,350,-1,-1,-1,352,354,356,-1,-1,358,-1,-1,360,-1,-1,362,364,366,368,370,372,374,376,-1,-1,378,380,382,384,386,388,390,392,394,396,398,400,-1,402,404,406,-1,-1,408,410,-1,412,-1,-1,414,416,418,420,422,424,426,-1,428,-1,430,432,434,-1,-1,436,-1,438,-1,440,442,444,446,-1,448,450,-1,-1,452,454,456,458,460,-1,462,464,466,468,470,472,-1,474,476,-1,478,-1,-1,-1,480,-1,482,484,486,-1,488,490,-1,-1,-1,-1,-1,492,494,-1,-1,-1,496,498,-1,-1,-1,-1,500,502,504,506,-1,508,510,512,-1,-1,514,-1,-1,516,-1,518,520,522,524,526,528,530,532,534,-1,536,538,540,542,544,546,548,-1,-1,550,552,554,556,558,560,-1,-1,-1,562,-1,-1,564,566,568,570,572,-1,574,-1,-1,-1,576,-1,-1,-1,-1,-1,578,-1,-1,-1,580,-1,-1,-1,-1,-1,-1,-1,582,-1,584,586,-1,588,-1,-1,590,592,-1,594,-1,-1,-1,-1,596,598,-1,-1,-1,600,-1,-1,-1,-1,602,604,-1,606,-1,-1,608,-1,-1,-1,-1,610,-1,612,-1,-1,614,616,-1,-1,-1,-1,-1,-1,-1,-1,-1,-1,-1,-1,-1,-1,-1,-1,-1,-1,-1,-1,-1,-1,-1,-1,-1,-1,-1,-1,-1,-1,-1,-1,-1,-1,-1,-1,-1,-1,-1,-1,-1,-1,-1,-1,-1,-1,-1,-1,-1,-1,-1,-1,-1,-1,-1,-1,-1,-1,-1,-1,-1,-1,-1,-1,-1,-1,-1,-1,-1,-1,-1,-1,-1,-1,-1,-1,-1,-1,-1,-1,-1,-1,-1,-1,-1,-1,-1,-1,-1,-1,-1,-1,-1,-1,-1,-1,-1,-1,-1,-1,-1,-1,-1,-1,-1,-1,-1,-1,-1,-1,-1,-1,-1,-1,-1,-1,-1,-1,-1,-1,-1,-1,-1,-1,-1,-1,-1,-1,-1,-1,-1,-1,-1,-1,-1,-1,-1,-1],"split_conditions":[1.0684999E1,7.415E0,1.4825E1,5.475E0,1.1285E1,1.2566667E1,1.8215E1,3.7E0,2.0165E3,9.121666E0,2.1874288E-1,1.25216675E1,9E0,1.736E1,2.6958156E-1,3.1950002E0,5.465E0,6.395E0,7.32E0,9.101667E0,1.0411667E1,1.0731667E1,9.5E0,7.5E0,1.4758333E1,1.7244999E1,1.8119999E1,2.05E1,5.5E0,2.0145E3,1.4E1,6.365E0,6.213333E0,5E-1,1.85E1,2.35E1,7.5E0,1.0125E1,1.0469999E1,2.0225E3,1.0434999E1,-2.4379635E-2,1.35E1,1.425E1,1.3385E1,1.385E1,7.418894E-2,9.5E0,2.3E1,7.5E0,8.1199266E-2,3.2516665E0,3.145E0,2E0,1.35E1,5.425E0,3.87E0,-1.8061448E-2,1.8828966E-2,1.5E0,2.5E0,1.03125684E-1,6.291667E0,5.5E0,1.1532555E-1,4.6484472E-4,5.0377537E-2,8.305E0,3.5E0,9.065001E0,9.04E0,2.95E1,1.65E1,1.0418333E1,1.0535E1,8.5E0,1.55E1,-3.0162526E-2,1.0808333E1,1.0756589E-2,6.9345474E-2,5.5E0,1.4261667E1,9.025228E-2,1.2E1,1.3765E1,1.5E0,1.466E1,1.5165E1,1.67E1,4.5E0,1.7901069E-1,9.695824E-2,1.5E0,3.6911846E-3,2.15E1,2.45E1,1.5017725E-2,5.6446567E-2,1.5E0,3.275E0,1.5E0,5.4016666E0,3.7983332E0,4.575E0,2.25E1,5.34E0,2.8232433E-2,1E1,9.3173987E-4,7.465E0,5.3401355E-2,1.1311054E-2,8.221666E0,9.205E0,9.225E0,2.0135E3,-6.0039714E-2,9.16E0,1.55502325E-2,5.5522274E-2,9.125E0,9.475E0,1.35E1,2.5E0,9.5E0,1.1003333E1,1.0525E1,2.05E1,1.05E1,1.0528334E1,-5.512147E-2,2.8232433E-2,1.0801666E1,3.05E1,2.5E0,1.5901421E-1,-2.412858E-2,1.4295E1,3.5E0,-1.144279E-1,1.3955E1,-3.162332E-2,7.182856E-2,1.9234502E-1,8.851577E-3,2.0195E3,1.5988958E-1,1.527E1,3.2993317E-2,1.2671538E-1,-5.4006673E-2,2.8E1,2.56E0,1.5E0,5.5E0,2.38E0,-6.3904526E-4,1.05E1,3.495E0,3.3449998E0,1.45E1,2.85E1,-3.7086013E-4,1.5E0,1E1,5.545E0,3.7483335E0,6E0,4.545E0,4.6099997E0,5.82E0,2.012E3,3.5E0,1.5E0,1.2013936E-2,-2.3206426E-2,2.65E1,1.05E1,8.105E0,8.125E0,8.946667E0,1.25E1,8.085E0,2.85E1,7.99E0,8.815001E0,3.1228425E-2,1.05E1,2.0215E3,1.0115E1,9.035E0,1.0195E1,1.0605E1,1.55E1,1.0385E1,9.42E0,3.7571955E-2,-2.8427983E-2,9.99E0,1.5004636E-3,1.0445E1,-3.57394E-2,1.5E0,2.75E1,1.7139974E-1,3.9395142E-2,4.7427274E-2,1.2798046E-1,9.5E0,1.9E1,1.2565001E1,1.1434999E1,1.5E0,1.3825001E1,1.4235001E1,1.01776235E-1,8.3986476E-2,2.123251E-2,1.3121298E-1,3.1376697E-2,1.542E1,1.4973333E1,2.2E1,3.05E1,-2.2802353E-3,3.7493136E-2,1.5E0,3.115E0,2.935E0,3.1100001E0,-1.1599303E-3,4.7854185E-3,3.1219127E-3,1.5E0,2.237344E-3,7.298863E-3,-1.048016E-2,9.5E0,1.15E1,2.5E0,9.2824465E-3,4.1397367E-2,2.6687039E-2,2E0,5.2200003E0,4.95E0,5.2120686E-3,-4.168439E-3,5.4833336E0,-4.4831517E-3,4.5418054E-2,1E1,2.1171642E-2,7.540823E-2,1.95E1,2E0,4.44E0,4.815E0,5.565E0,6.0950003E0,2.65E1,5.41E0,2.8492453E-2,-2.4565745E-2,1E1,6.415E0,2.15E1,2.015E3,2.85E1,7.49E0,7.9849997E0,8.335E0,1.75E1,8.298334E0,8.358334E0,9.078333E0,-4.231205E-2,2.05E1,2.015E3,8.145E0,4.795504E-3,3.1512883E-2,7.585E0,8.51E0,8.741531E-2,8.966667E0,-1.3539792E-2,3.2954693E-3,3E0,1.5E1,1.048E1,1.5E0,7E0,9.74E0,5E-1,7.872677E-3,2.5E0,8.673764E-3,6E0,4.5E0,1.95E1,6.0719494E-3,1.973033E-2,1.029E1,2.93499E-2,4E0,5.756493E-2,1.0553333E1,7.5E0,2.0175E3,5E-1,8.141754E-2,6.5E0,1.5E1,-1.8170787E-2,2.0829106E-2,2.0175E3,1.25E1,2.5E0,6.5E0,5E0,1.5528816E-1,4.5E0,1.25E1,1.7E1,1.4280001E1,1.537E1,1.551E1,1.6040911E-1,1.5E0,1.75E1,-4.6491623E-2,1.75E1,4.563332E-4,1.6734017E-2,3.424287E-3,1.7E1,1.575396E-2,1.45E1,2.5E0,2.5E0,3.5144825E-2,2.45E1,2.3E1,4.3132426E-3,1.94394E-2,3.2620598E-2,8.82808E-3,8.93941E-3,9E0,2.95E1,-1.03950985E-2,1.7112495E-3,2.5676968E-2,2.55E1,5.09E0,3.710425E-2,1.1495448E-2,8.249379E-3,1.6371489E-3,4.5E0,8.5E0,1.7E1,1.1E1,9.989047E-3,4.5E0,1.05E1,4.975E0,1.1227441E-2,5.3083573E-2,5.865E0,4.7312338E-2,4.21207E-3,2.75E1,-3.7410022E-3,2.85E1,5.825E0,1.65E1,6.3100004E0,1.75E1,1.25E1,6.8199997E0,7.3900003E0,3.5E0,6.1945286E-2,2.95E1,1.2E1,2.013E3,4.5E0,8.175E0,2.25E1,2.0145E3,-1.710992E-2,-3.6347867E-3,8.235001E0,1.35E1,2.0125E3,9.055E0,1.5E0,9.32E0,7.102483E-2,-4.539728E-3,7.6830596E-2,2.45E1,3.940153E-2,8.77213E-2,7.4066668E0,2.75E1,8.190001E0,8.65E0,8.9E0,8.002117E-2,5E0,2.8795483E-2,7.7954293E-3,5.3987935E-2,1.05E1,3.196621E-3,-2.912922E-2,4.8242573E-2,-7.3681357E-3,5.673981E-3,9.183332E0,-8.55875E-3,3.704646E-2,8.147083E-2,1.033E1,9.80534E-2,-4.048963E-2,3.1095983E-2,2.0387555E-2,6.486563E-2,9.561785E-2,1.9606943E-1,1.04E1,1.09758504E-1,2.5E0,5.5E0,-4.3506623E-4,7E0,-1.0163498E-2,2.991848E-2,7.5E0,3.5E0,-1.9435026E-2,1.0465E1,1.8074084E-2,7.136837E-2,2.8232433E-2,-1.6708375E-3,1.1181667E1,1.1695E1,2.975464E-4,2.281437E-2,-9.267569E-3,6E0,7.734948E-2,1.9446373E-2,1.2840987E-2,1.0865198E-1,2.019E3,2.5E0,-2.9876519E-2,2.75E1,-1.2123299E-2,-6.4623356E-2,4.5E0,-2.7128506E-2,5.850835E-2,2.3989716E-1,2.142191E-2,1.7375E1,1.1750346E-1,1.529E1,6.076255E-2,7.508326E-3,5E-1,1.5344999E1,4.2389885E-2,1.4522458E-2,2.0972705E-2,2.139354E-3,4.21412E-3,-2.799797E-3,5.578394E-3,2.1512873E-2,1.1477256E-2,-1.5218497E-3,4.575527E-3,2.2485524E-2,-3.0606152E-3,1.2370349E-4,3.4278634E-3,-8.757592E-4,6.928683E-3,5.3413633E-2,6.258702E-2,4.6130348E-2,5.9499573E-3,2.4916103E-2,3.791729E-2,6.901753E-3,4.039908E-3,1.6301036E-2,1.2187958E-3,-7.822133E-3,1.2666178E-2,6.435225E-2,8.432698E-3,3.0570446E-2,4.824537E-2,3.4009695E-2,2.9400947E-2,2.0464899E-3,-3.2933953E-3,-1.0900498E-4,1.8460486E-2,4.1766882E-2,3.4942046E-2,5.1295158E-2,-3.988731E-3,3.0665178E-2,5.1890314E-2,8.8685E-2,6.0106697E-3,4.9228027E-2,5.1384743E-2,6.1491612E-2,2.8589902E-2,5.629687E-2,7.576605E-2,1.0365486E-2,3.9742146E-2,-2.5769306E-2,-3.654113E-2,1.5627552E-2,4.237175E-3,1.7390944E-2,-3.540373E-3,-3.976679E-2,7.291429E-2,5.6496534E-2,4.060928E-2,-8.098734E-3,8.6235E-2,2.2690559E-2,4.875784E-2,-2.7701141E-2,1.4067937E-2,5.966332E-2,9.465694E-3,-1.5701152E-2,5.3512745E-2,9.6792735E-2,6.369365E-2,-5.950928E-5,-2.0151759E-2,1.0124991E-1,4.539118E-2,-3.2731534E-3,3.6533047E-2,1.8270071E-1,-6.9866184E-4,4.87385E-2,6.2648445E-2,1.0038326E-1,5.754784E-3,-5.05322E-2,7.7301696E-2,1.7852325E-2,4.1126028E-2,1.3849403E-2,3.5960197E-2,1.3009262E-1,8.527345E-2,7.578125E-2,5.3918842E-2,2.5725318E-2,2.8305054E-3,7.143742E-2,8.398417E-2,-4.4896603E-3,6.226473E-2,2.160988E-2,3.127232E-2,1.0258809E-1,2.6737691E-3,1.3173724E-2,3.1173708E-2,-1.0826254E-2,5.0123695E-2,9.748613E-2,-7.826328E-3,3.451379E-2,8.5505225E-2,-1.2020674E-1,1.0598358E-1,8.9885734E-2,1.1344099E-2,5.930901E-4,1.22295976E-1,8.245684E-2,-9.072018E-3,5.7706024E-2,5.531502E-2,8.876611E-3,2.6573755E-2,1.0640366E-1,1.4726283E-1,8.167572E-2,5.047966E-2,-1.8260766E-2,4.4777106E-2,9.480586E-2,5.001116E-2,1.3522744E-1],"split_indices":[6,7,6,7,7,8,6,6,5,8,0,8,1,6,0,7,7,6,7,8,8,8,0,1,8,6,7,0,0,5,0,6,8,3,0,0,1,7,6,5,7,0,0,8,7,7,0,1,0,1,0,8,7,1,0,7,7,0,0,1,1,0,8,0,0,0,0,8,1,7,6,0,0,8,6,0,0,0,8,0,0,1,8,0,0,7,3,7,6,7,1,0,0,3,0,0,0,0,0,3,8,1,8,8,7,0,6,0,0,0,6,0,0,8,7,6,5,0,6,0,0,7,7,0,1,0,8,6,0,1,8,0,0,8,0,1,0,0,6,3,0,6,0,0,0,0,5,0,6,0,0,0,0,7,1,1,7,0,1,7,7,0,0,0,0,0,6,8,0,7,6,8,5,3,3,0,0,0,1,6,7,8,0,7,0,6,6,0,0,5,7,6,6,6,0,8,6,0,0,6,0,7,0,0,0,0,0,0,0,1,0,7,6,3,6,7,0,0,0,0,0,7,8,0,0,0,0,0,7,6,7,0,0,0,3,0,0,0,0,1,3,0,0,0,3,7,6,0,0,8,0,0,0,0,0,0,3,6,7,7,6,0,6,0,0,1,7,0,5,0,6,6,6,0,8,8,8,0,0,5,7,0,0,7,6,0,8,0,0,3,0,6,3,1,6,3,0,1,0,1,1,0,0,0,7,0,1,0,8,1,5,3,0,0,0,0,0,5,0,3,1,0,0,1,0,0,6,6,8,0,1,0,0,0,0,0,0,0,0,0,3,3,0,0,0,0,0,0,0,0,0,0,0,0,0,0,6,0,0,0,0,1,1,0,0,0,1,0,7,0,0,6,0,0,0,0,0,7,0,7,0,0,6,7,3,0,0,0,5,1,7,0,5,0,0,8,0,5,7,1,6,0,0,0,0,0,0,8,0,6,6,7,0,0,0,0,0,0,0,0,0,0,0,8,0,0,0,7,0,0,0,0,0,0,0,6,0,3,0,0,0,0,0,0,1,0,8,0,0,0,0,8,7,0,0,0,1,0,0,0,0,5,0,0,0,0,0,0,0,0,0,0,7,0,6,0,0,3,6,0,0,0,0,0,0,0,0,0,0,0,0,0,0,0,0,0,0,0,0,0,0,0,0,0,0,0,0,0,0,0,0,0,0,0,0,0,0,0,0,0,0,0,0,0,0,0,0,0,0,0,0,0,0,0,0,0,0,0,0,0,0,0,0,0,0,0,0,0,0,0,0,0,0,0,0,0,0,0,0,0,0,0,0,0,0,0,0,0,0,0,0,0,0,0,0,0,0,0,0,0,0,0,0,0,0,0,0,0,0,0,0,0,0,0,0,0,0,0,0,0,0,0,0,0,0,0,0,0,0,0,0,0,0,0,0,0,0],"split_type":[0,0,0,0,0,0,0,0,0,0,0,0,0,0,0,0,0,0,0,0,0,0,0,0,0,0,0,0,0,0,0,0,0,0,0,0,0,0,0,0,0,0,0,0,0,0,0,0,0,0,0,0,0,0,0,0,0,0,0,0,0,0,0,0,0,0,0,0,0,0,0,0,0,0,0,0,0,0,0,0,0,0,0,0,0,0,0,0,0,0,0,0,0,0,0,0,0,0,0,0,0,0,0,0,0,0,0,0,0,0,0,0,0,0,0,0,0,0,0,0,0,0,0,0,0,0,0,0,0,0,0,0,0,0,0,0,0,0,0,0,0,0,0,0,0,0,0,0,0,0,0,0,0,0,0,0,0,0,0,0,0,0,0,0,0,0,0,0,0,0,0,0,0,0,0,0,0,0,0,0,0,0,0,0,0,0,0,0,0,0,0,0,0,0,0,0,0,0,0,0,0,0,0,0,0,0,0,0,0,0,0,0,0,0,0,0,0,0,0,0,0,0,0,0,0,0,0,0,0,0,0,0,0,0,0,0,0,0,0,0,0,0,0,0,0,0,0,0,0,0,0,0,0,0,0,0,0,0,0,0,0,0,0,0,0,0,0,0,0,0,0,0,0,0,0,0,0,0,0,0,0,0,0,0,0,0,0,0,0,0,0,0,0,0,0,0,0,0,0,0,0,0,0,0,0,0,0,0,0,0,0,0,0,0,0,0,0,0,0,0,0,0,0,0,0,0,0,0,0,0,0,0,0,0,0,0,0,0,0,0,0,0,0,0,0,0,0,0,0,0,0,0,0,0,0,0,0,0,0,0,0,0,0,0,0,0,0,0,0,0,0,0,0,0,0,0,0,0,0,0,0,0,0,0,0,0,0,0,0,0,0,0,0,0,0,0,0,0,0,0,0,0,0,0,0,0,0,0,0,0,0,0,0,0,0,0,0,0,0,0,0,0,0,0,0,0,0,0,0,0,0,0,0,0,0,0,0,0,0,0,0,0,0,0,0,0,0,0,0,0,0,0,0,0,0,0,0,0,0,0,0,0,0,0,0,0,0,0,0,0,0,0,0,0,0,0,0,0,0,0,0,0,0,0,0,0,0,0,0,0,0,0,0,0,0,0,0,0,0,0,0,0,0,0,0,0,0,0,0,0,0,0,0,0,0,0,0,0,0,0,0,0,0,0,0,0,0,0,0,0,0,0,0,0,0,0,0,0,0,0,0,0,0,0,0,0,0,0,0,0,0,0,0,0,0,0,0,0,0,0,0,0,0,0,0,0,0,0,0,0,0,0,0,0,0,0,0,0,0,0,0,0,0,0,0,0,0,0,0,0,0,0,0,0,0,0,0,0,0,0,0,0,0,0,0,0,0,0,0,0,0,0,0,0,0,0,0],"sum_hessian":[3.597E3,2.776E3,8.21E2,1.234E3,1.542E3,5.29E2,2.92E2,3.84E2,8.5E2,1.539E3,3E0,3.09E2,2.2E2,2.85E2,7E0,1.09E2,2.75E2,8.4E2,1E1,8.42E2,6.97E2,3.05E2,4E0,1.77E2,4.3E1,2.46E2,3.9E1,5.6E1,5.3E1,2.72E2,3E0,3.31E2,5.09E2,8E0,2E0,8.31E2,1.1E1,6.04E2,9.3E1,2.7E1,2.78E2,2E0,2E0,1.61E2,1.6E1,3.6E1,7E0,2.37E2,9E0,3.6E1,3E0,4.1E1,1.5E1,6E0,4.7E1,1.02E2,1.7E2,2E0,1E0,3.25E2,6E0,3E0,5.06E2,2E0,6E0,1E0,1E0,6.31E2,2E2,6E0,5E0,5.02E2,1.02E2,3.3E1,6E1,2.5E1,2E0,2E0,2.76E2,1E0,1E0,1.07E2,5.4E1,8E0,8E0,2.6E1,1E1,1.66E2,7.1E1,6E0,3E0,3.2E1,4E0,4E1,1E0,1.1E1,4E0,2E0,4E0,1.2E1,3.5E1,8.8E1,1.4E1,1.2E1,1.58E2,4.3E1,2.82E2,3E0,3E0,2E0,5.04E2,1E0,1E0,3.69E2,2.62E2,6.1E1,1.39E2,1E0,5E0,1E0,4E0,4.78E2,2.4E1,5.1E1,5.1E1,2E0,3.1E1,9E0,5.1E1,1E1,1.5E1,1E0,1E0,1.2E1,2.64E2,9.4E1,1.3E1,1E0,5.3E1,7E0,1E0,2.5E1,1E0,2E0,8E0,1E0,1.65E2,2.4E1,4.7E1,1E0,5E0,1E0,2E0,1.5E1,2.5E1,2E0,9E0,1E0,3E0,5E0,7E0,9E0,2.6E1,1E0,8.7E1,2E0,1.2E1,7E0,5E0,4.2E1,1.16E2,3.1E1,1.2E1,3E0,2.79E2,1E0,2E0,4.71E2,3.3E1,3.4E2,2.9E1,2.56E2,6E0,5.9E1,2E0,7.7E1,6.2E1,3E0,2E0,1.7E1,4.61E2,1E1,1.4E1,4.2E1,9E0,1E1,4.1E1,1E0,1E0,3E1,1E0,6E0,3E0,2.6E1,2.5E1,9E0,1E0,5E0,1E1,1E1,2E0,2.59E2,5E0,3E1,6.4E1,1.4E1,3.9E1,6E0,1E0,2.4E1,1E0,1.32E2,3.3E1,5E0,4.2E1,1E0,1E0,3E0,1.2E1,7E0,1.8E1,1E0,1E0,1E0,8E0,2E0,1E0,3E0,2E0,4E0,3E0,1E0,8E0,2.3E1,3E0,4E0,8.3E1,1E0,1E0,1.1E1,1E0,4E0,3E0,1E0,4E0,3.7E1,5E0,8E0,1.08E2,1.5E1,1.6E1,3E0,9E0,2E0,1E0,1.09E2,1.7E2,4E2,7.1E1,2.5E1,8E0,2.9E2,5E1,2E0,2.7E1,2.12E2,4.4E1,2E0,4E0,1.1E1,4.8E1,1E0,1E0,6.1E1,1.6E1,4.3E1,1.9E1,1E0,1E0,1.3E1,4E0,4.58E2,3E0,2E0,8E0,1.3E1,1E0,4.1E1,1E0,3E0,6E0,9E0,1E0,1E0,4E1,2E0,2.8E1,2E0,4E0,3E0,2.3E1,1.6E1,9E0,8E0,2E0,1E0,1E0,2.57E2,2E0,3E0,2E0,1E1,2E1,5.9E1,5E0,2E0,1.2E1,6E0,1.26E2,6E0,2.7E1,4E0,1E0,4.1E1,1E0,1E0,2E0,7E0,5E0,4E0,3E0,1.5E1,3E0,3E0,5E0,1E0,1E0,3E0,1E0,1E0,2E0,2E0,1E0,1E0,3E0,6E0,7.7E1,9E0,2E0,2E0,1E0,2E1,1.7E1,2E0,3E0,1E0,7E0,1.9E1,8.9E1,1E0,1.4E1,1.2E1,4E0,1E0,2E0,1E0,8E0,9.9E1,1E1,1.58E2,1.2E1,3.24E2,7.6E1,6E1,1.1E1,2.3E1,2E0,2E0,6E0,2.56E2,3.4E1,4.5E1,5E0,1E0,1E0,2.4E1,3E0,3.5E1,1.77E2,3.5E1,9E0,3E0,1E0,7E0,4E0,5E0,4.3E1,2.4E1,3.7E1,8E0,8E0,1.2E1,7E0,1.2E1,1E0,1E0,3E0,4.57E2,1E0,1E0,2E0,1E0,1E0,7E0,1E0,3E0,1E1,8E0,3.3E1,1E0,2E0,2E0,4E0,4E0,5E0,1.8E1,2.2E1,7E0,2.1E1,2E0,2E0,1E0,2E0,2E0,2.1E1,2E0,1.4E1,1E0,7E0,1E0,1E0,2E1,2.37E2,1E0,1E0,1E0,2E0,1E0,1E0,1E0,9E0,5.3E1,6E0,1E0,4E0,1E0,1E0,1.1E1,1E0,1E0,5E0,1E0,1.25E2,2.2E1,5E0,3E0,1E0,2.3E1,1.8E1,5E0,2E0,2E0,2E0,2E0,1E0,4E0,1.1E1,2E0,1E0,1E0,4E0,1E0,1E0,1E0,1E0,4E0,2E0,1E1,6.7E1,6E0,1.4E1,1.6E1,1E0,1E0,1E0,1E0,2E0,1E0,6E0,1.1E1,8E0,2.2E1,6.7E1,7E0,5E0,1E0,1E0,6E0,2E0,3.6E1,6.3E1,3E0,7E0,1.48E2,1E1,7E0,5E0,1.82E2,1.42E2,3.4E1,4.2E1,5.7E1,3E0,1E1,1E0,1E0,1E0,1E0,1E0,4E0,2E0,6.9E1,1.87E2,3.1E1,3E0,4.2E1,3E0,4E0,1E0,7E0,1.7E1,2E0,1E0,1E1,2.5E1,1.75E2,2E0,1E0,3.4E1,8E0,1E0,1E0,3E0,2E0,2.2E1,2.2E1,1.5E1,6E0,2E0,4E0,4E0,7E0,5E0,1E0,1.1E1,1.43E2,3.14E2,2E0,5E0,2E0,6E0,1.7E1,1E0,5E0,2E0,2E0,1.9E1,1E0,1E0,1E0,1E0,4E0,1.7E1,1E0,1.3E1,1.9E1,1E0,1.54E2,8.3E1,1E0,1E0,3.1E1,2.2E1,1E0,5E0,3E0,1E0,1E0,1E1,1.2E2,5E0,4E0,1E0,5E0,1.8E1,2E0,1.6E1],"tree_param":{"num_deleted":"0","num_feature":"9","num_nodes":"617","size_leaf_vector":"0"}},{"base_weights":[1.7628236E-1,1.4770722E-1,2.9190058E-1,1.1706876E-1,1.8103412E-1,2.6802403E-1,3.803198E-1,9.134411E-2,1.3338292E-1,1.6429386E-1,1.9527093E-1,2.4408938E-1,2.928212E-1,3.6218074E-1,6.965438E-1,6.1948784E-2,9.890694E-2,2.4108775E-1,1.3217379E-1,1.6685514E-1,1.151798E-1,1.9374767E-1,5.054118E-1,2.505423E-1,1.3158369E-1,2.955233E-1,-4.7973633E-2,3.6734554E-1,1.461628E-1,4.931464E-2,7.021304E-2,1.0160199E-1,6.0465857E-2,-8.535147E-3,2.733575E-1,1.2768646E-1,1.5705505E-1,1.7659284E-1,1.5101561E-1,2.4286327E-1,6.1640777E-2,1.9751872E-1,8.273686E-2,-8.455801E-2,2.5206837E-1,-3.2421255E-1,1.7746656E-1,3.9712825E-1,2.8399625E-1,1.0859489E-2,-8.281994E-2,2.1877289E-2,3.6969042E-1,1.820569E-1,1.2931824E-3,5.2317813E-2,1.9711256E-4,1.1004439E-1,6.2013723E-2,9.851982E-2,2.2243409E-1,-9.583632E-3,8.326504E-2,9.593114E-2,1.314943E-1,1.4548841E-1,2.2415553E-1,1.6493988E-1,2.5708783E-1,7.634697E-2,1.5677783E-1,2.640558E-1,2.606535E-2,-4.668808E-2,7.780054E-2,2.5038487E-1,1.911998E-1,1.0395622E-2,1.2042365E-1,4.0371633E-1,2.4422047E-1,2.6979288E-2,2.3792131E-1,3.4562054E-1,6.596448E-1,1.9302143E-1,3.02857E-1,4.9511522E-1,3.5036936E-1,6.5936714E-2,4.3022253E-2,-1.2914817E-2,1.976645E-2,1.2524451E-1,2.7762571E-2,2.4008751E-4,6.406884E-2,9.96537E-2,-4.5734763E-2,1.0753155E-2,2.447594E-1,2.4510562E-2,-1.411686E-1,-7.146621E-2,9.268993E-2,1.0463775E-1,2.6263844E-2,2.559031E-1,1.3003314E-1,1.6067147E-1,8.836508E-2,2.2985826E-1,6.360459E-2,1.6729602E-1,-6.655431E-2,2.6333055E-1,-8.795738E-3,8.953354E-3,1.5023395E-1,1.5825695E-1,-8.3575726E-2,2.8081703E-1,6.498289E-2,-1.1283239E-1,7.587242E-2,-6.567637E-3,8.614835E-2,1.770616E-1,2.8057235E-1,1.8910372E-1,4.782467E-1,4.570198E-2,-1.536808E-1,1.4962694E-1,-1.1893749E-2,4.8954806E-1,1.0966587E-1,2.3078504E-1,3.116671E-1,1.06023215E-1,-1.8412018E-1,2.7665424E-1,-9.4070435E-2,8.244419E-2,3.8097477E-1,-8.465004E-2,2.0125602E-1,2.921731E-1,3.8102928E-1,3.6415204E-1,2.2685744E-1,2.271924E-2,7.666176E-2,4.5864772E-2,1.165843E-2,4.0047247E-2,1.4386556E-1,6.808281E-3,3.4835577E-2,9.031892E-3,-8.671761E-3,1.4663875E-2,6.6411845E-2,8.59896E-2,1.0672048E-1,-1.6376337E-2,-6.690502E-2,1.93398E-2,2.7051938E-1,4.515608E-2,-2.4950663E-2,1.18537664E-1,5.136646E-2,9.282832E-2,1.9489056E-1,7.207403E-2,-1.0209696E-2,9.42086E-2,3.5362184E-1,1.7307284E-1,1.2666923E-1,1.2820509E-1,2.0546728E-1,-1.24390125E-2,1.2426846E-1,1.5678343E-1,2.0987827E-1,2.911089E-1,1.5353099E-1,-3.1347085E-2,3.6460333E-2,1.8995905E-1,7.464091E-3,1.7579505E-1,1.3351464E-1,3.0112267E-3,-1.2862682E-2,6.887838E-2,1.4232612E-1,-1.3601303E-2,1.9501282E-1,4.3699718E-1,2.4494512E-1,1.8487291E-1,2.3627327E-1,1.7155838E-1,8.525133E-3,-7.274532E-2,1.723283E-1,2.9821396E-2,-3.573926E-2,1.426549E-1,5.150778E-1,-3.8306713E-2,1.7175896E-1,2.379031E-1,8.859634E-3,1.6177826E-1,3.487678E-1,-2.5703907E-2,1.4538097E-1,3.7891293E-1,1.6409029E-1,3.92289E-1,8.300209E-2,2.0951147E-1,-7.686424E-2,2.9921198E-1,1.5554923E-1,4.3933874E-1,2.31359E-1,4.085335E-1,3.148529E-1,3.2607746E-1,1.6113402E-1,4.741299E-2,4.6925545E-3,9.6798934E-2,4.945901E-2,2.8092762E-2,5.5164736E-2,2.0758947E-2,-1.8106699E-3,9.239186E-2,5.663611E-2,1.4181338E-1,8.051224E-2,1.156977E-1,8.0417484E-2,6.824335E-2,3.2657084E-1,6.423938E-2,4.6596527E-3,-3.646612E-2,-9.598732E-4,-1.1168718E-2,1.293742E-1,7.0695065E-2,-7.095981E-2,1.1230021E-1,4.815533E-2,8.028046E-2,2.1971385E-1,-2.6091417E-2,4.254031E-2,2.5813675E-1,1.5173325E-1,1.084278E-1,1.3247372E-1,1.5947525E-1,-3.1585168E-2,1.7084122E-2,2.1574393E-1,6.698406E-2,-7.3489666E-2,-1.0302305E-2,1.4862226E-1,1.8440524E-1,1.2881614E-1,4.3511488E-2,2.2078978E-1,1.6969143E-1,3.3462906E-1,2.0917471E-1,4.4923592E-2,-8.222771E-2,2.9982567E-2,4.2991E-2,-1.3618469E-3,9.758246E-2,2.3484588E-1,1.209259E-3,9.986877E-3,1.8868902E-1,1.1944151E-1,1.2133814E-1,2.1546815E-1,9.027378E-2,1.1041959E-2,1.3363972E-1,2.857108E-1,1.3295293E-1,2.6302826E-1,1.8633795E-1,1.097552E-2,2.9997814E-1,1.993453E-1,-8.878072E-3,4.0489834E-2,2.0521489E-1,4.7029734E-2,2.9510152E-1,2.2079065E-1,5.1342804E-2,-7.905992E-2,2.953928E-1,2.3469767E-2,4.255849E-1,2.4535161E-1,1.6527748E-1,4.2845726E-2,1.8899028E-1,7.3451996E-3,1.3620873E-1,2.24909E-1,3.0805033E-1,2.0050637E-1,-6.6194534E-3,2.1718991E-1,1.20843254E-1,4.8235106E-1,2.953887E-1,2.6179949E-2,1.22442625E-1,4.2897195E-1,-7.923126E-4,3.3914852E-1,6.783056E-2,1.87644E-1,9.131352E-3,-4.311919E-3,1.0597471E-1,2.0872116E-2,5.3831168E-2,9.426951E-3,1.9008659E-2,6.400895E-2,1.7374754E-3,5.820531E-2,4.3860674E-3,9.882415E-2,6.1864212E-2,-1.1110961E-2,5.9246004E-2,1.6275294E-1,1.4640808E-2,8.499443E-2,9.2085905E-2,1.2390561E-1,8.838284E-2,4.6510696E-3,8.533716E-3,-1.5442371E-3,1.3456643E-1,3.353381E-2,1.5049298E-2,8.2725346E-2,5.27936E-2,1.2467882E-1,-6.1340094E-2,5.592058E-2,1.1488438E-1,5.536318E-3,-3.1563044E-2,-1.0098775E-2,7.697598E-2,3.0569434E-1,1.0921585E-1,2.0868334E-1,1.174995E-1,5.474062E-2,1.5626319E-1,1.250831E-1,1.3078417E-1,2.1196397E-1,3.408146E-2,-6.459679E-2,2.2295237E-2,3.330946E-3,2.5255165E-1,1.6191505E-1,7.947572E-2,1.4754534E-2,-2.145497E-2,-1.0102781E-1,1.4448802E-2,-4.2277813E-2,1.7057553E-1,-1.0684808E-2,1.6701992E-1,2.4752265E-1,2.0142825E-1,1.12754576E-1,1.138924E-1,-4.1373253E-2,2.3025417E-1,3.782296E-2,2.9497656E-1,1.0907512E-1,1.9274111E-1,4.0691242E-1,1.3044357E-2,2.3968904E-1,-5.997658E-3,8.087031E-2,6.251478E-2,2.658329E-2,-3.709793E-4,1.3035727E-1,7.3018394E-2,1.9400834E-1,1.439303E-1,-1.21974945E-2,1.2987979E-1,-1.2773514E-2,2.4666002E-1,5.006981E-2,1.2230873E-2,9.575812E-2,-2.0406088E-2,3.1867504E-2,8.812544E-2,1.7306669E-1,4.1490588E-1,1.7349482E-1,1.6017382E-1,-2.8796673E-2,2.0971212E-1,3.318313E-1,1.831999E-1,2.8668094E-1,-1.6422677E-1,2.4092007E-1,1.1696243E-1,3.3321542E-1,-1.5617752E-1,2.1485138E-1,-2.4266878E-2,4.883051E-3,1.0497165E-1,2.3318031E-1,1.949183E-2,6.482172E-2,3.100634E-1,5.674529E-2,-8.336862E-3,2.2774231E-1,-1.4549732E-2,6.7431256E-2,-1.02574825E-1,-1.6015053E-2,-3.4814358E-2,9.335867E-2,4.3769896E-1,1.1588001E-1,4.288311E-1,1.8850946E-1,2.3213768E-1,6.8463646E-2,1.8809319E-1,1.1358738E-2,2.7614385E-1,1.6402557E-1,3.2400995E-1,2.3608145E-1,2.5954595E-1,4.9009483E-2,6.777477E-2,-5.400912E-2,1.0240698E-1,2.6557827E-1,3.1944504E-1,8.75535E-2,-8.621851E-2,2.9028955E-1,5.6280935E-1,3.6129045E-1,7.4763775E-2,-1.5150833E-1,2.4324769E-1,4.1266182E-1,7.901446E-2,1.7139435E-2,4.1876793E-2,2.0248549E-1,7.1474016E-3,3.7979007E-2,3.4059685E-2,7.588368E-2,1.3683514E-1,6.6726476E-2,4.4322696E-2,6.8425536E-2,4.8205853E-3,-2.94528E-2,1.823523E-1,6.277013E-2,4.673665E-2,-4.5187116E-2,9.0315334E-2,3.4835882E-2,1.0199954E-1,1.9854128E-2,1.2567002E-1,2.9410124E-2,3.320201E-2,9.881534E-2,-3.324024E-2,7.888333E-2,3.3831358E-2,1.4064859E-1,1.1796156E-3,1.04171656E-1,1.449823E-1,6.691416E-2,9.4149016E-2,4.219487E-2,-1.4398892E-2,-4.1527748E-2,1.290773E-1,-2.7326107E-2,7.450545E-2,2.3391628E-1,1.06206775E-1,1.7768697E-1,-6.2914575E-3,1.2138299E-1,-3.4834545E-2,1.6012457E-1,1.3051009E-1,8.16612E-2,1.0454691E-1,1.9970721E-1,2.2033463E-1,4.738736E-2,5.3974867E-2,9.458701E-3,1.9269943E-2,-1.0199747E-1,1.18775286E-1,2.91845E-1,1.7356437E-1,-1.2237072E-2,6.887317E-2,1.9026168E-1,1.7184764E-1,3.6096E-2,1.4191587E-1,2.7210888E-1,9.8339796E-2,2.8773102E-1,1.0000285E-1,1.8854891E-1,1.8214674E-1,2.6842013E-1,8.718538E-2,-7.6929727E-3,1.3861193E-1,3.7975311E-3,6.1630823E-2,2.6987615E-1,4.196857E-1,1.14043236E-1,-2.2583961E-2,1.3587475E-2,-2.92387E-2,1.8502171E-1,1.4719689E-1,2.060995E-1,9.9872015E-2,2.085483E-1,-1.7011261E-1,6.980944E-2,7.713811E-2,1.4504296E-1,1.11208916E-1,-5.9811782E-2,2.6680923E-1,4.2733192E-2,1.0113204E-1,1.8322468E-2,1.3742408E-1,2.1201706E-2,1.8484116E-1,5.1209927E-2,1.3137817E-2,1.8249018E-1,2.3071793E-1,-7.232666E-3,4.1109198E-1,1.06943704E-1,1.854227E-1,2.3795657E-2,3.6642998E-1,1.317993E-1,-1.9490783E-1,-3.6091805E-2,1.6066647E-1,-7.074833E-3,2.2952493E-1,5.1086903E-2,1.223278E-2,-8.583069E-3,2.521709E-1,5.9618473E-2,-2.0121574E-2,3.1821007E-1,-3.405857E-1,1.2623005E-1,1.9451608E-1,2.6740703E-1,7.807636E-2,1.2425423E-2,-4.208851E-2,-6.4959526E-3,2.1782708E-1,4.716827E-1,4.378433E-2,2.4202108E-1,9.84478E-2,4.2476654E-3,5.925083E-2,2.2777995E-1,-8.959961E-2,7.487806E-2,1.4735718E-1,3.0443537E-1,-1.4496613E-1,2.1170992E-1,3.528506E-1,2.7524415E-1,4.5466803E-2,2.616883E-1,4.8683643E-2,2.742895E-1,-1.3172626E-1,1.1150189E-1,-1.0658264E-2,-7.0355415E-2,2.8105259E-2,1.178058E-1,7.180214E-3,-1.3650799E-1,2.885929E-1,6.362887E-1,1.13549426E-1,3.8870966E-1,9.758377E-2,3.1518936E-3,3.377018E-1,3.7806828E-2,4.2908087E-1,2.0687723E-1,8.876864E-2,2.302185E-1],"categories":[],"categories_nodes":[],"categories_segments":[],"categories_sizes":[],"default_left":[1,1,1,1,1,1,1,1,1,1,1,1,1,1,0,1,1,1,1,1,1,1,0,1,1,1,1,1,1,1,1,1,1,0,0,1,1,1,1,1,1,1,1,0,1,0,1,1,1,0,0,0,1,0,0,1,1,1,1,1,1,1,1,1,1,1,1,1,1,1,1,1,0,1,1,1,1,1,1,1,1,1,1,1,0,1,1,0,1,1,1,0,0,1,1,1,1,1,1,0,1,1,0,0,1,1,1,1,1,1,1,0,0,1,0,1,0,1,1,1,0,0,0,0,0,1,1,1,1,1,0,1,0,1,1,1,1,1,1,1,0,1,0,0,1,0,1,1,1,1,1,1,1,1,0,0,0,0,0,0,0,1,1,1,1,0,0,0,1,1,1,1,1,1,1,0,1,0,0,1,1,1,1,1,1,1,1,1,1,1,1,1,1,1,1,0,0,1,0,0,1,0,1,1,1,0,1,0,1,0,0,0,0,0,0,1,1,1,1,0,1,0,1,0,0,1,0,1,1,1,1,1,1,0,1,0,1,1,1,1,1,0,0,1,1,1,1,1,1,0,0,0,1,0,0,0,1,1,0,1,1,1,0,1,0,1,1,1,1,1,1,1,1,1,1,1,1,1,1,1,1,1,1,1,1,0,0,1,0,1,0,0,0,1,1,1,1,1,1,1,1,1,1,1,1,1,1,1,0,1,1,1,1,1,1,0,1,1,1,0,0,1,0,1,1,1,1,1,1,0,0,1,