{"learner":{"attributes":{"best_iteration":"39","best_ntree_limit":"40","scikit_learn":"{\"n_estimators\": 40, \"objective\": \"reg:squarederror\", \"max_depth\": 11, \"max_leaves\": null, \"max_bin\": null, \"grow_policy\": null, \"learning_rate\": null, \"verbosity\": null, \"booster\": null, \"tree_method\": null, \"gamma\": null, \"min_child_weight\": null, \"max_delta_step\": null, \"subsample\": null, \"sampling_method\": null, \"colsample_bytree\": null, \"colsample_bylevel\": null, \"colsample_bynode\": null, \"reg_alpha\": null, \"reg_lambda\": null, \"scale_pos_weight\": null, \"base_score\": null, \"missing\": NaN, \"num_parallel_tree\": null, \"random_state\": null, \"n_jobs\": null, \"monotone_constraints\": null, \"interaction_constraints\": null, \"importance_type\": null, \"gpu_id\": null, \"validate_parameters\": null, \"predictor\": null, \"enable_categorical\": false, \"feature_types\": null, \"max_cat_to_onehot\": null, \"max_cat_threshold\": null, \"eval_metric\": [\"rmse\", \"logloss\"], \"early_stopping_rounds\": null, \"callbacks\": null, \"evals_result_\": {\"validation_0\": {\"rmse\": [8.376827220032064, 5.896718446143952, 4.152184052078737, 2.927456296399707, 2.069727121928426, 1.4691615486337637, 1.0509029110721653, 0.7613448642194472, 0.5641877834563441, 0.4273986034588405, 0.33104280880164816, 0.2648585100954135, 0.21597557518828844, 0.18201034008011335, 0.15877377324691067, 0.14143667611485772, 0.12936508369792274, 0.12132561833160835, 0.11390077908346785, 0.10746227827234148, 0.1043881904615348, 0.09711777226437915, 0.09557527461304496, 0.09227068745203931, 0.09097498071417277, 0.08971595372011379, 0.08813067621035164, 0.0870660482636311, 0.08602534510103875, 0.08549788502399938, 0.08455419999032227, 0.0798656307342842, 0.07865592031579795, 0.07213409240252734, 0.0711772787639901, 0.06731696401145432, 0.06445336742974277, 0.06411829552545417, 0.06367202989443034, 0.06280425041549123], \"logloss\": [-332.88634075653994, -337.6073876055605, -339.85959656423483, -341.17339340222685, -341.9992294756943, -342.5393436629142, -342.90118599786405, -343.1469464656012, -343.3154055150244, -343.4301779786514, -343.50939408653073, -343.56551830046766, -343.60478951966127, -343.63274909192603, -343.6531762840816, -343.66781275147093, -343.6784785368524, -343.6862704627276, -343.6917505479038, -343.6956506500583, -343.69859586996205, -343.700671123073, -343.70227908372283, -343.70338468469447, -343.7042071772245, -343.70480523362636, -343.70519985541523, -343.7055044097306, -343.7057713255937, -343.7059398976703, -343.7060359247466, -343.7060783572882, -343.70616316404283, -343.70621776448246, -343.70628349032705, -343.7063062406428, -343.70639515585924, -343.7064455720097, -343.70646895386625, -343.70651567515847]}}, \"_estimator_type\": \"regressor\"}"},"feature_names":["day_of_month","month","quarter","day_of_week","week_of_month","year","Close_lag_1","Close_lag_2","Close_MA_3"],"feature_types":["int","int","int","int","int","int","float","float","float"],"gradient_booster":{"model":{"gbtree_model_param":{"num_parallel_tree":"1","num_trees":"40","size_leaf_vector":"0"},"tree_info":[0,0,0,0,0,0,0,0,0,0,0,0,0,0,0,0,0,0,0,0,0,0,0,0,0,0,0,0,0,0,0,0,0,0,0,0,0,0,0,0],"trees":[{"base_weights":[9.169933E0,6.6817756E0,2.629956E1,5.011034E0,9.895699E0,2.0324268E1,3.4052235E1,3.2845643E0,5.9333086E0,9.021329E0,1.4428605E1,1.8201534E1,2.364755E1,3.10299E1,3.6730606E1,2.3224616E0,4.06E0,5.2985444E0,6.6835017E0,8.052053E0,9.821857E0,1.4883333E0,2.5497637E0,3.7790546E0,4.3233666E0,4.8833113E0,5.5752764E0,6.311549E0,6.982447E0,9.317594E0,1.026868E1,1.070606E0,1.79575E0,2.241101E0,2.7627397E0],"categories":[],"categories_nodes":[],"categories_segments":[],"categories_sizes":[],"default_left":[1,1,1,1,1,1,1,1,1,1,0,0,0,0,0,1,1,1,1,0,1,1,1,0,0,0,0,0,0,0,0,0,0,0,0],"id":0,"left_children":[1,3,5,7,9,11,13,15,17,19,-1,-1,-1,-1,-1,21,23,25,27,-1,29,31,33,-1,-1,-1,-1,-1,-1,-1,-1,-1,-1,-1,-1],"loss_changes":[1.531754E5,1.6827172E4,2.0431906E4,3.2765273E3,4.1265625E3,1.4037344E3,4.5495312E2,5.2996387E2,6.065E2,6.215781E2,0E0,0E0,0E0,0E0,0E0,5.782483E1,1.318457E1,5.723242E1,2.4201172E1,0E0,1.47265625E1,7.3234253E0,1.0505981E1,0E0,0E0,0E0,0E0,0E0,0E0,0E0,0E0,0E0,0E0,0E0,0E0],"parents":[2147483647,0,0,1,1,2,2,3,3,4,4,5,5,6,6,7,7,8,8,9,9,15,15,16,16,17,17,18,18,20,20,21,21,22,22],"right_children":[2,4,6,8,10,12,14,16,18,20,-1,-1,-1,-1,-1,22,24,26,28,-1,30,32,34,-1,-1,-1,-1,-1,-1,-1,-1,-1,-1,-1,-1],"split_conditions":[1.6855E1,7.925E0,2.7236668E1,5.115E0,1.226E1,2.1398335E1,3.4480003E1,3.725E0,6.505E0,9.445E0,4.328582E0,5.4604607E0,7.0942655E0,9.30897E0,1.1019182E1,2.5349998E0,4.575E0,5.705E0,7.125E0,2.415616E0,1.0309999E1,1.9E0,2.9850001E0,1.1337165E0,1.2970101E0,1.4649935E0,1.672583E0,1.8934648E0,2.0947342E0,2.795278E0,3.080604E0,3.211818E-1,5.38725E-1,6.723303E-1,8.2882196E-1],"split_indices":[6,6,8,6,6,8,6,6,6,6,0,0,0,0,0,6,6,6,6,0,6,6,6,0,0,0,0,0,0,0,0,0,0,0,0],"split_type":[0,0,0,0,0,0,0,0,0,0,0,0,0,0,0,0,0,0,0,0,0,0,0,0,0,0,0,0,0,0,0,0,0,0,0],"sum_hessian":[3.597E3,3.142E3,4.55E2,2.069E3,1.073E3,2.59E2,1.96E2,7.22E2,1.347E3,9.02E2,1.71E2,1.62E2,9.7E1,9.8E1,9.8E1,3.24E2,3.98E2,7.34E2,6.13E2,4.13E2,4.89E2,7.1E1,2.53E2,2E2,1.98E2,3.01E2,4.33E2,2.83E2,3.3E2,2.4E2,2.49E2,3.2E1,3.9E1,1.08E2,1.45E2],"tree_param":{"num_deleted":"0","num_feature":"9","num_nodes":"35","size_leaf_vector":"0"}},{"base_weights":[6.434912E0,4.7923985E0,1.9336664E1,3.687655E0,7.598596E0,1.514324E1,2.4215214E1,2.5140252E0,4.4524674E0,6.715805E0,1.0760314E1,1.3662556E1,1.827386E1,2.2568275E1,2.6509417E1,1.6518922E0,3.0136774E0,3.9338624E0,4.9751596E0,6.236763E0,7.2145452E0,1.2471288E0,1.8993065E0,2.7511287E0,3.2785902E0,3.6874743E0,4.180275E0,4.670801E0,5.218853E0,7.9538035E-1,1.4250752E0,1.7338325E0,2.044927E0,2.427492E0,2.8237386E0],"categories":[],"categories_nodes":[],"categories_segments":[],"categories_sizes":[],"default_left":[1,1,1,1,1,1,1,1,1,1,0,0,0,0,0,1,1,1,1,0,0,1,1,1,0,0,0,0,0,0,0,0,0,0,0],"id":1,"left_children":[1,3,5,7,9,11,13,15,17,19,-1,-1,-1,-1,-1,21,23,25,27,-1,-1,29,31,33,-1,-1,-1,-1,-1,-1,-1,-1,-1,-1,-1],"loss_changes":[7.615364E4,9.8706875E3,7.939203E3,2.0470176E3,2.4425508E3,7.747656E2,1.0450781E2,3.8572656E2,3.564043E2,1.2391797E2,0E0,0E0,0E0,0E0,0E0,3.1179688E1,3.0833984E1,2.7145508E1,2.6578125E1,0E0,0E0,9.316818E0,1.4182739E0,5.419922E-2,0E0,0E0,0E0,0E0,0E0,0E0,0E0,0E0,0E0,0E0,0E0],"parents":[2147483647,0,0,1,1,2,2,3,3,4,4,5,5,6,6,7,7,8,8,9,9,15,15,16,16,17,17,18,18,21,21,22,22,23,23],"right_children":[2,4,6,8,10,12,14,16,18,20,-1,-1,-1,-1,-1,22,24,26,28,-1,-1,30,32,34,-1,-1,-1,-1,-1,-1,-1,-1,-1,-1,-1],"split_conditions":[1.8035E1,8.555E0,2.9315E1,5.4449997E0,1.338E1,2.3310001E1,3.6105E1,3.915E0,6.8450003E0,1.004E1,3.2280943E0,4.098767E0,5.4821587E0,6.770483E0,7.952825E0,2.755E0,4.835E0,6.115E0,7.535E0,1.871029E0,2.1643636E0,2.18E0,3.1950002E0,4.205E0,9.835771E-1,1.1062423E0,1.2540826E0,1.4012403E0,1.565656E0,2.3861411E-1,4.2752257E-1,5.2014977E-1,6.1347806E-1,7.282476E-1,8.471216E-1],"split_indices":[6,6,6,6,6,6,6,6,6,6,0,0,0,0,0,6,6,6,6,0,0,6,6,6,0,0,0,0,0,0,0,0,0,0,0],"split_type":[0,0,0,0,0,0,0,0,0,0,0,0,0,0,0,0,0,0,0,0,0,0,0,0,0,0,0,0,0,0,0,0,0,0,0],"sum_hessian":[3.597E3,3.192E3,4.05E2,2.292E3,9E2,2.2E2,1.85E2,9.06E2,1.386E3,7.06E2,1.94E2,1.53E2,6.7E1,1.14E2,7.1E1,3.34E2,5.72E2,7E2,6.86E2,3.67E2,3.39E2,1.29E2,2.05E2,2.93E2,2.79E2,3.58E2,3.42E2,3.14E2,3.72E2,3.8E1,9.1E1,1.02E2,1.03E2,6E1,2.33E2],"tree_param":{"num_deleted":"0","num_feature":"9","num_nodes":"35","size_leaf_vector":"0"}},{"base_weights":[4.5159044E0,3.2206686E0,1.2686192E1,2.3998146E0,4.6309824E0,9.413064E0,1.634365E1,1.5400271E0,2.818454E0,4.2993865E0,6.52786E0,8.47111E0,1.0830723E1,1.3930484E1,1.7897718E1,1.1161298E0,1.9182521E0,2.4964678E0,3.1571667E0,3.7743175E0,4.7259426E0,5.854889E0,7.032958E0,6.4640975E-1,1.2138312E0,1.7269027E0,2.0109024E0,2.3228297E0,2.6283517E0,2.9549124E0,3.2843077E0,4.873397E-1,7.8239375E-1,1.0649064E0,1.3073771E0],"categories":[],"categories_nodes":[],"categories_segments":[],"categories_sizes":[],"default_left":[1,1,1,1,1,1,1,1,1,1,1,0,0,0,0,1,1,1,1,0,0,0,0,1,1,0,0,0,0,0,0,0,0,0,0],"id":2,"left_children":[1,3,5,7,9,11,13,15,17,19,21,-1,-1,-1,-1,23,25,27,29,-1,-1,-1,-1,31,33,-1,-1,-1,-1,-1,-1,-1,-1,-1,-1],"loss_changes":[3.803479E4,3.5857441E3,5.736047E3,7.0330273E2,6.9025E2,2.5811914E2,6.1697266E2,1.014314E2,1.3618848E2,2.0053516E2,1.5929199E1,0E0,0E0,0E0,0E0,1.3304291E1,2.5550537E0,9.512695E0,6.7524414E0,0E0,0E0,0E0,0E0,8.0841064E-1,2.1324158E0,0E0,0E0,0E0,0E0,0E0,0E0,0E0,0E0,0E0,0E0],"parents":[2147483647,0,0,1,1,2,2,3,3,4,4,5,5,6,6,7,7,8,8,9,9,10,10,15,15,16,16,17,17,18,18,23,23,24,24],"right_children":[2,4,6,8,10,12,14,16,18,20,22,-1,-1,-1,-1,24,26,28,30,-1,-1,-1,-1,32,34,-1,-1,-1,-1,-1,-1,-1,-1,-1,-1],"split_conditions":[1.6025002E1,7.645E0,2.5635E1,4.895E0,1.1225E1,1.9724998E1,3.2504997E1,3.5149999E0,6.225E0,9.055E0,1.4375E1,2.5413332E0,3.249217E0,4.1791453E0,5.3693156E0,2.375E0,4.335E0,5.5283337E0,6.795E0,1.1322953E0,1.4177828E0,1.7564667E0,2.1098876E0,1.73E0,2.8850002E0,5.180708E-1,6.0327077E-1,6.968489E-1,7.8850555E-1,8.864738E-1,9.852924E-1,1.4620192E-1,2.3471813E-1,3.1947193E-1,3.9221314E-1],"split_indices":[6,6,6,7,6,6,6,6,6,6,6,0,0,0,0,6,6,8,6,0,0,0,0,6,6,0,0,0,0,0,0,0,0,0,0],"split_type":[0,0,0,0,0,0,0,0,0,0,0,0,0,0,0,0,0,0,0,0,0,0,0,0,0,0,0,0,0,0,0,0,0,0,0],"sum_hessian":[3.597E3,3.106E3,4.91E2,1.965E3,1.141E3,2.61E2,2.3E2,6.45E2,1.32E3,9.74E2,1.67E2,1.61E2,1E2,9.4E1,1.36E2,3.06E2,3.39E2,6.81E2,6.39E2,4.41E2,5.33E2,7.7E1,9E1,5.4E1,2.52E2,1.17E2,2.22E2,3.02E2,3.79E2,2.56E2,3.83E2,2.7E1,2.7E1,1.02E2,1.5E2],"tree_param":{"num_deleted":"0","num_feature":"9","num_nodes":"35","size_leaf_vector":"0"}},{"base_weights":[3.1687279E0,2.4131353E0,1.0107778E1,1.8233874E0,3.906719E0,8.157951E0,1.2330532E1,1.1863759E0,2.1707141E0,3.3482385E0,5.4616694E0,7.1260695E0,9.213579E0,1.1550223E1,1.4064139E1,7.739529E-1,1.416117E0,1.913057E0,2.4500787E0,3.1730928E0,3.8865228E0,4.710072E0,5.7924333E0,4.5151168E-1,8.405465E-1,1.2449532E0,1.50633E0,1.7641028E0,2.0400257E0,2.242284E0,2.5508E0,2.9945064E0,3.3101768E0,3.1948033E-1,5.349055E-1,7.203865E-1,8.9550126E-1,2.4639602E0,2.732641E0,2.7497673E0,1.3321662E-1],"categories":[],"categories_nodes":[],"categories_segments":[],"categories_sizes":[],"default_left":[1,1,1,1,1,1,1,1,1,1,1,0,0,0,0,1,1,1,1,1,0,0,0,1,1,0,0,0,0,0,1,0,0,0,0,0,0,0,1,0,0],"id":3,"left_children":[1,3,5,7,9,11,13,15,17,19,21,-1,-1,-1,-1,23,25,27,29,31,-1,-1,-1,33,35,-1,-1,-1,-1,-1,37,-1,-1,-1,-1,-1,-1,-1,39,-1,-1],"loss_changes":[1.8840258E4,2.8520781E3,1.4293047E3,5.127178E2,7.789131E2,1.4239648E2,5.8052734E1,7.697839E1,1.0371582E2,5.1588867E1,3.263037E1,0E0,0E0,0E0,0E0,5.9978333E0,6.27771E0,1.1304199E1,9.328613E0,2.744629E0,0E0,0E0,0E0,4.126711E-1,9.727173E-1,0E0,0E0,0E0,0E0,0E0,7.993164E-1,0E0,0E0,0E0,0E0,0E0,0E0,0E0,6.088867E0,0E0,0E0],"parents":[2147483647,0,0,1,1,2,2,3,3,4,4,5,5,6,6,7,7,8,8,9,9,10,10,15,15,16,16,17,17,18,18,19,19,23,23,24,24,30,30,38,38],"right_children":[2,4,6,8,10,12,14,16,18,20,22,-1,-1,-1,-1,24,26,28,30,32,-1,-1,-1,34,36,-1,-1,-1,-1,-1,38,-1,-1,-1,-1,-1,-1,-1,40,-1,-1],"split_conditions":[1.907E1,8.715E0,3.1115E1,5.315E0,1.418E1,2.3310001E1,3.772E1,3.4650002E0,6.865E0,1.0755E1,1.5440001E1,2.137821E0,2.7640738E0,3.4650671E0,4.219242E0,2.355E0,4.4616666E0,5.9849997E0,7.375E0,9.745E0,1.1659569E0,1.4130217E0,1.73773E0,1.645E0,2.775E0,3.7348595E-1,4.5189902E-1,5.292309E-1,6.1200774E-1,6.7268527E-1,8.255E0,8.9835197E-1,9.930531E-1,9.5844105E-2,1.6047165E-1,2.1611597E-1,2.6865038E-1,7.391881E-1,9.155001E0,8.2493025E-1,3.996499E-2],"split_indices":[6,6,6,6,6,6,6,6,7,6,6,0,0,0,0,8,8,6,6,6,0,0,0,6,6,0,0,0,0,0,6,0,0,0,0,0,0,0,7,0,0],"split_type":[0,0,0,0,0,0,0,0,0,0,0,0,0,0,0,0,0,0,0,0,0,0,0,0,0,0,0,0,0,0,0,0,0,0,0,0,0,0,0,0,0],"sum_hessian":[3.597E3,3.245E3,3.52E2,2.328E3,9.17E2,1.9E2,1.62E2,8.23E2,1.505E3,6.77E2,2.4E2,1E2,9E1,1.17E2,4.5E1,2.96E2,5.27E2,7.87E2,7.18E2,5.16E2,1.61E2,7.8E1,1.62E2,5.2E1,2.44E2,1.87E2,3.4E2,3.69E2,4.18E2,2.42E2,4.76E2,2.34E2,2.82E2,2.2E1,3E1,8.1E1,1.63E2,3.32E2,1.44E2,1.43E2,1E0],"tree_param":{"num_deleted":"0","num_feature":"9","num_nodes":"41","size_leaf_vector":"0"}},{"base_weights":[2.2247183E0,1.6715448E0,6.932515E0,1.2525613E0,2.6325955E0,5.5489216E0,8.647421E0,8.323642E-1,1.4951702E0,2.2569075E0,3.6439424E0,4.917844E0,6.50884E0,8.180508E0,1.0233274E1,5.869654E-1,1.0271872E0,1.3104326E0,1.6660603E0,2.0797732E0,2.4210644E0,3.1317637E0,3.9644933E0,3.804387E-1,6.507429E-1,9.4746995E-1,1.0968946E0,1.2047297E0,1.3726144E0,1.5554652E0,1.7453032E0,2.2954288E0,2.5531895E0,2.4357192E-1,4.425314E-1,5.644962E-1,7.2011423E-1,1.0991135E0,2.855127E-1,2.9313135E-1,1.2070903E0,1.8416183E-1,4.4826552E-1,2.3250717E-1,4.3735564E-2],"categories":[],"categories_nodes":[],"categories_segments":[],"categories_sizes":[],"default_left":[1,1,1,1,1,1,1,1,1,1,1,0,0,0,0,1,1,1,1,0,1,0,0,1,1,0,1,1,0,0,0,0,0,0,1,0,0,0,0,0,0,1,0,0,0],"id":4,"left_children":[1,3,5,7,9,11,13,15,17,19,21,-1,-1,-1,-1,23,25,27,29,-1,31,-1,-1,33,35,-1,37,39,-1,-1,-1,-1,-1,-1,41,-1,-1,-1,-1,-1,-1,43,-1,-1,-1],"loss_changes":[9.358428E3,1.2936846E3,8.4891016E2,2.2761865E2,3.629873E2,9.6416504E1,3.9942383E1,3.8791992E1,4.270923E1,1.5755615E1,3.0763184E1,0E0,0E0,0E0,0E0,4.586464E0,1.5057678E0,2.8684082E0,3.7265625E0,0E0,1.9799805E-1,0E0,0E0,6.4857197E-1,1.2627716E0,0E0,1.1465454E-1,2.1209717E-1,0E0,0E0,0E0,0E0,0E0,0E0,6.336212E-3,0E0,0E0,0E0,0E0,0E0,0E0,1.0198034E-2,0E0,0E0,0E0],"parents":[2147483647,0,0,1,1,2,2,3,3,4,4,5,5,6,6,7,7,8,8,9,9,10,10,15,15,16,16,17,17,18,18,20,20,23,23,24,24,26,26,27,27,34,34,41,41],"right_children":[2,4,6,8,10,12,14,16,18,20,22,-1,-1,-1,-1,24,26,28,30,-1,32,-1,-1,34,36,-1,38,40,-1,-1,-1,-1,-1,-1,42,-1,-1,-1,-1,-1,-1,44,-1,-1,-1],"split_conditions":[1.8525002E1,8.415E0,3.071E1,5.315E0,1.1555E1,2.471E1,3.841E1,4.0950003E0,6.625E0,9.818333E0,1.5190001E1,1.4753532E0,1.9526521E0,2.4541523E0,3.0699825E0,2.6149998E0,4.745E0,5.825E0,7.3050003E0,6.23932E-1,1.0565001E1,9.395291E-1,1.189348E0,1.775E0,3.1550002E0,2.84241E-1,5.6549997E0,4.795E0,4.1178432E-1,4.6663958E-1,5.23591E-1,6.886287E-1,7.659569E-1,7.307158E-2,1.795E0,1.6934887E-1,2.1603428E-1,3.2973406E-1,8.565381E-2,8.793941E-2,3.621271E-1,8.5E0,1.3447966E-1,6.975216E-2,1.312067E-2],"split_indices":[6,6,7,6,8,8,6,6,6,8,6,0,0,0,0,6,6,6,6,0,6,0,0,6,6,0,7,7,0,0,0,0,0,0,7,0,0,0,0,0,0,0,0,0,0],"split_type":[0,0,0,0,0,0,0,0,0,0,0,0,0,0,0,0,0,0,0,0,0,0,0,0,0,0,0,0,0,0,0,0,0,0,0,0,0,0,0,0,0,0,0,0,0],"sum_hessian":[3.597E3,3.22E3,3.77E2,2.244E3,9.76E2,2.11E2,1.66E2,8.23E2,1.421E3,7.14E2,2.62E2,1.31E2,8E1,1.33E2,3.3E1,3.66E2,4.57E2,6.87E2,7.34E2,3.5E2,3.64E2,1.05E2,1.57E2,8.8E1,2.78E2,2.2E2,2.37E2,2.62E2,4.25E2,3.15E2,4.19E2,1.96E2,1.68E2,2.9E1,5.9E1,1.28E2,1.5E2,2.36E2,1E0,1E0,2.61E2,2E0,5.7E1,1E0,1E0],"tree_param":{"num_deleted":"0","num_feature":"9","num_nodes":"45","size_leaf_vector":"0"}},{"base_weights":[1.5618572E0,1.1945941E0,5.1121554E0,9.077592E-1,1.9772648E0,4.334411E0,6.430065E0,6.4315796E-1,1.1201135E0,1.7000242E0,2.7741678E0,3.7401862E0,4.8280644E0,6.091806E0,7.5715594E0,4.1358182E-1,7.636027E-1,1.0149521E0,1.2600209E0,1.594303E0,2.019811E0,2.435506E0,2.8805041E0,3.3384702E-1,4.9912143E-1,6.710466E-1,8.225468E-1,9.1852456E-1,1.0784867E0,1.1955218E0,1.3491548E0,1.8596517E-1,3.6523005E-1,4.425055E-1,5.367817E-1,9.251936E-1,4.275376E-1,2.3153448E-1,1.0798482E0,1.3570256E0,3.0388418E-1,1.9257072E-1,4.911399E-2,3.7523767E-1,2.8159714E-1,6.877115E-1,-6.1873436E-2,6.0438776E-1,-1.4856148E-1,1.5246326E-1,2.3897685E-1,8.1534386E-2,-1.7434454E-1,1.614705E-1,7.381484E-2,2.5359985E-1,1.00825824E-1],"categories":[],"categories_nodes":[],"categories_segments":[],"categories_sizes":[],"default_left":[1,1,1,1,1,1,1,1,1,1,1,0,0,0,0,1,1,1,1,0,0,0,0,1,1,0,0,1,1,0,1,1,1,0,0,0,1,0,0,0,1,1,0,0,0,0,1,0,0,1,1,0,0,0,0,0,0],"id":5,"left_children":[1,3,5,7,9,11,13,15,17,19,21,-1,-1,-1,-1,23,25,27,29,-1,-1,-1,-1,31,33,-1,-1,35,37,-1,39,41,43,-1,-1,-1,45,-1,-1,-1,47,49,-1,-1,-1,-1,51,-1,-1,53,55,-1,-1,-1,-1,-1,-1],"loss_changes":[4.6853027E3,7.305156E2,3.1755273E2,1.3351562E2,1.8837964E2,4.5010498E1,1.3686523E0,2.91604E1,1.8200806E1,1.8789062E1,1.0512695E0,0E0,0E0,0E0,0E0,2.3501282E0,3.256073E0,3.6716309E0,1.6295776E0,0E0,0E0,0E0,0E0,8.32428E-1,1.3773346E-1,0E0,0E0,6.16272E-1,2.723999E-1,0E0,1.4716187E0,2.3085237E-2,2.7412415E-2,0E0,0E0,0E0,8.06543E-1,0E0,0E0,0E0,4.9767336E-1,2.6846647E-2,0E0,0E0,0E0,0E0,6.260278E-2,0E0,0E0,2.9576123E-3,2.7132034E-3,0E0,0E0,0E0,0E0,0E0,0E0],"parents":[2147483647,0,0,1,1,2,2,3,3,4,4,5,5,6,6,7,7,8,8,9,9,10,10,15,15,16,16,17,17,18,18,23,23,24,24,27,27,28,28,30,30,31,31,32,32,36,36,40,40,41,41,46,46,49,49,50,50],"right_children":[2,4,6,8,10,12,14,16,18,20,22,-1,-1,-1,-1,24,26,28,30,-1,-1,-1,-1,32,34,-1,-1,36,38,-1,40,42,44,-1,-1,-1,46,-1,-1,-1,48,50,-1,-1,-1,-1,52,-1,-1,54,56,-1,-1,-1,-1,-1,-1],"split_conditions":[1.9435E1,8.975E0,3.3215E1,5.795E0,1.4754999E1,2.5428333E1,3.904E1,4.12E0,7.3050003E0,1.0885E1,1.5795E1,1.1220559E0,1.4484193E0,1.8275418E0,2.271468E0,3.0549998E0,4.895E0,6.3450003E0,8.145E0,4.7829092E-1,6.059433E-1,7.3065186E-1,8.641513E-1,2.1E0,3.335E0,2.0131399E-1,2.4676405E-1,6.415E0,6.04E0,3.5865656E-1,9.138333E0,1.925E0,1.15E1,1.3275166E-1,1.6103452E-1,2.775581E-1,2E0,6.946035E-2,3.2395446E-1,4.071077E-1,8.5E0,1.62E0,1.4734197E-2,1.1257131E-1,8.4479146E-2,2.0631345E-1,6.5E0,1.8131633E-1,-4.4568446E-2,1.605E0,1.905E0,2.4460318E-2,-5.2303363E-2,4.8441153E-2,2.2144452E-2,7.607996E-2,3.0247748E-2],"split_indices":[6,6,6,7,6,8,6,6,6,6,7,0,0,0,0,6,6,8,6,0,0,0,0,6,6,0,0,7,7,0,8,6,1,0,0,0,3,0,0,0,0,6,0,0,0,0,0,0,0,7,7,0,0,0,0,0,0],"split_type":[0,0,0,0,0,0,0,0,0,0,0,0,0,0,0,0,0,0,0,0,0,0,0,0,0,0,0,0,0,0,0,0,0,0,0,0,0,0,0,0,0,0,0,0,0,0,0,0,0,0,0,0,0,0,0,0,0],"sum_hessian":[3.597E3,3.261E3,3.36E2,2.388E3,8.73E2,2.14E2,1.22E2,1.065E3,1.323E3,6.5E2,2.23E2,1.01E2,1.13E2,9.9E1,2.3E1,3.68E2,6.97E2,7.6E2,5.63E2,4.93E2,1.57E2,5.9E1,1.64E2,1.93E2,1.75E2,2.76E2,4.21E2,3.08E2,4.52E2,3.35E2,2.28E2,3.5E1,1.58E2,7.5E1,1E2,3.03E2,5E0,1E0,4.51E2,2.26E2,2E0,3.3E1,2E0,1.38E2,2E1,3E0,2E0,1E0,1E0,2E1,1.3E1,1E0,1E0,1.7E1,3E0,1.1E1,2E0],"tree_param":{"num_deleted":"0","num_feature":"9","num_nodes":"57","size_leaf_vector":"0"}},{"base_weights":[1.0966995E0,8.435457E-1,3.6608949E0,6.583732E-1,1.4728447E0,2.97789E0,4.381972E0,4.9101362E-1,8.4894323E-1,1.2044847E0,1.8983845E0,2.566484E0,3.1864944E0,3.9705684E0,4.9840765E0,2.9950875E-1,5.692619E-1,7.9254186E-1,9.81454E-1,1.1384151E0,1.3101064E0,1.6483307E0,2.0301178E0,2.646656E0,1.377101E0,2.3569655E-1,3.5960856E-1,4.9208283E-1,6.134803E-1,7.4744296E-1,8.365978E-1,1.1402438E0,3.0497456E-1,2.035743E0,5.031624E-1,1.576017E0,1.9126034E-1,1.3951854E-1,2.5899607E-1,3.2648933E-1,4.027601E-1,1.2577963E-1,6.1407954E-1,6.4267345E-2,1.5090795E-1,2.849377E-1,2.3111406E-1,3.2925972E-1,1.0961405E-1,9.4705105E-2,4.0536192E-1,3.3226013E-3,7.387104E-2,2.87781E-1,1.1982417E-1,2.3503378E-1,5.2163202E-2,4.1702968E-1,2.6438677E-1,9.412241E-2,-1.5877604E-2],"categories":[],"categories_nodes":[],"categories_segments":[],"categories_sizes":[],"default_left":[1,1,1,1,1,1,1,1,1,1,1,1,0,0,0,1,1,1,0,1,0,0,1,0,1,1,1,0,1,0,0,0,0,0,0,0,0,1,1,1,1,0,0,1,0,1,1,0,0,0,1,0,0,0,0,0,1,0,0,0,0],"id":6,"left_children":[1,3,5,7,9,11,13,15,17,19,21,23,-1,-1,-1,25,27,29,-1,31,-1,-1,33,-1,35,37,39,-1,41,-1,-1,-1,-1,-1,-1,-1,-1,43,45,47,49,-1,-1,51,-1,53,55,-1,-1,-1,57,-1,-1,-1,-1,-1,59,-1,-1,-1,-1],"loss_changes":[2.332502E3,3.8077905E2,1.4602832E2,8.0369995E1,8.267651E1,6.3256836E0,1.8605225E1,2.0074158E1,8.06366E0,1.7116089E0,6.074707E0,2.267334E0,0E0,0E0,0E0,1.4262657E0,2.9675293E0,1.0336914E0,0E0,9.420776E-2,0E0,0E0,5.476074E-1,0E0,1.1138678E0,3.9860058E-1,1.5576363E-1,0E0,9.95636E-2,0E0,0E0,0E0,0E0,0E0,0E0,0E0,0E0,2.4584174E-2,4.6258926E-2,3.540802E-2,2.8134346E-2,0E0,0E0,3.8516186E-3,0E0,1.1963844E-3,4.385519E-2,0E0,0E0,0E0,2.4622917E-2,0E0,0E0,0E0,0E0,0E0,1.0059254E-2,0E0,0E0,0E0,0E0],"parents":[2147483647,0,0,1,1,2,2,3,3,4,4,5,5,6,6,7,7,8,8,9,9,10,10,11,11,15,15,16,16,17,17,19,19,22,22,24,24,25,25,26,26,28,28,37,37,38,38,39,39,40,40,43,43,45,45,46,46,50,50,56,56],"right_children":[2,4,6,8,10,12,14,16,18,20,22,24,-1,-1,-1,26,28,30,-1,32,-1,-1,34,-1,36,38,40,-1,42,-1,-1,-1,-1,-1,-1,-1,-1,44,46,48,50,-1,-1,52,-1,54,56,-1,-1,-1,58,-1,-1,-1,-1,-1,60,-1,-1,-1,-1],"split_conditions":[2.0131666E1,9.635E0,3.149E1,6.275E0,1.3053333E1,2.2634998E1,3.696E1,4.2233334E0,8.255E0,1.0673333E1,1.5690001E1,2.85E1,9.5594835E-1,1.1911706E0,1.495223E0,3.0549998E0,5.175E0,7.1949997E0,2.9443622E-1,1.0805E1,3.9303192E-1,4.9449924E-1,2.0025E1,7.939969E-1,9E0,2.21E0,3.5749998E0,1.4762485E-1,4.73E0,2.242329E-1,2.5097936E-1,3.4207314E-1,9.149237E-2,6.107229E-1,1.5094872E-1,4.728051E-1,5.7378102E-2,1.505E0,8.5E0,3.585E0,1.5E0,3.773389E-2,1.8422386E-1,1.5E0,4.5272388E-2,3.1533334E0,2.9850001E0,9.877792E-2,3.2884218E-2,2.8411532E-2,1E1,9.967805E-4,2.2161312E-2,8.63343E-2,3.5947252E-2,7.0510134E-2,8E0,1.2510891E-1,7.9316035E-2,2.8236724E-2,-4.7632814E-3],"split_indices":[8,6,6,6,8,6,6,8,6,8,6,0,0,0,0,6,6,7,0,7,0,0,8,0,1,6,6,0,7,0,0,0,0,0,0,0,0,6,1,8,0,0,0,3,0,8,6,0,0,0,1,0,0,0,0,0,0,0,0,0,0],"split_type":[0,0,0,0,0,0,0,0,0,0,0,0,0,0,0,0,0,0,0,0,0,0,0,0,0,0,0,0,0,0,0,0,0,0,0,0,0,0,0,0,0,0,0,0,0,0,0,0,0,0,0,0,0,0,0,0,0,0,0,0,0],"sum_hessian":[3.597E3,3.275E3,3.22E2,2.532E3,7.43E2,1.68E2,1.54E2,1.35E3,1.182E3,4.58E2,2.85E2,6.1E1,1.07E2,9.6E1,5.8E1,3.93E2,9.57E2,8.34E2,3.48E2,2.89E2,1.69E2,1.03E2,1.82E2,5.6E1,5E0,1.93E2,2E2,3.53E2,6.04E2,4.21E2,4.13E2,2.88E2,1E0,1.81E2,1E0,4E0,1E0,3.9E1,1.54E2,1.18E2,8.2E1,1E0,6.03E2,6E0,3.3E1,7.5E1,7.9E1,1.16E2,2E0,1E0,8.1E1,1E0,5E0,7.3E1,2E0,7.7E1,2E0,7.3E1,8E0,1E0,1E0],"tree_param":{"num_deleted":"0","num_feature":"9","num_nodes":"61","size_leaf_vector":"0"}},{"base_weights":[7.7014595E-1,5.929401E-1,2.5960648E0,4.6144515E-1,1.0360764E0,2.223881E0,3.2796137E0,3.2397622E-1,5.7706743E-1,8.708508E-1,1.3922421E0,1.9664035E0,2.512155E0,3.0814328E0,4.251338E0,2.0161818E-1,3.775329E-1,5.244433E-1,6.603924E-1,8.215836E-1,1.0721042E0,2.0044339E0,1.2071922E0,3.095142E0,8.963795E-1,1.3790335E-1,2.28552E-1,3.33057E-1,4.113573E-1,4.9201694E-1,5.622595E-1,6.276391E-1,7.2074574E-1,7.84318E-1,8.7082523E-1,1.3331994E0,1.6257095E-1,8.584882E-2,1.6493511E-1,2.0512669E-1,2.6117018E-1,3.1427068E-1,3.6286527E-1,4.080963E-1,6.753793E-1,4.9477828E-1,1.3956995E-1,6.290434E-1,2.555294E-1,2.5900936E-1,7.244998E-1,7.906291E-1,4.54088E-1,8.8761225E-2,-1.2411237E-2,1.7510124E-1,4.8425503E-2,1.5001202E-1,2.1555734E-1,3.167581E-1,1.919087E-1,3.6603215E-1,1.0678911E-1,4.1007563E-1,-2.4030471E-1,1.0533309E-1,4.9539727E-1,-2.0042753E-1,2.746762E-1,-2.734952E-1,6.6200924E-1,7.389808E-1,4.0876836E-1,-5.78068E-1,7.2245866E-1,4.8295397E-2,9.4839334E-2,2.3157816E-1,1.5616441E-1,-1.5956461E-2,1.0070109E-1,-7.2134137E-3,1.6996576E-1,2.3088796E-1,1.804938E-1,3.7473362E-2,2.4618816E-1,4.6722558E-1,5.1591146E-1,-3.549099E-3,3.68601E-1,-6.971979E-2,4.6968037E-1,2.8241873E-3,5.5403233E-2,4.0467937E-2,9.711517E-2,1.6063434E-1,3.1100908E-2,7.131656E-3,-4.2610407E-2,-3.2708723E-2,3.463626E-2,1.8923171E-1,1.1683008E-1,2.332534E-1,1.9643188E-2,4.643202E-3,1.846696E-1,1.0406017E-2,4.5804024E-2,4.7186118E-1,1.1748028E-1,5.1867068E-2,8.834839E-3,1.8655647E-1,1.2585892E-1,-4.442835E-2,1.4254093E-1,2.3844783E-1,1.2858193E-1,5.3483725E-2,1.8661214E-1,3.142929E-2,1.3568752E-1,7.7112675E-2,1.9246377E-1,1.0632796E-1,1.6673045E-1,1.7159744E-1,7.058507E-2],"categories":[],"categories_nodes":[],"categories_segments":[],"categories_sizes":[],"default_left":[1,1,1,1,1,1,1,1,1,1,0,1,0,1,0,1,1,1,1,1,0,0,1,0,0,1,1,1,1,1,0,1,1,1,0,0,0,1,1,1,0,1,1,1,0,1,1,0,0,1,1,0,1,1,0,1,1,1,1,0,1,0,0,0,0,0,1,0,1,0,0,0,1,0,0,1,1,0,1,1,0,1,1,1,1,1,0,1,0,0,0,0,0,0,0,1,0,1,0,0,0,0,0,0,1,1,0,0,1,0,0,0,1,0,0,1,1,0,1,0,0,0,0,0,0,0,0,0,0,0,0],"id":7,"left_children":[1,3,5,7,9,11,13,15,17,19,-1,21,-1,23,-1,25,27,29,31,33,-1,-1,35,-1,-1,37,39,41,43,45,-1,47,49,51,-1,-1,-1,53,55,57,-1,59,61,63,-1,65,67,-1,-1,69,71,-1,73,75,-1,77,79,81,83,-1,85,-1,-1,-1,-1,-1,87,-1,89,-1,-1,-1,91,-1,-1,93,95,-1,97,99,-1,101,103,105,107,109,-1,111,-1,-1,-1,-1,-1,-1,-1,113,-1,115,-1,-1,-1,-1,-1,-1,117,119,-1,-1,121,-1,-1,-1,123,-1,-1,125,127,-1,129,-1,-1,-1,-1,-1,-1,-1,-1,-1,-1,-1,-1],"loss_changes":[1.1626423E3,1.9070642E2,7.360742E1,4.00578E1,4.292328E1,1.0572998E1,8.083374E0,7.5189056E0,5.678528E0,4.225525E0,0E0,9.006653E-1,0E0,7.13501E-2,0E0,5.7769203E-1,1.0740128E0,7.619934E-1,5.913696E-1,8.404541E-2,0E0,0E0,8.36298E-1,0E0,0E0,1.3780999E-1,1.3592052E-1,8.364105E-2,1.1440277E-1,3.8252258E-1,0E0,2.2155762E-2,1.2261963E-1,1.5783691E-1,0E0,0E0,0E0,1.2262344E-2,7.4432254E-2,5.3320885E-2,0E0,7.390976E-3,6.633949E-2,6.760559E-1,0E0,5.870056E-2,2.847316E-1,0E0,0E0,8.248542E-1,5.071945E-1,0E0,2.3566332E0,4.766017E-3,0E0,3.2283306E-2,2.516607E-2,8.593136E-2,2.444458E-2,0E0,4.94532E-2,0E0,0E0,0E0,0E0,0E0,2.4215698E-2,0E0,1.05837196E-1,0E0,0E0,0E0,3.2420266E-1,0E0,0E0,2.1059439E-3,2.965331E-5,0E0,2.351427E-2,2.7654404E-3,0E0,5.4007894E-3,2.4610162E-3,3.639269E-2,2.9983878E-2,1.9982923E-4,0E0,2.753067E-1,0E0,0E0,0E0,0E0,0E0,0E0,0E0,6.235326E-4,0E0,2.0691514E-2,0E0,0E0,0E0,0E0,0E0,0E0,4.3647677E-2,1.3380051E-2,0E0,0E0,4.6741962E-4,0E0,0E0,0E0,2.0024367E-3,0E0,0E0,1.9679666E-3,1.430124E-3,0E0,4.614055E-3,0E0,0E0,0E0,0E0,0E0,0E0,0E0,0E0,0E0,0E0,0E0,0E0],"parents":[2147483647,0,0,1,1,2,2,3,3,4,4,5,5,6,6,7,7,8,8,9,9,11,11,13,13,15,15,16,16,17,17,18,18,19,19,22,22,25,25,26,26,27,27,28,28,29,29,31,31,32,32,33,33,37,37,38,38,39,39,41,41,42,42,43,43,45,45,46,46,49,49,50,50,52,52,53,53,55,55,56,56,57,57,58,58,60,60,66,66,68,68,72,72,75,75,76,76,78,78,79,79,81,81,82,82,83,83,84,84,85,85,87,87,95,95,97,97,104,104,105,105,108,108,112,112,115,115,116,116,118,118],"right_children":[2,4,6,8,10,12,14,16,18,20,-1,22,-1,24,-1,26,28,30,32,34,-1,-1,36,-1,-1,38,40,42,44,46,-1,48,50,52,-1,-1,-1,54,56,58,-1,60,62,64,-1,66,68,-1,-1,70,72,-1,74,76,-1,78,80,82,84,-1,86,-1,-1,-1,-1,-1,88,-1,90,-1,-1,-1,92,-1,-1,94,96,-1,98,100,-1,102,104,106,108,110,-1,112,-1,-1,-1,-1,-1,-1,-1,114,-1,116,-1,-1,-1,-1,-1,-1,118,120,-1,-1,122,-1,-1,-1,124,-1,-1,126,128,-1,130,-1,-1,-1,-1,-1,-1,-1,-1,-1,-1,-1,-1],"split_conditions":[2.0415E1,9.62E0,2.0235E3,5.925E0,1.485E1,2.6696667E1,3.977E1,4.045E0,7.755E0,1.1365E1,4.1767263E-1,2.95E1,7.5364655E-1,3.9685E1,1.2754015E0,2.685E0,5.085E0,6.885E0,8.82E0,1.0535E1,3.2163128E-1,6.0133016E-1,9E0,9.285426E-1,2.6891387E-1,2.5E0,3.275E0,4.705E0,6.4449997E0,7.1083336E0,1.6867785E-1,8.925E0,8.495E0,1.0690001E1,2.6124758E-1,3.9995983E-1,4.877129E-2,2.3049998E0,2.6950002E0,5E-1,7.835106E-2,1.15E1,5.2266665E0,6.33E0,2.0261379E-1,5.52E0,1.5E0,1.8871303E-1,7.665882E-2,1.6E1,9.715E0,2.3718874E-1,1.0135E1,1.505E0,-3.723371E-3,3.5E0,1.65E1,1.5E0,7.5E0,9.502743E-2,5E-1,1.0980965E-1,3.2036737E-2,1.230227E-1,-7.2091416E-2,3.1599928E-2,6.315E0,-6.012826E-2,2.05E1,-8.2048565E-2,1.9860278E-1,2.2169426E-1,9.553333E0,-1.7342041E-1,2.1673761E-1,1.5E0,3E0,6.947345E-2,2.67E0,1.45E1,3.021033E-2,1.55E1,2.0155E3,3.43E0,1.5E0,4.5E0,7.385645E-2,6.4866667E0,1.5477344E-1,-1.0647298E-3,1.105803E-1,-2.0915939E-2,1.4090411E-1,8.472562E-4,1.6620971E-2,1.5E0,2.9134551E-2,1.65E1,9.330273E-3,2.1394968E-3,-1.2783122E-2,-9.812618E-3,1.0390878E-2,5.6769516E-2,5E0,2.95E1,5.8929566E-3,1.3929605E-3,2.625E0,3.1218054E-3,1.3741207E-2,1.4155836E-1,9.5E0,1.5560121E-2,2.6504518E-3,1.5E0,2.61E0,-1.3328505E-2,2.15E1,7.153435E-2,3.857458E-2,1.6045118E-2,5.5983644E-2,9.428788E-3,4.0706255E-2,2.3133803E-2,5.7739135E-2,3.189839E-2,5.0019138E-2,5.147923E-2,2.1175522E-2],"split_indices":[6,6,5,6,6,8,6,6,6,6,0,0,0,6,0,8,7,6,8,6,0,0,1,0,0,1,6,6,7,8,0,7,6,7,0,0,0,7,7,3,0,1,8,7,0,7,3,0,0,0,7,0,6,6,0,1,0,1,1,0,3,0,0,0,0,0,6,0,0,0,0,0,8,0,0,3,0,0,8,0,0,0,5,7,0,0,0,8,0,0,0,0,0,0,0,0,0,0,0,0,0,0,0,0,0,0,0,0,7,0,0,0,0,0,0,0,7,0,0,0,0,0,0,0,0,0,0,0,0,0,0],"split_type":[0,0,0,0,0,0,0,0,0,0,0,0,0,0,0,0,0,0,0,0,0,0,0,0,0,0,0,0,0,0,0,0,0,0,0,0,0,0,0,0,0,0,0,0,0,0,0,0,0,0,0,0,0,0,0,0,0,0,0,0,0,0,0,0,0,0,0,0,0,0,0,0,0,0,0,0,0,0,0,0,0,0,0,0,0,0,0,0,0,0,0,0,0,0,0,0,0,0,0,0,0,0,0,0,0,0,0,0,0,0,0,0,0,0,0,0,0,0,0,0,0,0,0,0,0,0,0,0,0,0,0],"sum_hessian":[3.597E3,3.28E3,3.17E2,2.531E3,7.49E2,2.08E2,1.09E2,1.158E3,1.373E3,5.14E2,2.35E2,1.14E2,9.4E1,9.4E1,1.5E1,3.54E2,8.04E2,8.46E2,5.27E2,4.17E2,9.7E1,1.07E2,7E0,9.3E1,1E0,1.07E2,2.47E2,3.52E2,4.52E2,4.63E2,3.83E2,3.49E2,1.78E2,2.47E2,1.7E2,6E0,1E0,3.8E1,6.9E1,1.48E2,9.9E1,2.23E2,1.29E2,4.49E2,3E0,4.59E2,4E0,3.47E2,2E0,2E0,1.76E2,2.41E2,6E0,3.7E1,1E0,6.3E1,6E0,2.6E1,1.22E2,2.17E2,6E0,1.27E2,2E0,4.48E2,1E0,1E0,4.58E2,1E0,3E0,1E0,1E0,1.67E2,9E0,1E0,5E0,6E0,3.1E1,1.3E1,5E1,3E0,3E0,3E0,2.3E1,8.1E1,4.1E1,2E0,4E0,2.03E2,2.55E2,1E0,2E0,1E0,8E0,1E0,5E0,2E0,2.9E1,4.8E1,2E0,2E0,1E0,2E0,1E0,1.5E1,8E0,8E1,1E0,1E0,4E1,1E0,1E0,2E2,3E0,1E0,1E0,2.5E1,2.3E1,1E0,7E0,7.5E1,5E0,1E0,3.9E1,1E0,2E0,2E0,2.3E1,1.8E1,5E0,4E0,3E0],"tree_param":{"num_deleted":"0","num_feature":"9","num_nodes":"131","size_leaf_vector":"0"}},{"base_weights":[5.413716E-1,4.0408087E-1,1.7202618E0,3.061337E-1,6.482981E-1,1.3553232E0,2.1477013E0,2.1230026E-1,3.7377077E-1,5.527609E-1,8.830724E-1,1.1735234E0,1.5309039E0,2.014008E0,2.8826559E0,1.3711132E-1,2.494497E-1,3.3502397E-1,4.1482157E-1,5.099856E-1,5.88946E-1,7.707275E-1,9.554451E-1,1.2424899E0,8.182913E-1,8.799534E-2,1.5245168E-1,2.2040659E-1,2.675858E-1,3.128293E-1,3.5539448E-1,4.3613594E-2,4.1590837E-1,2.4160442E-1,5.1271325E-1,5.902437E-1,6.802273E-2,9.622416E-1,2.8581238E-1,7.62726E-1,1.2886608E0,8.468134E-1,1.381855E-1,6.1660606E-2,1.1089923E-1,1.3966441E-1,1.7353292E-1,1.3291843E-1,2.2271141E-1,3.277531E-1,2.7373463E-1,3.5727325E-1,1.01685405E-1,2.3578382E-1,-1.7036343E-1,4.0237033E-1,4.536208E-1,-2.3247099E-1,4.1824102E-1,1.1490631E-1,8.2193863E-1,1.3249322E0,5.013653E-1,2.3190403E-1,8.6809146E-1,6.38385E-2,-1.0549545E-2,1.2817548E-1,2.3612767E-2,1.897447E-1,1.3096844E-1,1.1681697E-1,1.9066828E-1,1.4732197E-1,8.845091E-3,2.2312048E-1,6.124568E-2,3.314243E-1,2.0980564E-1,-1.4172673E-1,2.793628E-1,3.5877737E-1,2.1098892E-1,1.1910359E-1,2.4715424E-2,4.0477183E-1,1.4199138E-2,4.725271E-1,2.9575968E-1,1.3720067E0,6.8508637E-1,2.0146306E-1,6.3414574E-1,4.1848496E-2,7.2378166E-2,1.5740351E-1,7.517804E-2,5.6675244E-2,-2.361852E-2,2.4108127E-1,1.3115217E-1,1.4268774E-1,1.1090168E-1,1.2955992E-1,-1.1322658E-2,1.935482E-1,6.567391E-2,4.132378E-2,1.5656117E-1,2.05452E-1,2.344895E-1,3.321138E-1,8.607626E-2,2.4286151E-1,5.1721413E-2,1.5832162E-1,2.8970778E-1,3.0428857E-1,-1.2775469E-1,4.1362923E-1,3.4804717E-1,1.935366E-1,-2.6190662E-1,4.8322678E-2,3.2056808E-1,5.1912796E-2,6.2256157E-3,5.8873367E-2,1.0062357E-1,5.807702E-2,1.6480224E-1,3.273785E-3,9.449068E-2,6.4753294E-3,6.760639E-2,-3.7726242E-2,9.352326E-3,1.7257642E-2,1.8594223E-1,1.4589116E-1,4.2947352E-2,9.2983656E-2,1.8223444E-1,1.5512453E-1,5.6270022E-2,-3.3680677E-2,1.6696692E-2,1.3843067E-1,2.0488346E-1,8.336353E-2,1.9061852E-1,2.1000215E-1,7.335834E-2,2.282601E-1,3.9233887E-1,9.089422E-2,3.327674E-1,2.4979231E-1,-4.1332483E-2,2.964727E-1,1.15409754E-1,4.0544766E-1,5.3330916E-1,2.4838568E-1,3.822598E-1,3.731536E-1,2.0819199E-1,5.8628336E-2,1.6700426E-2,2.1119177E-2,-5.7786307E-3,3.3963602E-2,8.554491E-2,1.1688419E-1,3.9981365E-2,1.9640979E-1,1.239595E-1,4.8597574E-2,-2.8033337E-2,1.3876605E-1,6.923326E-2,-1.3282697E-2,4.2045433E-2,7.208556E-2,2.3983912E-1,1.1126587E-1,1.5280896E-1,3.946781E-3,9.4874546E-2,2.1309733E-1,3.9188545E-2,-1.8077195E-2,1.1654973E-1,1.6062927E-1,3.4926732E-3,5.0460815E-2,2.0696269E-1,1.0135206E-1,1.4698982E-2,1.0946528E-1,1.2798627E-2,2.3116864E-1,1.04077145E-1,1.0209894E-1,4.5505252E-1,4.1314474E-1,3.239941E-1,2.3349072E-1,3.213375E-1,2.6714802E-2,1.309048E-1,7.6869965E-2,2.623942E-1,3.88462E-1,1.535368E-1,2.4527581E-1,6.4627014E-2,2.3931444E-2,1.1191964E-3,-1.1068523E-2,2.400577E-3,5.6396086E-2,9.883813E-3,4.2389892E-2,1.1159094E-1,1.2861222E-1,3.498602E-2,5.3334236E-4,-2.0457387E-2,-3.7764072E-2,1.22940496E-1,1.5491349E-1,5.8379095E-2,1.3152109E-1,8.064636E-2,3.4338236E-3,5.5348992E-2,1.1319399E-2,-3.164919E-2,1.962089E-1,4.041779E-2,1.0972738E-2,-5.7337284E-3,1.2615025E-1,7.89237E-3,4.2622817E-1,8.882165E-2,4.2444944E-2,3.251273E-1,2.564102E-1,-4.297511E-2,3.2860887E-1,1.7708483E-1,7.652521E-3,1.07652426E-1,2.7934837E-1,1.2897885E-1,3.5292238E-1,4.9177438E-1,1.8765259E-1,4.2652607E-2],"categories":[],"categories_nodes":[],"categories_segments":[],"categories_sizes":[],"default_left":[1,1,1,1,1,1,1,1,1,1,1,1,0,0,0,1,1,1,1,1,1,0,1,1,1,1,1,1,0,1,1,1,1,1,0,0,0,0,0,1,1,1,0,1,1,1,1,1,1,1,1,1,1,0,0,1,1,0,0,0,0,1,1,0,0,1,0,1,1,1,1,1,1,1,0,1,0,1,1,0,1,0,1,0,0,1,1,0,1,0,0,0,0,1,1,1,1,1,1,0,1,1,1,1,1,1,0,0,1,1,1,1,0,0,0,1,1,0,0,1,1,0,0,0,1,1,1,1,1,0,1,1,1,0,0,0,0,1,1,1,0,1,1,0,1,0,0,1,1,1,0,0,1,1,1,0,1,0,0,1,1,0,0,1,1,0,1,0,1,0,1,1,1,1,0,0,0,0,0,0,0,1,0,0,0,1,1,0,1,0,1,1,0,1,1,0,0,0,0,0,0,0,1,0,0,1,1,1,1,0,0,1,1,1,1,0,0,0,0,0,0,0,0,0,0,0,0,0,0,0,0,0,0,0,0,0,0,0,0,0,0,0,0,0,0,0,0,0,0,0,0,0,0,0,0,0,0,0,0,0,0],"id":8,"left_children":[1,3,5,7,9,11,13,15,17,19,21,23,-1,-1,-1,25,27,29,31,33,35,-1,37,39,41,43,45,47,-1,49,51,53,55,57,-1,-1,-1,-1,-1,59,61,63,-1,65,67,69,71,73,75,77,79,81,83,-1,-1,85,87,-1,-1,-1,-1,89,91,-1,-1,93,-1,95,97,99,101,103,105,107,-1,109,-1,111,113,-1,115,-1,117,-1,-1,119,121,-1,123,-1,-1,-1,-1,125,127,129,131,133,135,-1,137,139,141,143,145,147,-1,-1,149,151,153,155,-1,-1,-1,157,159,-1,-1,161,163,-1,-1,-1,165,167,169,171,173,-1,175,177,179,-1,-1,-1,-1,181,183,185,-1,187,189,-1,191,-1,-1,193,195,197,-1,-1,199,201,203,-1,205,-1,-1,207,209,-1,-1,211,213,-1,215,-1,217,-1,219,221,223,225,-1,-1,-1,-1,-1,-1,-1,227,-1,-1,-1,229,231,-1,233,-1,235,237,-1,239,241,-1,-1,-1,-1,-1,-1,-1,243,-1,-1,245,247,249,251,-1,-1,253,255,257,259,-1,-1,-1,-1,-1,-1,-1,-1,-1,-1,-1,-1,-1,-1,-1,-1,-1,-1,-1,-1,-1,-1,-1,-1,-1,-1,-1,-1,-1,-1,-1,-1,-1,-1,-1,-1,-1,-1,-1,-1,-1,-1,-1,-1,-1,-1],"loss_changes":[5.8164355E2,7.692084E1,5.558496E1,1.4536911E1,2.0192017E1,4.7471924E0,1.0996521E1,2.666851E0,1.9876404E0,7.181244E-1,1.4182434E0,1.5556793E0,0E0,0E0,0E0,2.2919846E-1,2.8128815E-1,2.0214844E-1,2.4208069E-1,1.0233307E-1,1.9645691E-1,0E0,4.3952942E-1,9.221039E-1,2.709446E-1,4.0812135E-2,4.1539192E-2,2.1615028E-2,0E0,1.0865402E-1,1.3240433E-1,1.6352898E-1,1.4575958E-1,5.159242E-1,0E0,0E0,0E0,0E0,0E0,2.89145E-1,1.5345688E0,4.7284126E-2,0E0,6.8068206E-3,5.8800757E-2,4.3522596E-2,6.324959E-2,1.4780775E-2,2.58255E-3,3.481865E-2,2.7342176E-1,1.5296936E-3,2.4190173E-3,0E0,0E0,4.43573E-1,3.437462E-1,0E0,0E0,0E0,0E0,1.2588501E0,7.1348906E-2,0E0,0E0,4.1070133E-3,0E0,4.0832996E-2,1.383125E-2,3.154838E-2,1.63939E-2,3.90231E-2,1.1047125E-2,1.3650209E-3,0E0,1.0385513E-3,0E0,1.0658264E-2,3.9694995E-2,0E0,7.809782E-2,0E0,2.2850227E-1,0E0,0E0,9.6702576E-2,2.4875294E-1,0E0,1.0727954E-1,0E0,0E0,0E0,0E0,4.337564E-3,3.9936006E-3,5.8615804E-3,1.9131899E-2,2.3059398E-3,2.2134024E-3,0E0,7.1674526E-2,2.0253658E-2,5.335301E-2,3.0617326E-2,2.4417276E-3,1.1623383E-2,0E0,0E0,1.559794E-3,4.7103405E-2,5.0074577E-2,6.17218E-3,0E0,0E0,0E0,1.929495E-1,7.190418E-2,0E0,0E0,1.8424988E-1,1.4713955E-1,0E0,0E0,0E0,2.8680801E-2,1.3855826E-3,8.371839E-4,1.038222E-2,2.2293627E-3,0E0,1.809597E-4,7.0381816E-3,2.693884E-3,0E0,0E0,0E0,0E0,4.3436144E-3,3.180325E-2,2.1600723E-3,0E0,7.3700547E-3,3.579712E-2,0E0,3.3478294E-2,0E0,0E0,4.137507E-2,5.9313774E-3,3.4509227E-3,0E0,0E0,9.532124E-3,2.6145935E-2,2.6347697E-2,0E0,2.8331757E-2,0E0,0E0,5.9649467E-2,3.3745617E-3,0E0,0E0,3.0286074E-2,1.2704849E-2,0E0,2.6740044E-2,0E0,3.1122053E-4,0E0,1.5637223E-4,5.9246235E-3,5.3858235E-3,3.028959E-4,0E0,0E0,0E0,0E0,0E0,0E0,0E0,3.082882E-4,0E0,0E0,0E0,3.42205E-2,3.674984E-3,0E0,1.2856901E-2,0E0,1.543378E-3,1.9541318E-3,0E0,4.3394655E-2,2.6995697E-4,0E0,0E0,0E0,0E0,0E0,0E0,0E0,9.619862E-3,0E0,0E0,4.276347E-2,5.3840637E-2,1.884402E-1,3.6940575E-3,0E0,0E0,5.568236E-3,6.9469213E-3,6.354332E-3,3.3448339E-3,0E0,0E0,0E0,0E0,0E0,0E0,0E0,0E0,0E0,0E0,0E0,0E0,0E0,0E0,0E0,0E0,0E0,0E0,0E0,0E0,0E0,0E0,0E0,0E0,0E0,0E0,0E0,0E0,0E0,0E0,0E0,0E0,0E0,0E0,0E0,0E0,0E0,0E0,0E0,0E0,0E0,0E0,0E0,0E0,0E0,0E0],"parents":[2147483647,0,0,1,1,2,2,3,3,4,4,5,5,6,6,7,7,8,8,9,9,10,10,11,11,15,15,16,16,17,17,18,18,19,19,20,20,22,22,23,23,24,24,25,25,26,26,27,27,29,29,30,30,31,31,32,32,33,33,39,39,40,40,41,41,43,43,44,44,45,45,46,46,47,47,48,48,49,49,50,50,51,51,52,52,55,55,56,56,61,61,62,62,65,65,67,67,68,68,69,69,70,70,71,71,72,72,73,73,75,75,77,77,78,78,80,80,82,82,85,85,86,86,88,88,93,93,94,94,95,95,96,96,97,97,98,98,100,100,101,101,102,102,103,103,104,104,105,105,108,108,109,109,110,110,111,111,115,115,116,116,119,119,120,120,124,124,125,125,126,126,127,127,128,128,130,130,131,131,132,132,137,137,138,138,139,139,141,141,142,142,144,144,147,147,148,148,149,149,152,152,153,153,154,154,156,156,159,159,160,160,163,163,164,164,166,166,168,168,170,170,171,171,172,172,173,173,181,181,185,185,186,186,188,188,190,190,191,191,193,193,194,194,202,202,205,205,206,206,207,207,208,208,211,211,212,212,213,213,214,214],"right_children":[2,4,6,8,10,12,14,16,18,20,22,24,-1,-1,-1,26,28,30,32,34,36,-1,38,40,42,44,46,48,-1,50,52,54,56,58,-1,-1,-1,-1,-1,60,62,64,-1,66,68,70,72,74,76,78,80,82,84,-1,-1,86,88,-1,-1,-1,-1,90,92,-1,-1,94,-1,96,98,100,102,104,106,108,-1,110,-1,112,114,-1,116,-1,118,-1,-1,120,122,-1,124,-1,-1,-1,-1,126,128,130,132,134,136,-1,138,140,142,144,146,148,-1,-1,150,152,154,156,-1,-1,-1,158,160,-1,-1,162,164,-1,-1,-1,166,168,170,172,174,-1,176,178,180,-1,-1,-1,-1,182,184,186,-1,188,190,-1,192,-1,-1,194,196,198,-1,-1,200,202,204,-1,206,-1,-1,208,210,-1,-1,212,214,-1,216,-1,218,-1,220,222,224,226,-1,-1,-1,-1,-1,-1,-1,228,-1,-1,-1,230,232,-1,234,-1,236,238,-1,240,242,-1,-1,-1,-1,-1,-1,-1,244,-1,-1,246,248,250,252,-1,-1,254,256,258,260,-1,-1,-1,-1,-1,-1,-1,-1,-1,-1,-1,-1,-1,-1,-1,-1,-1,-1,-1,-1,-1,-1,-1,-1,-1,-1,-1,-1,-1,-1,-1,-1,-1,-1,-1,-1,-1,-1,-1,-1,-1,-1,-1,-1,-1,-1],"split_conditions":[1.8555E1,8.605E0,3.0615002E1,5.565E0,1.1629999E1,2.234E1,3.904E1,3.705E0,6.9849997E0,9.865E0,1.5205E1,2.55E1,4.592712E-1,6.0420245E-1,8.647968E-1,2.5749998E0,4.685E0,6.1949997E0,6.835E0,8.389999E0,1.158E1,2.3121826E-1,1.8945E1,2.5E0,2.2095001E1,2.5E0,3.205E0,1.5E0,8.0275744E-2,9.5E0,7.065E0,2.1E1,8.085E0,1.15E1,1.5381399E-1,1.7707312E-1,2.040682E-2,2.8867248E-1,8.574372E-2,2.5E0,2.2045E1,1.8775E1,4.1455653E-2,2.3049998E0,2.5716667E0,2.5E0,3.5E0,1.05E1,4.786667E0,2.95E1,5.35E0,7.105E0,2.6E1,7.073515E-2,-5.110903E-2,8.395E0,8.531667E0,-6.97413E-2,1.254723E-1,3.4471896E-2,2.465816E-1,1.05E1,2.05E1,6.957121E-2,2.6042745E-1,1.545E0,-3.1648637E-3,1.75E1,1E1,3.1033332E0,2.895E0,2.75E1,3.6550002E0,4.11E0,2.6535273E-3,4.3533335E0,1.8373705E-2,6.4816666E0,5.99E0,-4.251802E-2,5.67E0,1.0763322E-1,2.55E1,3.5731077E-2,7.4146274E-3,7.925E0,1.75E1,1.4175813E-1,8.505E0,4.1160202E-1,2.0552592E-1,6.043892E-2,1.9024374E-1,1.525E0,2.15E1,1.5E0,5E-1,5E-1,1.85E1,7.232438E-2,1.5E0,1.15E1,2.65E1,3.395E0,2.85E1,5E-1,1.9702174E-2,1.2397135E-2,7.5E0,4.37E0,2.0185E3,4.895E0,2.582288E-2,7.285845E-2,1.5516425E-2,5.63E0,6.295E0,9.128657E-2,-3.832641E-2,7.865E0,7.955E0,5.806098E-2,-7.857199E-2,1.4496804E-2,2.5E0,3.5E0,8E0,1.89E0,1.655E0,1.7423106E-2,2.4733334E0,2.335E0,2.27E0,1.9425988E-3,2.0281918E-2,-1.1317873E-2,2.805698E-3,3.15E0,3.115E0,5E-1,1.2884206E-2,1.5E0,2.5E0,4.6537362E-2,1.25E1,-1.0104204E-2,5.0090076E-3,3.525E0,3.2150002E0,6.5E0,5.7185557E-2,6.300065E-2,1.8E1,1.05E1,2.2E1,2.7268268E-2,5.583333E0,7.4937694E-2,-1.2399745E-2,9.5E0,8.5E0,1.21634305E-1,1.5999275E-1,7.715E0,2.0205E3,1.1194608E-1,7E0,1.7588502E-2,1.7E1,6.3357535E-3,1.85E1,1.605E0,1.5E0,1.665E0,1.199441E-2,5.892294E-2,3.7187852E-2,1.4579273E-2,-8.410001E-3,4.1629817E-2,2.076998E-2,1.1E1,1.2613631E-2,2.1625668E-2,7.195174E-2,4.5E0,3.05E1,1.1840344E-3,8.5E0,6.39292E-2,2.85E1,3.5E0,3.496492E-2,2.35E1,9E0,1.5138245E-2,6.208881E-2,3.0405618E-2,4.409695E-3,3.2839585E-2,3.8395883E-3,6.935059E-2,4.55E0,3.0629683E-2,1.3651577E-1,5.835E0,5.615E0,5.995E0,2.95E1,8.014441E-3,3.927144E-2,2.7E1,8.09E0,2.0185E3,2.5E0,7.3582746E-2,1.9388106E-2,7.1794335E-3,3.3575893E-4,-3.320557E-3,7.201731E-4,1.6918827E-2,2.9651439E-3,1.2716969E-2,3.3477284E-2,3.8583666E-2,1.0495806E-2,1.6000272E-4,-6.1372165E-3,-1.13292225E-2,3.688215E-2,4.6474047E-2,1.751373E-2,3.945633E-2,2.4193909E-2,1.0301471E-3,1.66047E-2,3.3958198E-3,-9.494757E-3,5.886267E-2,1.21253375E-2,3.2918216E-3,-1.7201186E-3,3.7845075E-2,2.3677112E-3,1.2786846E-1,2.6646497E-2,1.2733484E-2,9.7538196E-2,7.6923065E-2,-1.2892533E-2,9.858266E-2,5.3125452E-2,2.2957565E-3,3.229573E-2,8.380452E-2,3.8693655E-2,1.0587672E-1,1.4753231E-1,5.629578E-2,1.2795783E-2],"split_indices":[7,7,6,6,6,8,6,7,8,7,8,0,0,0,0,6,7,6,7,6,6,0,6,0,7,1,7,0,0,1,7,0,6,0,0,0,0,0,0,1,7,7,0,7,8,1,1,1,8,0,7,6,0,0,0,7,8,0,0,0,0,1,0,0,0,7,0,0,0,8,7,0,7,6,0,8,0,8,7,0,6,0,0,0,0,6,0,0,6,0,0,0,0,7,0,0,3,3,0,0,3,1,0,7,0,3,0,0,1,7,5,7,0,0,0,6,7,0,0,6,6,0,0,0,3,3,0,8,6,0,8,7,7,0,0,0,0,7,6,3,0,0,3,0,0,0,0,7,7,1,0,0,0,1,0,0,8,0,0,0,0,0,0,7,5,0,1,0,0,0,0,7,3,7,0,0,0,0,0,0,0,0,0,0,0,0,0,0,0,0,0,0,0,0,0,0,0,0,0,0,0,0,7,0,0,6,6,6,0,0,0,0,7,5,0,0,0,0,0,0,0,0,0,0,0,0,0,0,0,0,0,0,0,0,0,0,0,0,0,0,0,0,0,0,0,0,0,0,0,0,0,0,0,0,0,0,0,0,0,0,0],"split_type":[0,0,0,0,0,0,0,0,0,0,0,0,0,0,0,0,0,0,0,0,0,0,0,0,0,0,0,0,0,0,0,0,0,0,0,0,0,0,0,0,0,0,0,0,0,0,0,0,0,0,0,0,0,0,0,0,0,0,0,0,0,0,0,0,0,0,0,0,0,0,0,0,0,0,0,0,0,0,0,0,0,0,0,0,0,0,0,0,0,0,0,0,0,0,0,0,0,0,0,0,0,0,0,0,0,0,0,0,0,0,0,0,0,0,0,0,0,0,0,0,0,0,0,0,0,0,0,0,0,0,0,0,0,0,0,0,0,0,0,0,0,0,0,0,0,0,0,0,0,0,0,0,0,0,0,0,0,0,0,0,0,0,0,0,0,0,0,0,0,0,0,0,0,0,0,0,0,0,0,0,0,0,0,0,0,0,0,0,0,0,0,0,0,0,0,0,0,0,0,0,0,0,0,0,0,0,0,0,0,0,0,0,0,0,0,0,0,0,0,0,0,0,0,0,0,0,0,0,0,0,0,0,0,0,0,0,0,0,0,0,0,0,0,0,0,0,0,0,0,0,0,0,0,0,0,0,0,0,0,0,0],"sum_hessian":[3.597E3,3.223E3,3.74E2,2.302E3,9.21E2,2.04E2,1.7E2,9.66E2,1.336E3,6.57E2,2.64E2,1.04E2,1E2,1.47E2,2.3E1,3.21E2,6.45E2,6.92E2,6.44E2,3.08E2,3.49E2,1.08E2,1.56E2,8.5E1,1.9E1,7.8E1,2.43E2,2.53E2,3.92E2,3.39E2,3.53E2,2E0,6.42E2,4E0,3.04E2,3.48E2,1E0,1.54E2,2E0,9E0,7.6E1,1.8E1,1E0,3.8E1,4E1,1.56E2,8.7E1,8E0,2.45E2,2.4E2,9.9E1,3.5E2,3E0,1E0,1E0,4.81E2,1.61E2,1E0,3E0,1E0,8E0,7.2E1,4E0,1E0,1.7E1,3.7E1,1E0,3.3E1,7E0,2E1,1.36E2,2.2E1,6.5E1,7E0,1E0,2.44E2,1E0,2.31E2,9E0,1E0,9.8E1,3.45E2,5E0,2E0,1E0,4.78E2,3E0,1.42E2,1.9E1,6.6E1,6E0,2E0,2E0,1.2E1,2.5E1,2E1,1.3E1,4E0,3E0,9E0,1.1E1,8.2E1,5.4E1,2E1,2E0,6.3E1,2E0,1E0,6E0,1.03E2,1.41E2,2.3E2,1E0,7E0,2E0,9E0,8.9E1,4E0,1E0,4.08E2,7E1,2E0,1E0,2E0,1.7E1,9E0,3E0,1.9E1,6E0,2E0,1.8E1,3E0,1E1,1E0,3E0,2E0,1E0,4E0,7E0,7.9E1,3E0,4.5E1,9E0,1.4E1,6E0,1E0,1E0,1.3E1,5E1,3E0,3E0,9.9E1,4E0,1.38E2,3E0,1E0,2.29E2,6E0,3E0,8.5E1,4E0,3.86E2,2.2E1,2E1,5E1,1E1,7E0,7E0,2E0,1E0,2E0,1.1E1,8E0,4E0,2E0,8E0,1E1,1E0,2E0,2E0,8E0,2E0,2E0,3E0,4E0,1.6E1,6.3E1,1E0,4.4E1,7E0,2E0,3E0,3E0,1.1E1,2E0,1E0,4.9E1,2E0,1E0,2E0,2E0,1.34E2,4E0,1E0,2E0,1.8E1,2.11E2,2.7E1,5.8E1,1E0,3E0,2E0,1.8E1,4.8E1,2E0,5E0,2E0,1E0,1E0,1E0,1E0,5E0,6E0,4E0,4E0,3E0,1E0,1E0,1E0,1E0,1.5E1,6.1E1,2E0,1E1,3.4E1,1E0,1E0,1E0,2E0,8E0,3E0,1E0,1E0,3E0,1E0,1.7E1,1E0,1E0,2.1E2,2.5E1,2E0,5.4E1,4E0,1E0,1E0,1.5E1,3E0,3.9E1,9E0,1E0,1E0],"tree_param":{"num_deleted":"0","num_feature":"9","num_nodes":"261","size_leaf_vector":"0"}},{"base_weights":[3.8120234E-1,2.9069892E-1,1.2765794E0,2.4188395E-1,5.663937E-1,1.0774653E0,1.6650124E0,1.7171364E-1,3.1018668E-1,4.7835532E-1,6.8790674E-1,9.44731E-1,1.2004926E0,1.555547E0,2.304522E0,1.12808056E-1,2.0069115E-1,2.7426136E-1,3.5875323E-1,4.350674E-1,5.3703225E-1,4.6599331E-1,7.0180565E-1,9.568126E-1,3.8234472E-1,1.2235996E0,2.7648258E-1,1.5622739E0,4.5488358E-1,2.5793061E0,1.2940499E0,9.055061E-2,1.3950957E-1,1.7589396E-1,2.1738519E-1,2.6142853E-1,3.0227852E-1,3.6097625E-1,1.5051645E-1,4.4179752E-1,2.142755E-1,5.414768E-1,8.512497E-3,6.6067815E-1,1.4911379E-1,5.518885E-1,7.275638E-1,1.1395568E0,8.753045E-1,4.3240103E-1,1.1608791E-1,9.28044E-1,1.3059946E0,-2.6727486E-1,5.4682666E-1,1.8128204E-1,1.5269213E0,6.687643E-2,1.0205813E-1,7.5521946E-2,1.4489397E-1,1.7794539E-1,-2.9566908E-1,2.1842454E-1,-1.7401528E-1,2.6319832E-1,5.267954E-2,6.578827E-2,3.0587107E-1,3.3491212E-1,3.8103765E-1,-3.871881E-1,3.9428267E-1,4.190277E-1,4.9850377E-1,1.6687632E-2,3.582945E-1,4.8190093E-1,5.8826935E-1,7.147659E-1,1.1398792E-1,-1.0234896E-1,2.701687E-1,6.082178E-1,2.6382446E-1,7.402339E-1,4.3414646E-1,1.225199E0,5.927884E-1,3.6294842E-1,9.528482E-1,1.0536149E0,4.981115E-1,1.3166212E0,2.2262001E-1,4.7081072E-2,8.187946E-2,1.4137255E-1,9.4796985E-2,8.6766735E-2,-9.624243E-3,1.8707825E-1,1.3436577E-1,1.788346E-1,-7.686448E-2,2.1199778E-1,2.595944E-1,2.481964E-1,2.8720537E-1,-3.8226604E-2,7.850609E-2,-4.6515226E-2,1.0549295E-1,3.43355E-1,2.8026283E-1,3.372091E-1,2.2672653E-2,4.6719384E-1,3.693658E-1,-5.798948E-1,-8.8739395E-4,4.4645107E-1,3.0397147E-1,-5.0322056E-2,5.5798214E-2,2.8034592E-1,4.9588993E-1,6.8449503E-1,4.58486E-1,-1.6909313E-1,1.5569687E-2,3.561217E-1,9.415945E-2,3.2549414E-1,6.6003317E-1,2.9531813E-1,3.743124E-2,7.590335E-1,5.791452E-1,7.487502E-1,1.8724315E-1,8.5710905E-2,4.908533E-1,2.4636841E-1,1.0831347E0,5.392753E-1,1.04982376E-1,1.3874425E0,1.0312443E0,4.8792E-2,-8.967161E-3,4.7061265E-2,1.0382534E-1,1.9395314E-1,1.1307052E-1,9.695422E-2,1.5435124E-2,1.5877247E-2,1.0907346E-1,-2.8628588E-2,1.4192224E-2,2.1712196E-1,1.11401E-1,1.363939E-1,2.421236E-2,1.6492471E-1,1.9555558E-1,2.178213E-1,1.8460108E-1,2.667552E-1,1.3139248E-2,2.5238273E-1,1.9074093E-1,3.5150036E-1,2.727052E-1,-2.452135E-3,9.935868E-2,1.2345934E-1,2.579689E-2,2.5496852E-1,4.030003E-1,2.7319628E-1,5.378127E-1,3.3850822E-1,1.6878915E-1,-1.3616896E-1,1.7017794E-1,1.4378929E-1,4.930196E-1,2.8073093E-1,3.861525E-1,3.3802375E-1,-8.1121445E-2,6.9019794E-2,1.4677525E-2,7.300112E-1,4.1114765E-1,2.2091827E-1,5.5434555E-1,-1.8521452E-1,4.6467876E-1,7.415374E-1,3.326831E-1,1.3859701E-1,7.6271164E-1,3.3342636E-1,7.1517223E-1,2.724565E-1,-1.2960498E-1,1.5272522E-1,5.782461E-1,3.1512342E-2,5.5555217E-2,6.1648425E-2,1.7474473E-2,1.3646697E-1,7.081492E-2,4.172737E-2,1.452648E-1,9.775497E-2,-7.175207E-3,-8.84819E-3,3.4573395E-2,6.805062E-2,-1.4178753E-2,-6.9493055E-3,1.20252736E-1,2.3302685E-1,7.9340816E-2,2.4350833E-2,1.5188223E-1,1.9791654E-1,1.320288E-1,1.6842487E-1,3.9359365E-2,2.1278057E-1,1.7826149E-1,2.3145168E-1,1.980795E-1,1.0329698E-1,1.9578509E-1,2.707652E-1,1.0478497E-3,2.727368E-1,-2.5302792E-1,2.6203495E-1,2.1347769E-1,2.1979108E-1,4.7591846E-2,3.560737E-1,9.800291E-2,3.517334E-1,2.5964466E-1,2.6833716E-1,1.0504703E-1,4.2401242E-1,1.0807657E-1,2.7826017E-1,-6.599919E-2,2.0336819E-1,3.2526016E-2,-2.7473927E-2,2.1003501E-1,5.058572E-1,4.752636E-2,3.0771828E-1,1.4200974E-1,4.0959978E-1,3.305889E-1,-5.2153587E-2,3.5645422E-1,-3.1570196E-1,1.940198E-1,5.0075214E-2,2.5736964E-1,5.888001E-1,2.693274E-1,3.922472E-1,1.743126E-2,3.7226257E-1,7.7207804E-1,4.7076115E-1,-9.8163605E-2,8.1797874E-1,1.3409297E-1,3.5706412E-2,-9.408236E-3,4.45153E-2,7.916137E-2,9.075958E-2,2.3730347E-2,-3.0559897E-2,2.8702226E-2,3.7845492E-2,1.4153163E-1,3.3399343E-2,8.05035E-2,-1.1290312E-2,6.5192506E-2,1.3063073E-2,1.560956E-1,1.0699502E-1,8.490991E-2,8.363843E-3,4.349625E-2,9.621501E-3,-2.5319338E-2,3.226471E-2,1.2582508E-1,1.1095424E-1,2.552231E-1,2.3893595E-2,8.985869E-2,4.5481365E-2,-4.896641E-3,1.7067133E-1,1.0179281E-2,4.289174E-2,2.1393554E-1,1.7682135E-2,1.3433631E-1,1.7521885E-1,1.0734108E-1,-2.190299E-1,1.1892923E-1,1.996401E-1,2.898819E-1,5.149396E-2,1.8527767E-1,2.2001325E-1,2.6090372E-1,-1.2046766E-1,2.0075642E-1,1.687141E-1,-3.5113238E-2,9.341431E-2,2.000563E-1,2.7712312E-1,1.3777351E-1,2.4647436E-1,3.2598582E-1,2.3799637E-1,7.5137615E-2,-1.0859156E-1,1.0054684E-1,2.5555465E-1,4.415924E-1,2.3189782E-1,2.904647E-1,3.382277E-1,2.3379278E-1,3.9391518E-3,1.7113924E-1,3.710744E-1,5.6513804E-1,-6.745219E-2,1.6882181E-1,2.2200128E-1,2.9864943E-1,1.2362194E-1,-2.2262073E-1,5.352428E-1,2.9421043E-1,3.200073E-1,1.14043E-1,1.5846705E-1,5.0786972E-2,3.8333917E-1,4.644804E-1,3.632734E-1,1.417364E-1,1.9193485E-1,4.0063095E-1,5.7819366E-2,3.2055697E-1,5.340431E-1,-1.3742971E-1,9.049194E-1,7.197551E-1,-2.4092674E-2,-1.2315273E-1,1.9152856E-2,4.158908E-2,2.5431564E-2,6.501414E-2,9.163485E-2,3.1985123E-2,-2.739656E-2,3.681759E-2,7.6133013E-3,4.2615592E-2,2.2562742E-3,4.0621042E-2,9.237586E-2,3.3664823E-2,4.5335293E-4,-1.738882E-2,1.628463E-1,4.4294238E-2,1.12837955E-1,5.6563545E-2,1.118143E-1,7.166339E-2,1.3149369E-1,1.4398217E-2,-1.1801481E-2,4.45652E-3,6.9489E-2,-2.274982E-2,6.581414E-2,1.35349E-1,1.675027E-1,3.2210726E-1,5.1461272E-2,1.337129E-1,1.5549596E-1,6.177187E-2,2.0457388E-1,9.5572755E-2,3.5003442E-1,-9.566903E-2,-3.0169806E-2,9.98683E-2,1.9263828E-1,1.12281464E-1,2.0158774E-1,2.451555E-1,3.0578378E-1,2.0349994E-1,1.8602052E-1,2.4472226E-1,2.2307158E-2,1.8422657E-1,3.88066E-2,-9.732866E-2,-7.445717E-2,1.5399647E-1,1.8312319E-1,2.3661952E-1,2.5755566E-1,3.7700915E-1,2.9435635E-2,1.5749907E-1,2.5047326E-1,3.2424163E-2,1.9820164E-1,2.6754642E-1,-3.9203357E-2,1.3720852E-1,3.6251385E-2,1.3132668E-1,2.4116713E-1,9.283454E-2,3.3274937E-2,2.6582596E-1,4.544258E-4,5.454302E-3,4.0227768E-1,2.1889898E-1,6.431489E-1,1.16722584E-1,1.9673061E-1,4.2547703E-2,2.419735E-1,1.6858825E-1,3.403493E-1,2.4404654E-1,1.4359379E-1,1.26953125E-2,4.2695522E-2,1.6890648E-1,6.3090324E-2,1.3090134E-2,3.968929E-1,2.15417E-1,4.7497168E-1,1.4529037E-1,4.3165606E-1,3.2328877E-1,-7.8318596E-2,2.4824068E-1,3.1794286E-1,1.7943144E-2,2.3346676E-1,7.7358556E-1],"categories":[],"categories_nodes":[],"categories_segments":[],"categories_sizes":[],"default_left":[1,1,1,1,1,1,1,1,1,1,1,1,1,1,1,1,1,1,1,1,1,1,1,1,1,1,1,0,0,0,1,1,1,1,1,1,1,1,1,1,1,1,0,1,1,1,1,1,1,0,0,1,1,0,0,0,0,1,1,1,1,1,0,1,0,1,1,1,1,1,1,1,0,1,0,1,0,1,1,0,0,1,1,1,1,1,0,0,1,1,0,1,1,1,0,1,1,1,1,1,1,1,1,1,0,1,1,1,1,0,1,0,1,1,1,1,1,1,1,0,0,0,1,0,1,0,0,1,1,0,0,0,0,1,1,0,0,1,1,0,0,1,0,0,0,1,0,0,0,1,0,1,1,0,1,1,1,1,1,0,0,1,1,1,0,1,1,1,1,1,1,1,1,1,1,0,0,0,0,1,1,1,0,0,1,0,0,1,1,1,1,1,1,0,0,0,0,1,1,0,0,0,1,0,1,1,1,0,0,0,0,1,1,1,1,1,1,1,1,1,0,0,1,0,1,0,1,1,1,1,1,1,1,1,1,1,1,1,1,1,1,1,0,0,0,1,1,0,1,0,0,1,1,1,1,1,1,1,1,0,0,0,0,1,0,1,1,1,1,0,1,0,0,0,0,0,1,0,0,1,1,0,1,0,0,1,0,1,1,0,1,0,1,0,0,1,1,1,0,0,1,1,1,0,0,0,0,0,0,1,0,0,0,0,1,0,0,0,0,1,1,1,1,0,1,1,1,1,1,1,1,0,1,1,1,1,1,1,1,1,0,1,1,0,1,0,0,1,0,0,1,1,0,1,1,0,1,1,1,0,0,0,0,0,1,1,1,1,1,1,1,1,0,0,0,0,0,0,1,0,0,0,0,0,0,0,0,0,0,0,0,0,0,0,0,0,0,0,0,0,0,0,0,0,0,0,0,0,0,0,0,0,0,0,0,0,0,0,0,0,0,0,0,0,0,0,0,0,0,0,0,0,0,0,0,0,0,0,0,0,0,0,0,0,0,0,0,0,0,0,0,0,0,0,0,0,0,0,0,0,0,0,0,0,0,0,0,0,0,0,0,0,0,0,0,0,0,0,0,0,0,0,0,0,0],"id":9,"left_children":[1,3,5,7,9,11,13,15,17,19,21,23,25,27,29,31,33,35,37,39,41,43,45,47,49,51,53,-1,-1,-1,55,57,59,61,63,65,67,69,71,73,75,77,-1,79,81,83,85,87,89,-1,-1,91,93,-1,-1,-1,-1,95,97,99,101,103,-1,105,-1,107,109,111,113,115,117,119,-1,121,-1,123,-1,125,127,-1,-1,129,131,133,135,137,-1,-1,139,141,-1,143,145,147,-1,149,151,153,155,157,159,161,163,165,-1,167,169,171,173,-1,175,-1,177,179,181,183,185,187,189,-1,-1,-1,191,-1,193,-1,-1,195,197,-1,-1,-1,-1,199,201,-1,-1,203,205,-1,-1,207,-1,-1,-1,209,-1,-1,-1,211,-1,213,215,-1,217,219,221,223,225,-1,-1,227,229,231,-1,233,235,237,239,241,243,245,247,249,251,-1,-1,-1,-1,253,255,257,-1,-1,259,-1,-1,261,263,265,267,269,271,-1,-1,-1,-1,273,275,-1,-1,-1,277,-1,279,281,283,-1,-1,-1,-1,285,287,289,291,293,295,297,299,301,-1,-1,303,-1,305,-1,307,309,311,313,315,317,319,321,323,325,327,329,331,333,335,337,-1,-1,-1,339,341,-1,343,-1,-1,345,347,349,351,353,355,357,359,-1,-1,-1,-1,361,-1,363,365,367,369,-1,371,-1,-1,-1,-1,-1,373,-1,-1,375,377,-1,379,-1,-1,381,-1,383,385,-1,387,-1,389,-1,-1,391,393,395,-1,-1,397,399,401,-1,-1,-1,-1,-1,-1,403,-1,-1,-1,-1,405,-1,-1,-1,-1,407,409,411,413,-1,415,417,419,421,423,425,427,-1,429,431,433,435,437,439,441,443,-1,445,447,-1,449,-1,-1,451,-1,-1,453,455,-1,457,459,-1,461,463,465,-1,-1,-1,-1,-1,467,469,471,473,475,477,479,481,-1,-1,-1,-1,-1,-1,483,-1,-1,-1,-1,-1,-1,-1,-1,-1,-1,-1,-1,-1,-1,-1,-1,-1,-1,-1,-1,-1,-1,-1,-1,-1,-1,-1,-1,-1,-1,-1,-1,-1,-1,-1,-1,-1,-1,-1,-1,-1,-1,-1,-1,-1,-1,-1,-1,-1,-1,-1,-1,-1,-1,-1,-1,-1,-1,-1,-1,-1,-1,-1,-1,-1,-1,-1,-1,-1,-1,-1,-1,-1,-1,-1,-1,-1,-1,-1,-1,-1,-1,-1,-1,-1,-1,-1,-1,-1,-1,-1,-1,-1,-1,-1,-1,-1,-1,-1,-1,-1,-1,-1,-1,-1,-1],"loss_changes":[2.911916E2,4.385733E1,2.3729065E1,1.3265976E1,4.9235687E0,2.474762E0,4.115692E0,2.3209877E0,2.356491E0,4.9787903E-1,3.021698E-1,3.8835144E-1,2.031662E0,7.522583E-3,5.495148E-1,2.577772E-1,3.4219742E-1,2.1327591E-1,2.2110748E-1,1.5943146E-1,2.7257156E-1,8.2685804E-1,3.321762E-1,6.112213E-1,3.1148195E-3,1.4180298E0,7.3415947E-1,0E0,0E0,0E0,1.018856E0,6.155491E-2,5.96869E-2,4.1537857E-1,2.5971985E-1,1.9486618E-1,1.9142914E-1,1.7984009E-1,1.2012552E0,4.1618347E-3,1.932157E-1,4.267502E-2,0E0,1.8464899E-1,2.4073708E-1,3.5878277E-1,2.697296E-1,6.7850876E-1,2.7928352E0,0E0,0E0,9.328308E-1,6.509247E-1,0E0,0E0,0E0,0E0,2.1389216E-2,3.427148E-2,1.8069178E-2,5.835867E-2,9.848595E-2,0E0,8.890343E-2,0E0,1.3040161E-1,1.7087772E-2,2.7201904E-2,1.3894653E-1,1.8169975E-1,1.5425873E-1,2.2281358E-1,0E0,2.5554085E-1,0E0,1.3291032E-2,0E0,2.1694183E-2,4.4796753E-1,0E0,0E0,2.6243877E-2,4.2110413E-2,1.6604805E-1,3.8855523E-2,1.7700195E-2,0E0,0E0,2.3929906E-1,3.8344896E-1,0E0,2.097454E-1,7.284725E-2,2.0626831E-1,0E0,4.177414E-3,3.1027317E-2,1.3784915E-2,2.3156524E-2,2.3569211E-2,1.7641523E-3,5.5389285E-2,3.1101704E-2,5.4502487E-2,0E0,3.573227E-2,1.1826658E-1,3.6525726E-2,9.89933E-2,0E0,8.684583E-3,0E0,2.5425367E-3,3.980713E-1,1.2788868E-1,1.8692017E-4,9.346288E-2,2.2143555E-1,3.245697E-1,0E0,0E0,0E0,3.8147998E-1,0E0,6.180024E-4,0E0,0E0,1.10435486E-1,5.3795576E-1,0E0,0E0,0E0,0E0,5.125621E-1,3.1359196E-1,0E0,0E0,1.9552612E-1,4.3003035E-1,0E0,0E0,2.3635818E-1,0E0,0E0,0E0,1.7136335E-2,0E0,0E0,0E0,2.6902407E-3,0E0,7.554475E-3,2.0506471E-2,0E0,3.528166E-2,1.2374878E-2,2.6296154E-3,8.805487E-3,1.6400278E-2,0E0,0E0,3.4104943E-2,3.8588315E-2,1.4420748E-2,0E0,8.566618E-2,1.0923386E-2,5.829239E-2,6.161356E-2,7.110405E-2,2.7629906E-1,6.6106796E-2,1.0597777E-1,5.680084E-3,8.9300156E-2,0E0,0E0,0E0,0E0,5.3986073E-2,2.9500866E-1,2.742939E-1,0E0,0E0,1.2232646E-2,0E0,0E0,5.1152304E-2,1.5896893E-1,1.4348674E-1,1.7987442E-1,1.9836903E-1,2.5488076E-1,0E0,0E0,0E0,0E0,4.93868E-2,3.7823677E-2,0E0,0E0,0E0,1.0582882E-1,0E0,1.9165802E-1,5.796623E-1,6.071801E-1,0E0,0E0,0E0,0E0,2.5670417E-3,3.2519624E-3,1.2196153E-2,5.191681E-3,1.1369735E-3,3.1112954E-3,9.444515E-3,1.5143096E-2,7.4129105E-3,0E0,0E0,3.3779652E-4,0E0,1.304205E-3,0E0,1.3335794E-3,2.8582454E-2,1.8570013E-4,3.3127787E-3,1.9562453E-2,1.0690689E-2,3.5619974E-2,6.585169E-2,1.6996905E-1,2.0140648E-2,6.8728685E-2,1.772213E-2,1.6488457E-1,1.2363127E-1,1.5416861E-2,1.7626762E-2,0E0,0E0,0E0,1.7440224E-1,2.195518E-1,0E0,6.054268E-2,0E0,0E0,7.728481E-2,6.433582E-2,1.025486E-2,3.273807E-2,1.7130756E-1,6.470008E-2,1.0231972E-1,1.1661707E-1,0E0,0E0,0E0,0E0,3.5326004E-2,0E0,6.10888E-2,6.964773E-3,6.118393E-2,4.237976E-1,0E0,9.7534895E-2,0E0,0E0,0E0,0E0,0E0,2.4807453E-2,0E0,0E0,4.856847E-1,2.3142242E-1,0E0,2.5858227E-3,0E0,0E0,3.719991E-4,0E0,6.1704777E-3,1.1882111E-3,0E0,5.692447E-3,0E0,1.7294805E-3,0E0,0E0,1.0328772E-3,3.5632104E-3,2.2273979E-4,0E0,0E0,1.0889769E-3,1.6306877E-2,1.4439583E-2,0E0,0E0,0E0,0E0,0E0,0E0,8.022767E-3,0E0,0E0,0E0,0E0,2.4633977E-4,0E0,0E0,0E0,0E0,9.959474E-3,8.766651E-4,1.5232754E-1,2.7012974E-2,0E0,2.9350743E-3,1.5876055E-2,2.4221408E-1,2.6715592E-2,2.2965908E-2,2.7944565E-2,8.462119E-2,0E0,6.0728073E-2,1.633063E-2,2.6771763E-2,6.231622E-2,2.4850368E-3,2.4079323E-2,6.0490444E-3,1.7163181E-1,0E0,1.6352177E-2,9.054601E-2,0E0,5.13424E-3,0E0,0E0,8.846712E-2,0E0,0E0,1.7100501E-1,1.336107E-5,0E0,1.01876736E-1,3.4470534E-1,0E0,5.7262033E-3,5.077362E-3,1.5601635E-1,0E0,0E0,0E0,0E0,0E0,1.0156646E-2,2.4571717E-3,5.6553166E-4,1.8306732E-1,9.5077515E-2,3.817749E-2,3.241203E-1,1.4776555E-1,0E0,0E0,0E0,0E0,0E0,0E0,2.3323975E0,0E0,0E0,0E0,0E0,0E0,0E0,0E0,0E0,0E0,0E0,0E0,0E0,0E0,0E0,0E0,0E0,0E0,0E0,0E0,0E0,0E0,0E0,0E0,0E0,0E0,0E0,0E0,0E0,0E0,0E0,0E0,0E0,0E0,0E0,0E0,0E0,0E0,0E0,0E0,0E0,0E0,0E0,0E0,0E0,0E0,0E0,0E0,0E0,0E0,0E0,0E0,0E0,0E0,0E0,0E0,0E0,0E0,0E0,0E0,0E0,0E0,0E0,0E0,0E0,0E0,0E0,0E0,0E0,0E0,0E0,0E0,0E0,0E0,0E0,0E0,0E0,0E0,0E0,0E0,0E0,0E0,0E0,0E0,0E0,0E0,0E0,0E0,0E0,0E0,0E0,0E0,0E0,0E0,0E0,0E0,0E0,0E0,0E0,0E0,0E0,0E0,0E0,0E0,0E0,0E0,0E0],"parents":[2147483647,0,0,1,1,2,2,3,3,4,4,5,5,6,6,7,7,8,8,9,9,10,10,11,11,12,12,13,13,14,14,15,15,16,16,17,17,18,18,19,19,20,20,21,21,22,22,23,23,24,24,25,25,26,26,30,30,31,31,32,32,33,33,34,34,35,35,36,36,37,37,38,38,39,39,40,40,41,41,43,43,44,44,45,45,46,46,47,47,48,48,51,51,52,52,57,57,58,58,59,59,60,60,61,61,63,63,65,65,66,66,67,67,68,68,69,69,70,70,71,71,73,73,75,75,77,77,78,78,81,81,82,82,83,83,84,84,85,85,88,88,89,89,91,91,92,92,93,93,95,95,96,96,97,97,98,98,99,99,100,100,101,101,102,102,103,103,105,105,106,106,107,107,108,108,110,110,112,112,113,113,114,114,115,115,116,116,117,117,118,118,122,122,124,124,127,127,128,128,133,133,134,134,137,137,138,138,141,141,145,145,149,149,151,151,152,152,154,154,155,155,156,156,157,157,158,158,161,161,162,162,163,163,165,165,166,166,167,167,168,168,169,169,170,170,171,171,172,172,173,173,174,174,179,179,180,180,181,181,184,184,187,187,188,188,189,189,190,190,191,191,192,192,197,197,198,198,202,202,204,204,205,205,206,206,211,211,212,212,213,213,214,214,215,215,216,216,217,217,218,218,219,219,222,222,224,224,226,226,227,227,228,228,229,229,230,230,231,231,232,232,233,233,234,234,235,235,236,236,237,237,238,238,239,239,240,240,241,241,245,245,246,246,248,248,251,251,252,252,253,253,254,254,255,255,256,256,257,257,258,258,263,263,265,265,266,266,267,267,268,268,270,270,276,276,279,279,280,280,282,282,285,285,287,287,288,288,290,290,292,292,295,295,296,296,297,297,300,300,301,301,302,302,309,309,314,314,319,319,320,320,321,321,322,322,324,324,325,325,326,326,327,327,328,328,329,329,330,330,332,332,333,333,334,334,335,335,336,336,337,337,338,338,339,339,341,341,342,342,344,344,347,347,350,350,351,351,353,353,354,354,356,356,357,357,358,358,364,364,365,365,366,366,367,367,368,368,369,369,370,370,371,371,378,378],"right_children":[2,4,6,8,10,12,14,16,18,20,22,24,26,28,30,32,34,36,38,40,42,44,46,48,50,52,54,-1,-1,-1,56,58,60,62,64,66,68,70,72,74,76,78,-1,80,82,84,86,88,90,-1,-1,92,94,-1,-1,-1,-1,96,98,100,102,104,-1,106,-1,108,110,112,114,116,118,120,-1,122,-1,124,-1,126,128,-1,-1,130,132,134,136,138,-1,-1,140,142,-1,144,146,148,-1,150,152,154,156,158,160,162,164,166,-1,168,170,172,174,-1,176,-1,178,180,182,184,186,188,190,-1,-1,-1,192,-1,194,-1,-1,196,198,-1,-1,-1,-1,200,202,-1,-1,204,206,-1,-1,208,-1,-1,-1,210,-1,-1,-1,212,-1,214,216,-1,218,220,222,224,226,-1,-1,228,230,232,-1,234,236,238,240,242,244,246,248,250,252,-1,-1,-1,-1,254,256,258,-1,-1,260,-1,-1,262,264,266,268,270,272,-1,-1,-1,-1,274,276,-1,-1,-1,278,-1,280,282,284,-1,-1,-1,-1,286,288,290,292,294,296,298,300,302,-1,-1,304,-1,306,-1,308,310,312,314,316,318,320,322,324,326,328,330,332,334,336,338,-1,-1,-1,340,342,-1,344,-1,-1,346,348,350,352,354,356,358,360,-1,-1,-1,-1,362,-1,364,366,368,370,-1,372,-1,-1,-1,-1,-1,374,-1,-1,376,378,-1,380,-1,-1,382,-1,384,386,-1,388,-1,390,-1,-1,392,394,396,-1,-1,398,400,402,-1,-1,-1,-1,-1,-1,404,-1,-1,-1,-1,406,-1,-1,-1,-1,408,410,412,414,-1,416,418,420,422,424,426,428,-1,430,432,434,436,438,440,442,444,-1,446,448,-1,450,-1,-1,452,-1,-1,454,456,-1,458,460,-1,462,464,466,-1,-1,-1,-1,-1,468,470,472,474,476,478,480,482,-1,-1,-1,-1,-1,-1,484,-1,-1,-1,-1,-1,-1,-1,-1,-1,-1,-1,-1,-1,-1,-1,-1,-1,-1,-1,-1,-1,-1,-1,-1,-1,-1,-1,-1,-1,-1,-1,-1,-1,-1,-1,-1,-1,-1,-1,-1,-1,-1,-1,-1,-1,-1,-1,-1,-1,-1,-1,-1,-1,-1,-1,-1,-1,-1,-1,-1,-1,-1,-1,-1,-1,-1,-1,-1,-1,-1,-1,-1,-1,-1,-1,-1,-1,-1,-1,-1,-1,-1,-1,-1,-1,-1,-1,-1,-1,-1,-1,-1,-1,-1,-1,-1,-1,-1,-1,-1,-1,-1,-1,-1,-1,-1],"split_conditions":[1.9781666E1,1.0535E1,2.0235E3,6.3450003E0,1.51466675E1,2.6150002E1,3.9845E1,4.4049997E0,8.255E0,1.1365E1,2.5E0,1.05E1,3.4278336E1,4.043E1,1.45E1,3.2516665E0,5.3216667E0,2.016E3,1.0665E1,1.1236666E1,1.5125E1,2.0225E3,1.5735001E1,2.1101665E1,3.5E0,8.5E0,2.5E1,4.6868217E-1,1.3646507E-1,7.7379185E-1,1.75E1,2.5949998E0,2.5E0,5.3183336E0,6.525E0,8.325001E0,6.2700005E0,9.27E0,1.0135E1,1.0985E1,1.132E1,3.5E0,2.5537491E-3,1.898E1,1.8355E1,1.5568333E1,1.9314999E1,2.5E1,2.1605E1,1.2972032E-1,3.4826376E-2,3.1685001E1,3.4480003E1,-8.018246E-2,1.64048E-1,5.4384615E-2,4.580764E-1,2.5E0,2.5E0,2.75E1,4.5E0,5.49E0,-8.870073E-2,2.0175E3,-5.2204587E-2,7.4049997E0,6.5E0,1.8E1,1.05E1,9.255E0,9.434999E0,2.45E1,1.1828481E-1,1.0883333E1,1.4955114E-1,8E0,1.0748835E-1,1.2754999E1,1.85E1,2.1442978E-1,3.4196377E-2,2E0,1.5E0,3.5E0,2.5E0,1.15E1,1.3024394E-1,3.675597E-1,1.9849998E1,1.25E1,2.8585446E-1,2.641E1,7.5E0,2.65E1,6.6786006E-2,2.3049998E0,1.5E0,2.995E0,3.27E0,7.5E0,2.85E1,4.2349997E0,4.515E0,4.9449997E0,-2.3059346E-2,1.05E1,6.4049997E0,2.85E1,7.525E0,-1.1467982E-2,5.5E0,-1.3954569E-2,6.5E0,7.213333E0,2.0205E3,9.235E0,1.7E1,9.105E0,9.62E0,-1.7396843E-1,-2.662182E-4,1.3393533E-1,2.55E1,-1.5096617E-2,2.2E1,8.410378E-2,1.4876698E-1,1.482E1,2.45E1,-5.072794E-2,4.6709063E-3,1.0683651E-1,2.8247835E-2,1.5E0,2.05E1,8.859544E-2,1.1229373E-2,1.5815001E1,1.45E1,2.2462507E-1,5.617295E-2,8.5E0,1.47256E-1,7.391053E-2,3.249404E-1,5E-1,3.1494714E-2,4.1623276E-1,3.093733E-1,1.545E0,-2.6901485E-3,2.56E0,2.4733334E0,5.8185946E-2,1.5E0,3.2483335E0,2.5E1,3.395E0,3.25E0,-8.588577E-3,4.2576673E-3,3.5E0,1.65E1,3.3049998E0,7.2637084E-3,5.0616665E0,5.1516666E0,1.95E1,4.5E0,6.338333E0,8E0,7.125E0,2.0135E3,7.7349997E0,3.5E0,-7.356406E-4,2.9807605E-2,3.7037805E-2,7.7390675E-3,7.225E0,8.190001E0,8.395E0,1.6134381E-1,1.0155247E-1,1E1,-4.0850688E-2,5.1053382E-2,1.95E1,9.6E0,2.55E1,1.0195E1,1.072E1,2.8E1,2.0705938E-2,4.4032577E-3,2.1900338E-1,1.233443E-1,1.225E1,3.5E0,-5.556436E-2,1.3940364E-1,2.2246122E-1,3.5E0,4.1579105E-2,1.598E1,1.25E1,1.802E1,8.173695E-2,-3.8881496E-2,4.581757E-2,1.7347383E-1,1.535E0,2.15E1,1.85E1,3.5E0,1.5E0,2.505E0,3.15E0,3.0149999E0,7.5E0,-2.1525621E-3,-2.6544572E-3,2.85E1,2.0415187E-2,3.5E0,-2.0847917E-3,3.2633333E0,5E-1,3.5E0,8.5E0,2.0175E3,3.3249998E0,3.3216667E0,4.895E0,4.965E0,5.2349997E0,5.135E0,6.05E0,5.285E0,5.9416666E0,5.2799997E0,6.33E0,3.143549E-4,8.182104E-2,-7.590838E-2,7.035E0,2.013E3,6.5937325E-2,5E-1,1.0682212E-1,2.9400874E-2,7.5E0,1.95E1,6.525E0,7.285E0,8.5E0,4.5E0,1.65E1,1.75E1,6.1010458E-2,9.757806E-3,-8.242179E-3,6.301051E-2,2.95E1,1.4257909E-2,9.605E0,9.674999E0,9.983334E0,3.5E0,-1.5646078E-2,8E0,-9.4710596E-2,5.820594E-2,1.5022565E-2,7.7210896E-2,1.7664003E-1,1.1745E1,1.17674164E-1,5.229378E-3,1.5955E1,1.6855E1,1.4122835E-1,1.35E1,2.4539363E-1,4.0227894E-2,1.5E0,-2.8224709E-3,1.89E0,1.655E0,2.7227877E-2,2.15E1,-9.167969E-3,2.68E0,1.1353648E-2,4.245949E-2,1.25E1,3.5E0,1.1E1,1.9557752E-2,3.918922E-3,2.85E1,3.21E0,9.5E0,2.509153E-3,1.3048876E-2,2.8864504E-3,-7.5958017E-3,9.679413E-3,3.7747525E-2,2.1E1,7.6566935E-2,7.168079E-3,2.6957607E-2,1.364441E-2,1.15E1,5.12014E-2,3.0537846E-3,1.2867522E-2,6.4180665E-2,3.1950002E0,3.335E0,4.8933334E0,3.5E0,-6.570897E-2,2.015E3,5.185E0,2.65E1,5.18E0,2.75E1,2.5E0,2.5E0,-3.61403E-2,9.5E0,5.505E0,1.5E0,1.3E1,5.9033337E0,2.55E1,1.6E1,7.1E0,9.779575E-2,7.255E0,7.215E0,-3.257747E-2,6.7833333E0,7.66664E-2,1.3247773E-1,1.85E1,8.713941E-2,1.0146831E-1,6.65E0,5.5E0,5.1341776E-2,8.055E0,3.5E0,-2.0235658E-2,8E0,1.45E1,7.3133335E0,3.7086584E-2,-6.678622E-2,1.6057284E-1,8.826313E-2,9.600219E-2,8E0,9.455E0,2.65E1,1.0045E1,2.85E1,9.5E0,1.0139999E1,3E0,1.2018929E-1,1.734581E-2,9.6167095E-2,1.6021293E-1,-4.1228916E-2,2.7147582E-1,1.714E1,-7.2278026E-3,-3.694582E-2,5.745857E-3,1.2476725E-2,7.6294695E-3,1.9504242E-2,2.7490456E-2,9.595538E-3,-8.218968E-3,1.1045278E-2,2.2839904E-3,1.27846785E-2,6.768823E-4,1.2186313E-2,2.7712759E-2,1.0099447E-2,1.3600588E-4,-5.2166465E-3,4.8853893E-2,1.3288272E-2,3.385139E-2,1.6969064E-2,3.354429E-2,2.1499017E-2,3.944811E-2,4.3194653E-3,-3.5404444E-3,1.336956E-3,2.0846702E-2,-6.8249465E-3,1.9744242E-2,4.0604703E-2,5.0250813E-2,9.663218E-2,1.54383825E-2,4.0113874E-2,4.664879E-2,1.853156E-2,6.137217E-2,2.8671827E-2,1.0501033E-1,-2.8700711E-2,-9.050942E-3,2.996049E-2,5.7791486E-2,3.368444E-2,6.047632E-2,7.3546655E-2,9.173514E-2,6.1049987E-2,5.580616E-2,7.341668E-2,6.6921473E-3,5.5267975E-2,1.164198E-2,-2.91986E-2,-2.2337152E-2,4.619894E-2,5.4936957E-2,7.098586E-2,7.72667E-2,1.1310275E-1,8.830691E-3,4.7249723E-2,7.514198E-2,9.727249E-3,5.9460495E-2,8.026393E-2,-1.1761008E-2,4.1162558E-2,1.0875416E-2,3.9398003E-2,7.2350144E-2,2.7850363E-2,9.982482E-3,7.974779E-2,1.3632776E-4,1.6362906E-3,1.20683305E-1,6.56697E-2,1.9294468E-1,3.5016775E-2,5.9019186E-2,1.2764311E-2,7.259206E-2,5.057648E-2,1.0210479E-1,7.3213965E-2,4.307814E-2,3.8085938E-3,1.2808657E-2,5.0671946E-2,1.8927097E-2,3.9270404E-3,1.1906788E-1,6.46251E-2,1.424915E-1,4.3587115E-2,1.2949683E-1,9.698664E-2,-2.349558E-2,7.4472204E-2,9.538286E-2,5.3829434E-3,7.004003E-2,2.3207568E-1],"split_indices":[8,6,5,8,8,7,6,6,6,6,0,1,8,7,0,8,8,5,7,8,8,5,8,8,0,0,0,0,0,0,0,6,1,8,7,7,7,6,6,6,8,1,0,6,7,8,7,0,6,0,0,7,6,0,0,0,0,1,1,0,1,6,0,5,0,6,0,0,0,6,6,0,0,8,0,0,0,6,0,0,0,1,0,1,3,1,0,0,6,0,0,7,0,0,0,7,3,7,6,0,0,6,7,6,0,1,7,0,6,0,1,0,1,8,5,6,0,7,6,0,0,0,0,0,0,0,0,7,0,0,0,0,0,3,0,0,0,7,0,0,0,0,0,0,0,3,0,0,0,7,0,8,8,0,3,8,0,7,7,0,0,3,0,7,0,8,8,0,0,8,0,6,5,7,0,0,0,0,0,6,6,7,0,0,0,0,0,0,7,0,7,7,0,0,0,0,0,6,3,0,0,0,3,0,6,0,6,0,0,0,0,7,0,0,1,0,7,7,7,1,0,0,0,0,0,0,8,3,1,0,5,6,8,7,7,6,7,6,7,8,6,6,0,0,0,6,5,0,3,0,0,1,0,6,6,1,1,0,0,0,0,0,0,0,0,6,7,8,3,0,0,0,0,0,0,0,6,0,0,6,6,0,0,0,0,3,0,8,6,0,0,0,7,0,0,0,3,0,0,0,0,6,0,0,0,0,0,0,0,0,0,0,0,0,0,0,0,0,0,6,7,8,1,0,5,6,0,6,0,3,3,0,1,6,0,0,8,0,0,8,0,6,6,0,8,0,0,0,0,0,6,0,0,8,3,0,0,0,8,0,0,0,0,0,1,6,0,6,0,0,6,0,0,0,0,0,0,0,6,0,0,0,0,0,0,0,0,0,0,0,0,0,0,0,0,0,0,0,0,0,0,0,0,0,0,0,0,0,0,0,0,0,0,0,0,0,0,0,0,0,0,0,0,0,0,0,0,0,0,0,0,0,0,0,0,0,0,0,0,0,0,0,0,0,0,0,0,0,0,0,0,0,0,0,0,0,0,0,0,0,0,0,0,0,0,0,0,0,0,0,0,0,0,0,0,0,0,0,0,0,0,0,0,0,0],"split_type":[0,0,0,0,0,0,0,0,0,0,0,0,0,0,0,0,0,0,0,0,0,0,0,0,0,0,0,0,0,0,0,0,0,0,0,0,0,0,0,0,0,0,0,0,0,0,0,0,0,0,0,0,0,0,0,0,0,0,0,0,0,0,0,0,0,0,0,0,0,0,0,0,0,0,0,0,0,0,0,0,0,0,0,0,0,0,0,0,0,0,0,0,0,0,0,0,0,0,0,0,0,0,0,0,0,0,0,0,0,0,0,0,0,0,0,0,0,0,0,0,0,0,0,0,0,0,0,0,0,0,0,0,0,0,0,0,0,0,0,0,0,0,0,0,0,0,0,0,0,0,0,0,0,0,0,0,0,0,0,0,0,0,0,0,0,0,0,0,0,0,0,0,0,0,0,0,0,0,0,0,0,0,0,0,0,0,0,0,0,0,0,0,0,0,0,0,0,0,0,0,0,0,0,0,0,0,0,0,0,0,0,0,0,0,0,0,0,0,0,0,0,0,0,0,0,0,0,0,0,0,0,0,0,0,0,0,0,0,0,0,0,0,0,0,0,0,0,0,0,0,0,0,0,0,0,0,0,0,0,0,0,0,0,0,0,0,0,0,0,0,0,0,0,0,0,0,0,0,0,0,0,0,0,0,0,0,0,0,0,0,0,0,0,0,0,0,0,0,0,0,0,0,0,0,0,0,0,0,0,0,0,0,0,0,0,0,0,0,0,0,0,0,0,0,0,0,0,0,0,0,0,0,0,0,0,0,0,0,0,0,0,0,0,0,0,0,0,0,0,0,0,0,0,0,0,0,0,0,0,0,0,0,0,0,0,0,0,0,0,0,0,0,0,0,0,0,0,0,0,0,0,0,0,0,0,0,0,0,0,0,0,0,0,0,0,0,0,0,0,0,0,0,0,0,0,0,0,0,0,0,0,0,0,0,0,0,0,0,0,0,0,0,0,0,0,0,0,0,0,0,0,0,0,0,0,0,0,0,0,0,0,0,0,0,0,0,0,0,0,0,0,0,0,0,0,0,0,0,0,0,0,0,0,0,0,0,0,0,0,0,0,0,0,0,0,0,0,0,0,0,0,0,0,0,0],"sum_hessian":[3.597E3,3.268E3,3.29E2,2.778E3,4.9E2,2.2E2,1.09E2,1.372E3,1.406E3,2.87E2,2.03E2,1.1E2,1.1E2,9.6E1,1.3E1,4.54E2,9.18E2,8.12E2,5.94E2,1.7E2,1.17E2,1.4E1,1.89E2,1.07E2,3E0,1.07E2,3E0,9.5E1,1E0,9E0,4E0,2.5E2,2.04E2,3.74E2,5.44E2,5.64E2,2.48E2,5.87E2,7E0,1.64E2,6E0,1.16E2,1E0,8E0,6E0,3.1E1,1.58E2,2.9E1,7.8E1,2E0,1E0,2.6E1,8.1E1,1E0,2E0,1E0,3E0,8.4E1,1.66E2,1.7E1,1.87E2,3.73E2,1E0,5.43E2,1E0,5.59E2,5E0,4E0,2.44E2,2.63E2,3.24E2,2E0,5E0,1.23E2,4.1E1,3E0,3E0,5.6E1,6E1,7E0,1E0,2E0,4E0,2.5E1,6E0,1.5E2,8E0,2.4E1,5E0,1.1E1,6.7E1,1.9E1,7E0,8E1,1E0,3.8E1,4.6E1,2.3E1,1.43E2,1.5E1,2E0,3.4E1,1.53E2,3.72E2,1E0,4.75E2,6.8E1,3.51E2,2.08E2,1E0,4E0,1E0,3E0,9.4E1,1.5E2,2.61E2,2E0,3.4E1,2.9E2,1E0,1E0,9.7E1,2.6E1,1E0,2E0,5E0,5.1E1,3.2E1,2.8E1,1E0,1E0,2E0,2E0,5E0,2E1,5E0,1E0,1.31E2,1.9E1,3E0,2E0,4E0,7E0,1E0,1.8E1,6E0,1E0,6.1E1,1.9E1,3.7E1,1E0,1.9E1,2.7E1,6E0,1.7E1,1.39E2,4E0,4E0,1.1E1,1E0,1E0,2.3E1,1.1E1,1.5E2,3E0,2.09E2,1.63E2,3.86E2,8.9E1,6.6E1,2E0,3.24E2,2.7E1,3.4E1,1.74E2,1E0,3E0,2E0,1E0,4E1,5.4E1,1.48E2,2E0,2.58E2,3E0,1E0,1E0,3E0,3.1E1,4.9E1,2.41E2,2.4E1,2E0,1E0,1E0,2.6E1,6E0,9E0,1.9E1,1E0,4E0,1.5E1,5E0,1E0,1.3E2,8E0,1.1E1,2E0,2E0,1E0,5E0,1.2E1,2.5E1,1.2E1,7E0,1.2E1,1.5E1,6E0,1.1E1,1.38E2,1E0,2E0,2E0,1E0,3E0,1E0,1E1,2E1,3E0,4E0,7E0,7E0,1.43E2,2.03E2,6E0,7.6E1,8.7E1,2.22E2,1.64E2,1.2E1,7.7E1,6.5E1,1E0,1E0,1E0,2.55E2,6.9E1,2.2E1,5E0,3.3E1,1E0,2.1E1,1.53E2,3.6E1,4E0,5E1,4E0,1.46E2,2E0,2E0,1E0,1E0,2E0,3E1,1E0,4E1,9E0,1.65E2,7.6E1,1E0,2.3E1,1E0,1E0,2E0,7E0,1.6E1,3E0,4E0,1E0,4E0,1.26E2,6E0,2E0,9E0,2E0,1.1E1,1E0,1.9E1,6E0,6E0,6E0,1E0,6E0,1E0,1.1E1,4E0,1.1E1,2E0,4E0,1E0,1E1,7.6E1,6.2E1,1E0,1E0,1E0,2E0,1E0,9E0,4E0,1.6E1,1E0,2E0,2E0,2E0,6E0,1E0,1E0,6E0,3E0,1.4E2,1.81E2,2.2E1,1E0,5E0,6.8E1,8E0,5E0,8.2E1,1.66E2,5.6E1,1E0,1.63E2,8E0,4E0,4E0,7.3E1,6.1E1,4E0,2.09E2,4.6E1,5.8E1,1.1E1,1E0,4E0,1.2E1,9E0,8.5E1,6.8E1,9E0,2.7E1,2E0,2E0,3.9E1,1.1E1,1E0,3E0,4.2E1,1.04E2,1E0,1E0,2.5E1,5E0,3.7E1,3E0,7E0,2E0,1.17E2,4.8E1,6.4E1,1.2E1,6E0,1.7E1,1E0,2E0,3E0,1E0,3.1E1,9.5E1,1E0,1E0,4E0,7E0,1.1E1,8E0,4E0,2E0,1E0,5E0,3E0,3E0,1E0,3E0,8E0,3E0,1E0,1E0,9E0,1E0,6.7E1,9E0,1.8E1,4.4E1,3E0,1E0,1E0,1E0,1E0,2E0,3E0,1.37E2,1.74E2,7E0,8E0,1.4E1,2E0,3E0,6.4E1,4E0,7E0,1E0,2E0,3E0,7.3E1,9E0,1.01E2,6.5E1,2.9E1,2.7E1,1.26E2,3.7E1,1E0,7E0,2E0,2E0,1E0,3E0,5.4E1,1.9E1,5.4E1,7E0,1E0,3E0,2.05E2,4E0,2.8E1,3E1,4E0,7E0,2E0,2E0,7.9E1,6E0,4E0,2.3E1,1E0,1E0,3.1E1,8E0,9E0,2E0,2E0,1E0,2.8E1,1.4E1,5.6E1,4.8E1,2E0,1E0,1E0,6E0,1E0,1E0,1.07E2,1E1,4.6E1,2E0,2E1,4.4E1,4E0,8E0,3E0,3E0,1E1,8.5E1],"tree_param":{"num_deleted":"0","num_feature":"9","num_nodes":"485","size_leaf_vector":"0"}},{"base_weights":[2.706992E-1,2.014898E-1,8.6499363E-1,1.5441273E-1,3.2849085E-1,7.447145E-1,1.243141E0,1.0957994E-1,1.9036677E-1,2.780793E-1,4.4087926E-1,6.482791E-1,8.833111E-1,1.1781703E0,2.0990157E0,7.5487524E-2,1.291235E-1,1.7386946E-1,2.1590711E-1,2.613335E-1,3.1700087E-1,3.9759883E-1,4.858001E-1,6.574522E-1,2.8338495E-1,6.89389E-1,9.268797E-1,1.1885273E0,1.5408897E-1,6.1362002E-2,9.123402E-2,1.1434385E-1,1.3891177E-1,4.0970898E-1,1.7276219E-1,2.2173995E-1,1.719771E-1,-2.3269057E-3,2.6572293E-1,2.8887394E-1,3.826658E-1,3.3883175E-1,4.389079E-1,5.361714E-1,3.3224997E-1,6.0298395E-1,7.583963E-1,5.1805353E-1,-1.23968124E-1,1.0046203E0,5.8150584E-1,9.606203E-1,5.1272964E-1,1.2507367E0,9.098778E-1,6.330792E-2,-2.9525423E-2,7.29693E-2,9.56079E-2,1.1631521E-1,-1.379509E-2,1.7255573E-1,1.3421607E-1,1.5767588E-1,1.8267806E-1,2.125472E-1,2.7314454E-1,8.0225244E-2,1.9606312E-1,-2.4837661E-1,6.8305425E-2,4.784398E-1,2.6201615E-1,3.5778862E-1,2.4305275E-1,3.4003374E-1,5.959725E-1,3.4937528E-1,-1.5743256E-1,4.926307E-1,3.329489E-1,4.9830487E-1,9.356117E-1,1.367217E-1,4.0802336E-1,6.5472007E-1,4.619955E-1,5.868698E-1,8.2598037E-1,-1.7331886E-1,-1.2633324E-2,9.7252536E-1,3.1897736E-1,-2.271843E-1,6.336169E-1,1.0676316E0,1.39167E0,5.859278E-1,1.2047191E0,4.2479917E-2,7.06203E-2,-5.932085E-2,1.0111809E-2,9.795983E-3,8.197138E-2,1.0153711E-1,7.670855E-2,1.1343722E-1,2.0700632E-1,-1.8617535E-1,7.584381E-2,1.7974061E-1,1.20539665E-2,1.4041515E-1,1.081583E-1,1.6149491E-1,-1.1751404E-1,1.8645743E-1,1.2828444E-1,2.1801534E-1,1.3257653E-1,2.767817E-1,2.2001266E-2,1.2370503E-1,2.6717305E-2,2.2711086E-1,1.0000385E-1,1.8190384E-2,1.2906201E-1,2.7142987E-1,2.2036228E-1,4.0279174E-1,2.3979527E-1,2.562302E-1,-5.8548925E-3,3.80436E-1,2.1442553E-1,6.40508E-1,1.643796E-1,5.199818E-1,2.4642631E-1,2.2327305E-1,3.936621E-1,5.154945E-1,1.0985718E-1,4.0225983E-1,-1.3137579E-2,4.6598658E-1,2.0068605E-1,5.590939E-1,8.5853654E-1,2.30532E-1,5.626723E-1,7.622457E-1,4.4729277E-1,6.153675E-1,9.0245986E-1,9.8335326E-1,3.6321512E-1,1.7593765E-1,6.7386574E-1,1.4104085E0,3.866501E-1,9.454358E-1,1.287651E-1,1.3337811E0,5.0200146E-1,3.4929287E-2,5.7303127E-2,1.21113025E-1,6.56821E-2,2.9948235E-2,-1.4780521E-2,1.6814888E-2,-2.8278828E-3,3.942134E-2,1.00607425E-1,1.0371446E-1,4.832506E-2,5.2822098E-2,9.352986E-2,2.1888447E-1,1.1094433E-1,5.2583337E-2,3.0967772E-1,7.733182E-2,1.942574E-1,-1.53570175E-2,3.3437967E-2,1.3460618E-1,2.1781251E-1,-7.060634E-3,1.22670986E-1,1.628891E-1,1.0981083E-2,-2.419912E-1,4.6134472E-2,1.7888129E-1,2.3969278E-1,-1.9762898E-2,1.4868285E-1,2.0179395E-1,2.4710307E-1,-1.8922758E-1,1.5223159E-1,2.8186944E-1,8.107058E-2,1.4406538E-1,4.1749317E-2,9.7883545E-2,-1.3318698E-2,1.2119491E-1,2.794322E-1,-6.428003E-2,1.5065219E-1,-1.8203259E-2,3.183961E-2,2.589427E-1,3.040491E-1,1.8144508E-1,2.6504967E-1,2.2273779E-1,4.2615488E-1,1.9640923E-2,2.5316283E-1,1.2675217E-1,2.9138908E-1,-4.9291062E-1,2.391367E-1,-3.365898E-2,2.3790415E-1,5.2686524E-1,1.0855532E-1,2.4386674E-1,7.333851E-2,1.668752E-1,4.1158074E-1,5.800384E-1,4.261481E-1,-8.257294E-2,2.6566824E-1,4.6604285E-1,1.054554E-1,1.06318E-1,-1.0607453E-1,5.453205E-2,4.8698202E-1,-7.847023E-2,2.6029047E-1,5.902118E-1,1.1120148E-1,9.103613E-1,4.7953033E-1,3.0300808E-1,6.84639E-2,5.795179E-1,9.6035E-2,2.923684E-1,5.7930976E-1,8.123689E-1,-3.1209373E-1,-5.9121704E-1,6.3656044E-1,5.461237E-2,2.8916977E-2,8.6106315E-2,3.3764448E-2,1.4245136E-1,4.2823493E-2,7.138308E-2,4.2969164E-2,2.235651E-3,2.0929417E-2,-5.3088665E-3,1.0670424E-3,5.2644946E-2,-1.7797789E-2,7.7348948E-3,1.04477316E-1,1.05753615E-1,4.3819763E-2,6.4553544E-2,-1.6408682E-2,8.852943E-2,3.2278556E-2,1.9253314E-2,1.0483965E-1,1.1383974E-1,6.021726E-2,6.434282E-2,8.652449E-3,2.7292714E-1,1.7343627E-1,1.3655625E-1,5.5134296E-2,7.467008E-2,2.4146299E-1,-6.328869E-2,7.878959E-3,1.03880145E-1,1.8236113E-1,1.5583974E-1,1.9900127E-1,2.8942823E-2,-4.653772E-3,2.0468235E-3,6.7154884E-2,-3.9537907E-2,1.7954442E-1,1.9230868E-1,3.4375298E-1,1.0574484E-1,-1.38683E-1,1.714869E-1,2.8885523E-2,2.658677E-1,1.9522361E-1,2.9428443E-1,2.1075577E-1,3.541565E-3,1.7910515E-1,2.8585333E-1,1.09563194E-1,1.4097357E-1,-1.9367695E-2,3.2604694E-2,1.5983658E-1,9.221077E-3,5.34029E-2,1.727581E-2,-3.2934904E-2,-1.21712685E-1,1.4924262E-1,1.4315373E-1,3.3862436E-1,1.5764236E-3,-8.675766E-2,1.5986386E-1,2.9267788E-2,2.6962095E-1,1.0692623E-1,-8.022785E-3,3.0777115E-1,2.3066556E-1,1.2466439E-1,6.416289E-2,2.7497938E-1,9.67811E-2,2.6152086E-1,2.175045E-2,2.6813868E-1,1.7919458E-1,-4.543705E-2,3.322348E-1,2.1797927E-1,-1.8249989E-2,2.6285E-1,1.4816761E-2,9.5191E-2,2.0116615E-1,4.9146652E-2,4.3547532E-1,7.056678E-1,2.1006861E-1,6.209202E-1,-1.4372921E-1,1.9869804E-2,2.5177637E-2,1.7486954E-1,-2.1039899E-1,3.360812E-2,5.711559E-1,3.2089186E-1,7.94359E-1,5.257611E-1,1.8081982E-1,4.515966E-3,5.61378E-1,7.606983E-2,2.177906E-1,-1.03684105E-1,6.2559724E-1,2.9772872E-1,3.523779E-1,7.489332E-2,8.8845694E-1,2.5744438E-2,1.6231537E-3,-4.6976376E-1,5.054283E-2,-9.373684E-1,3.2806117E-2,8.002075E-2,7.2196573E-3,3.470344E-2,1.8232942E-2,9.437972E-2,1.110363E-2,4.969557E-2,6.727354E-2,1.3003306E-1,1.7792396E-2,7.452398E-2,-1.0247827E-2,6.0771678E-2,7.9291254E-2,1.2677148E-1,8.690084E-2,1.1561694E-1,4.904443E-2,1.1460543E-2,7.139635E-2,1.8591166E-2,1.0663023E-1,-9.872913E-4,-3.4233212E-2,5.565541E-2,5.710125E-4,3.765011E-2,6.526329E-2,1.3716453E-1,-5.8484874E-3,1.1486151E-1,-3.942331E-3,8.973911E-2,5.855918E-3,1.9057024E-1,1.3297988E-1,2.2032955E-1,1.4057302E-1,-6.544769E-2,2.71076E-1,9.2258215E-2,2.9498482E-2,-2.1115184E-2,2.644018E-2,1.2702987E-1,9.761059E-2,2.531673E-1,1.3752247E-1,1.656979E-1,1.5229812E-1,2.2968525E-1,8.907318E-4,-7.871389E-3,1.8195347E-1,1.12011135E-1,8.596273E-2,2.2234836E-1,3.8982168E-1,1.1960864E-1,4.1320007E-2,2.0196262E-1,7.8472994E-2,-1.0952592E-1,2.7708235E-1,3.2001972E-2,1.7651285E-1,2.1852383E-1,3.1219953E-1,1.0788814E-1,1.8476513E-1,3.0709022E-1,1.4217234E-1,-6.665921E-2,2.0841575E-1,1.1361032E-1,1.4717245E-1,1.7172337E-2,2.422142E-2,1.6922951E-3,-3.7579853E-2,-9.500027E-3,1.9245169E-1,4.1617773E-2,1.6467285E-1,-1.4499664E-2,3.6392388E-1,1.0768509E-1,2.6223618E-1,3.529256E-1,1.20630436E-1,-6.302261E-2,3.4493333E-1,2.5175226E-1,2.3991843E-1,8.924961E-3,1.6423804E-1,5.0943918E-3,9.494305E-3,8.675003E-2,2.7881247E-1,7.424402E-2,1.2508583E-1,2.0085812E-2,5.5821896E-2,2.8017676E-1,1.9959766E-1,-4.3022633E-2,7.6908745E-2,-1.5263717E-1,3.720288E-1,2.431279E-1,9.765744E-2,2.61779E-1,2.8663978E-1,1.2475967E-2,5.316529E-1,3.1319788E-1,7.5226414E-1,2.9626918E-1,4.0672302E-2,3.1961012E-1,1.6982587E-1,6.61607E-1,-5.0439835E-3,5.545616E-2,1.3953209E-1,6.036106E-1,1.8686703E-1,6.295328E-1,8.509911E-1,1.14019394E-1,4.785018E-1,7.4532E-1,-6.2253E-2,6.902695E-2,-2.7763367E-2,-1.277628E-1,3.8250127E-1,6.8967247E-1,3.894353E-1,-3.454876E-2,-5.1558495E-2,1.6389847E-1,2.5505924E-1,9.3049455E-1,4.2028643E-2,-6.6532493E-3,-8.244109E-3,2.4744451E-2,2.684008E-2,5.513074E-2,6.9390215E-2,1.1908722E-2,1.4444885E-1,2.8977036E-2,2.6407734E-2,-6.4334154E-2,1.220993E-1,3.9812803E-2,2.4007678E-2,7.51524E-2,1.03349686E-1,-3.5353422E-2,1.22385025E-2,1.3813752E-1,9.625745E-2,7.7670575E-3,1.5855162E-1,1.0493138E-1,7.2320156E-2,1.2578249E-2,6.1653852E-3,-5.3088665E-3,-3.716564E-2,8.07738E-2,-3.6408782E-2,2.7636051E-2,1.07583165E-1,1.3738716E-1,-6.738329E-2,2.2222519E-2,-5.4646015E-2,1.0964222E-1,6.865152E-2,-9.126544E-2,7.145202E-2,2.0156649E-1,1.18746236E-1,1.4729151E-1,3.862667E-2,2.3821408E-1,-8.770832E-2,6.670952E-4,-6.708145E-3,5.587228E-2,1.8961191E-2,-4.0794373E-2,6.848261E-2,-5.452423E-2,6.604706E-2,1.3611624E-1,1.0369567E-1,2.7507544E-2,2.7155533E-1,7.141948E-2,1.4388108E-1,-5.1054478E-2,-1.983563E-2,1.680247E-1,2.0263195E-1,5.707905E-2,2.7382725E-1,1.4058533E-1,2.2595611E-1,1.7759976E-1,-1.123755E-1,1.7243694E-1,1.0408372E-1,8.985837E-3,2.3342419E-1,4.8549812E-2,4.3485743E-1,1.9103587E-1,1.4494975E-1,2.179265E-2,7.5544514E-2,5.321622E-3,9.53542E-2,5.4740906E-3,1.8342464E-1,7.868495E-2,2.1056788E-1,3.1484395E-1,1.0540843E-1,3.2417545E-1,1.6922824E-1,3.4911036E-2,2.1985714E-1,1.0358822E-1,3.1886607E-1,7.700205E-2,1.0373116E-2,1.416248E-1,9.3734026E-2,-8.3423615E-2,5.328703E-2,3.8372004E-1,2.7143806E-1,8.241781E-2,3.916519E-1,1.3883376E-1,1.5736263E-1,7.049486E-2,1.6608357E-1,3.5298693E-1,1.5947416E-1,3.1885955E-1,9.939861E-2,2.5602645E-1,1.8751599E-1,-1.1574364E-1,1.1255989E-1,-1.757129E-1,2.9104447E-1,7.488203E-2,2.2329122E-1,4.618867E-2,6.149316E-2,2.8707436E-1,-3.295167E-2,1.4668576E-1,-4.2773724E-2,2.834869E-1,3.1496966E-1,1.1554686E-1,2.0992494E-1,6.155706E-1,-8.0470406E-2,3.920894E-1,-1.04679585E-1,4.6481195E-1,-1.9911289E-1,9.553456E-2,3.6898595E-1,4.8487347E-2,5.0118625E-1,9.7846377E-1,2.4718896E-1,2.4041494E-2,5.2565897E-1,3.5674545E-1,4.6918947E-1,-2.546978E-2],"categories":[],"categories_nodes":[],"categories_segments":[],"categories_sizes":[],"default_left":[1,1,1,1,1,1,1,1,1,1,1,1,1,1,0,1,1,1,1,1,1,1,1,1,1,1,1,1,0,1,1,1,1,0,1,1,1,1,1,1,1,1,1,1,1,1,1,0,1,0,0,1,1,1,1,1,1,1,1,1,1,1,1,1,1,1,1,1,1,0,1,0,1,1,1,1,1,0,0,1,1,1,0,1,1,1,1,1,1,0,0,1,0,0,1,0,1,1,1,1,1,0,1,1,1,1,1,1,1,0,0,1,1,1,1,1,1,1,1,1,1,1,0,1,1,1,1,1,0,1,1,1,1,1,1,0,1,0,0,1,0,1,1,1,1,1,1,1,1,1,1,1,1,0,1,1,0,0,0,0,0,0,0,0,1,0,0,1,1,1,1,0,0,1,1,1,1,1,1,1,1,0,1,1,0,0,1,0,0,1,1,1,1,1,1,0,1,1,1,1,1,1,1,0,1,1,1,1,1,0,1,1,1,1,1,0,0,1,1,1,1,1,0,0,1,1,1,0,0,0,1,0,0,0,1,1,0,1,1,1,0,0,0,1,1,0,1,0,0,1,1,0,1,0,1,1,0,1,0,1,1,1,0,1,1,1,0,0,1,1,1,0,0,0,0,1,0,0,1,1,1,1,0,1,1,1,1,1,1,0,0,0,1,1,1,0,1,0,1,1,1,1,1,0,1,0,0,0,1,1,1,0,0,1,1,1,1,1,1,1,1,0,1,0,0,0,0,0,0,1,1,0,1,1,1,0,0,0,0,1,1,0,1,1,1,1,1,1,0,0,1,1,1,1,1,0,1,0,0,0,0,1,1,1,1,0,0,0,0,0,1,1,1,1,1,0,1,0,0,0,1,1,1,0,1,1,0,0,0,0,0,1,0,1,1,0,0,0,0,1,1,1,1,0,1,1,1,1,1,0,0,0,0,0,0,0,1,1,0,1,0,1,1,1,1,1,1,1,1,0,1,0,0,1,1,1,1,1,1,1,1,1,1,0,0,1,1,1,1,1,1,1,0,1,0,0,0,1,1,1,1,1,1,0,0,0,1,0,0,0,0,0,0,0,1,0,0,1,0,1,1,1,0,1,1,1,0,1,1,0,0,0,0,0,0,0,1,1,0,0,0,0,1,1,1,1,0,1,1,0,1,1,1,0,1,0,0,0,0,1,0,0,0,1,0,0,0,0,0,1,0,0,0,0,0,0,0,0,0,0,0,0,0,0,0,0,0,0,0,0,0,0,0,0,0,0,0,0,0,0,0,0,0,0,0,0,0,0,0,0,0,0,0,0,0,0,0,0,0,0,0,0,0,0,0,0,0,0,0,0,0,0,0,0,0,0,0,0,0,0,0,0,0,0,0,0,0,0,0,0,0,0,0,0,0,0,0,0,0,0,0,0,0,0,0,0,0,0,0,0,0,0,0,0,0,0,0,0,0,0,0,0,0,0,0,0,0,0,0,0,0,0,0,0,0,0,0,0,0,0,0,0,0,0,0,0,0,0,0,0,0,0,0,0,0,0,0,0,0,0,0,0,0,0,0],"id":10,"left_children":[1,3,5,7,9,11,13,15,17,19,21,23,25,27,-1,29,31,33,35,37,39,41,43,45,47,49,51,53,-1,55,57,59,61,-1,63,65,67,69,71,73,75,77,79,81,83,85,87,-1,89,-1,-1,91,93,95,97,99,101,103,105,107,109,111,113,115,117,119,121,123,125,-1,127,-1,129,131,133,135,137,-1,-1,139,141,143,-1,145,147,149,151,153,155,-1,-1,157,-1,-1,159,-1,161,163,165,167,169,-1,171,173,175,177,179,181,183,-1,-1,185,187,189,191,193,195,197,199,201,203,205,-1,207,209,211,213,215,-1,217,219,221,223,225,227,-1,229,-1,-1,231,-1,233,235,237,239,241,243,245,247,249,251,253,255,-1,257,259,-1,-1,-1,-1,-1,-1,-1,-1,261,-1,-1,263,265,267,269,-1,-1,271,273,275,277,279,281,283,285,-1,287,289,-1,-1,291,-1,-1,293,295,297,299,301,303,-1,305,307,309,311,313,315,317,-1,319,321,323,325,327,-1,329,331,333,335,337,-1,-1,339,341,343,345,347,-1,-1,349,351,353,-1,-1,-1,355,-1,-1,-1,357,359,-1,361,363,365,-1,-1,-1,367,369,-1,371,-1,-1,373,375,-1,377,-1,379,381,-1,383,-1,385,387,389,-1,391,393,395,-1,-1,397,399,401,-1,-1,-1,-1,403,-1,-1,405,407,409,411,-1,413,415,417,419,421,423,-1,-1,-1,425,427,429,-1,431,-1,433,435,437,439,441,-1,443,-1,-1,-1,445,447,449,-1,-1,451,453,455,457,459,461,463,465,-1,467,-1,-1,-1,-1,-1,-1,469,471,-1,473,475,477,-1,-1,-1,-1,479,481,-1,483,485,487,489,491,493,-1,-1,495,497,499,501,503,-1,505,-1,-1,-1,-1,507,509,511,513,-1,-1,-1,-1,-1,515,517,519,521,523,-1,525,-1,-1,-1,527,529,531,-1,533,535,-1,-1,-1,-1,-1,537,-1,539,541,-1,-1,-1,-1,543,545,547,549,-1,551,553,555,557,559,-1,-1,-1,-1,-1,-1,-1,561,563,-1,565,-1,567,569,571,573,575,577,579,581,-1,583,-1,-1,585,587,589,591,593,595,597,599,601,603,-1,-1,605,607,609,611,613,615,617,-1,619,-1,-1,-1,621,623,625,627,629,631,-1,-1,-1,633,-1,-1,-1,-1,-1,-1,-1,635,-1,-1,637,-1,639,641,643,-1,645,647,649,-1,651,653,-1,-1,-1,-1,-1,-1,-1,655,657,-1,-1,-1,-1,659,661,663,665,-1,667,669,-1,671,673,675,-1,677,-1,-1,-1,-1,679,-1,-1,-1,681,-1,-1,-1,-1,-1,683,-1,-1,-1,-1,-1,-1,-1,-1,-1,-1,-1,-1,-1,-1,-1,-1,-1,-1,-1,-1,-1,-1,-1,-1,-1,-1,-1,-1,-1,-1,-1,-1,-1,-1,-1,-1,-1,-1,-1,-1,-1,-1,-1,-1,-1,-1,-1,-1,-1,-1,-1,-1,-1,-1,-1,-1,-1,-1,-1,-1,-1,-1,-1,-1,-1,-1,-1,-1,-1,-1,-1,-1,-1,-1,-1,-1,-1,-1,-1,-1,-1,-1,-1,-1,-1,-1,-1,-1,-1,-1,-1,-1,-1,-1,-1,-1,-1,-1,-1,-1,-1,-1,-1,-1,-1,-1,-1,-1,-1,-1,-1,-1,-1,-1,-1,-1,-1,-1,-1,-1,-1,-1,-1,-1,-1,-1,-1,-1,-1,-1,-1,-1,-1,-1,-1,-1,-1,-1,-1,-1,-1,-1,-1,-1,-1,-1,-1,-1,-1,-1,-1,-1,-1,-1,-1],"loss_changes":[1.4781424E2,1.9225037E1,1.6130432E1,3.7736053E0,4.8122025E0,3.2633057E0,2.4760132E0,6.898527E-1,5.1231766E-1,3.1082916E-1,3.278885E-1,3.927536E-1,3.326416E-1,7.1842194E-1,0E0,8.003616E-2,8.046436E-2,1.3760567E-1,9.2033386E-2,4.959507E-1,2.1636772E-1,1.9600677E-1,8.04142E-1,4.6640778E-1,6.3777995E-1,2.660122E-1,7.79068E-1,3.1808472E-1,0E0,3.8302183E-2,7.4033737E-3,7.006097E-2,3.9402008E-2,0E0,9.0270996E-2,1.5222931E-1,1.2570679E-1,1.5599798E-1,2.0659828E-1,3.1723022E-1,2.5203514E-1,3.8464165E-1,2.9137135E-1,9.555702E-1,4.4795275E-1,5.290642E-1,1.5284157E-1,0E0,1.4293771E-2,0E0,0E0,3.2380676E-1,9.489634E-1,2.1738434E-1,1.1088848E0,2.7765155E-2,6.5048817E-3,2.1375954E-2,8.123517E-3,4.620695E-2,9.1380134E-2,4.9726725E-2,4.1672707E-2,3.584385E-1,7.3521614E-2,1.3813972E-1,5.2371502E-2,3.1592645E-2,1.2640905E-1,0E0,1.8966045E-2,0E0,1.03307724E-1,1.6360617E-1,2.6389694E-1,1.4171839E-1,2.9262304E-2,0E0,0E0,2.1529579E-1,1.1186886E-1,5.309696E-1,0E0,4.4301152E-1,1.9491363E-1,1.0987015E0,6.625881E-1,1.241436E-1,4.0636063E-2,0E0,0E0,1.7723083E-1,0E0,0E0,2.8810024E-2,0E0,9.49707E-2,1.6861513E0,1.4668751E-1,4.1542873E-3,2.894777E-2,0E0,1.9239751E-3,5.791848E-4,2.2994697E-2,7.153392E-3,1.032801E-2,4.4324636E-2,9.469989E-2,0E0,0E0,4.8903465E-2,2.271977E-3,9.701872E-2,1.2125993E-1,6.5151215E-2,1.1301664E-1,1.3498688E-1,1.0561603E-1,1.1811447E-1,1.9958359E-1,3.9879322E-2,0E0,7.334538E-3,2.4097376E-2,1.7117584E-1,1.261738E-1,3.0633095E-3,0E0,5.7724E-2,9.4515085E-2,4.8104286E-2,4.2114496E-2,3.0904055E-1,7.144958E-1,0E0,8.372849E-2,0E0,0E0,7.02467E-2,0E0,2.2255361E-2,4.464388E-3,2.3722649E-1,1.718507E-1,2.6577592E-2,1.0009232E-1,1.2893939E-1,1.3689768E-1,7.4274063E-1,3.4858704E-2,1.2020767E-1,1.2514353E-1,0E0,9.6512556E-2,2.6287813E0,0E0,0E0,0E0,0E0,0E0,0E0,0E0,0E0,2.5699666E0,0E0,0E0,3.036067E-3,8.618481E-3,1.3946563E-2,1.4672399E-2,0E0,0E0,1.9315572E-4,3.4654528E-5,1.00166835E-2,7.458225E-3,7.579446E-3,7.3624207E-3,1.034639E-2,1.5622571E-2,0E0,3.0891895E-2,1.5096944E-3,0E0,0E0,1.3270259E-2,0E0,0E0,3.3384323E-2,4.290694E-2,8.058867E-3,5.284047E-2,4.9430847E-2,1.2580102E-3,0E0,2.642768E-3,6.3586235E-2,1.9029474E-1,8.9291975E-2,7.7002406E-2,4.6607018E-2,1.4891243E-1,0E0,1.032573E-1,1.0553837E-2,2.0779988E-2,5.335778E-3,6.4477976E-4,0E0,4.1698664E-3,1.13546744E-1,1.4512348E-1,6.0579553E-3,7.6208115E-3,0E0,0E0,3.753643E-1,1.03523254E-1,1.0259855E-1,5.416727E-2,3.9996803E-3,0E0,0E0,4.6151757E-2,1.7068246E-1,1.044898E-1,0E0,0E0,0E0,8.147675E-2,0E0,0E0,0E0,2.4261158E-3,2.2244304E-3,0E0,5.2812195E-1,1.5109277E0,2.165092E-2,0E0,0E0,0E0,1.7846383E-2,7.993272E-2,0E0,5.4389E-2,0E0,0E0,2.9285812E-1,3.6319774E-2,0E0,1.22407556E-1,0E0,1.5111288E-1,9.940481E-2,0E0,7.801384E-2,0E0,6.3550663E-1,1.4915374E-1,7.1381545E-1,0E0,1.8073209E-3,3.7670787E-3,2.2099875E-3,0E0,0E0,3.2012397E-4,1.7282844E-2,2.2507489E-2,0E0,0E0,0E0,0E0,5.7339054E-3,0E0,0E0,2.3011863E-3,7.804036E-3,2.8325524E-4,2.4521723E-4,0E0,9.827219E-3,2.2118125E-2,1.3532792E-3,1.4075607E-2,3.0266762E-2,3.065953E-2,0E0,0E0,0E0,9.076619E-2,4.7698975E-2,9.161916E-2,0E0,4.1267037E-2,0E0,5.6375824E-3,8.806974E-2,5.9300274E-2,2.5787354E-2,3.380525E-2,0E0,6.0531587E-5,0E0,0E0,0E0,4.290676E-2,1.0228109E-1,1.08264446E-1,0E0,0E0,9.082818E-2,4.9775667E-2,4.0964603E-2,5.559635E-2,1.3662195E-1,1.2603736E-1,5.8137033E-2,1.8555105E-2,0E0,7.896956E-3,0E0,0E0,0E0,0E0,0E0,0E0,2.837213E-4,7.840572E-5,0E0,5.2445382E-2,3.2920778E-2,5.4293275E-2,0E0,0E0,0E0,0E0,5.0172806E-2,4.9524665E-2,0E0,9.219551E-2,4.7100306E-2,1.1272699E-1,2.8807893E-3,5.4605007E-3,4.0000696E-3,0E0,0E0,2.0142317E-2,7.2061926E-2,7.7316545E-2,3.7202835E-2,1.0091698E-1,0E0,6.194377E-2,0E0,0E0,0E0,0E0,1.1573553E-1,2.1588612E-1,3.5811937E-1,2.547145E-1,0E0,0E0,0E0,0E0,0E0,2.8131388E-3,5.585885E-2,2.1328545E-1,3.2678986E-1,9.991646E-2,0E0,1.7219128E-2,0E0,0E0,0E0,1.9370914E-3,1.657486E-2,1.6581464E-1,0E0,4.2214945E-2,2.8933525E-2,0E0,0E0,0E0,0E0,0E0,2.4631168E-3,0E0,2.3719906E-3,2.535969E-3,0E0,0E0,0E0,0E0,1.1244118E-2,4.555121E-3,1.4434781E-2,1.6607024E-2,0E0,2.9539987E-3,3.9509982E-2,1.1327282E-2,2.6648015E-2,1.0889828E-2,0E0,0E0,0E0,0E0,0E0,0E0,0E0,6.2690396E-3,1.3141391E-4,0E0,1.8889263E-2,0E0,4.076087E-3,2.4567604E-2,1.14569655E-2,3.7602358E-2,3.0660687E-2,2.3583531E-2,3.323269E-2,2.0045638E-2,0E0,5.9455372E-3,0E0,0E0,5.1493305E-3,3.928192E-3,4.7985185E-2,1.262027E-2,5.602464E-4,3.999561E-3,1.272546E-1,7.672167E-2,9.3874216E-2,6.769621E-2,0E0,0E0,3.1518936E-2,2.3631755E-1,1.3013691E-2,4.449117E-2,2.4356246E-2,6.7562237E-3,6.990143E-3,0E0,5.63957E-3,0E0,0E0,0E0,7.008791E-2,4.205227E-3,7.974863E-2,2.0950608E-2,1.481452E-1,1.3379455E-2,0E0,0E0,0E0,2.4560124E-2,0E0,0E0,0E0,0E0,0E0,0E0,0E0,4.0403076E-2,0E0,0E0,6.56445E-2,0E0,3.366909E-1,7.8281164E-2,2.0213753E-2,0E0,1.1953831E-2,1.8446612E-1,2.6611805E-2,0E0,1.3901702E-1,1.5579204E-1,0E0,0E0,0E0,0E0,0E0,0E0,0E0,7.2101355E-3,3.6938965E-2,0E0,0E0,0E0,0E0,9.4097674E-2,5.606191E-2,1.2451613E-1,1.2076676E-2,0E0,1.9476008E-1,4.352939E-1,0E0,3.1896442E-1,1.3741858E-1,1.427517E-1,0E0,4.2455387E-1,0E0,0E0,0E0,0E0,6.281085E-2,0E0,0E0,0E0,3.6398888E-2,0E0,0E0,0E0,0E0,0E0,2.241478E-1,0E0,0E0,0E0,0E0,0E0,0E0,0E0,0E0,0E0,0E0,0E0,0E0,0E0,0E0,0E0,0E0,0E0,0E0,0E0,0E0,0E0,0E0,0E0,0E0,0E0,0E0,0E0,0E0,0E0,0E0,0E0,0E0,0E0,0E0,0E0,0E0,0E0,0E0,0E0,0E0,0E0,0E0,0E0,0E0,0E0,0E0,0E0,0E0,0E0,0E0,0E0,0E0,0E0,0E0,0E0,0E0,0E0,0E0,0E0,0E0,0E0,0E0,0E0,0E0,0E0,0E0,0E0,0E0,0E0,0E0,0E0,0E0,0E0,0E0,0E0,0E0,0E0,0E0,0E0,0E0,0E0,0E0,0E0,0E0,0E0,0E0,0E0,0E0,0E0,0E0,0E0,0E0,0E0,0E0,0E0,0E0,0E0,0E0,0E0,0E0,0E0,0E0,0E0,0E0,0E0,0E0,0E0,0E0,0E0,0E0,0E0,0E0,0E0,0E0,0E0,0E0,0E0,0E0,0E0,0E0,0E0,0E0,0E0,0E0,0E0,0E0,0E0,0E0,0E0,0E0,0E0,0E0,0E0,0E0,0E0,0E0,0E0,0E0,0E0,0E0,0E0,0E0,0E0,0E0,0E0,0E0,0E0,0E0,0E0,0E0,0E0,0E0,0E0,0E0,0E0],"parents":[2147483647,0,0,1,1,2,2,3,3,4,4,5,5,6,6,7,7,8,8,9,9,10,10,11,11,12,12,13,13,15,15,16,16,17,17,18,18,19,19,20,20,21,21,22,22,23,23,24,24,25,25,26,26,27,27,29,29,30,30,31,31,32,32,34,34,35,35,36,36,37,37,38,38,39,39,40,40,41,41,42,42,43,43,44,44,45,45,46,46,48,48,51,51,52,52,53,53,54,54,55,55,56,56,57,57,58,58,59,59,60,60,61,61,62,62,63,63,64,64,65,65,66,66,67,67,68,68,70,70,72,72,73,73,74,74,75,75,76,76,79,79,80,80,81,81,83,83,84,84,85,85,86,86,87,87,88,88,91,91,94,94,96,96,97,97,98,98,99,99,100,100,102,102,103,103,104,104,105,105,106,106,107,107,108,108,111,111,112,112,113,113,114,114,115,115,116,116,117,117,118,118,119,119,120,120,121,121,123,123,124,124,125,125,126,126,127,127,129,129,130,130,131,131,132,132,133,133,134,134,136,136,139,139,141,141,142,142,143,143,144,144,145,145,146,146,147,147,148,148,149,149,150,150,151,151,152,152,154,154,155,155,164,164,167,167,168,168,169,169,170,170,173,173,174,174,175,175,176,176,177,177,178,178,179,179,180,180,182,182,183,183,186,186,189,189,190,190,191,191,192,192,193,193,194,194,196,196,197,197,198,198,199,199,200,200,201,201,202,202,204,204,205,205,206,206,207,207,208,208,210,210,211,211,212,212,213,213,214,214,217,217,218,218,219,219,220,220,221,221,224,224,225,225,226,226,230,230,234,234,235,235,237,237,238,238,239,239,243,243,244,244,246,246,249,249,250,250,252,252,254,254,255,255,257,257,259,259,260,260,261,261,263,263,264,264,265,265,268,268,269,269,270,270,275,275,278,278,279,279,280,280,281,281,283,283,284,284,285,285,286,286,287,287,288,288,292,292,293,293,294,294,296,296,298,298,299,299,300,300,301,301,302,302,304,304,308,308,309,309,310,310,313,313,314,314,315,315,316,316,317,317,318,318,319,319,320,320,322,322,329,329,330,330,332,332,333,333,334,334,339,339,340,340,342,342,343,343,344,344,345,345,346,346,347,347,350,350,351,351,352,352,353,353,354,354,356,356,361,361,362,362,363,363,364,364,370,370,371,371,372,372,373,373,374,374,376,376,380,380,381,381,382,382,384,384,385,385,391,391,393,393,394,394,399,399,400,400,401,401,402,402,404,404,405,405,406,406,407,407,408,408,416,416,417,417,419,419,421,421,422,422,423,423,424,424,425,425,426,426,427,427,428,428,430,430,433,433,434,434,435,435,436,436,437,437,438,438,439,439,440,440,441,441,442,442,445,445,446,446,447,447,448,448,449,449,450,450,451,451,453,453,457,457,458,458,459,459,460,460,461,461,462,462,466,466,474,474,477,477,479,479,480,480,481,481,483,483,484,484,485,485,487,487,488,488,496,496,497,497,502,502,503,503,504,504,505,505,507,507,508,508,510,510,511,511,512,512,514,514,519,519,523,523,529,529],"right_children":[2,4,6,8,10,12,14,16,18,20,22,24,26,28,-1,30,32,34,36,38,40,42,44,46,48,50,52,54,-1,56,58,60,62,-1,64,66,68,70,72,74,76,78,80,82,84,86,88,-1,90,-1,-1,92,94,96,98,100,102,104,106,108,110,112,114,116,118,120,122,124,126,-1,128,-1,130,132,134,136,138,-1,-1,140,142,144,-1,146,148,150,152,154,156,-1,-1,158,-1,-1,160,-1,162,164,166,168,170,-1,172,174,176,178,180,182,184,-1,-1,186,188,190,192,194,196,198,200,202,204,206,-1,208,210,212,214,216,-1,218,220,222,224,226,228,-1,230,-1,-1,232,-1,234,236,238,240,242,244,246,248,250,252,254,256,-1,258,260,-1,-1,-1,-1,-1,-1,-1,-1,262,-1,-1,264,266,268,270,-1,-1,272,274,276,278,280,282,284,286,-1,288,290,-1,-1,292,-1,-1,294,296,298,300,302,304,-1,306,308,310,312,314,316,318,-1,320,322,324,326,328,-1,330,332,334,336,338,-1,-1,340,342,344,346,348,-1,-1,350,352,354,-1,-1,-1,356,-1,-1,-1,358,360,-1,362,364,366,-1,-1,-1,368,370,-1,372,-1,-1,374,376,-1,378,-1,380,382,-1,384,-1,386,388,390,-1,392,394,396,-1,-1,398,400,402,-1,-1,-1,-1,404,-1,-1,406,408,410,412,-1,414,416,418,420,422,424,-1,-1,-1,426,428,430,-1,432,-1,434,436,438,440,442,-1,444,-1,-1,-1,446,448,450,-1,-1,452,454,456,458,460,462,464,466,-1,468,-1,-1,-1,-1,-1,-1,470,472,-1,474,476,478,-1,-1,-1,-1,480,482,-1,484,486,488,490,492,494,-1,-1,496,498,500,502,504,-1,506,-1,-1,-1,-1,508,510,512,514,-1,-1,-1,-1,-1,516,518,520,522,524,-1,526,-1,-1,-1,528,530,532,-1,534,536,-1,-1,-1,-1,-1,538,-1,540,542,-1,-1,-1,-1,544,546,548,550,-1,552,554,556,558,560,-1,-1,-1,-1,-1,-1,-1,562,564,-1,566,-1,568,570,572,574,576,578,580,582,-1,584,-1,-1,586,588,590,592,594,596,598,600,602,604,-1,-1,606,608,610,612,614,616,618,-1,620,-1,-1,-1,622,624,626,628,630,632,-1,-1,-1,634,-1,-1,-1,-1,-1,-1,-1,636,-1,-1,638,-1,640,642,644,-1,646,648,650,-1,652,654,-1,-1,-1,-1,-1,-1,-1,656,658,-1,-1,-1,-1,660,662,664,666,-1,668,670,-1,672,674,676,-1,678,-1,-1,-1,-1,680,-1,-1,-1,682,-1,-1,-1,-1,-1,684,-1,-1,-1,-1,-1,-1,-1,-1,-1,-1,-1,-1,-1,-1,-1,-1,-1,-1,-1,-1,-1,-1,-1,-1,-1,-1,-1,-1,-1,-1,-1,-1,-1,-1,-1,-1,-1,-1,-1,-1,-1,-1,-1,-1,-1,-1,-1,-1,-1,-1,-1,-1,-1,-1,-1,-1,-1,-1,-1,-1,-1,-1,-1,-1,-1,-1,-1,-1,-1,-1,-1,-1,-1,-1,-1,-1,-1,-1,-1,-1,-1,-1,-1,-1,-1,-1,-1,-1,-1,-1,-1,-1,-1,-1,-1,-1,-1,-1,-1,-1,-1,-1,-1,-1,-1,-1,-1,-1,-1,-1,-1,-1,-1,-1,-1,-1,-1,-1,-1,-1,-1,-1,-1,-1,-1,-1,-1,-1,-1,-1,-1,-1,-1,-1,-1,-1,-1,-1,-1,-1,-1,-1,-1,-1,-1,-1,-1,-1,-1,-1,-1,-1,-1,-1,-1],"split_conditions":[1.8555E1,8.82E0,3.5205E1,5.7650003E0,1.152E1,2.6965E1,4.107E1,4.175E0,7.365E0,2.0205E3,1.5795E1,2.6705E1,8.5E0,4.0760002E1,6.297047E-1,3.108333E0,4.925E0,5.5150003E0,8.555E0,8.735001E0,2.25E1,3.5E0,1.798E1,2.2634998E1,2.65E1,2.9315E1,3.4365E1,3.5E0,4.6226695E-2,3.1350002E0,5E-1,5.048333E0,3.5E0,1.229127E-1,6.3450003E0,8.378334E0,8.525E0,4E0,8.785E0,1.0405E1,9.5E0,1.5469999E1,1.95E1,1.7985E1,1.826E1,2.1356667E1,1.15E1,1.5541607E-1,2.85E1,3.0138612E-1,1.7445175E-1,3.05E1,3.4085E1,3.7324997E1,1.4E1,2.375E0,1.05E1,3.2166667E0,3.5E0,2.0185E3,4.965E0,5.75E0,5.565E0,6.415E0,7.315E0,8.335E0,8.875E0,2.019E3,8.77E0,-7.451299E-2,9E0,1.4353195E-1,3.5E0,1.75E1,2.15E1,2.85E1,1.1465E1,1.04812585E-1,-4.722977E-2,1.5541666E1,2.55E1,1.7816666E1,2.8068352E-1,1.7994999E1,1.868E1,2.054E1,2.1775E1,2.553E1,2.4965E1,-5.199566E-2,-3.7899972E-3,3.4445E1,9.569321E-2,-6.815529E-2,3.4305E1,3.202895E-1,4.0644997E1,6E0,3.8826668E1,2.5E0,2.5E0,-1.7796256E-2,1.15E1,3.5E0,9.5E0,4.145E0,1.45E1,4.1416664E0,2.35E1,-5.5852607E-2,2.2753144E-2,5.035E0,1.5E0,5.533334E0,5.525E0,6.336667E0,1.65E1,7.1949997E0,7.25E0,2.016E3,7.9700003E0,1.15E1,6.6003804E-3,8.505E0,5E-1,1.35E1,8.748333E0,8.879999E0,3.8718604E-2,1.0385E1,5.5E0,8.98E0,5E-1,1.0575001E1,4E0,1.141308E-1,2.5E0,1.9215241E-1,4.931388E-2,1.554E1,7.3927894E-2,3.5E0,1.1629999E1,1.6855E1,7.5E0,2.25E1,7E0,1.7425E1,1.8725E1,2.0135E1,3.5E0,8.5E0,2.3135E1,2.2867373E-1,2.6105E1,2.527E1,2.7073798E-1,2.9500598E-1,1.0896454E-1,5.27813E-2,2.0215973E-1,4.2312256E-1,1.1599503E-1,2.8363076E-1,8.5E0,4.0013435E-1,1.5060045E-1,5E-1,2.27E0,1.35E1,2.9116669E0,8.984471E-3,-4.4341567E-3,3.1750002E0,2.25E1,4.125E0,3.17E0,2.95E1,4.2E0,3.385E0,3.18E0,6.566534E-2,4.865E0,2.15E1,9.2903316E-2,2.3199547E-2,5.1183333E0,-4.6071056E-3,1.0031391E-2,5.5166664E0,3E0,5.365E0,3.5E0,2.0165E3,1.65E1,-7.259736E-2,2.2E1,6.04E0,9.5E0,1.1E1,2.7E1,2.5E0,1.15E1,-5.6768276E-2,8.268333E0,3.05E1,8.5E0,8.393333E0,5.5E0,2.9365065E-2,5E0,8.65E0,8.610001E0,2.2E1,9.035E0,-5.4609776E-3,9.551883E-3,1.0285E1,1.0235001E1,2.5E0,8.953333E0,4.5E0,1.2784646E-1,5.892277E-3,8.94E0,1.0555E1,1.0916667E1,-1.478732E-1,7.1741015E-2,-1.0097695E-2,8.9E0,1.5805958E-1,3.2566596E-2,7.316002E-2,2.3E1,2.8E1,1.23474225E-1,1.6505001E1,1.7265E1,8E0,7.970048E-2,1.3981286E-1,3.163662E-2,1.15E1,1.15E1,1.6359616E-2,6.5E0,-2.354107E-2,7.808714E-2,5E-1,1.05E1,2.731084E-1,2.1E1,9.0902425E-2,8.5E0,3.5E0,2.8810503E-2,2.6035E1,1.7379293E-1,2.95E1,1.95E1,7.5E0,1.9096814E-1,2E1,1.5E0,1.5E0,1.0129334E-2,4.273541E-2,1.45E1,2.92E0,3.0149999E0,6.706953E-4,6.2788255E-3,-1.59266E-3,3.201127E-4,1.5E0,-5.3393366E-3,2.3204684E-3,2.0155E3,3.3166666E0,3.56E0,2.75E1,-4.9226047E-3,1.1E1,3.4850001E0,2.7E1,2.0155E3,4.135E0,4.885E0,1.9302847E-2,2.5957348E-3,8.187814E-2,5.175E0,5.565E0,5E0,2.2401024E-2,1.15E1,-1.8986607E-2,5.605E0,5.6549997E0,2.0135E3,5.915E0,1.65E1,8.682847E-3,2.25E1,6.1404705E-4,2.0146467E-2,-1.1861373E-2,7.161667E0,6E0,3.5E0,3.1723455E-2,-4.1604903E-2,7.375E0,9.5E0,8.325E0,1.95E1,8.184999E0,8.1866665E0,3.5E0,1.45E1,8.5756004E-2,5E0,4.2292073E-2,-5.8103087E-3,9.781409E-3,4.7950976E-2,2.7663233E-3,1.6020872E-2,1.7E1,2.5E0,-3.6513805E-2,2E0,8.6866665E0,8.785E0,4.7292712E-4,-2.60273E-2,4.795916E-2,8.780337E-3,1.017E1,1.0518333E1,-2.4068356E-3,1.0785E1,1.118E1,1.0115E1,2.65E1,1.117E1,3.5E0,7.845626E-2,6.525135E-3,1.85E1,2.05E1,8E0,1.45E1,1.1036667E1,-5.4749968E-3,1.122E1,4.4450285E-3,2.8557302E-2,6.0349848E-2,1.4743996E-2,1.6071667E1,1.7165E1,3.5E0,1.6925E1,-4.3118764E-2,5.960942E-3,7.5532915E-3,5.2460864E-2,-6.31197E-2,1.8E1,1.834E1,2.4E1,1.05E1,1.991E1,5.424595E-2,1.85E1,1.684134E-1,2.282095E-2,6.533718E-2,1.05E1,5E-1,2.2445E1,1.05713375E-1,6.5E0,2.2305E1,7.723332E-3,4.869461E-4,-1.4092913E-1,1.516285E-2,-2.8121054E-1,1.65E1,2.4006225E-2,1.75E1,1.835E0,5.469883E-3,2.8313918E-2,3.3310892E-3,1.4908671E-2,2.8850002E0,2.3E1,9.5E0,3.045E0,-3.0743482E-3,3.5E0,4E0,4.5E0,3.2849998E0,3.3716664E0,1.4713329E-2,3.4381629E-3,2.1418907E-2,5.57735E-3,3.198907E-2,-2.961874E-4,-1.0269964E-2,2.0155E3,2.2E1,1.1295033E-2,1.8E1,4.1149363E-2,3.5E0,4.705E0,1.7E1,4.71E0,5E0,5.208333E0,7.5E0,4.895E0,4.217191E-2,1.1E1,8.1322804E-2,2.7677465E-2,4E0,1.2E1,2.0135E3,5.5E0,1.1E1,5.77E0,2.015E3,5.79E0,6.0316668E0,2.5E0,2.6721956E-4,-2.3614168E-3,3.5E0,7.175E0,7.245E0,7.3533335E0,7.251667E0,7.2799997E0,7.3166666E0,6.058879E-2,6E0,-3.2857776E-2,8.312471E-2,9.600592E-3,1.85E1,3.05E1,7.3599997E0,5.5E0,7.8166666E0,8.348333E0,4.26517E-2,-1.9997764E-2,6.252473E-2,2.0105E3,4.415174E-2,5.151701E-3,7.2664265E-3,5.0768856E-4,-1.1273956E-2,-2.8500082E-3,5.7735506E-2,8.5E0,4.9401857E-2,-4.3498995E-3,8.6E0,3.2305527E-2,1.0055E1,2.5E0,1.033E1,-1.8906785E-2,3.5E0,1.09E1,6E0,2.6774884E-3,2.0195E3,2.0145E3,2.8482915E-3,2.602501E-2,8.364374E-2,2.2273207E-2,3.752575E-2,6.0257437E-3,1.674657E-2,1.0315001E1,1.05633335E1,-1.2906791E-2,2.3072625E-2,-4.5791153E-2,1.1160865E-1,4E0,7.5E0,1.0905001E1,3.5E0,3.7427903E-3,1.576E1,1.627E1,2.2567925E-1,1.85E1,1.6955E1,1.15E1,5.0947763E-2,6E0,-1.5131951E-3,1.6636848E-2,4.1859627E-2,1.8108317E-1,1.25E1,1.8885985E-1,2.5529733E-1,3.420582E-2,1.9255001E1,2.2359602E-1,-1.8675901E-2,2.0708084E-2,-8.329011E-3,-3.832884E-2,2.4E1,2.0690174E-1,1.16830595E-1,-1.0364628E-2,-1.5467549E-2,4.9169544E-2,7.6517776E-2,2.7914837E-1,1.2608593E-2,-1.995975E-3,-2.4732328E-3,7.4233357E-3,8.052024E-3,1.6539222E-2,2.0817066E-2,3.5726167E-3,4.3334655E-2,8.693111E-3,7.922321E-3,-1.9300247E-2,3.6629792E-2,1.1943841E-2,7.2023035E-3,2.254572E-2,3.1004908E-2,-1.0606027E-2,3.671551E-3,4.1441258E-2,2.8877236E-2,2.3301174E-3,4.7565486E-2,3.1479415E-2,2.1696048E-2,3.7734748E-3,1.8496156E-3,-1.59266E-3,-1.1149693E-2,2.4232142E-2,-1.0922635E-2,8.290816E-3,3.227495E-2,4.121615E-2,-2.0214988E-2,6.666756E-3,-1.6393805E-2,3.2892667E-2,2.0595457E-2,-2.7379634E-2,2.1435607E-2,6.0469948E-2,3.562387E-2,4.4187456E-2,1.1588002E-2,7.1464226E-2,-2.6312497E-2,2.0012856E-4,-2.0124437E-3,1.6761685E-2,5.6883576E-3,-1.22383125E-2,2.0544782E-2,-1.6357271E-2,1.9814119E-2,4.0834874E-2,3.1108702E-2,8.252263E-3,8.14666E-2,2.1425843E-2,4.3164328E-2,-1.5316344E-2,-5.9506893E-3,5.0407413E-2,6.078959E-2,1.7123716E-2,8.214818E-2,4.2175602E-2,6.7786835E-2,5.327993E-2,-3.371265E-2,5.1731084E-2,3.1225117E-2,2.6957511E-3,7.002726E-2,1.4564944E-2,1.3045724E-1,5.7310764E-2,4.3484926E-2,6.5377955E-3,2.2663355E-2,1.5964867E-3,2.860626E-2,1.6422273E-3,5.502739E-2,2.3605486E-2,6.3170366E-2,9.445319E-2,3.162253E-2,9.725264E-2,5.0768476E-2,1.0473311E-2,6.5957144E-2,3.1076469E-2,9.565983E-2,2.3100615E-2,3.1119348E-3,4.248744E-2,2.8120209E-2,-2.5027085E-2,1.598611E-2,1.15116015E-1,8.143142E-2,2.4725344E-2,1.17495574E-1,4.165013E-2,4.720879E-2,2.1148458E-2,4.9825076E-2,1.05896086E-1,4.7842253E-2,9.565787E-2,2.9819585E-2,7.680794E-2,5.62548E-2,-3.4723092E-2,3.376797E-2,-5.271387E-2,8.731335E-2,2.246461E-2,6.6987365E-2,1.3856602E-2,1.8447949E-2,8.612231E-2,-9.885502E-3,4.400573E-2,-1.2832117E-2,8.5046075E-2,9.44909E-2,3.466406E-2,6.2977485E-2,1.846712E-1,-2.4141124E-2,1.1762682E-1,-3.1403877E-2,1.3944359E-1,-5.973387E-2,2.866037E-2,1.1069579E-1,1.4546204E-2,1.5035588E-1,2.9353914E-1,7.415669E-2,7.2124484E-3,1.5769769E-1,1.0702364E-1,1.4075685E-1,-7.640934E-3],"split_indices":[7,8,6,7,6,6,6,6,6,5,7,6,0,6,0,8,6,6,6,6,0,1,6,6,0,6,7,3,0,7,3,8,0,0,8,8,7,1,7,7,1,8,0,8,6,8,0,0,0,0,0,0,6,7,0,6,0,8,3,5,7,7,8,7,7,7,7,5,7,0,1,0,3,0,0,0,6,0,0,8,0,8,0,8,6,6,6,6,7,0,0,6,0,0,6,0,7,0,8,1,1,0,0,1,0,6,0,8,0,0,0,7,0,8,6,8,0,7,8,5,6,1,0,7,3,0,8,7,0,6,1,7,3,7,1,0,1,0,0,7,0,3,6,6,1,0,1,7,6,6,3,1,8,0,6,6,0,0,0,0,0,0,0,0,0,0,0,3,7,0,8,0,0,6,0,7,6,0,8,7,7,0,6,0,0,0,8,0,0,8,1,6,3,5,0,0,0,7,1,0,0,0,0,0,8,0,0,8,1,0,1,6,7,0,6,0,0,6,8,1,8,0,0,0,7,7,8,0,0,0,7,0,0,0,0,0,0,6,6,0,0,0,0,0,1,0,1,0,0,3,0,0,0,0,0,3,0,7,0,0,0,0,0,0,3,0,0,0,0,6,8,0,0,0,0,1,0,0,5,8,6,0,0,0,7,0,5,7,6,0,0,0,7,6,1,0,1,0,8,6,5,6,0,0,0,0,0,0,8,0,3,0,0,7,1,6,0,8,8,0,0,0,1,0,0,0,0,0,0,0,3,0,3,8,8,0,0,0,0,6,8,0,7,7,7,0,6,0,0,0,0,0,1,0,8,0,7,0,0,0,0,8,7,1,7,0,0,0,0,0,0,6,0,1,7,0,0,0,0,0,0,3,6,0,0,7,0,0,0,0,0,0,0,0,7,0,0,0,0,6,0,1,8,0,0,7,1,